~o
<STREAMINFO> 1 39
<VECSIZE> 39<NULLD><MFCC_D_A_0><DIAGC>
~s "silst"
<MEAN> 39
 -7.960277e+000 -4.225030e+000 -6.906368e-001 -3.604069e+000 -9.200591e-001 -2.487194e+000 -6.548198e-001 -1.375534e+000 3.563294e-001 -2.287800e+000 -5.073304e-001 -1.883629e+000 5.221957e+001 -1.886541e-001 4.847179e-002 -2.360427e-002 2.123460e-001 1.238470e-001 6.983413e-002 1.540939e-001 1.374879e-001 1.625759e-001 1.203454e-001 1.102909e-001 9.052317e-002 -3.215890e-001 5.493130e-002 1.702910e-002 9.705851e-003 -4.677953e-002 -4.700213e-002 -4.005885e-002 -6.196251e-002 -6.759987e-002 -5.723416e-002 -2.580804e-002 -2.842700e-002 -8.510445e-003 9.328312e-002
<VARIANCE> 39
 2.141220e+001 3.112217e+001 3.689124e+001 3.934855e+001 3.777368e+001 3.600770e+001 3.763763e+001 3.844636e+001 3.598423e+001 3.297979e+001 3.183624e+001 2.490792e+001 4.723397e+001 1.085874e+000 1.534923e+000 1.626544e+000 1.960305e+000 2.022820e+000 2.158344e+000 2.434640e+000 2.512321e+000 2.531406e+000 2.369151e+000 2.155576e+000 1.847371e+000 1.483992e+000 1.872823e-001 2.537344e-001 2.782348e-001 3.750568e-001 3.804666e-001 4.096348e-001 4.515135e-001 4.662045e-001 4.709335e-001 4.423339e-001 4.073766e-001 3.501329e-001 2.372169e-001
<GCONST> 1.124065e+002
~h ":"
<BEGINHMM>
<NUMSTATES> 5
<STATE> 2
<MEAN> 39
 -4.901095e+000 -5.842618e+000 -5.097519e-001 -9.923710e+000 -4.122406e+000 -4.544213e+000 -4.531428e+000 -3.756145e+000 -3.134470e+000 -3.843007e+000 -3.141330e+000 -3.863289e+000 6.290533e+001 3.156596e-003 4.426242e-003 -3.008057e-004 -9.815464e-004 -7.398279e-004 -3.059326e-004 6.043092e-004 -2.233922e-003 1.730658e-004 -2.990019e-004 -3.013898e-003 -8.223696e-004 -5.428240e-004 -1.672899e-004 -1.806980e-004 4.561614e-005 -7.206317e-005 6.492341e-005 1.899766e-004 7.487284e-005 1.468558e-005 -2.101225e-005 1.112924e-004 1.261849e-004 6.155111e-006 1.118417e-005
<VARIANCE> 39
 3.977646e+001 6.976524e+001 7.436712e+001 1.058175e+002 8.034691e+001 6.925978e+001 7.782265e+001 7.860110e+001 6.821010e+001 5.800883e+001 6.279465e+001 4.830898e+001 1.459772e+002 1.544968e+000 2.667576e+000 2.529959e+000 4.061153e+000 3.472722e+000 3.155723e+000 3.471568e+000 3.756795e+000 3.266600e+000 3.146162e+000 3.154106e+000 2.635824e+000 3.396390e+000 2.536712e-001 3.905498e-001 3.963176e-001 6.350257e-001 5.963098e-001 5.526317e-001 6.014287e-001 6.646528e-001 5.859886e-001 5.718929e-001 5.669279e-001 4.794365e-001 4.314951e-001
<GCONST> 1.326273e+002
<STATE> 3
<MEAN> 39
 -4.901095e+000 -5.842618e+000 -5.097519e-001 -9.923710e+000 -4.122406e+000 -4.544213e+000 -4.531428e+000 -3.756145e+000 -3.134470e+000 -3.843007e+000 -3.141330e+000 -3.863289e+000 6.290533e+001 3.156596e-003 4.426242e-003 -3.008057e-004 -9.815464e-004 -7.398279e-004 -3.059326e-004 6.043092e-004 -2.233922e-003 1.730658e-004 -2.990019e-004 -3.013898e-003 -8.223696e-004 -5.428240e-004 -1.672899e-004 -1.806980e-004 4.561614e-005 -7.206317e-005 6.492341e-005 1.899766e-004 7.487284e-005 1.468558e-005 -2.101225e-005 1.112924e-004 1.261849e-004 6.155111e-006 1.118417e-005
<VARIANCE> 39
 3.977646e+001 6.976524e+001 7.436712e+001 1.058175e+002 8.034691e+001 6.925978e+001 7.782265e+001 7.860110e+001 6.821010e+001 5.800883e+001 6.279465e+001 4.830898e+001 1.459772e+002 1.544968e+000 2.667576e+000 2.529959e+000 4.061153e+000 3.472722e+000 3.155723e+000 3.471568e+000 3.756795e+000 3.266600e+000 3.146162e+000 3.154106e+000 2.635824e+000 3.396390e+000 2.536712e-001 3.905498e-001 3.963176e-001 6.350257e-001 5.963098e-001 5.526317e-001 6.014287e-001 6.646528e-001 5.859886e-001 5.718929e-001 5.669279e-001 4.794365e-001 4.314951e-001
<GCONST> 1.326273e+002
<STATE> 4
<MEAN> 39
 -4.901095e+000 -5.842618e+000 -5.097519e-001 -9.923710e+000 -4.122406e+000 -4.544213e+000 -4.531428e+000 -3.756145e+000 -3.134470e+000 -3.843007e+000 -3.141330e+000 -3.863289e+000 6.290533e+001 3.156596e-003 4.426242e-003 -3.008057e-004 -9.815464e-004 -7.398279e-004 -3.059326e-004 6.043092e-004 -2.233922e-003 1.730658e-004 -2.990019e-004 -3.013898e-003 -8.223696e-004 -5.428240e-004 -1.672899e-004 -1.806980e-004 4.561614e-005 -7.206317e-005 6.492341e-005 1.899766e-004 7.487284e-005 1.468558e-005 -2.101225e-005 1.112924e-004 1.261849e-004 6.155111e-006 1.118417e-005
<VARIANCE> 39
 3.977646e+001 6.976524e+001 7.436712e+001 1.058175e+002 8.034691e+001 6.925978e+001 7.782265e+001 7.860110e+001 6.821010e+001 5.800883e+001 6.279465e+001 4.830898e+001 1.459772e+002 1.544968e+000 2.667576e+000 2.529959e+000 4.061153e+000 3.472722e+000 3.155723e+000 3.471568e+000 3.756795e+000 3.266600e+000 3.146162e+000 3.154106e+000 2.635824e+000 3.396390e+000 2.536712e-001 3.905498e-001 3.963176e-001 6.350257e-001 5.963098e-001 5.526317e-001 6.014287e-001 6.646528e-001 5.859886e-001 5.718929e-001 5.669279e-001 4.794365e-001 4.314951e-001
<GCONST> 1.326273e+002
<TRANSP> 5
 0.000000e+000 1.000000e+000 0.000000e+000 0.000000e+000 0.000000e+000
 0.000000e+000 6.000000e-001 4.000000e-001 0.000000e+000 0.000000e+000
 0.000000e+000 0.000000e+000 6.000000e-001 4.000000e-001 0.000000e+000
 0.000000e+000 0.000000e+000 0.000000e+000 7.000000e-001 3.000000e-001
 0.000000e+000 0.000000e+000 0.000000e+000 0.000000e+000 0.000000e+000
<ENDHMM>
~h "A"
<BEGINHMM>
<NUMSTATES> 5
<STATE> 2
<MEAN> 39
 -4.287161e+000 -1.470502e+001 -4.222260e+000 -1.506134e+001 -3.976728e+000 -5.854617e+000 -3.787562e+000 -2.544224e+000 -6.813348e+000 -7.953888e+000 -6.026953e+000 -5.100447e+000 7.398350e+001 -4.779164e-001 -1.743370e+000 -3.262109e-001 3.304192e-001 7.205905e-001 3.449696e-001 2.998866e-001 -2.133934e-001 -9.020635e-001 -9.212156e-001 -5.598867e-002 -2.038147e-001 1.171685e+000 -1.424818e-002 4.856751e-001 2.409045e-001 3.508429e-001 -3.779045e-002 -3.213199e-002 -1.604162e-001 -2.785470e-001 1.062596e-001 2.349365e-001 2.623993e-001 9.255397e-002 -4.367216e-001
<VARIANCE> 39
 2.761870e+001 6.819443e+001 6.732975e+001 9.121981e+001 8.560452e+001 7.025285e+001 8.079322e+001 8.406249e+001 7.760045e+001 6.233704e+001 6.516502e+001 6.020119e+001 5.223817e+001 1.196884e+000 3.036207e+000 2.626615e+000 3.915969e+000 3.895458e+000 3.718705e+000 3.871549e+000 4.564225e+000 3.988157e+000 3.621410e+000 3.659938e+000 3.335057e+000 3.111249e+000 2.394231e-001 5.589648e-001 4.192286e-001 7.220095e-001 6.088006e-001 5.806947e-001 7.084590e-001 7.531970e-001 7.663859e-001 6.668013e-001 6.732841e-001 6.099951e-001 5.713401e-001
<GCONST> 1.346590e+002
<STATE> 3
<MEAN> 39
 -4.768109e+000 -1.735178e+001 -5.480500e+000 -1.465168e+001 -2.638764e+000 -5.213099e+000 -3.666412e+000 -4.042134e+000 -8.245226e+000 -9.243907e+000 -5.481509e+000 -5.357378e+000 7.661705e+001 -1.719750e-001 -4.645517e-001 1.582596e-002 6.276832e-001 2.468732e-001 3.317691e-002 -3.371828e-002 -4.600822e-001 -2.872893e-001 -1.884358e-001 2.648125e-001 -4.521255e-002 6.725348e-002 1.784898e-001 4.924054e-001 1.992352e-001 -5.949574e-002 -3.088842e-001 -1.626908e-001 -1.297758e-001 5.970728e-002 2.308334e-001 2.892848e-001 3.751889e-002 2.711420e-002 -3.369697e-001
<VARIANCE> 39
 2.615664e+001 6.773743e+001 6.190269e+001 8.076212e+001 8.052090e+001 6.844948e+001 7.930986e+001 8.646612e+001 7.639669e+001 6.196409e+001 5.905112e+001 5.594925e+001 2.724555e+001 4.999638e-001 1.083658e+000 1.452799e+000 2.097726e+000 2.524557e+000 2.141928e+000 2.388504e+000 2.344902e+000 2.223889e+000 2.175766e+000 2.310613e+000 2.035233e+000 5.130467e-001 8.771389e-002 2.111311e-001 2.257676e-001 3.861422e-001 3.459190e-001 3.658502e-001 4.002658e-001 4.477416e-001 4.778136e-001 4.263795e-001 4.180920e-001 3.830956e-001 1.242220e-001
<GCONST> 1.156383e+002
<STATE> 4
<MEAN> 39
 -4.655112e+000 -1.854699e+001 -4.038043e+000 -1.286289e+001 -3.129780e+000 -4.454519e+000 -3.828142e+000 -4.200696e+000 -9.053608e+000 -9.192300e+000 -5.305646e+000 -6.235955e+000 7.656215e+001 1.433423e-001 4.322015e-001 2.112663e-001 -9.607238e-002 -3.035031e-001 -1.532619e-001 -8.617756e-003 -4.213119e-002 5.986363e-002 1.296057e-001 -5.975595e-002 -8.105106e-002 -3.747467e-001 8.014024e-002 2.409093e-001 7.243970e-002 -4.618450e-002 -1.022692e-001 -7.054963e-002 -4.857448e-002 1.733390e-002 7.936260e-002 9.478413e-002 -3.960449e-002 1.894450e-002 -1.749450e-001
<VARIANCE> 39
 2.450434e+001 5.644545e+001 6.241368e+001 7.761424e+001 7.557990e+001 6.406915e+001 7.580441e+001 9.017920e+001 7.041376e+001 5.676149e+001 5.025763e+001 5.581283e+001 2.425942e+001 3.464766e-001 9.847253e-001 9.062954e-001 1.574601e+000 1.521654e+000 1.427004e+000 1.530263e+000 1.466183e+000 1.457725e+000 1.487711e+000 1.420905e+000 1.192447e+000 4.386472e-001 4.958027e-002 1.273559e-001 1.289299e-001 2.296590e-001 1.951206e-001 2.238789e-001 2.411060e-001 2.554761e-001 2.435571e-001 2.394048e-001 2.255853e-001 1.971829e-001 7.493286e-002
<GCONST> 1.024239e+002
<TRANSP> 5
 0.000000e+000 1.000000e+000 0.000000e+000 0.000000e+000 0.000000e+000
 0.000000e+000 4.747546e-001 5.252454e-001 0.000000e+000 0.000000e+000
 0.000000e+000 0.000000e+000 4.271328e-001 5.728672e-001 0.000000e+000
 0.000000e+000 0.000000e+000 0.000000e+000 8.275301e-001 1.724698e-001
 0.000000e+000 0.000000e+000 0.000000e+000 0.000000e+000 0.000000e+000
<ENDHMM>
~h "B"
<BEGINHMM>
<NUMSTATES> 5
<STATE> 2
<MEAN> 39
 9.723372e-001 -7.902420e-001 2.085610e+000 -5.998011e+000 -3.579507e+000 -4.629181e+000 -7.250407e+000 -9.187264e+000 -6.659774e+000 -6.382739e+000 -5.965139e+000 -6.691628e+000 5.721299e+001 6.926530e-001 1.194219e+000 6.060389e-001 1.120231e+000 5.408568e-001 1.625591e-001 -2.882797e-001 -1.076786e+000 -9.027858e-001 -7.777228e-001 -4.408707e-001 -4.778095e-001 -9.782442e-001 -1.333697e-001 -5.181199e-001 -3.800664e-001 -6.803846e-001 -2.049558e-001 -1.063869e-001 -2.901633e-002 3.139836e-001 1.797005e-001 2.487645e-001 1.847869e-001 9.834190e-002 9.390044e-001
<VARIANCE> 39
 2.173338e+001 4.433104e+001 4.451488e+001 6.323472e+001 3.809592e+001 5.466544e+001 5.035946e+001 5.686952e+001 5.138431e+001 4.919177e+001 5.507452e+001 4.107156e+001 4.822553e+001 1.701470e+000 2.005246e+000 2.519120e+000 4.681294e+000 3.068348e+000 3.301801e+000 4.263595e+000 4.032802e+000 4.060730e+000 3.587796e+000 3.715204e+000 2.983135e+000 5.253431e+000 3.085588e-001 5.726961e-001 6.148830e-001 9.892207e-001 6.269991e-001 6.188980e-001 7.941657e-001 9.069422e-001 9.231825e-001 8.788887e-001 8.320026e-001 6.136963e-001 7.521935e-001
<GCONST> 1.324537e+002
<STATE> 3
<MEAN> 39
 2.782122e+000 4.704899e-001 1.114766e+000 -6.784679e+000 -3.272706e+000 -4.455709e+000 -9.057832e+000 -1.192732e+001 -8.665887e+000 -6.718912e+000 -5.638308e+000 -7.369656e+000 5.964648e+001 -2.945298e-002 -2.604718e+000 -2.356317e+000 -2.920566e+000 -3.324757e-001 -3.317460e-001 -3.560690e-001 1.821906e+000 1.458909e+000 1.427207e+000 1.002511e+000 -8.710499e-002 4.412763e+000 -4.839027e-001 -1.116042e+000 -4.348781e-001 -8.378688e-001 -1.944940e-001 1.153905e-001 3.623496e-001 9.698269e-001 5.013013e-001 2.034186e-001 -2.774004e-003 9.878533e-002 1.088177e+000
<VARIANCE> 39
 1.311272e+001 3.181443e+001 3.956310e+001 5.070054e+001 2.960479e+001 5.477133e+001 4.775566e+001 4.980946e+001 4.462791e+001 4.807531e+001 5.983425e+001 3.498437e+001 3.631478e+001 1.882783e+000 4.695879e+000 4.442443e+000 5.788444e+000 4.692468e+000 5.064142e+000 6.265972e+000 6.629820e+000 6.623322e+000 5.956235e+000 6.309768e+000 5.193403e+000 3.685730e+000 2.845231e-001 6.211512e-001 8.455250e-001 1.174244e+000 9.434341e-001 8.738968e-001 1.277486e+000 1.079059e+000 1.175749e+000 1.247942e+000 1.219355e+000 1.000045e+000 8.616965e-001
<GCONST> 1.390007e+002
<STATE> 4
<MEAN> 39
 9.959975e-001 -1.062414e+001 -6.434301e+000 -1.676647e+001 -4.347945e+000 -5.605942e+000 -8.619147e+000 -2.585952e+000 -1.477907e+000 -2.582407e+000 -4.772418e+000 -7.926781e+000 7.430172e+001 -1.234061e+000 -3.543907e+000 -1.323575e+000 -2.397480e+000 -2.882564e-001 2.220057e-001 1.263750e+000 2.743474e+000 6.350501e-001 -2.224940e-001 -3.731864e-001 1.927902e-001 4.041510e+000 -2.362910e-001 5.719777e-001 8.422957e-001 8.149299e-001 3.049619e-002 2.566909e-001 3.469188e-001 -6.498705e-001 -8.644210e-001 -6.669945e-001 -1.543916e-001 2.032428e-001 -1.108836e+000
<VARIANCE> 39
 1.621691e+001 5.283472e+001 5.927303e+001 7.369674e+001 5.210938e+001 9.136534e+001 6.594323e+001 6.253753e+001 5.910136e+001 7.295760e+001 7.567789e+001 6.650950e+001 2.822555e+001 1.611368e+000 4.927286e+000 5.776357e+000 8.628822e+000 7.888985e+000 6.930555e+000 7.949134e+000 6.528734e+000 7.092968e+000 7.705577e+000 7.154030e+000 6.478629e+000 4.081136e+000 2.692418e-001 5.603962e-001 4.706050e-001 1.152617e+000 8.258781e-001 9.376469e-001 9.757783e-001 1.064015e+000 1.019624e+000 1.084886e+000 1.151953e+000 9.043692e-001 5.105333e-001
<GCONST> 1.437620e+002
<TRANSP> 5
 0.000000e+000 1.000000e+000 0.000000e+000 0.000000e+000 0.000000e+000
 0.000000e+000 7.072455e-001 2.927545e-001 0.000000e+000 0.000000e+000
 0.000000e+000 0.000000e+000 5.618641e-001 4.381359e-001 0.000000e+000
 0.000000e+000 0.000000e+000 0.000000e+000 3.961751e-001 6.038249e-001
 0.000000e+000 0.000000e+000 0.000000e+000 0.000000e+000 0.000000e+000
<ENDHMM>
~h "C"
<BEGINHMM>
<NUMSTATES> 5
<STATE> 2
<MEAN> 39
 -4.432676e+000 -3.633931e+000 -1.151980e+000 -6.054638e+000 -3.097562e+000 -4.423136e+000 -2.500416e+000 -4.026171e+000 -1.410048e+000 -2.013860e+000 -2.375187e+000 -3.231262e+000 5.536998e+001 -1.016824e+000 -3.083399e-001 -3.226911e-001 1.272679e+000 9.088916e-001 6.409679e-001 1.037151e+000 9.362094e-001 1.143075e+000 4.912630e-001 6.701282e-001 3.157912e-001 -1.532499e+000 -2.104272e-002 -2.699724e-001 -3.165369e-001 -4.711150e-001 -1.069433e-002 -1.914841e-001 -1.439838e-001 -1.148490e-002 -1.240646e-001 6.494928e-002 -5.164060e-002 9.163558e-002 9.045743e-001
<VARIANCE> 39
 2.169649e+001 3.931691e+001 4.916480e+001 4.926023e+001 4.953150e+001 5.387560e+001 5.445373e+001 5.529671e+001 5.054436e+001 4.404490e+001 4.933802e+001 4.117305e+001 4.338916e+001 1.628328e+000 2.837740e+000 3.732467e+000 4.393714e+000 4.017703e+000 4.388558e+000 4.165999e+000 4.198740e+000 4.048695e+000 3.779301e+000 3.772630e+000 3.205279e+000 5.366598e+000 3.465832e-001 5.893199e-001 5.983962e-001 7.710627e-001 8.259739e-001 9.556569e-001 8.346272e-001 8.562059e-001 8.529645e-001 7.635660e-001 7.342732e-001 6.174515e-001 7.822139e-001
<GCONST> 1.337725e+002
<STATE> 3
<MEAN> 39
 -8.308739e+000 -5.725755e+000 -4.555920e+000 -3.546906e+000 1.347475e+000 -4.725134e+000 -4.202321e-001 -1.535177e+000 1.922946e+000 5.264629e-001 -4.157844e-001 -7.565200e-001 5.738644e+001 2.279929e-001 -4.218167e-001 -1.109488e+000 -1.058566e+000 4.224680e-001 -1.167071e+000 -4.421680e-001 9.117289e-002 -3.954803e-001 4.476184e-001 -3.671007e-001 3.348802e-001 3.216799e+000 7.038382e-001 4.972647e-002 2.103332e-001 -1.093303e+000 -7.116483e-001 -1.326194e-001 -5.497351e-001 -3.610834e-001 -7.084216e-001 -3.798479e-001 -4.175667e-001 -4.490152e-001 7.555526e-001
<VARIANCE> 39
 1.991148e+001 3.268916e+001 5.344161e+001 3.741010e+001 6.558606e+001 5.620993e+001 5.020523e+001 4.577180e+001 4.385637e+001 3.913817e+001 3.600823e+001 2.947651e+001 6.374907e+001 3.083910e+000 4.346013e+000 6.034963e+000 6.521774e+000 8.094806e+000 6.154254e+000 6.495770e+000 5.881157e+000 5.318736e+000 4.948158e+000 4.920037e+000 4.587673e+000 9.328336e+000 3.655313e-001 6.744275e-001 8.707759e-001 9.624280e-001 1.189811e+000 1.130616e+000 9.751905e-001 1.002697e+000 8.941539e-001 9.194639e-001 1.019077e+000 9.469808e-001 1.032979e+000
<GCONST> 1.412163e+002
<STATE> 4
<MEAN> 39
 -3.954367e+000 -5.263931e+000 -4.957943e+000 -1.080816e+001 -2.585658e+000 -7.660791e+000 -3.852009e+000 -2.683349e+000 -1.871510e+000 1.313934e-001 -2.431053e+000 -2.454551e+000 6.543658e+001 1.402698e+000 -6.277916e-001 -1.415910e-001 -3.100179e+000 -1.434567e+000 -2.132721e-001 -8.900779e-001 -4.445095e-001 -1.541631e+000 -8.937959e-001 -9.109361e-001 -1.223725e+000 2.678066e+000 -2.917090e-002 -2.084243e-001 1.520131e-001 -3.018366e-002 -5.467896e-003 5.550089e-001 7.148080e-002 -1.292571e-001 -1.376644e-001 -4.183410e-001 -1.149695e-002 -2.513933e-001 -4.664880e-001
<VARIANCE> 39
 2.784904e+001 4.367377e+001 7.040502e+001 8.088897e+001 8.718349e+001 7.432534e+001 6.868388e+001 6.614980e+001 5.445286e+001 5.060094e+001 5.799833e+001 6.114595e+001 8.449496e+001 2.918288e+000 5.032524e+000 5.009763e+000 8.734027e+000 6.956932e+000 6.110436e+000 6.987541e+000 6.827420e+000 6.084455e+000 5.554766e+000 7.582489e+000 6.464955e+000 5.865241e+000 4.443248e-001 6.214260e-001 7.923785e-001 1.169808e+000 1.373619e+000 1.139621e+000 1.090542e+000 9.385875e-001 8.875372e-001 8.565542e-001 9.493494e-001 8.696434e-001 1.042180e+000
<GCONST> 1.471039e+002
<TRANSP> 5
 0.000000e+000 1.000000e+000 0.000000e+000 0.000000e+000 0.000000e+000
 0.000000e+000 7.074544e-001 2.925456e-001 0.000000e+000 0.000000e+000
 0.000000e+000 0.000000e+000 5.109372e-001 4.890628e-001 0.000000e+000
 0.000000e+000 0.000000e+000 0.000000e+000 3.331118e-001 6.668881e-001
 0.000000e+000 0.000000e+000 0.000000e+000 0.000000e+000 0.000000e+000
<ENDHMM>
~h "D"
<BEGINHMM>
<NUMSTATES> 5
<STATE> 2
<MEAN> 39
 -5.800524e+000 3.959184e+000 6.731879e+000 -8.141437e+000 -5.893868e+000 -9.018517e+000 -8.536735e+000 -9.379208e+000 -8.702439e+000 -5.984410e+000 -6.237525e+000 -6.722578e+000 6.192514e+001 -8.463047e-001 1.315962e+000 1.159603e+000 -2.370947e-001 4.039814e-001 -1.555308e-001 -5.441147e-001 -3.115219e-001 -5.749354e-001 -3.812918e-001 1.317418e-001 -3.198749e-001 3.122108e-001 -3.847163e-002 -4.542914e-001 4.588706e-002 -5.137911e-001 -4.045199e-001 -1.528026e-003 -9.559627e-002 9.973282e-002 1.304536e-001 2.410533e-001 2.038707e-001 1.866490e-001 5.725189e-001
<VARIANCE> 39
 3.402412e+001 5.130322e+001 7.650502e+001 9.267967e+001 6.175618e+001 5.822929e+001 5.714174e+001 7.317297e+001 5.407759e+001 5.251837e+001 6.807346e+001 5.266151e+001 5.064840e+001 2.870879e+000 2.817827e+000 5.255375e+000 6.088458e+000 5.284813e+000 4.088622e+000 4.833724e+000 4.482824e+000 4.699453e+000 4.002243e+000 4.051967e+000 3.301156e+000 4.700445e+000 5.031967e-001 6.614277e-001 8.591137e-001 1.015536e+000 1.369651e+000 8.262079e-001 9.206641e-001 8.285316e-001 8.312977e-001 8.326124e-001 7.435201e-001 6.133648e-001 4.838436e-001
<GCONST> 1.401133e+002
<STATE> 3
<MEAN> 39
 -9.034097e+000 4.644078e+000 1.316726e+001 -1.429763e+001 -9.223405e+000 -9.428964e+000 -1.251997e+001 -1.041671e+001 -1.052146e+001 -4.567684e+000 -3.469093e+000 -5.972419e+000 6.821640e+001 1.705209e-001 -2.464303e+000 5.830078e-001 -2.179880e+000 -3.178334e+000 -4.304741e-001 -2.835946e-001 6.858782e-001 6.313805e-001 1.375122e+000 7.815430e-001 5.562217e-001 2.824864e+000 5.188127e-001 -8.339970e-001 -9.258013e-001 2.630633e-001 -2.015852e-001 -2.366197e-002 6.354800e-001 6.096822e-001 4.988406e-001 1.089666e-001 -2.301420e-001 -9.670841e-002 -5.135747e-002
<VARIANCE> 39
 1.503656e+001 3.298005e+001 7.496704e+001 1.010938e+002 6.044466e+001 4.870278e+001 4.172119e+001 6.117559e+001 4.481007e+001 4.867931e+001 7.198725e+001 3.949310e+001 2.154658e+001 2.048086e+000 2.580837e+000 4.182288e+000 5.321219e+000 4.701681e+000 3.654917e+000 5.075470e+000 4.137509e+000 3.942186e+000 3.834164e+000 4.168241e+000 2.894220e+000 1.440129e+000 3.034638e-001 4.698620e-001 6.540426e-001 7.837262e-001 1.309695e+000 6.674218e-001 7.764338e-001 6.418302e-001 6.975072e-001 8.186448e-001 7.074195e-001 5.056223e-001 3.580882e-001
<GCONST> 1.315236e+002
<STATE> 4
<MEAN> 39
 -6.080375e+000 -5.953726e+000 7.621489e+000 -1.760582e+001 -1.683886e+001 -1.158624e+001 -7.726661e+000 -3.360230e+000 -5.244765e+000 -1.338078e+000 -3.034488e+000 -5.770460e+000 7.519640e+001 9.035398e-001 -2.588292e+000 -2.833374e+000 -2.554051e-001 5.397620e-001 -6.366004e-002 1.331084e+000 2.225103e+000 1.455589e+000 -2.466002e-001 -8.959404e-001 -2.844156e-001 1.295775e+000 1.077364e-002 4.679717e-001 -3.622034e-001 3.770178e-001 1.346944e+000 4.270186e-001 -1.954687e-001 -3.640405e-001 -2.693324e-001 -5.072545e-001 -2.922185e-001 -7.589116e-002 -5.874805e-001
<VARIANCE> 39
 1.852732e+001 3.795345e+001 6.950468e+001 1.102739e+002 5.227261e+001 5.007852e+001 6.990317e+001 8.808942e+001 5.484967e+001 5.638537e+001 8.797475e+001 3.820516e+001 1.974137e+001 6.389978e-001 2.135121e+000 3.195472e+000 3.222604e+000 7.184781e+000 3.972527e+000 6.129685e+000 3.553125e+000 4.580327e+000 5.780828e+000 4.094509e+000 3.314266e+000 9.468350e-001 1.216865e-001 2.736316e-001 5.376600e-001 8.352963e-001 8.226060e-001 7.362661e-001 1.039926e+000 9.059718e-001 8.532779e-001 8.511767e-001 8.317471e-001 6.351809e-001 1.207039e-001
<GCONST> 1.299807e+002
<TRANSP> 5
 0.000000e+000 1.000000e+000 0.000000e+000 0.000000e+000 0.000000e+000
 0.000000e+000 7.777743e-001 2.222257e-001 0.000000e+000 0.000000e+000
 0.000000e+000 0.000000e+000 6.288416e-001 3.711584e-001 0.000000e+000
 0.000000e+000 0.000000e+000 0.000000e+000 6.445032e-001 3.554967e-001
 0.000000e+000 0.000000e+000 0.000000e+000 0.000000e+000 0.000000e+000
<ENDHMM>
~h "E"
<BEGINHMM>
<NUMSTATES> 5
<STATE> 2
<MEAN> 39
 -6.613976e+000 -1.084496e+001 2.613655e+000 -1.717410e+001 -1.204110e+001 -7.007041e+000 1.408581e+000 -2.548709e+000 -5.527397e+000 -5.601202e+000 -5.291355e+000 -5.156950e+000 7.239065e+001 -4.710216e-001 -1.204631e+000 3.351547e-001 -1.551628e+000 -9.564880e-001 2.363583e-001 5.174421e-001 5.834039e-002 -5.676135e-001 -3.210620e-001 -5.141439e-001 -9.484129e-001 1.599719e+000 -6.027113e-002 3.121482e-001 -1.958163e-002 4.137509e-001 3.709767e-001 1.727447e-001 -1.590540e-001 -6.759840e-002 1.755375e-001 1.620093e-001 1.281426e-001 8.789739e-002 -3.025958e-001
<VARIANCE> 39
 2.200250e+001 4.275332e+001 6.547707e+001 9.060833e+001 7.288303e+001 6.482948e+001 6.022499e+001 8.231336e+001 6.686866e+001 4.705867e+001 5.528923e+001 4.243829e+001 6.966724e+001 1.136606e+000 2.392380e+000 2.379565e+000 3.359949e+000 3.026828e+000 3.103077e+000 3.705270e+000 3.482076e+000 2.994707e+000 2.807526e+000 3.339614e+000 2.433770e+000 3.620746e+000 2.684520e-001 4.539105e-001 3.854114e-001 7.575619e-001 5.634718e-001 5.638687e-001 6.704880e-001 6.186105e-001 5.215288e-001 5.200469e-001 5.086724e-001 4.463839e-001 7.229750e-001
<GCONST> 1.291530e+002
<STATE> 3
<MEAN> 39
 -8.669502e+000 -1.301208e+001 3.463087e+000 -2.253404e+001 -1.344272e+001 -5.986918e+000 1.502666e+000 -4.442432e+000 -7.166180e+000 -6.113336e+000 -7.510649e+000 -7.191002e+000 7.684237e+001 -9.266876e-002 -2.051975e-001 1.690090e-001 -1.856420e-001 -1.966430e-001 1.059835e-001 2.362781e-002 -8.104454e-002 -9.586324e-002 3.081226e-002 -8.616074e-002 -2.288335e-001 1.781245e-001 1.699390e-001 1.068171e-001 -5.230841e-002 2.833523e-001 1.290985e-001 -1.651258e-001 -1.149344e-001 3.382285e-002 2.979007e-002 7.278168e-003 8.474831e-002 1.846859e-001 -2.102610e-001
<VARIANCE> 39
 1.919982e+001 2.558229e+001 5.696823e+001 6.882518e+001 4.562749e+001 5.233607e+001 4.554885e+001 8.087782e+001 5.348790e+001 5.215397e+001 5.266554e+001 3.184006e+001 1.215666e+001 3.263492e-001 8.531557e-001 7.047088e-001 8.820204e-001 8.830531e-001 1.135662e+000 1.225221e+000 1.168367e+000 1.175346e+000 1.266733e+000 1.077004e+000 9.573057e-001 3.500366e-001 7.578912e-002 1.571108e-001 1.235771e-001 1.903678e-001 1.809016e-001 2.051603e-001 2.368296e-001 2.276846e-001 2.168044e-001 2.186776e-001 2.103015e-001 1.915447e-001 8.549985e-002
<GCONST> 9.486623e+001
<STATE> 4
<MEAN> 39
 -5.790409e+000 -1.272600e+001 4.098070e+000 -1.748846e+001 -1.512858e+001 -7.019362e+000 -2.464901e-001 -1.228692e+000 -7.005794e+000 -5.413641e+000 -5.748915e+000 -7.155507e+000 7.643721e+001 5.158828e-001 -1.084276e-002 -2.404634e-001 5.871800e-001 3.928105e-001 -5.020388e-001 -4.279309e-001 1.276481e-001 -2.698387e-003 -1.457851e-001 -1.681221e-002 2.725931e-001 -4.254945e-001 1.665607e-001 1.934946e-001 -8.789609e-002 2.171184e-001 2.384715e-001 -7.201652e-002 -2.907284e-001 -1.083040e-001 1.162745e-001 4.334289e-002 -3.034648e-002 3.250432e-002 -2.563057e-001
<VARIANCE> 39
 2.095705e+001 3.835440e+001 6.026185e+001 9.753341e+001 5.636315e+001 6.463757e+001 5.857724e+001 9.482745e+001 6.069721e+001 5.093335e+001 6.390192e+001 3.971828e+001 1.776218e+001 4.417902e-001 8.926839e-001 9.313214e-001 1.172370e+000 1.328875e+000 1.585462e+000 1.807058e+000 1.487751e+000 1.340055e+000 1.391579e+000 1.274876e+000 1.060426e+000 4.005912e-001 6.792164e-002 1.450949e-001 1.529164e-001 2.282414e-001 2.347932e-001 2.465211e-001 3.399564e-001 3.149575e-001 2.479680e-001 2.452777e-001 2.160658e-001 1.810820e-001 9.619633e-002
<GCONST> 1.020818e+002
<TRANSP> 5
 0.000000e+000 1.000000e+000 0.000000e+000 0.000000e+000 0.000000e+000
 0.000000e+000 5.652901e-001 4.347099e-001 0.000000e+000 0.000000e+000
 0.000000e+000 0.000000e+000 7.495604e-001 2.504396e-001 0.000000e+000
 0.000000e+000 0.000000e+000 0.000000e+000 7.888459e-001 2.111541e-001
 0.000000e+000 0.000000e+000 0.000000e+000 0.000000e+000 0.000000e+000
<ENDHMM>
~h "F"
<BEGINHMM>
<NUMSTATES> 5
<STATE> 2
<MEAN> 39
 -9.235476e+000 -3.224947e+000 1.091653e+001 -2.306188e+001 -1.390688e+001 -1.074625e+001 -9.072131e+000 -9.161757e+000 -6.922301e+000 -2.760422e+000 -6.664173e+000 -5.556254e+000 7.352987e+001 6.121390e-002 -3.081657e-001 4.288965e-001 -3.780150e-001 -7.463049e-001 1.857938e-001 -5.520792e-002 -1.113221e-001 5.749382e-001 6.198678e-001 2.599634e-001 5.404253e-002 3.343672e-001 1.951651e-002 2.820913e-001 3.099365e-002 2.840517e-001 2.231766e-001 -6.023990e-002 -1.146825e-001 -1.941035e-001 -6.870820e-002 -5.554052e-002 2.644426e-002 1.051288e-001 -2.564232e-001
<VARIANCE> 39
 1.548075e+001 4.213422e+001 5.432263e+001 1.024386e+002 4.353352e+001 3.682616e+001 5.738714e+001 6.359972e+001 5.439077e+001 5.546335e+001 8.343764e+001 3.277754e+001 2.101173e+001 3.062702e-001 8.565683e-001 8.761987e-001 7.887850e-001 1.468655e+000 1.049879e+000 1.392218e+000 1.627798e+000 1.266968e+000 1.636186e+000 1.400897e+000 1.407536e+000 3.791812e-001 5.294900e-002 1.118597e-001 1.353001e-001 1.775403e-001 2.787449e-001 1.821565e-001 2.668662e-001 2.168157e-001 2.489368e-001 3.022091e-001 2.604434e-001 1.910931e-001 5.103349e-002
<GCONST> 9.806607e+001
<STATE> 3
<MEAN> 39
 -7.361161e+000 5.096185e-001 1.747399e+001 -1.767402e+001 -1.665493e+001 -7.843382e+000 -1.283477e+001 -1.016390e+001 -7.518380e+000 -1.170812e+000 -1.775454e+000 -3.985862e+000 7.193806e+001 1.306815e-001 2.729796e-001 4.603093e-001 3.145431e-001 1.579678e-001 2.149758e-001 -1.701355e-001 -3.110527e-001 -1.294635e-001 -4.468383e-002 -7.346575e-002 4.039438e-002 -4.646338e-001 5.723355e-002 2.172586e-002 -7.310010e-002 1.749782e-001 1.210525e-001 -7.752117e-003 1.209165e-001 7.621437e-002 -4.368011e-002 -6.776461e-002 -3.091364e-002 -4.063515e-002 -1.373065e-001
<VARIANCE> 39
 1.336761e+001 3.210496e+001 4.881272e+001 1.256959e+002 3.710527e+001 4.647556e+001 4.972334e+001 5.147273e+001 5.003457e+001 4.720275e+001 8.751234e+001 3.106610e+001 1.824595e+001 2.248887e-001 5.330069e-001 4.443477e-001 6.071399e-001 7.657827e-001 6.512855e-001 9.321386e-001 8.638928e-001 8.280517e-001 8.796696e-001 7.170698e-001 6.788777e-001 2.321344e-001 3.861031e-002 6.393739e-002 8.130892e-002 1.376746e-001 1.230857e-001 1.119770e-001 1.702167e-001 1.515266e-001 1.453567e-001 1.646584e-001 1.380918e-001 1.230372e-001 4.512257e-002
<GCONST> 8.415477e+001
<STATE> 4
<MEAN> 39
 -5.468060e+000 2.190954e+000 1.711457e+001 -1.120333e+001 -1.234262e+001 -5.249015e+000 -9.433273e+000 -9.419934e+000 -6.645268e+000 -2.855339e+000 -1.647921e+000 -4.960474e+000 6.488789e+001 4.639614e-001 1.434264e-002 -9.923193e-001 1.778434e+000 1.350777e+000 3.362568e-001 1.271457e+000 6.950555e-001 4.803621e-001 -2.170780e-001 -4.343648e-002 -2.413129e-002 -1.632005e+000 -5.571912e-002 -3.803369e-002 -3.598214e-001 1.294227e-001 3.233338e-001 4.708228e-002 1.205565e-001 1.757035e-001 2.230496e-001 -5.898625e-002 1.389213e-002 3.408634e-002 -2.005298e-001
<VARIANCE> 39
 1.404507e+001 3.796098e+001 4.669901e+001 1.132371e+002 5.773904e+001 6.007855e+001 4.512698e+001 5.941878e+001 5.743179e+001 4.535725e+001 7.736004e+001 2.890397e+001 4.579351e+001 9.343830e-001 1.494212e+000 2.019987e+000 3.446019e+000 2.773264e+000 2.385668e+000 2.858781e+000 2.349253e+000 2.937762e+000 2.906092e+000 2.496291e+000 1.947035e+000 1.371728e+000 1.378662e-001 2.659074e-001 2.851461e-001 5.722172e-001 5.440615e-001 3.707808e-001 4.808017e-001 4.373962e-001 4.248713e-001 5.189270e-001 3.905010e-001 3.380597e-001 2.668026e-001
<GCONST> 1.189492e+002
<TRANSP> 5
 0.000000e+000 1.000000e+000 0.000000e+000 0.000000e+000 0.000000e+000
 0.000000e+000 7.096001e-001 2.903999e-001 0.000000e+000 0.000000e+000
 0.000000e+000 0.000000e+000 8.737301e-001 1.262700e-001 0.000000e+000
 0.000000e+000 0.000000e+000 0.000000e+000 7.353723e-001 2.646278e-001
 0.000000e+000 0.000000e+000 0.000000e+000 0.000000e+000 0.000000e+000
<ENDHMM>
~h "G"
<BEGINHMM>
<NUMSTATES> 5
<STATE> 2
<MEAN> 39
 -2.342181e+000 -2.169454e+000 2.648464e+000 -9.022879e+000 -5.541750e+000 -1.261073e+001 -8.649533e+000 -7.400100e+000 -5.868800e+000 -2.152801e+000 -5.254712e+000 -3.610888e+000 6.407660e+001 -1.547507e-001 -1.000808e+000 -1.239404e-001 -1.299888e+000 -6.204046e-001 -8.386387e-001 -5.618119e-002 1.306430e+000 4.016720e-001 6.156617e-001 -2.108259e-002 -1.692271e-001 1.810359e+000 6.001342e-003 -4.888874e-001 -2.923778e-001 -5.708210e-001 -1.051067e-001 4.416606e-001 2.978944e-001 3.156298e-001 9.273621e-002 -1.431130e-001 -1.682773e-001 -1.819707e-001 4.568703e-001
<VARIANCE> 39
 2.169786e+001 3.844368e+001 7.709344e+001 8.877417e+001 7.560381e+001 7.504531e+001 6.924753e+001 8.405495e+001 5.493813e+001 7.416453e+001 7.505494e+001 5.604893e+001 4.766995e+001 1.857351e+000 3.622679e+000 3.960055e+000 7.338252e+000 5.817777e+000 5.299879e+000 6.135787e+000 6.283756e+000 4.985322e+000 4.939985e+000 5.390216e+000 4.022169e+000 5.013950e+000 2.725562e-001 4.102417e-001 5.630080e-001 9.127179e-001 1.064468e+000 9.583581e-001 9.631885e-001 9.339572e-001 8.733885e-001 9.940838e-001 9.363620e-001 7.312187e-001 6.012878e-001
<GCONST> 1.413463e+002
<STATE> 3
<MEAN> 39
 -3.181261e+000 -1.036326e+001 -4.195974e-001 -1.954551e+001 -8.306048e+000 -1.188346e+001 -5.079458e+000 4.142947e-001 -3.246289e+000 -1.270574e+000 -7.859303e+000 -6.311313e+000 7.451476e+001 -1.638172e-001 -2.439458e+000 -1.816285e+000 -1.305991e+000 1.026842e+000 1.954794e+000 1.794051e+000 1.151915e+000 -4.595064e-002 -1.349283e+000 -9.567777e-001 -9.765616e-001 1.938079e+000 2.605552e-002 1.617557e-001 -7.305976e-002 9.246324e-001 6.272746e-001 4.526835e-001 -6.984890e-002 -7.932918e-001 -4.464458e-001 -3.915448e-001 2.858912e-001 1.827905e-001 -5.952046e-001
<VARIANCE> 39
 1.946165e+001 3.590436e+001 7.619616e+001 7.797483e+001 8.456522e+001 8.102334e+001 9.316750e+001 8.570673e+001 5.622807e+001 8.524338e+001 9.500783e+001 6.159680e+001 2.253715e+001 4.945044e-001 1.323094e+000 1.628307e+000 3.442066e+000 3.521429e+000 3.120444e+000 3.582043e+000 3.797570e+000 4.209224e+000 3.755575e+000 3.850515e+000 2.968695e+000 1.084502e+000 1.030482e-001 2.076735e-001 3.002933e-001 5.127483e-001 5.282208e-001 5.337389e-001 7.483836e-001 5.859662e-001 5.071936e-001 7.004057e-001 8.100156e-001 5.182677e-001 1.880295e-001
<GCONST> 1.252031e+002
<STATE> 4
<MEAN> 39
 -2.615998e+000 -1.473912e+001 -4.766764e+000 -1.895223e+001 -2.996011e+000 -4.743358e+000 -2.828215e+000 -1.687376e+000 -5.781829e+000 -5.529917e+000 -7.617831e+000 -6.526532e+000 7.606404e+001 5.575273e-003 -1.089732e+000 -7.748073e-001 4.313990e-001 9.150152e-001 1.249259e+000 2.645991e-001 -4.518999e-001 -4.600826e-001 -7.402938e-001 2.965146e-001 -1.395431e-001 3.665994e-001 6.903662e-002 3.754059e-001 2.426447e-001 2.434491e-001 -1.075940e-001 -3.082002e-001 -3.246501e-001 -2.173525e-001 5.767141e-002 2.619788e-001 2.092151e-001 1.296736e-001 -3.739844e-001
<VARIANCE> 39
 2.412123e+001 6.770058e+001 6.717439e+001 9.103956e+001 8.642493e+001 9.706169e+001 9.342822e+001 8.826667e+001 6.938583e+001 6.594675e+001 7.736918e+001 5.508736e+001 2.415590e+001 3.090041e-001 1.367530e+000 1.247804e+000 2.538546e+000 2.381363e+000 2.673579e+000 2.728828e+000 2.183160e+000 2.431469e+000 2.703012e+000 2.624378e+000 1.863113e+000 5.671856e-001 6.229595e-002 1.724729e-001 1.515326e-001 3.764905e-001 3.038289e-001 3.254168e-001 4.131684e-001 4.384606e-001 4.060980e-001 3.984985e-001 4.958198e-001 3.541723e-001 1.501204e-001
<GCONST> 1.157704e+002
<TRANSP> 5
 0.000000e+000 1.000000e+000 0.000000e+000 0.000000e+000 0.000000e+000
 0.000000e+000 7.893695e-001 2.106305e-001 0.000000e+000 0.000000e+000
 0.000000e+000 0.000000e+000 5.555112e-001 4.444888e-001 0.000000e+000
 0.000000e+000 0.000000e+000 0.000000e+000 5.684669e-001 4.315331e-001
 0.000000e+000 0.000000e+000 0.000000e+000 0.000000e+000 0.000000e+000
<ENDHMM>
~h "H"
<BEGINHMM>
<NUMSTATES> 5
<STATE> 2
<MEAN> 39
 -5.232934e+000 -5.759222e+000 -6.450400e-001 -6.723308e+000 2.200143e+000 -3.267501e+000 -3.909539e+000 -5.072325e+000 -5.182872e+000 -9.187346e+000 -2.787016e+000 -4.353546e+000 6.528941e+001 6.790724e-003 -5.935612e-001 -3.348629e-001 2.617738e-002 5.674391e-001 5.081121e-002 -3.882464e-001 -7.169379e-002 -3.673643e-001 -8.176556e-001 1.146990e-001 -3.843181e-001 7.584935e-001 1.427625e-001 -2.196096e-001 -1.740795e-001 -4.080820e-001 -3.501053e-001 -8.690561e-002 -1.444887e-001 -1.084952e-001 1.061272e-002 1.254942e-001 -4.858408e-002 -7.346302e-002 2.294983e-001
<VARIANCE> 39
 2.970805e+001 4.783668e+001 5.852070e+001 7.113290e+001 8.863567e+001 9.138337e+001 8.245773e+001 7.960241e+001 7.655084e+001 6.881606e+001 7.046662e+001 5.095475e+001 4.687649e+001 1.686410e+000 2.350004e+000 3.030411e+000 4.059928e+000 5.839762e+000 4.314680e+000 4.631196e+000 4.639445e+000 3.970143e+000 3.880590e+000 3.704967e+000 2.962963e+000 1.898404e+000 2.284631e-001 3.916029e-001 4.168186e-001 5.191091e-001 7.650782e-001 7.242722e-001 7.682773e-001 8.038734e-001 7.030742e-001 7.461874e-001 6.588165e-001 5.197692e-001 1.767345e-001
<GCONST> 1.331482e+002
<STATE> 3
<MEAN> 39
 -2.995109e+000 -8.651523e+000 -4.386690e+000 -1.081975e+001 9.549649e-001 -4.748330e+000 -8.233634e+000 -7.947399e+000 -8.047645e+000 -1.239184e+001 -4.304046e+000 -7.171346e+000 6.980696e+001 3.954355e-001 -1.293609e+000 -8.723770e-001 -1.130328e+000 -4.047280e-001 2.509724e-001 -1.925493e-001 9.797053e-002 7.372105e-002 2.630028e-001 -4.978612e-002 -3.604777e-001 1.153351e+000 -9.334227e-002 -1.770797e-001 1.140758e-001 -8.204362e-002 -1.175323e-002 1.640263e-001 1.729219e-001 1.894191e-001 1.239072e-001 2.877696e-001 2.730709e-002 6.861481e-002 5.437366e-002
<VARIANCE> 39
 2.715840e+001 5.043999e+001 6.934478e+001 7.584080e+001 9.344959e+001 8.575502e+001 9.301111e+001 7.233751e+001 6.667332e+001 6.936713e+001 5.964922e+001 5.158551e+001 2.669374e+001 9.066753e-001 1.895382e+000 2.137915e+000 2.629629e+000 3.044764e+000 2.979156e+000 2.841589e+000 2.834650e+000 2.666318e+000 2.898477e+000 2.776681e+000 2.320023e+000 1.055658e+000 1.993667e-001 3.001653e-001 3.738717e-001 4.043157e-001 4.803195e-001 4.519425e-001 4.728674e-001 5.019935e-001 4.487686e-001 4.843292e-001 4.558307e-001 3.888418e-001 1.542217e-001
<GCONST> 1.227502e+002
<STATE> 4
<MEAN> 39
 -2.380992e+000 -1.180761e+001 -5.484285e+000 -1.331882e+001 3.977811e-001 -1.222541e+000 -5.888933e+000 -5.931052e+000 -6.151249e+000 -8.402958e+000 -3.092204e+000 -7.125661e+000 7.183665e+001 1.592844e-002 -5.222423e-001 -8.977416e-002 -5.051302e-001 -2.175750e-001 1.310712e-001 9.380378e-002 1.682039e-001 7.771237e-002 2.672747e-001 2.521932e-002 -8.055053e-002 4.432549e-001 -3.352102e-003 1.124152e-001 7.899316e-002 3.950062e-002 -3.584461e-002 -6.356988e-002 8.485079e-003 1.358895e-002 -1.118787e-002 2.725256e-002 -2.016712e-002 1.792790e-002 -9.366171e-002
<VARIANCE> 39
 3.219819e+001 6.759561e+001 6.897559e+001 1.097644e+002 1.035875e+002 9.462086e+001 1.044727e+002 7.369379e+001 6.891113e+001 5.694001e+001 5.424076e+001 4.777110e+001 5.158618e+001 4.720738e-001 1.497457e+000 1.151690e+000 1.571871e+000 1.605872e+000 1.686144e+000 1.743836e+000 1.710419e+000 1.612974e+000 1.765609e+000 1.768298e+000 1.528853e+000 8.309001e-001 9.374195e-002 1.804332e-001 1.803189e-001 2.192113e-001 2.484925e-001 2.474532e-001 2.675598e-001 2.827550e-001 2.671733e-001 2.733877e-001 2.696612e-001 2.420594e-001 1.003768e-001
<GCONST> 1.103777e+002
<TRANSP> 5
 0.000000e+000 1.000000e+000 0.000000e+000 0.000000e+000 0.000000e+000
 0.000000e+000 6.968487e-001 3.031513e-001 0.000000e+000 0.000000e+000
 0.000000e+000 0.000000e+000 5.804518e-001 4.195482e-001 0.000000e+000
 0.000000e+000 0.000000e+000 0.000000e+000 6.936188e-001 3.063812e-001
 0.000000e+000 0.000000e+000 0.000000e+000 0.000000e+000 0.000000e+000
<ENDHMM>
~h "I"
<BEGINHMM>
<NUMSTATES> 5
<STATE> 2
<MEAN> 39
 -3.987442e+000 -1.016645e+001 1.424457e+000 -1.567888e+001 -1.092213e+001 -1.173426e+001 -6.642153e+000 -1.817547e+000 -4.439926e+000 -4.432001e+000 -5.994296e+000 -4.837476e+000 7.449798e+001 -4.645997e-001 4.214474e-001 2.018567e+000 -4.837596e-001 -2.424926e+000 -1.148943e+000 2.906112e-001 -1.169732e-001 -7.639888e-001 4.901321e-001 4.361883e-001 3.146268e-001 5.713237e-002 2.565923e-002 3.679754e-001 3.538089e-002 1.757818e-001 3.776076e-001 5.382487e-001 -1.297758e-001 -5.764613e-001 -1.625707e-001 1.014376e-001 2.354130e-001 -2.765497e-002 -4.944284e-001
<VARIANCE> 39
 2.211549e+001 5.593670e+001 8.717670e+001 8.966301e+001 7.989956e+001 6.382177e+001 1.041270e+002 9.143357e+001 6.963543e+001 7.420432e+001 7.811828e+001 5.825730e+001 2.107371e+001 1.047521e+000 2.397467e+000 2.592397e+000 4.876600e+000 3.728463e+000 4.368388e+000 5.100529e+000 4.666519e+000 4.737112e+000 4.988923e+000 4.945239e+000 3.969860e+000 1.836697e+000 1.800991e-001 2.746474e-001 3.779227e-001 7.020603e-001 7.661088e-001 7.350230e-001 9.863574e-001 7.688345e-001 8.488171e-001 7.809207e-001 7.633783e-001 6.904405e-001 2.401459e-001
<GCONST> 1.339845e+002
<STATE> 3
<MEAN> 39
 -5.359291e+000 -7.654696e+000 7.360914e+000 -1.734473e+001 -1.599774e+001 -1.223610e+001 -7.162965e+000 -4.854421e+000 -7.425146e+000 -1.745037e+000 -4.037382e+000 -4.365264e+000 7.335369e+001 -6.371192e-002 1.245170e+000 1.350190e+000 3.286444e-001 -2.403704e-001 2.459781e-001 -7.120820e-001 -1.465433e+000 -5.514389e-001 3.086126e-001 2.499144e-001 5.661918e-002 -1.147784e+000 1.597026e-001 1.888200e-001 -5.440917e-001 6.963667e-001 1.004820e+000 4.331476e-001 3.050253e-002 3.409277e-004 2.827489e-001 -3.745152e-001 -1.999056e-001 -8.961718e-002 -5.893495e-001
<VARIANCE> 39
 2.130626e+001 4.199109e+001 7.368689e+001 9.731808e+001 6.042485e+001 5.575045e+001 7.081992e+001 9.292993e+001 5.905405e+001 5.950381e+001 8.106127e+001 5.702886e+001 1.878580e+001 1.177322e+000 2.378160e+000 2.282586e+000 4.383131e+000 3.689136e+000 3.343367e+000 4.363278e+000 3.658366e+000 3.534506e+000 3.515896e+000 3.490236e+000 3.008259e+000 2.252931e+000 1.879489e-001 3.115070e-001 4.428901e-001 6.298721e-001 6.174167e-001 6.433446e-001 7.944781e-001 8.050321e-001 7.844850e-001 7.458470e-001 7.429489e-001 6.202740e-001 2.172650e-001
<GCONST> 1.297786e+002
<STATE> 4
<MEAN> 39
 -5.771189e+000 -2.974314e+000 1.056887e+001 -1.449204e+001 -1.547235e+001 -9.284433e+000 -9.304647e+000 -8.992723e+000 -8.321927e+000 -3.201300e+000 -3.992216e+000 -5.306551e+000 6.987657e+001 1.827267e-001 7.167560e-001 -1.976825e-002 1.047937e+000 9.861838e-001 5.113636e-001 1.034846e-001 -3.298121e-001 1.346549e-001 -2.672941e-001 -1.129569e-001 -2.273208e-002 -1.375028e+000 3.732346e-002 -1.196366e-001 -3.604965e-001 2.303997e-001 3.007739e-001 6.435245e-002 2.195487e-001 2.504975e-001 2.041516e-001 -2.791404e-002 3.698662e-003 2.223513e-002 -1.522102e-001
<VARIANCE> 39
 2.324209e+001 4.055132e+001 6.981583e+001 1.211328e+002 6.855376e+001 5.795615e+001 5.953342e+001 7.157048e+001 5.330170e+001 5.509589e+001 8.840903e+001 5.718499e+001 3.712607e+001 9.423727e-001 1.847822e+000 1.873445e+000 3.739309e+000 3.249764e+000 2.438354e+000 3.042751e+000 3.140347e+000 2.666162e+000 2.579398e+000 2.719937e+000 2.194857e+000 2.503213e+000 1.674867e-001 2.787450e-001 3.372244e-001 4.424948e-001 4.740220e-001 4.635395e-001 5.067641e-001 5.343710e-001 4.997857e-001 4.551814e-001 4.853228e-001 3.875315e-001 1.924227e-001
<GCONST> 1.232135e+002
<TRANSP> 5
 0.000000e+000 1.000000e+000 0.000000e+000 0.000000e+000 0.000000e+000
 0.000000e+000 4.708129e-001 5.291871e-001 0.000000e+000 0.000000e+000
 0.000000e+000 0.000000e+000 3.893505e-001 6.106495e-001 0.000000e+000
 0.000000e+000 0.000000e+000 0.000000e+000 6.346207e-001 3.653793e-001
 0.000000e+000 0.000000e+000 0.000000e+000 0.000000e+000 0.000000e+000
<ENDHMM>
~h "K"
<BEGINHMM>
<NUMSTATES> 5
<STATE> 2
<MEAN> 39
 -5.706981e+000 -3.068985e+000 5.123766e-002 -4.589785e+000 -3.477216e+000 -4.239071e+000 -2.222275e+000 -4.087537e+000 -3.564449e-001 -2.112242e+000 -2.429670e+000 -3.213456e+000 5.257372e+001 -1.181175e+000 -8.337529e-001 -4.512927e-001 6.337302e-001 3.355373e-001 7.646803e-002 9.039701e-001 7.171515e-001 8.701099e-001 4.279155e-001 6.875780e-001 4.614716e-001 -1.299758e-001 -4.398886e-002 -1.160820e-001 1.821306e-001 -4.219136e-001 -4.814282e-001 -3.801453e-001 -1.726521e-001 -3.169362e-001 -2.493178e-001 2.215139e-002 -1.114466e-001 9.665689e-002 1.209480e+000
<VARIANCE> 39
 1.835354e+001 2.896108e+001 4.331857e+001 3.459374e+001 3.992500e+001 3.933397e+001 4.107954e+001 4.743425e+001 4.360117e+001 3.784462e+001 4.354076e+001 3.109046e+001 3.094657e+001 1.693756e+000 2.551466e+000 2.866768e+000 3.616493e+000 3.497675e+000 4.330674e+000 3.663343e+000 4.614594e+000 4.028507e+000 3.548071e+000 3.522044e+000 2.781767e+000 9.439128e+000 3.141457e-001 5.678450e-001 6.537566e-001 7.130769e-001 7.171490e-001 7.538033e-001 7.237263e-001 8.727683e-001 7.883959e-001 6.856468e-001 6.639137e-001 5.524192e-001 6.987139e-001
<GCONST> 1.292469e+002
<STATE> 3
<MEAN> 39
 -1.207083e+001 -6.687659e+000 6.412941e-001 -3.445409e+000 -4.411956e+000 -7.330308e+000 1.388186e+000 -5.092519e+000 1.014572e+000 -6.808129e-001 -6.552320e-001 9.187917e-002 6.414695e+001 3.487418e-001 2.912866e-001 2.110526e+000 -2.110584e+000 -2.997363e+000 -2.154831e+000 -1.389377e+000 -1.396594e+000 -1.532423e+000 1.689784e-001 -5.852609e-001 -2.914137e-003 5.085216e+000 8.110047e-001 2.123674e-001 5.133511e-001 -1.088721e+000 -8.223074e-001 -2.597210e-003 -7.992609e-001 6.307181e-002 -5.484264e-001 -1.230170e-001 -3.418953e-001 -5.772436e-001 -1.663142e-001
<VARIANCE> 39
 1.981480e+001 3.664679e+001 4.184209e+001 3.918378e+001 4.249823e+001 4.897166e+001 4.495740e+001 5.407404e+001 4.337967e+001 3.746201e+001 3.208272e+001 2.440992e+001 4.764538e+001 2.857306e+000 4.399991e+000 4.650549e+000 7.283809e+000 4.856485e+000 4.839344e+000 6.226159e+000 5.483618e+000 5.094709e+000 4.257408e+000 5.863522e+000 4.526610e+000 3.944645e+000 3.545585e-001 7.592955e-001 7.523822e-001 1.033997e+000 9.103083e-001 1.043487e+000 9.810987e-001 1.065158e+000 9.679701e-001 9.009838e-001 1.339783e+000 7.748961e-001 9.316608e-001
<GCONST> 1.377532e+002
<STATE> 4
<MEAN> 39
 -6.109024e+000 -4.448089e+000 7.885630e+000 -1.453429e+001 -1.643947e+001 -1.241029e+001 -6.750710e+000 -7.477364e+000 -5.224746e+000 -5.337302e-001 -3.605178e+000 -2.908841e+000 7.280438e+001 1.176704e+000 -7.246485e-001 1.538933e+000 -3.602159e+000 -2.928728e+000 -6.394066e-001 -1.596444e+000 3.730472e-001 -1.517622e+000 -1.842995e-001 -1.046787e+000 -1.450694e+000 2.501478e+000 -3.044024e-001 -4.073465e-001 -6.953145e-001 5.871106e-001 9.892035e-001 7.396274e-001 6.089982e-001 5.548478e-001 4.118735e-001 -1.833956e-001 1.154531e-001 -7.773070e-002 -1.153634e+000
<VARIANCE> 39
 1.546760e+001 3.795675e+001 7.562032e+001 9.835495e+001 4.662746e+001 4.411483e+001 5.079945e+001 8.397670e+001 5.032210e+001 4.940661e+001 7.131148e+001 5.668649e+001 2.426583e+001 1.576235e+000 2.928490e+000 5.097368e+000 6.248064e+000 6.037223e+000 4.370071e+000 5.687704e+000 6.082655e+000 5.178231e+000 5.148433e+000 9.656541e+000 4.227045e+000 2.134531e+000 2.211092e-001 4.083527e-001 4.411558e-001 9.084508e-001 6.374382e-001 5.687922e-001 5.979459e-001 6.779916e-001 6.711872e-001 6.091524e-001 8.611928e-001 7.268658e-001 4.027956e-001
<GCONST> 1.343152e+002
<TRANSP> 5
 0.000000e+000 1.000000e+000 0.000000e+000 0.000000e+000 0.000000e+000
 0.000000e+000 8.012733e-001 1.987267e-001 0.000000e+000 0.000000e+000
 0.000000e+000 0.000000e+000 5.885211e-001 4.114789e-001 0.000000e+000
 0.000000e+000 0.000000e+000 0.000000e+000 4.977998e-001 5.022002e-001
 0.000000e+000 0.000000e+000 0.000000e+000 0.000000e+000 0.000000e+000
<ENDHMM>
~h "L"
<BEGINHMM>
<NUMSTATES> 5
<STATE> 2
<MEAN> 39
 -8.556334e-001 -6.681925e+000 2.503910e+000 -1.194709e+001 -7.119518e+000 -1.221306e+001 -1.413898e+001 -6.402693e+000 -2.911417e+000 -6.438163e+000 -3.699385e+000 -2.635827e+000 6.775875e+001 3.518960e-002 -1.591874e-001 2.993469e-001 -6.481426e-001 2.800381e-001 -1.159401e+000 -1.175193e+000 6.822262e-001 4.157160e-001 -1.001057e-001 -1.249508e-001 4.788529e-002 6.570858e-001 -1.352009e-001 -2.246326e-001 -2.647620e-001 -2.298070e-001 8.075556e-003 3.462911e-001 4.194788e-001 4.063758e-001 -1.734416e-002 5.574537e-002 -2.087099e-001 -1.293661e-001 2.200217e-001
<VARIANCE> 39
 2.473159e+001 4.520419e+001 7.624064e+001 8.237973e+001 6.081440e+001 1.071918e+002 9.641243e+001 8.594169e+001 7.546924e+001 8.948116e+001 6.981504e+001 6.964771e+001 3.596754e+001 1.109013e+000 2.259211e+000 2.714661e+000 4.183309e+000 3.925241e+000 5.770312e+000 5.483516e+000 5.800904e+000 4.686056e+000 4.801280e+000 4.091095e+000 3.427564e+000 2.159799e+000 1.885911e-001 3.738176e-001 4.819718e-001 7.067229e-001 7.623600e-001 1.154097e+000 1.186943e+000 1.028949e+000 8.783887e-001 9.104989e-001 7.950132e-001 6.374062e-001 2.336050e-001
<GCONST> 1.365739e+002
<STATE> 3
<MEAN> 39
 -2.153979e+000 -9.412337e+000 1.576427e+000 -1.780100e+001 -5.933169e+000 -1.478595e+001 -1.423137e+001 4.832245e-001 -2.117868e+000 -6.043303e+000 -6.060900e+000 -3.213266e+000 7.183985e+001 -3.402918e-001 -1.767917e+000 -1.726109e+000 -7.169173e-001 1.921206e-002 1.640846e+000 2.330511e+000 1.699275e+000 -2.276874e-001 -2.675926e-001 -1.326659e+000 -6.206515e-001 1.662491e+000 -1.177058e-001 -3.080348e-001 -3.552772e-001 3.874970e-001 1.309262e-001 7.846923e-001 7.093881e-001 -4.447427e-001 -4.052358e-001 -2.851295e-001 3.673888e-002 -3.985442e-002 1.459451e-001
<VARIANCE> 39
 1.763965e+001 3.594099e+001 5.890622e+001 5.784185e+001 5.288003e+001 8.372992e+001 9.647138e+001 6.947974e+001 6.974580e+001 1.014916e+002 5.799758e+001 6.599189e+001 1.836785e+001 5.897595e-001 2.041063e+000 2.697875e+000 3.147255e+000 3.494590e+000 5.988432e+000 5.926281e+000 5.056660e+000 5.111376e+000 4.622252e+000 3.772931e+000 3.186713e+000 7.783561e-001 7.816145e-002 3.580454e-001 3.343638e-001 4.769811e-001 5.960803e-001 7.756473e-001 9.623384e-001 8.342924e-001 6.763708e-001 8.392392e-001 6.988000e-001 5.499196e-001 1.637542e-001
<GCONST> 1.279235e+002
<STATE> 4
<MEAN> 39
 -3.340182e+000 -1.525087e+001 -4.682103e+000 -1.813078e+001 -3.870568e+000 -7.021575e+000 -6.236660e+000 1.446142e+000 -4.283282e+000 -9.545855e+000 -9.317454e+000 -4.796652e+000 7.645124e+001 -4.327705e-001 -1.053775e+000 -1.174931e+000 2.327657e-001 7.256725e-001 1.679520e+000 1.444088e+000 -2.644921e-001 -6.234727e-001 -5.086884e-001 -1.433025e-001 -2.915049e-001 9.447917e-001 4.711867e-002 3.666432e-001 3.100085e-001 2.098314e-001 8.617152e-002 -2.701823e-001 -4.906754e-001 -5.569055e-001 1.879748e-002 1.598183e-001 4.683627e-001 6.796093e-002 -3.462313e-001
<VARIANCE> 39
 1.767867e+001 3.986312e+001 5.897699e+001 6.062101e+001 7.331094e+001 7.743652e+001 9.125837e+001 7.361422e+001 8.121208e+001 8.039885e+001 5.033907e+001 5.775414e+001 1.870165e+001 5.495824e-001 2.418158e+000 2.418438e+000 2.962194e+000 3.930235e+000 5.507263e+000 5.281317e+000 4.251276e+000 4.011069e+000 4.536999e+000 3.020173e+000 2.629828e+000 1.127658e+000 7.052566e-002 1.995377e-001 2.431393e-001 3.589963e-001 4.505352e-001 5.359313e-001 7.550645e-001 7.019229e-001 5.614259e-001 4.945501e-001 5.374385e-001 4.036083e-001 1.121558e-001
<GCONST> 1.233390e+002
<TRANSP> 5
 0.000000e+000 1.000000e+000 0.000000e+000 0.000000e+000 0.000000e+000
 0.000000e+000 7.599773e-001 2.400227e-001 0.000000e+000 0.000000e+000
 0.000000e+000 0.000000e+000 6.034830e-001 3.965169e-001 0.000000e+000
 0.000000e+000 0.000000e+000 0.000000e+000 4.869949e-001 5.130051e-001
 0.000000e+000 0.000000e+000 0.000000e+000 0.000000e+000 0.000000e+000
<ENDHMM>
~h "M"
<BEGINHMM>
<NUMSTATES> 5
<STATE> 2
<MEAN> 39
 4.317279e-001 -8.417833e+000 -8.314276e-001 -1.021676e+001 -4.123681e+000 -5.799597e+000 -7.978533e+000 -7.328364e+000 -5.169415e+000 -5.084450e+000 -4.500219e+000 -6.804572e+000 6.664001e+001 8.366376e-001 1.837529e+000 1.139638e+000 1.692168e+000 3.250311e-001 -1.991931e-001 -1.275803e+000 -2.494310e+000 -1.145949e+000 3.448564e-001 -4.718580e-001 2.295038e-001 -1.794961e+000 -3.023628e-001 -8.012951e-003 2.056254e-001 -1.866309e-002 -4.304596e-002 6.061850e-002 3.512808e-002 -3.362256e-001 -3.782493e-001 -1.755030e-001 -1.755617e-001 1.399868e-001 1.693056e-001
<VARIANCE> 39
 2.265605e+001 6.500087e+001 6.486600e+001 7.603703e+001 6.433953e+001 8.787412e+001 7.059030e+001 7.821606e+001 5.954428e+001 6.567433e+001 7.138733e+001 6.585968e+001 6.286098e+001 1.504205e+000 2.447123e+000 4.002434e+000 4.392885e+000 4.250314e+000 4.841389e+000 5.054035e+000 5.699297e+000 5.945849e+000 5.422589e+000 5.009084e+000 4.282187e+000 3.477452e+000 2.213360e-001 4.236378e-001 4.692088e-001 7.395896e-001 5.505049e-001 5.983469e-001 7.191662e-001 9.596809e-001 7.645467e-001 7.304041e-001 7.147157e-001 6.402171e-001 3.385458e-001
<GCONST> 1.365859e+002
<STATE> 3
<MEAN> 39
 6.504751e-001 -4.332472e+000 2.502415e+000 -6.872708e+000 -3.729955e+000 -6.226667e+000 -1.205018e+001 -1.603189e+001 -1.115590e+001 -5.575374e+000 -7.450959e+000 -5.061095e+000 6.331567e+001 -5.086013e-002 1.846613e-001 1.853042e-001 -1.970521e-002 5.080241e-002 1.907892e-001 -2.968456e-001 -8.107462e-001 -7.065163e-001 -5.040349e-001 -5.400932e-001 1.120274e-001 7.987054e-002 -1.396243e-001 -4.449396e-001 -4.987995e-001 -6.694893e-001 -1.321222e-001 9.998912e-002 4.305801e-001 1.026372e+000 5.688866e-001 -1.081859e-001 2.002260e-001 -1.236896e-001 5.126861e-001
<VARIANCE> 39
 1.329981e+001 3.655702e+001 5.049012e+001 5.902913e+001 5.417643e+001 1.052037e+002 7.444404e+001 6.680582e+001 6.377537e+001 8.419096e+001 9.157339e+001 7.886369e+001 1.901921e+001 8.261017e-001 2.320320e+000 3.117390e+000 3.991721e+000 2.732072e+000 3.434121e+000 3.820320e+000 6.311279e+000 5.066842e+000 4.496841e+000 4.844940e+000 4.258331e+000 2.883153e+000 1.699432e-001 2.476448e-001 4.926126e-001 5.799457e-001 5.447358e-001 6.601377e-001 7.661004e-001 8.378084e-001 9.020723e-001 1.011903e+000 9.514088e-001 8.284220e-001 2.486414e-001
<GCONST> 1.316395e+002
<STATE> 4
<MEAN> 39
 1.081231e+000 -2.642525e+000 3.491588e+000 -7.985065e+000 -4.544412e+000 -4.021812e+000 -1.013286e+001 -1.467450e+001 -1.027791e+001 -7.282307e+000 -7.871699e+000 -5.409321e+000 6.296689e+001 -3.193498e-002 1.248176e-001 -4.299668e-001 -4.086009e-001 -1.132921e-001 1.707796e-001 3.226393e-001 7.018456e-001 3.977463e-001 -2.251467e-001 9.178264e-002 -1.233644e-002 9.162712e-002 -4.772887e-002 -1.616234e-001 -2.468961e-001 -1.738647e-001 4.289449e-002 -5.005692e-003 1.149456e-001 4.361247e-001 2.378973e-001 1.243217e-001 2.420260e-001 -7.341345e-002 1.683154e-001
<VARIANCE> 39
 1.404882e+001 3.933189e+001 4.929915e+001 6.474100e+001 5.997562e+001 9.620097e+001 6.774924e+001 8.444639e+001 6.267271e+001 6.991142e+001 7.457605e+001 5.716948e+001 2.416162e+001 5.197468e-001 1.644467e+000 1.976010e+000 2.792751e+000 2.204611e+000 2.244958e+000 2.354591e+000 3.608212e+000 3.064656e+000 2.847419e+000 3.037287e+000 2.567488e+000 1.619665e+000 1.209959e-001 1.842943e-001 3.447904e-001 4.637384e-001 4.133370e-001 4.031540e-001 4.222716e-001 5.853645e-001 5.584549e-001 5.275325e-001 5.836390e-001 4.696465e-001 1.527672e-001
<GCONST> 1.200713e+002
<TRANSP> 5
 0.000000e+000 1.000000e+000 0.000000e+000 0.000000e+000 0.000000e+000
 0.000000e+000 5.531777e-001 4.468223e-001 0.000000e+000 0.000000e+000
 0.000000e+000 0.000000e+000 5.366678e-001 4.633321e-001 0.000000e+000
 0.000000e+000 0.000000e+000 0.000000e+000 7.556850e-001 2.443149e-001
 0.000000e+000 0.000000e+000 0.000000e+000 0.000000e+000 0.000000e+000
<ENDHMM>
~h "N"
<BEGINHMM>
<NUMSTATES> 5
<STATE> 2
<MEAN> 39
 -8.232352e-001 -6.113652e+000 1.033908e+000 -1.277386e+001 -7.533588e+000 -7.444306e+000 -7.154151e+000 -7.537238e+000 -6.658717e+000 -4.416869e+000 -7.587486e+000 -5.133306e+000 6.709936e+001 7.695667e-001 1.403175e+000 6.286137e-001 1.329399e+000 -5.486412e-001 -2.674823e-001 -4.607271e-001 -1.893834e+000 1.487783e-001 -2.134551e-001 -5.998924e-001 5.975314e-001 -1.636662e+000 -9.284929e-002 -7.773371e-002 -2.999851e-002 -2.324280e-002 3.805931e-003 1.446257e-001 1.691506e-002 -5.451566e-002 3.403119e-002 -2.069129e-001 7.563192e-002 -2.007920e-002 1.179192e-001
<VARIANCE> 39
 1.997428e+001 4.678252e+001 8.081381e+001 7.770480e+001 7.337923e+001 8.173706e+001 8.625242e+001 9.632779e+001 7.814394e+001 7.801763e+001 8.776398e+001 7.199364e+001 3.527415e+001 9.774119e-001 2.083990e+000 3.897434e+000 3.834595e+000 4.219138e+000 4.930984e+000 4.493652e+000 5.240798e+000 4.433513e+000 4.810245e+000 4.170242e+000 3.887027e+000 1.756015e+000 1.460654e-001 2.973249e-001 4.384817e-001 5.571354e-001 6.064090e-001 6.919412e-001 6.803340e-001 9.116502e-001 6.896507e-001 6.959765e-001 6.478057e-001 5.935186e-001 2.087682e-001
<GCONST> 1.328865e+002
<STATE> 3
<MEAN> 39
 8.215623e-001 -2.339189e+000 2.336927e+000 -1.020511e+001 -1.030458e+001 -8.338696e+000 -9.152259e+000 -1.352978e+001 -6.582280e+000 -7.381535e+000 -9.851942e+000 -2.804302e+000 6.324656e+001 1.568520e-001 5.497666e-001 2.533095e-001 6.674758e-001 -1.258664e-001 -8.743310e-002 -2.079081e-001 -6.430760e-001 -4.121020e-002 -4.874487e-001 -1.444019e-001 1.083792e-001 -6.833030e-001 -2.815921e-001 -3.708644e-001 -1.479921e-001 -2.231175e-001 2.741281e-001 7.273179e-002 1.483887e-001 7.419956e-001 -5.700389e-002 9.986820e-002 2.466728e-001 -1.954699e-001 3.449794e-001
<VARIANCE> 39
 1.336411e+001 3.074881e+001 5.730389e+001 5.403778e+001 5.101163e+001 8.694739e+001 6.347303e+001 6.064140e+001 6.991128e+001 8.550822e+001 8.666944e+001 7.535777e+001 1.720452e+001 6.695420e-001 1.881271e+000 2.141922e+000 2.707641e+000 2.712128e+000 3.330142e+000 3.263854e+000 4.795497e+000 3.227728e+000 3.533808e+000 3.351348e+000 3.183913e+000 1.675508e+000 1.542353e-001 3.684510e-001 4.690330e-001 5.762220e-001 5.464468e-001 7.154167e-001 6.589254e-001 8.178502e-001 7.077355e-001 7.577236e-001 6.538252e-001 6.364721e-001 2.735275e-001
<GCONST> 1.264400e+002
<STATE> 4
<MEAN> 39
 1.162315e+000 -2.766421e-001 3.965810e+000 -7.830955e+000 -8.627255e+000 -6.343374e+000 -8.156898e+000 -1.251515e+001 -6.096217e+000 -6.766333e+000 -7.533978e+000 -4.472224e+000 6.140317e+001 -3.053350e-001 3.281366e-002 -6.179747e-002 5.200829e-001 5.146339e-001 6.671654e-002 1.962302e-001 6.186967e-001 3.167811e-002 -4.504406e-002 2.224649e-001 -8.859835e-002 -4.058379e-001 -1.946233e-001 -2.443847e-001 -1.433553e-001 -1.144688e-001 1.810196e-001 6.363691e-002 1.195119e-001 3.889761e-001 5.959804e-002 1.072678e-001 1.182412e-001 -2.402531e-002 1.810073e-001
<VARIANCE> 39
 1.602945e+001 3.186628e+001 4.542485e+001 5.674935e+001 4.992365e+001 6.713462e+001 5.678605e+001 6.231447e+001 5.701254e+001 7.005902e+001 6.035892e+001 5.068117e+001 2.838281e+001 7.073169e-001 1.948040e+000 1.426885e+000 2.165768e+000 2.209276e+000 2.251124e+000 2.611872e+000 3.781107e+000 2.880470e+000 2.645762e+000 2.497752e+000 2.227280e+000 1.790322e+000 1.474983e-001 2.694587e-001 2.683007e-001 3.624613e-001 3.866193e-001 4.224147e-001 4.489263e-001 5.749838e-001 5.028220e-001 4.792126e-001 4.504530e-001 4.070628e-001 1.954632e-001
<GCONST> 1.179193e+002
<TRANSP> 5
 0.000000e+000 1.000000e+000 0.000000e+000 0.000000e+000 0.000000e+000
 0.000000e+000 5.565860e-001 4.434141e-001 0.000000e+000 0.000000e+000
 0.000000e+000 0.000000e+000 5.342658e-001 4.657342e-001 0.000000e+000
 0.000000e+000 0.000000e+000 0.000000e+000 7.088096e-001 2.911904e-001
 0.000000e+000 0.000000e+000 0.000000e+000 0.000000e+000 0.000000e+000
<ENDHMM>
~h "O"
<BEGINHMM>
<NUMSTATES> 5
<STATE> 2
<MEAN> 39
 -2.468165e+000 -1.710141e+001 -8.298735e+000 -1.616529e+001 -8.105074e-001 -5.008945e+000 -6.361040e+000 -2.473107e+000 -5.053971e+000 -8.366918e+000 -7.406497e+000 -7.076822e+000 7.616553e+001 5.817018e-001 -3.908136e-001 -1.502812e+000 -2.810118e-001 1.446703e+000 1.180242e+000 -9.732953e-001 -7.436460e-001 5.373412e-002 1.683858e-001 1.454973e-002 -8.793745e-001 -6.405252e-002 -6.739309e-002 6.256952e-001 3.949339e-001 1.066700e-001 -2.498290e-001 9.348240e-002 7.131341e-002 -2.802229e-001 -4.513992e-002 3.621299e-001 5.034395e-001 1.928491e-001 -4.272220e-001
<VARIANCE> 39
 2.196997e+001 4.589452e+001 5.785224e+001 6.523385e+001 8.380378e+001 7.905824e+001 6.966984e+001 7.305537e+001 6.831563e+001 7.460104e+001 6.992104e+001 7.406301e+001 2.014106e+001 7.113025e-001 3.250166e+000 2.281366e+000 3.526205e+000 4.439844e+000 3.688368e+000 3.999267e+000 3.730140e+000 3.659359e+000 4.579435e+000 3.887491e+000 3.280978e+000 1.239084e+000 1.773609e-001 3.748350e-001 3.375546e-001 7.637774e-001 7.585556e-001 6.071395e-001 7.006578e-001 6.816964e-001 7.931343e-001 7.118071e-001 7.298028e-001 6.871452e-001 1.712372e-001
<GCONST> 1.296474e+002
<STATE> 3
<MEAN> 39
 2.488095e-001 -1.493825e+001 -1.132360e+001 -1.739551e+001 7.099441e-001 -8.204264e-002 -8.381127e+000 -5.382937e+000 -5.150399e+000 -5.112303e+000 -3.978710e+000 -1.059671e+001 7.471811e+001 6.680726e-001 1.173411e+000 2.032270e-002 -5.609974e-001 -7.044718e-001 4.855648e-001 1.953791e-002 -5.435949e-001 -4.551128e-001 3.701382e-001 8.112385e-001 3.379370e-001 -9.380810e-001 -1.238756e-001 3.226407e-001 6.039075e-001 4.575692e-001 -3.928767e-001 -4.780756e-001 2.366110e-001 1.587983e-001 -4.692198e-002 -2.240433e-001 -1.573173e-001 4.992900e-001 -3.193609e-001
<VARIANCE> 39
 1.759422e+001 3.965218e+001 5.815503e+001 6.609245e+001 7.048917e+001 9.055739e+001 7.505296e+001 6.749605e+001 6.497545e+001 8.050485e+001 9.145731e+001 6.934404e+001 1.906141e+001 7.427824e-001 3.265669e+000 1.715090e+000 3.591919e+000 3.675042e+000 3.984635e+000 3.589249e+000 3.502485e+000 3.987447e+000 3.707175e+000 3.448519e+000 3.124819e+000 1.361173e+000 1.162067e-001 2.311050e-001 3.270692e-001 6.573325e-001 5.855432e-001 6.131607e-001 6.663526e-001 6.277448e-001 6.882069e-001 7.284187e-001 8.127176e-001 5.425423e-001 1.253139e-001
<GCONST> 1.266978e+002
<STATE> 4
<MEAN> 39
 2.007107e+000 -1.035326e+001 -9.394712e+000 -1.780881e+001 -2.423691e+000 9.184722e-001 -6.988346e+000 -5.913977e+000 -5.861637e+000 -5.407724e+000 -2.883604e+000 -8.628109e+000 7.155022e+001 5.288434e-002 1.022624e+000 1.013021e+000 9.111704e-001 -5.427855e-001 -7.348241e-001 -1.302470e-002 -1.328384e-001 -3.425186e-003 -7.166263e-002 -2.607733e-001 5.991368e-001 -1.111189e+000 -1.974186e-001 -1.607695e-002 2.518753e-001 3.989174e-001 1.403698e-001 -1.328168e-001 2.755773e-002 -6.975645e-003 7.996786e-002 -4.711445e-002 -1.436924e-001 -1.088749e-002 -1.261311e-001
<VARIANCE> 39
 2.174685e+001 6.708765e+001 5.674645e+001 7.212898e+001 7.812498e+001 9.633675e+001 9.123776e+001 7.556350e+001 6.322307e+001 6.781362e+001 6.994855e+001 6.541952e+001 3.411443e+001 6.430538e-001 2.243335e+000 2.082056e+000 3.837987e+000 3.082667e+000 3.275917e+000 3.011852e+000 3.041388e+000 2.988150e+000 3.037349e+000 3.248884e+000 2.742662e+000 1.573246e+000 1.265438e-001 2.675825e-001 2.640663e-001 5.504088e-001 5.600464e-001 5.874807e-001 5.542397e-001 5.318851e-001 5.583940e-001 5.435517e-001 5.451728e-001 4.695945e-001 1.437985e-001
<GCONST> 1.250426e+002
<TRANSP> 5
 0.000000e+000 1.000000e+000 0.000000e+000 0.000000e+000 0.000000e+000
 0.000000e+000 5.548162e-001 4.451838e-001 0.000000e+000 0.000000e+000
 0.000000e+000 0.000000e+000 5.216786e-001 4.783215e-001 0.000000e+000
 0.000000e+000 0.000000e+000 0.000000e+000 7.189077e-001 2.810923e-001
 0.000000e+000 0.000000e+000 0.000000e+000 0.000000e+000 0.000000e+000
<ENDHMM>
~h "P"
<BEGINHMM>
<NUMSTATES> 5
<STATE> 2
<MEAN> 39
 8.873291e-002 -9.474852e+000 -3.336598e+000 -9.530384e+000 -2.976367e+000 -4.339718e+000 -3.751338e+000 -3.008773e+000 -1.438219e+000 -2.728447e+000 -1.252365e+000 -4.158051e+000 6.734487e+001 1.511751e-001 2.373548e+000 1.253409e+000 2.902086e+000 1.571837e+000 1.529741e+000 1.367418e+000 8.688521e-001 1.302498e+000 8.987303e-001 5.852442e-001 4.635556e-001 -3.804114e+000 -7.350481e-001 -2.304807e-001 1.475947e-001 1.177503e-001 1.846953e-002 1.803439e-001 2.848762e-001 1.820235e-001 -6.138115e-002 -9.892454e-002 -2.023354e-001 4.413464e-004 -2.871592e-001
<VARIANCE> 39
 2.501595e+001 6.061248e+001 8.019453e+001 6.634071e+001 6.501721e+001 6.323286e+001 4.994239e+001 4.948525e+001 4.785760e+001 4.855273e+001 5.690188e+001 8.192274e+001 6.101517e+001 2.974391e+000 2.948364e+000 3.742177e+000 4.207850e+000 3.931289e+000 3.881240e+000 4.357694e+000 4.253727e+000 4.242220e+000 3.630761e+000 4.359838e+000 4.170782e+000 4.377563e+000 3.743282e-001 7.985515e-001 6.193697e-001 1.085288e+000 7.069799e-001 7.408047e-001 6.457984e-001 6.796710e-001 7.581112e-001 6.441880e-001 7.528478e-001 7.549555e-001 7.759063e-001
<GCONST> 1.370976e+002
<STATE> 3
<MEAN> 39
 -3.469895e+000 -5.392495e+000 8.412059e-001 -1.815853e+000 9.617813e-001 5.872073e-001 1.330142e+000 9.570123e-002 1.195846e+000 -9.479959e-001 -9.940825e-001 -3.232323e+000 5.693086e+001 -1.632612e+000 -9.573011e-002 -7.154459e-002 9.356999e-001 3.278457e-001 6.539658e-001 1.035275e+000 8.239888e-001 8.923665e-001 4.588909e-001 2.320428e-001 4.174178e-001 -2.563833e+000 -1.062398e-001 -6.054889e-001 -5.355570e-001 -9.534450e-001 -6.370667e-001 -6.406101e-001 -5.683282e-001 -3.231928e-001 -3.141521e-001 -1.641119e-001 -6.735211e-002 -4.542282e-002 9.133661e-001
<VARIANCE> 39
 2.064507e+001 4.108379e+001 5.477350e+001 5.042455e+001 6.084136e+001 4.794278e+001 4.295958e+001 4.449928e+001 4.451038e+001 4.053463e+001 4.461307e+001 5.005148e+001 1.664882e+001 1.662889e+000 2.989269e+000 2.933583e+000 3.680377e+000 3.278860e+000 3.593048e+000 3.124739e+000 2.971982e+000 3.444098e+000 3.083250e+000 3.316206e+000 3.179000e+000 4.204980e+000 4.263804e-001 5.559599e-001 5.574415e-001 5.562033e-001 6.389322e-001 6.284577e-001 6.315461e-001 6.777767e-001 7.215677e-001 6.515908e-001 6.996662e-001 5.840346e-001 4.344781e-001
<GCONST> 1.278768e+002
<STATE> 4
<MEAN> 39
 -7.417472e+000 -6.396265e+000 -2.439347e+000 -3.003890e+000 -8.244443e-001 -1.122889e+000 5.318981e-001 -2.472605e-001 1.983317e+000 -5.079325e-001 -3.513187e-001 -2.027977e+000 5.167783e+001 -2.282905e-001 3.988794e-001 3.187187e-002 6.652725e-002 -1.305544e-001 -3.448132e-001 -3.465103e-001 -3.938957e-001 -2.610891e-001 -2.192581e-001 -1.048415e-001 4.211415e-002 -1.552548e-001 2.435876e-001 1.392184e-001 1.212972e-001 -9.001750e-002 -2.545355e-002 -1.487471e-001 -2.197239e-001 -1.941573e-001 -2.214652e-001 -1.300717e-001 -9.109475e-002 -5.764966e-002 4.468248e-001
<VARIANCE> 39
 1.226006e+001 2.948073e+001 3.471168e+001 2.839317e+001 4.217456e+001 3.001730e+001 3.154387e+001 3.212595e+001 3.147290e+001 2.835201e+001 2.910783e+001 2.877456e+001 1.795278e+001 1.364323e+000 1.784926e+000 1.874511e+000 1.734931e+000 2.176320e+000 2.425324e+000 2.720533e+000 2.705666e+000 2.689711e+000 2.309843e+000 2.125583e+000 1.961664e+000 1.615716e+000 2.363190e-001 3.266962e-001 3.179784e-001 3.785429e-001 4.255837e-001 4.634026e-001 5.253021e-001 5.111791e-001 5.254525e-001 4.564863e-001 4.395524e-001 3.948819e-001 3.428819e-001
<GCONST> 1.125346e+002
<TRANSP> 5
 0.000000e+000 1.000000e+000 0.000000e+000 0.000000e+000 0.000000e+000
 0.000000e+000 5.110891e-001 4.889109e-001 0.000000e+000 0.000000e+000
 0.000000e+000 0.000000e+000 5.135233e-001 4.864767e-001 0.000000e+000
 0.000000e+000 0.000000e+000 0.000000e+000 8.389788e-001 1.610213e-001
 0.000000e+000 0.000000e+000 0.000000e+000 0.000000e+000 0.000000e+000
<ENDHMM>
~h "R"
<BEGINHMM>
<NUMSTATES> 5
<STATE> 2
<MEAN> 39
 -3.111612e+000 -6.342741e+000 2.276128e+000 -3.063923e+000 -7.266454e+000 -9.761688e+000 -8.387857e+000 -4.744816e+000 -2.945542e+000 -6.381565e+000 -2.995058e+000 -3.317442e+000 6.476847e+001 2.562675e-001 -8.623371e-001 -5.170516e-002 6.195838e-002 -6.570572e-001 -9.731842e-001 -1.073332e-001 8.784398e-001 3.784556e-001 2.923921e-002 2.095308e-001 1.800427e-001 1.033621e+000 1.843280e-001 -4.832418e-001 -1.961683e-001 -6.882507e-001 -3.115837e-001 2.374536e-001 6.177507e-003 2.842692e-001 -1.148470e-001 9.248219e-002 -2.239187e-001 -6.984139e-002 4.282949e-001
<VARIANCE> 39
 6.838261e+001 5.894352e+001 7.198285e+001 7.437833e+001 7.000304e+001 5.898608e+001 7.032218e+001 6.198080e+001 4.933840e+001 5.433538e+001 4.644032e+001 3.732794e+001 4.343344e+001 5.191494e+000 6.066257e+000 3.969173e+000 6.836386e+000 7.045641e+000 5.291116e+000 6.037905e+000 6.027501e+000 4.263219e+000 4.513557e+000 4.525544e+000 3.494141e+000 4.866092e+000 8.176240e-001 7.817089e-001 6.408220e-001 8.560660e-001 1.263771e+000 1.141419e+000 9.916937e-001 9.511415e-001 8.281749e-001 8.764085e-001 8.729438e-001 6.739817e-001 5.838670e-001
<GCONST> 1.435278e+002
<STATE> 3
<MEAN> 39
 1.784840e+000 -1.610132e+001 -3.773716e-001 -8.642017e+000 -1.476450e+001 -1.103956e+001 -9.594229e+000 2.379903e+000 -2.540714e+000 -5.138783e+000 -5.119532e+000 -3.714067e+000 7.245736e+001 2.074491e-001 -2.265269e+000 -1.131506e+000 -2.455174e+000 -3.566017e-001 1.679373e+000 4.203964e-001 1.641333e+000 -8.313193e-001 1.211393e-002 -1.413183e+000 -7.927402e-001 1.869908e+000 -5.927243e-001 5.513970e-001 -6.337116e-002 2.117936e-002 1.069088e+000 5.538524e-001 2.625929e-001 -6.226651e-001 -3.554287e-001 -1.464519e-001 -7.649076e-003 -1.229865e-001 -3.058191e-001
<VARIANCE> 39
 2.029062e+001 3.282032e+001 6.538720e+001 9.260252e+001 5.992452e+001 6.795189e+001 9.778112e+001 7.121182e+001 5.283439e+001 7.005941e+001 5.542847e+001 4.924247e+001 1.878461e+001 1.945550e+000 2.541918e+000 3.306291e+000 3.718019e+000 5.983111e+000 5.166955e+000 5.403392e+000 5.025962e+000 4.967938e+000 4.866284e+000 4.298319e+000 4.046450e+000 8.926067e-001 2.944251e-001 3.607100e-001 3.626969e-001 7.302818e-001 6.781633e-001 8.149474e-001 8.322663e-001 8.616050e-001 6.750638e-001 8.110122e-001 7.779498e-001 6.744654e-001 2.099239e-001
<GCONST> 1.325721e+002
<STATE> 4
<MEAN> 39
 -5.891379e-001 -1.905344e+001 -3.109976e+000 -1.367261e+001 -1.036267e+001 -5.611492e+000 -7.025265e+000 3.430907e+000 -6.351342e+000 -6.257756e+000 -8.349645e+000 -5.872910e+000 7.587083e+001 -8.116938e-001 -3.075443e-001 -8.476226e-001 -1.348490e+000 1.999590e+000 1.270313e+000 6.252592e-001 -6.476609e-001 -9.587884e-001 -2.080646e-001 -3.756109e-001 -2.993823e-001 8.077960e-001 -6.975286e-002 5.452133e-001 1.117341e-001 4.249789e-001 2.881204e-001 -3.366428e-001 -7.829580e-002 -5.988941e-001 1.706984e-001 3.865723e-002 4.647339e-001 1.776975e-001 -4.034123e-001
<VARIANCE> 39
 2.049427e+001 3.862054e+001 6.373170e+001 8.291476e+001 7.818913e+001 7.930770e+001 1.003743e+002 8.813217e+001 7.447865e+001 6.882386e+001 5.258405e+001 5.356461e+001 1.869761e+001 6.014093e-001 1.371276e+000 1.991389e+000 3.273918e+000 3.754075e+000 3.685878e+000 3.660305e+000 3.442400e+000 3.283457e+000 4.031719e+000 3.148680e+000 3.203257e+000 5.391945e-001 1.530602e-001 2.613858e-001 2.188699e-001 4.204035e-001 6.065155e-001 5.705887e-001 5.647789e-001 6.231525e-001 5.911461e-001 5.569078e-001 5.435070e-001 4.867218e-001 1.073781e-001
<GCONST> 1.228952e+002
<TRANSP> 5
 0.000000e+000 1.000000e+000 0.000000e+000 0.000000e+000 0.000000e+000
 0.000000e+000 7.978425e-001 2.021575e-001 0.000000e+000 0.000000e+000
 0.000000e+000 0.000000e+000 5.994675e-001 4.005325e-001 0.000000e+000
 0.000000e+000 0.000000e+000 0.000000e+000 5.028043e-001 4.971957e-001
 0.000000e+000 0.000000e+000 0.000000e+000 0.000000e+000 0.000000e+000
<ENDHMM>
~h "S"
<BEGINHMM>
<NUMSTATES> 5
<STATE> 2
<MEAN> 39
 -8.684145e+000 2.544257e+000 1.221666e+000 -5.918275e+000 -5.517176e+000 -9.293957e+000 -5.376278e+000 -5.634487e+000 -5.126806e+000 -5.682854e+000 -3.217976e+000 -3.085433e+000 6.650440e+001 -3.667476e+000 2.789421e+000 -2.360502e-001 2.227031e+000 1.899688e+000 1.149788e+000 1.499167e+000 1.289637e+000 1.027371e+000 3.852204e-001 1.014740e+000 3.125650e-001 -4.046863e-001 -5.993652e-001 -2.817028e-001 -2.970927e-001 -2.221550e-001 3.042624e-001 4.688136e-001 3.195939e-001 3.654096e-001 2.896981e-001 3.442766e-001 1.434493e-001 1.106387e-002 8.219816e-002
<VARIANCE> 39
 6.314340e+001 6.956120e+001 7.555688e+001 8.017151e+001 7.375876e+001 6.222970e+001 6.467509e+001 6.716792e+001 5.522570e+001 5.391393e+001 5.444175e+001 4.056391e+001 4.460889e+001 4.544054e+000 4.619591e+000 5.106368e+000 6.506539e+000 5.986751e+000 6.607488e+000 5.507196e+000 5.738046e+000 4.743135e+000 5.264863e+000 4.583287e+000 4.086826e+000 2.181804e+000 9.585164e-001 1.077017e+000 6.014122e-001 1.035769e+000 1.006029e+000 9.085014e-001 8.935307e-001 8.845410e-001 7.649525e-001 7.863048e-001 7.314315e-001 6.453398e-001 2.075117e-001
<GCONST> 1.420869e+002
<STATE> 3
<MEAN> 39
 -2.379454e+001 6.740481e+000 -1.817280e+000 -1.791891e+000 1.484813e+000 -2.807956e+000 1.278516e+000 9.418095e-001 4.351335e-001 -1.259008e+000 1.630033e+000 -1.033240e+000 6.534793e+001 1.932652e-001 -4.060665e-001 -1.266539e-001 -3.329948e-001 -1.543845e-001 -1.145513e-001 3.988547e-002 2.316702e-001 1.365725e-001 1.282394e-002 9.646531e-002 2.433666e-001 3.070467e-001 1.129334e+000 -5.063732e-001 1.182064e-001 -4.261445e-001 -4.670701e-001 -4.794030e-001 -4.164198e-001 -2.350677e-001 -2.499027e-001 -2.880824e-001 -3.036607e-001 -6.095342e-002 2.526488e-001
<VARIANCE> 39
 2.896259e+001 3.371061e+001 6.150172e+001 5.572701e+001 4.058277e+001 3.589569e+001 3.937164e+001 3.974237e+001 2.988273e+001 2.718496e+001 2.351492e+001 1.873007e+001 2.496263e+001 8.162388e+000 1.893629e+000 2.317083e+000 2.425898e+000 2.796396e+000 3.323967e+000 2.772900e+000 2.549823e+000 2.547738e+000 2.576042e+000 2.372873e+000 1.953646e+000 1.188282e+000 5.381415e-001 4.409251e-001 4.900906e-001 6.611343e-001 5.567163e-001 5.962189e-001 5.817432e-001 5.551736e-001 5.466965e-001 5.366012e-001 5.267513e-001 4.689223e-001 2.177952e-001
<GCONST> 1.206354e+002
<STATE> 4
<MEAN> 39
 -7.106846e+000 -2.056759e+000 -1.612211e+000 -9.528651e+000 -5.050845e+000 -1.028785e+001 -4.455377e+000 2.801420e-001 -1.587694e+000 -5.708978e+000 -2.668090e+000 -4.424667e-001 7.118839e+001 4.421030e+000 -4.279016e+000 -8.078561e-001 -3.328776e+000 -1.661358e+000 -1.652951e+000 -1.900134e+000 -8.011117e-002 -9.048589e-001 -1.346100e+000 -2.019370e+000 -7.204691e-001 2.446895e+000 -1.030326e+000 -2.471040e-001 -2.629702e-001 5.849216e-002 5.466890e-001 7.482497e-001 2.619439e-001 -2.788975e-002 -8.018465e-002 2.114407e-001 3.472471e-002 -3.871002e-001 -2.866259e-002
<VARIANCE> 39
 5.749587e+001 6.665094e+001 5.679407e+001 7.585854e+001 5.812579e+001 5.351413e+001 6.663303e+001 4.262389e+001 4.238219e+001 3.971111e+001 5.182241e+001 4.170005e+001 3.109474e+001 5.813933e+000 3.538986e+000 5.388548e+000 6.461402e+000 7.419777e+000 7.204432e+000 6.208498e+000 5.147357e+000 5.430047e+000 5.376702e+000 5.446664e+000 5.844192e+000 1.534328e+000 1.012941e+000 9.645113e-001 4.659266e-001 1.154642e+000 8.753818e-001 8.393075e-001 8.654957e-001 6.648501e-001 6.301630e-001 7.177314e-001 9.979396e-001 7.067732e-001 3.945277e-001
<GCONST> 1.405378e+002
<TRANSP> 5
 0.000000e+000 1.000000e+000 0.000000e+000 0.000000e+000 0.000000e+000
 0.000000e+000 7.166526e-001 2.833475e-001 0.000000e+000 0.000000e+000
 0.000000e+000 0.000000e+000 8.660902e-001 1.339098e-001 0.000000e+000
 0.000000e+000 0.000000e+000 0.000000e+000 6.515344e-001 3.484655e-001
 0.000000e+000 0.000000e+000 0.000000e+000 0.000000e+000 0.000000e+000
<ENDHMM>
~h "T"
<BEGINHMM>
<NUMSTATES> 5
<STATE> 2
<MEAN> 39
 -5.168302e+000 -3.597984e+000 -7.479658e-001 -5.260419e+000 -2.452386e+000 -3.772999e+000 -1.874133e+000 -2.363202e+000 3.880202e-002 -2.109479e+000 -1.764391e+000 -3.012721e+000 5.479608e+001 -9.635977e-001 -1.932497e-001 -1.925574e-001 9.847199e-001 6.930017e-001 7.316434e-001 1.081484e+000 7.164544e-001 9.031509e-001 4.772528e-001 5.971513e-001 1.765743e-001 -1.579391e+000 3.786018e-002 -1.708995e-001 -1.557761e-001 -5.435720e-001 -2.311686e-001 -2.487248e-001 -2.497995e-001 -6.747857e-002 -1.628466e-001 -6.577966e-002 -5.678150e-002 7.667343e-002 9.073340e-001
<VARIANCE> 39
 2.003192e+001 3.834637e+001 4.505054e+001 4.293740e+001 4.701651e+001 4.681977e+001 4.917461e+001 4.766401e+001 4.225490e+001 3.859437e+001 4.373743e+001 3.797802e+001 3.909963e+001 1.546244e+000 2.424786e+000 2.565758e+000 3.876128e+000 3.208842e+000 3.582391e+000 3.562724e+000 3.429917e+000 3.319278e+000 3.065051e+000 3.128219e+000 2.792082e+000 4.954682e+000 3.365723e-001 5.865200e-001 4.919402e-001 6.885048e-001 6.520521e-001 7.353498e-001 7.178961e-001 6.560133e-001 6.776570e-001 6.226648e-001 6.039652e-001 5.433252e-001 8.314684e-001
<GCONST> 1.281194e+002
<STATE> 3
<MEAN> 39
 -8.656153e+000 -3.749515e+000 -1.553996e+000 -4.381363e+000 -1.041233e+000 -3.629002e+000 1.790449e-001 -1.134048e+000 1.864268e+000 -7.484527e-001 6.084996e-001 -1.249466e+000 5.593816e+001 4.194185e-001 -2.810075e-001 -4.185709e-001 -1.366194e+000 -3.978681e-001 -1.183084e+000 -9.137747e-001 3.290956e-001 -2.638918e-001 -2.741620e-001 -2.879506e-001 3.001363e-001 3.626789e+000 5.953989e-001 -3.255895e-001 -6.321198e-002 -8.590335e-001 -3.831270e-001 -2.968454e-001 -7.789304e-001 -1.659491e-001 -5.002096e-001 -3.833366e-001 -5.788517e-001 -2.973518e-001 1.053757e+000
<VARIANCE> 39
 1.970191e+001 2.635897e+001 3.570689e+001 3.337165e+001 3.963234e+001 4.131815e+001 3.926841e+001 3.860580e+001 3.262172e+001 2.987518e+001 3.259407e+001 2.607068e+001 5.954425e+001 2.862604e+000 4.004879e+000 4.425788e+000 5.949484e+000 4.845463e+000 5.030253e+000 6.002217e+000 5.366605e+000 5.042983e+000 4.152934e+000 4.356297e+000 3.745164e+000 1.259276e+001 3.981173e-001 6.785241e-001 6.874533e-001 8.130960e-001 8.978416e-001 1.017025e+000 8.759003e-001 9.278705e-001 8.322788e-001 7.725046e-001 8.153092e-001 7.092874e-001 1.252748e+000
<GCONST> 1.352413e+002
<STATE> 4
<MEAN> 39
 -4.358543e+000 -5.648736e+000 -3.390332e+000 -1.063791e+001 -3.661025e+000 -7.619973e+000 -5.049942e+000 -1.476546e-001 7.026241e-002 -3.047088e+000 -2.695216e+000 -1.708295e+000 6.686055e+001 9.893291e-001 -1.236156e+000 -4.429849e-001 -2.261863e+000 -7.429218e-001 -7.607226e-001 -1.736295e+000 -1.065956e-001 -1.088340e+000 -9.891364e-001 -1.426606e+000 -7.380805e-001 3.337974e+000 -1.462560e-001 -1.145475e-001 1.502712e-001 1.561257e-001 8.857276e-002 4.003863e-001 9.114777e-002 -3.604935e-001 -2.303670e-001 -4.666480e-002 -4.300044e-002 -2.797800e-001 -7.147510e-001
<VARIANCE> 39
 2.130512e+001 4.193128e+001 5.869056e+001 7.070173e+001 5.310844e+001 6.134133e+001 6.604636e+001 5.921944e+001 4.815260e+001 4.532726e+001 4.932100e+001 4.805139e+001 1.120297e+002 2.880810e+000 5.665658e+000 5.401320e+000 8.027247e+000 6.823784e+000 6.516151e+000 7.194352e+000 6.966539e+000 6.236035e+000 5.418637e+000 5.752160e+000 4.420594e+000 1.052481e+001 3.682348e-001 5.638745e-001 4.924391e-001 8.290611e-001 7.288369e-001 8.530648e-001 9.256238e-001 8.602821e-001 7.709785e-001 7.030490e-001 8.115978e-001 7.058881e-001 1.617571e+000
<GCONST> 1.428625e+002
<TRANSP> 5
 0.000000e+000 1.000000e+000 0.000000e+000 0.000000e+000 0.000000e+000
 0.000000e+000 7.241021e-001 2.758979e-001 0.000000e+000 0.000000e+000
 0.000000e+000 0.000000e+000 5.125430e-001 4.874571e-001 0.000000e+000
 0.000000e+000 0.000000e+000 0.000000e+000 3.050502e-001 6.949499e-001
 0.000000e+000 0.000000e+000 0.000000e+000 0.000000e+000 0.000000e+000
<ENDHMM>
~h "U"
<BEGINHMM>
<NUMSTATES> 5
<STATE> 2
<MEAN> 39
 4.237520e-001 -6.903400e+000 -4.321597e+000 -1.754294e+001 -5.457630e+000 -6.808355e+000 -1.333789e+001 -6.090037e+000 -3.995561e+000 -1.354866e+000 -4.463655e+000 -5.866405e+000 7.204961e+001 9.459388e-001 8.336827e-001 -1.150604e+000 -1.627707e+000 3.049889e-001 1.381016e+000 -8.558652e-001 -1.058474e+000 -6.607964e-001 6.529595e-001 5.267790e-001 -7.598708e-002 -4.255899e-001 -2.290778e-001 2.299142e-001 3.986427e-001 1.930379e-001 -3.267367e-001 1.974014e-001 6.659667e-001 3.916734e-002 -3.787220e-001 -3.072929e-001 2.650749e-001 2.365336e-001 -3.094351e-001
<VARIANCE> 39
 1.914785e+001 5.718434e+001 9.493045e+001 1.058138e+002 8.100092e+001 1.207971e+002 8.742447e+001 7.178330e+001 6.349174e+001 8.041216e+001 9.230503e+001 6.440308e+001 2.505062e+001 7.886471e-001 2.219778e+000 3.744827e+000 5.027660e+000 7.077457e+000 5.488832e+000 4.904300e+000 5.207625e+000 5.353794e+000 4.191485e+000 4.719426e+000 3.770358e+000 1.815719e+000 1.875605e-001 3.296504e-001 4.244955e-001 7.391979e-001 8.404949e-001 9.569519e-001 9.546143e-001 9.966227e-001 9.830032e-001 9.361815e-001 9.091976e-001 7.178738e-001 2.037168e-001
<GCONST> 1.369433e+002
<STATE> 3
<MEAN> 39
 2.419003e+000 -3.575549e+000 -6.255747e+000 -2.134715e+001 -6.881941e+000 -1.685893e+000 -1.228716e+001 -7.584298e+000 -8.408689e+000 -2.087770e+000 -1.541965e+000 -3.946769e+000 7.006229e+001 2.542343e-001 7.636424e-001 5.021660e-001 2.084327e-001 -8.215963e-001 -8.033630e-002 5.306135e-001 1.678450e-001 -3.542634e-001 -7.786719e-001 -1.224250e-001 3.452691e-001 -8.516698e-001 -3.179334e-001 -1.039812e-001 4.113485e-001 8.228963e-001 1.144368e-001 -3.679269e-001 3.397244e-001 2.786985e-001 4.338880e-001 -2.145255e-001 -3.062738e-001 -1.632997e-001 -2.421218e-001
<VARIANCE> 39
 1.924120e+001 4.797064e+001 9.736643e+001 1.034004e+002 7.654418e+001 1.079261e+002 8.156744e+001 7.604788e+001 6.851007e+001 7.159524e+001 9.016344e+001 6.620543e+001 2.017559e+001 8.438758e-001 2.807530e+000 2.612441e+000 7.540960e+000 4.320332e+000 5.481466e+000 5.471708e+000 4.622229e+000 4.903838e+000 5.080776e+000 4.719147e+000 3.924089e+000 2.155346e+000 1.546158e-001 3.427244e-001 5.008504e-001 7.128639e-001 9.604458e-001 1.012545e+000 9.177007e-001 9.715279e-001 9.360482e-001 9.098479e-001 9.038269e-001 7.352648e-001 1.905984e-001
<GCONST> 1.364744e+002
<STATE> 4
<MEAN> 39
 3.425093e+000 1.064232e+000 -4.704122e+000 -1.994880e+001 -9.353691e+000 -2.291625e+000 -9.009377e+000 -5.501606e+000 -6.997339e+000 -5.924839e+000 -3.297786e+000 -4.707363e+000 6.609533e+001 -3.685096e-001 2.106726e-001 7.881849e-001 1.517590e+000 2.703313e-001 -3.137211e-001 4.555303e-001 -6.889395e-002 3.908059e-001 -1.530647e-001 -2.326923e-001 -8.505023e-002 -9.360731e-001 -2.280208e-001 -1.880591e-001 4.814903e-002 2.671424e-001 2.628208e-001 4.573168e-002 2.640149e-002 -3.393968e-002 1.269779e-001 1.432473e-001 6.259753e-002 -1.360948e-002 -2.210191e-002
<VARIANCE> 39
 2.011552e+001 5.090043e+001 7.736191e+001 1.183036e+002 7.607408e+001 8.052637e+001 7.423158e+001 7.538428e+001 6.308897e+001 5.885947e+001 6.080491e+001 5.201004e+001 3.380512e+001 8.589799e-001 1.721353e+000 2.279427e+000 5.271805e+000 4.077407e+000 3.699204e+000 3.931272e+000 3.727473e+000 3.558024e+000 3.715751e+000 3.578721e+000 2.848396e+000 1.730341e+000 1.303129e-001 2.765407e-001 3.285386e-001 6.192120e-001 5.390544e-001 6.110406e-001 6.528227e-001 6.989130e-001 6.419720e-001 6.147467e-001 5.701838e-001 5.031568e-001 1.645880e-001
<GCONST> 1.278138e+002
<TRANSP> 5
 0.000000e+000 1.000000e+000 0.000000e+000 0.000000e+000 0.000000e+000
 0.000000e+000 4.840884e-001 5.159116e-001 0.000000e+000 0.000000e+000
 0.000000e+000 0.000000e+000 4.796835e-001 5.203166e-001 0.000000e+000
 0.000000e+000 0.000000e+000 0.000000e+000 6.747946e-001 3.252054e-001
 0.000000e+000 0.000000e+000 0.000000e+000 0.000000e+000 0.000000e+000
<ENDHMM>
~h "V"
<BEGINHMM>
<NUMSTATES> 5
<STATE> 2
<MEAN> 39
 -2.692476e+000 -3.990100e-002 -2.606045e-001 -4.404726e+000 -2.127108e+000 -3.846431e+000 -6.101956e+000 -8.265625e+000 -6.003726e+000 -5.443935e+000 -3.619768e+000 -4.792312e+000 5.903936e+001 -7.812494e-002 5.299863e-001 -3.978738e-003 3.946973e-001 3.159142e-001 1.252762e-001 -2.832158e-001 -5.271016e-001 -4.189405e-001 -1.581160e-001 2.945056e-001 8.342597e-004 1.773121e-001 2.258578e-001 -4.732731e-001 -2.462964e-001 -7.896475e-001 -3.083598e-001 -1.691762e-001 -2.250204e-001 1.385890e-001 1.596255e-001 2.665531e-001 2.611334e-002 -2.963298e-002 7.311730e-001
<VARIANCE> 39
 3.531815e+001 3.238570e+001 3.782235e+001 5.217842e+001 3.070324e+001 4.142657e+001 4.485023e+001 4.832537e+001 4.447873e+001 3.949904e+001 4.255387e+001 3.303853e+001 3.742087e+001 2.832806e+000 2.116127e+000 2.596755e+000 4.912776e+000 2.811015e+000 2.924742e+000 3.837905e+000 3.794506e+000 3.680454e+000 3.269815e+000 3.168658e+000 2.584378e+000 3.694746e+000 5.142729e-001 3.893743e-001 5.043682e-001 8.150076e-001 5.550078e-001 5.884272e-001 7.586947e-001 7.459930e-001 7.612422e-001 7.300640e-001 6.721680e-001 5.479973e-001 3.526917e-001
<GCONST> 1.276843e+002
<STATE> 3
<MEAN> 39
 -4.526235e-001 -1.324833e+000 -3.083469e+000 -8.939529e+000 -3.009778e+000 -4.289005e+000 -9.384406e+000 -1.007928e+001 -6.651773e+000 -3.584120e+000 -1.725071e+000 -4.831983e+000 6.399369e+001 1.299469e+000 -2.246049e+000 -1.575124e+000 -3.297933e+000 -5.943263e-001 -4.796034e-001 -1.113603e+000 9.925244e-001 1.050448e+000 1.395160e+000 -5.906736e-002 -7.801335e-001 3.309457e+000 -1.511171e-001 -6.877441e-001 1.828408e-002 -3.710036e-001 -1.203558e-001 -3.798782e-002 3.277170e-001 7.336918e-001 3.198931e-001 -6.629131e-002 -4.969606e-001 -2.319343e-001 4.368135e-001
<VARIANCE> 39
 3.133414e+001 2.882901e+001 4.372392e+001 6.304212e+001 2.821846e+001 4.738240e+001 4.816695e+001 4.346615e+001 4.122163e+001 4.301981e+001 4.903199e+001 3.187022e+001 2.880048e+001 2.749670e+000 2.761019e+000 3.797067e+000 5.287913e+000 4.102502e+000 4.643517e+000 5.486782e+000 5.579321e+000 5.406524e+000 5.383103e+000 6.637349e+000 4.682472e+000 2.022488e+000 5.458686e-001 3.990116e-001 5.562180e-001 1.173153e+000 7.305156e-001 6.651607e-001 9.411971e-001 7.872219e-001 8.595828e-001 1.049125e+000 8.507651e-001 7.337136e-001 4.738565e-001
<GCONST> 1.340579e+002
<STATE> 4
<MEAN> 39
 1.475046e+000 -8.791547e+000 -6.074787e+000 -1.658712e+001 -4.261513e+000 -5.531237e+000 -9.962273e+000 -4.305597e+000 -1.889385e+000 -1.020411e+000 -4.575074e+000 -8.210606e+000 7.230339e+001 -2.485717e-001 -2.465989e+000 -4.545767e-001 -1.803448e+000 -4.017338e-001 -4.545548e-001 6.764888e-001 2.069379e+000 6.789082e-001 -3.289198e-001 -1.323295e+000 -6.556870e-001 2.673377e+000 -4.915879e-001 3.240901e-001 4.901470e-001 7.374967e-001 7.377467e-002 1.289878e-001 5.166647e-001 -1.738346e-001 -5.283649e-001 -5.704076e-001 1.070402e-002 3.228430e-001 -5.374916e-001
<VARIANCE> 39
 2.078263e+001 4.255688e+001 6.393684e+001 8.460326e+001 4.675925e+001 8.768160e+001 6.316271e+001 6.055133e+001 5.817936e+001 6.931937e+001 8.852702e+001 5.771103e+001 2.769549e+001 1.404689e+000 2.622099e+000 3.292725e+000 6.045433e+000 5.448556e+000 4.575737e+000 5.777534e+000 4.900900e+000 4.555323e+000 6.000548e+000 5.077186e+000 4.803797e+000 2.107807e+000 2.702819e-001 2.769859e-001 3.338667e-001 8.814163e-001 5.553774e-001 6.252131e-001 7.097654e-001 7.229775e-001 8.140928e-001 8.729646e-001 1.006162e+000 7.476940e-001 2.853879e-001
<GCONST> 1.344702e+002
<TRANSP> 5
 0.000000e+000 1.000000e+000 0.000000e+000 0.000000e+000 0.000000e+000
 0.000000e+000 7.191559e-001 2.808441e-001 0.000000e+000 0.000000e+000
 0.000000e+000 0.000000e+000 5.427172e-001 4.572829e-001 0.000000e+000
 0.000000e+000 0.000000e+000 0.000000e+000 4.091793e-001 5.908207e-001
 0.000000e+000 0.000000e+000 0.000000e+000 0.000000e+000 0.000000e+000
<ENDHMM>
~h "X"
<BEGINHMM>
<NUMSTATES> 5
<STATE> 2
<MEAN> 39
 -8.859784e+000 3.898281e+000 3.308358e-001 -4.659743e+000 -5.674101e+000 -9.426760e+000 -5.371394e+000 -5.771278e+000 -5.941102e+000 -5.484240e+000 -3.706162e+000 -3.204669e+000 6.623198e+001 -3.581603e+000 2.718138e+000 -7.623197e-001 2.442071e+000 1.889625e+000 1.120554e+000 1.640125e+000 1.378677e+000 1.098856e+000 5.288434e-001 1.069863e+000 3.300956e-001 -6.304584e-001 -4.963970e-001 -4.035405e-001 -2.934295e-001 -2.760513e-001 2.010700e-001 4.561309e-001 3.018569e-001 3.413613e-001 2.988415e-001 3.807586e-001 1.652863e-001 2.848556e-002 7.106350e-002
<VARIANCE> 39
 6.305649e+001 6.681654e+001 7.732149e+001 7.686768e+001 7.674994e+001 6.218144e+001 6.280580e+001 6.987860e+001 5.141053e+001 5.393875e+001 5.689812e+001 4.000531e+001 3.474113e+001 4.070713e+000 4.898921e+000 4.535478e+000 6.271805e+000 5.343915e+000 7.066089e+000 5.769983e+000 5.776045e+000 4.575262e+000 5.598357e+000 4.731048e+000 4.088859e+000 1.824175e+000 1.003366e+000 1.083893e+000 5.859361e-001 1.050271e+000 1.006631e+000 9.769417e-001 9.223980e-001 8.937355e-001 7.837712e-001 8.290681e-001 7.410057e-001 6.671216e-001 1.915110e-001
<GCONST> 1.416618e+002
<STATE> 3
<MEAN> 39
 -2.257809e+001 6.881575e+000 -3.954921e+000 -5.994488e-002 5.044860e-001 -3.062787e+000 1.647793e+000 1.030321e+000 -1.769813e-001 -4.768037e-001 1.412403e+000 -7.737194e-001 6.425081e+001 4.152757e-001 -5.602676e-001 -1.720699e-002 -4.297420e-001 -2.386717e-001 -2.005650e-001 -5.749426e-002 2.235485e-001 1.175412e-001 2.180035e-002 1.024088e-001 3.062693e-001 3.533212e-001 1.066282e+000 -4.685760e-001 2.226227e-001 -5.115221e-001 -4.548136e-001 -4.941057e-001 -4.755614e-001 -2.681489e-001 -2.734857e-001 -3.121718e-001 -3.043793e-001 -6.018404e-002 3.166554e-001
<VARIANCE> 39
 2.545940e+001 3.357671e+001 5.024855e+001 5.227531e+001 4.209374e+001 3.670190e+001 3.652750e+001 4.134241e+001 2.772617e+001 2.464503e+001 2.257952e+001 1.870917e+001 2.370140e+001 7.658054e+000 1.872743e+000 2.583540e+000 2.892113e+000 2.780052e+000 3.657872e+000 3.109411e+000 2.713807e+000 2.546524e+000 2.662831e+000 2.488384e+000 2.106495e+000 1.360901e+000 5.027389e-001 4.348214e-001 4.669725e-001 6.818994e-001 5.444648e-001 6.364896e-001 6.466148e-001 5.974030e-001 5.339039e-001 5.467335e-001 5.474378e-001 4.926513e-001 2.273685e-001
<GCONST> 1.210095e+002
<STATE> 4
<MEAN> 39
 -6.339540e+000 -1.845167e+000 -1.560496e+000 -9.375707e+000 -6.667980e+000 -1.114730e+001 -4.703462e+000 -3.432206e-002 -2.735534e+000 -4.607477e+000 -2.343515e+000 2.048054e-001 7.093050e+001 3.856732e+000 -4.009054e+000 -2.760881e-001 -3.814070e+000 -1.928871e+000 -1.670019e+000 -2.027786e+000 -3.629670e-001 -1.107184e+000 -1.295914e+000 -1.813657e+000 -7.116922e-001 2.627630e+000 -1.117019e+000 -1.444085e-001 -3.184457e-001 7.755549e-002 5.291113e-001 8.444166e-001 3.268813e-001 -4.670330e-002 -1.046415e-001 1.921707e-001 5.259413e-002 -4.324349e-001 -1.319866e-001
<VARIANCE> 39
 4.438204e+001 5.776053e+001 6.333041e+001 7.561674e+001 6.683563e+001 5.183503e+001 6.730711e+001 4.465077e+001 3.821211e+001 3.755757e+001 5.097791e+001 4.554319e+001 3.138706e+001 5.900535e+000 3.523632e+000 4.734121e+000 6.122022e+000 6.586482e+000 7.697175e+000 8.211905e+000 6.195957e+000 4.951212e+000 5.194643e+000 5.735866e+000 5.703253e+000 1.689036e+000 7.624643e-001 8.077879e-001 4.586351e-001 1.122885e+000 7.961274e-001 8.384622e-001 8.947776e-001 7.104504e-001 6.350708e-001 6.953500e-001 9.502738e-001 7.489666e-001 4.076025e-001
<GCONST> 1.400797e+002
<TRANSP> 5
 0.000000e+000 1.000000e+000 0.000000e+000 0.000000e+000 0.000000e+000
 0.000000e+000 7.270260e-001 2.729740e-001 0.000000e+000 0.000000e+000
 0.000000e+000 0.000000e+000 8.634511e-001 1.365489e-001 0.000000e+000
 0.000000e+000 0.000000e+000 0.000000e+000 6.389372e-001 3.610627e-001
 0.000000e+000 0.000000e+000 0.000000e+000 0.000000e+000 0.000000e+000
<ENDHMM>
~h "Y"
<BEGINHMM>
<NUMSTATES> 5
<STATE> 2
<MEAN> 39
 -6.425948e+000 -1.372980e+001 3.501180e+000 -1.765011e+001 -1.316518e+001 -7.462427e+000 6.907083e-001 -1.627047e+000 -7.994022e+000 -5.989682e+000 -5.605464e+000 -7.105153e+000 7.681252e+001 -2.907730e-001 1.365940e+000 1.472086e+000 -1.180558e+000 -1.704974e+000 -3.513428e-001 -2.782572e-001 -5.041512e-001 4.726005e-001 1.375762e+000 2.063523e-001 -2.698056e-001 -3.765507e-001 6.663211e-002 1.960096e-001 3.762357e-002 1.146056e-001 2.392041e-001 -4.598146e-002 -5.194450e-001 -2.959820e-001 7.881832e-002 1.126272e-001 4.308273e-002 1.819126e-001 -1.830962e-001
<VARIANCE> 39
 1.889284e+001 4.226523e+001 6.110239e+001 8.273065e+001 6.559598e+001 6.296677e+001 6.173665e+001 1.062839e+002 6.288826e+001 5.211631e+001 6.652779e+001 3.750987e+001 1.698734e+001 3.349201e-001 9.808837e-001 1.051463e+000 1.677776e+000 1.680083e+000 1.948227e+000 3.060331e+000 2.350245e+000 3.070545e+000 2.265438e+000 3.024225e+000 1.800774e+000 2.940743e-001 5.298533e-002 1.189456e-001 1.386309e-001 2.527505e-001 2.966469e-001 3.160999e-001 3.523256e-001 3.677240e-001 4.093808e-001 3.915378e-001 3.905309e-001 3.268855e-001 4.372653e-002
<GCONST> 1.079290e+002
<STATE> 3
<MEAN> 39
 -7.441911e+000 -5.867504e+000 1.164694e+001 -2.030884e+001 -1.796079e+001 -9.320390e+000 -6.557334e+000 -6.594532e+000 -7.023468e+000 -3.310103e-001 -4.110554e+000 -5.927894e+000 7.385786e+001 -2.807068e-002 1.106031e+000 1.018441e+000 1.015233e-001 7.434230e-002 -7.191111e-002 -1.247470e+000 -1.147292e+000 -3.606346e-001 1.125423e-001 2.109350e-002 5.030883e-001 -8.151044e-001 1.438757e-001 -9.450383e-002 -2.701868e-001 4.255205e-001 3.921985e-001 8.301369e-002 1.685321e-001 1.266571e-001 -1.326883e-001 -3.521756e-001 -9.654052e-002 -1.594366e-003 -1.816601e-001
<VARIANCE> 39
 1.669505e+001 3.173532e+001 5.864317e+001 1.009220e+002 4.840861e+001 4.851514e+001 5.532417e+001 7.553919e+001 5.311337e+001 5.261818e+001 9.469088e+001 4.358738e+001 1.630910e+001 3.923092e-001 9.261789e-001 9.780380e-001 1.281177e+000 1.304308e+000 1.836200e+000 2.162267e+000 1.961208e+000 1.999029e+000 1.869020e+000 1.796054e+000 1.792506e+000 3.760864e-001 7.141149e-002 1.154490e-001 1.469634e-001 3.066755e-001 2.894132e-001 2.528973e-001 3.455980e-001 3.137952e-001 3.832505e-001 3.748815e-001 3.729060e-001 2.892784e-001 8.403027e-002
<GCONST> 1.054507e+002
<STATE> 4
<MEAN> 39
 -6.042042e+000 -1.262142e+000 1.222152e+001 -1.517683e+001 -1.459778e+001 -8.113193e+000 -8.503654e+000 -9.350494e+000 -8.229357e+000 -3.151495e+000 -4.171535e+000 -4.390855e+000 6.718376e+001 4.085974e-001 5.795197e-001 -4.527742e-001 1.730181e+000 1.222077e+000 2.587730e-001 3.446853e-001 5.886527e-002 1.518828e-001 -4.689725e-001 4.293588e-004 9.553430e-002 -1.642255e+000 7.095929e-004 -1.605008e-001 -3.806143e-001 2.328225e-001 2.618718e-001 1.201205e-001 2.976478e-001 2.759474e-001 2.394644e-001 -2.554156e-003 4.607899e-002 -7.032011e-002 -1.443929e-001
<VARIANCE> 39
 1.847943e+001 4.440303e+001 6.076424e+001 1.093088e+002 6.321158e+001 6.069714e+001 5.893195e+001 6.921575e+001 5.497667e+001 5.651315e+001 8.083715e+001 6.354240e+001 4.319151e+001 9.855300e-001 1.658345e+000 1.894504e+000 3.453234e+000 2.817852e+000 2.515680e+000 3.360098e+000 2.763824e+000 2.895536e+000 2.824984e+000 3.109122e+000 2.430854e+000 1.683509e+000 1.644072e-001 2.678045e-001 3.032467e-001 5.555760e-001 5.026479e-001 4.665947e-001 5.865532e-001 5.307513e-001 5.184080e-001 4.980204e-001 4.947970e-001 4.298968e-001 2.335739e-001
<GCONST> 1.234301e+002
<TRANSP> 5
 0.000000e+000 1.000000e+000 0.000000e+000 0.000000e+000 0.000000e+000
 0.000000e+000 7.159778e-001 2.840222e-001 0.000000e+000 0.000000e+000
 0.000000e+000 0.000000e+000 7.264635e-001 2.735365e-001 0.000000e+000
 0.000000e+000 0.000000e+000 0.000000e+000 6.920059e-001 3.079941e-001
 0.000000e+000 0.000000e+000 0.000000e+000 0.000000e+000 0.000000e+000
<ENDHMM>
~h "AA"
<BEGINHMM>
<NUMSTATES> 5
<STATE> 2
<MEAN> 39
 -5.327258e+000 -1.413344e+001 -3.284802e+000 -1.786364e+001 -6.725236e+000 -7.645733e+000 -4.272404e+000 -6.355140e-001 -7.406826e+000 -8.032929e+000 -7.260828e+000 -5.615484e+000 7.659538e+001 -8.110888e-002 -2.057987e+000 -1.393937e+000 1.655313e-001 1.481246e+000 5.488123e-001 -4.928437e-002 2.460124e-001 -4.729096e-001 -1.148511e+000 -4.347000e-001 -3.231159e-001 1.020210e+000 2.703755e-002 8.010514e-001 2.187165e-001 6.463187e-001 3.274938e-001 -1.082747e-002 -3.929197e-001 -4.955806e-001 2.488062e-001 3.014140e-001 2.871708e-001 7.787577e-002 -8.457476e-001
<VARIANCE> 39
 1.898140e+001 4.574382e+001 8.298277e+001 7.084415e+001 9.549048e+001 6.431391e+001 7.703062e+001 8.439057e+001 6.794924e+001 6.442321e+001 7.363860e+001 7.019759e+001 2.054065e+001 9.370489e-001 2.705184e+000 2.670105e+000 4.643855e+000 5.387532e+000 3.712908e+000 4.865766e+000 5.671066e+000 4.315851e+000 4.118042e+000 4.329177e+000 4.293972e+000 1.529101e+000 2.901617e-001 4.325433e-001 5.994141e-001 8.419687e-001 8.910388e-001 7.412017e-001 9.540195e-001 8.227152e-001 8.022913e-001 7.961097e-001 8.816537e-001 7.730109e-001 3.196403e-001
<GCONST> 1.351801e+002
<STATE> 3
<MEAN> 39
 -4.621404e+000 -1.683569e+001 -7.133662e+000 -1.581254e+001 -1.054499e+000 -7.064495e+000 -7.324812e+000 -9.903932e-001 -6.031827e+000 -9.205692e+000 -7.783749e+000 -6.244111e+000 7.733789e+001 3.893455e-001 2.540310e-001 -4.757079e-001 4.344402e-002 8.621631e-001 2.785583e-001 -9.287603e-001 -7.083437e-001 1.951779e-001 3.693511e-001 1.263878e-001 -6.977884e-001 -5.254158e-001 1.639464e-001 7.384869e-001 4.863635e-001 -8.110138e-003 -5.721359e-001 -9.159163e-002 2.711387e-002 -2.653366e-001 -2.662105e-002 3.916153e-001 2.384980e-001 1.130296e-001 -5.222703e-001
<VARIANCE> 39
 1.674833e+001 4.483983e+001 6.070525e+001 6.757023e+001 8.830809e+001 6.946984e+001 7.738438e+001 8.465764e+001 6.973862e+001 6.531666e+001 7.209974e+001 7.793851e+001 1.694111e+001 6.236678e-001 1.486212e+000 1.490186e+000 1.894368e+000 2.984953e+000 2.695780e+000 2.999972e+000 2.522606e+000 2.514454e+000 2.658388e+000 2.711497e+000 2.373063e+000 7.740470e-001 8.873465e-002 1.902821e-001 2.546449e-001 5.230964e-001 4.829727e-001 4.706428e-001 6.055707e-001 7.075064e-001 6.258101e-001 5.494387e-001 5.564033e-001 6.088970e-001 1.001157e-001
<GCONST> 1.197134e+002
<STATE> 4
<MEAN> 39
 -1.929644e+000 -1.359007e+001 -8.685106e+000 -1.879251e+001 -5.251874e-001 -3.326467e+000 -8.822096e+000 -4.281504e+000 -7.681567e+000 -6.923558e+000 -5.128544e+000 -7.035301e+000 7.401916e+001 4.782623e-001 1.256045e+000 3.074335e-001 -3.770945e-001 -7.359046e-001 8.982938e-002 -6.402513e-002 -5.689289e-001 -2.424483e-001 2.803922e-001 2.811796e-001 1.406499e-001 -9.387547e-001 6.487785e-003 2.058107e-001 2.846064e-001 1.080110e-001 -3.065085e-001 -1.173830e-001 6.546676e-002 -7.447200e-002 -1.445783e-002 -1.079014e-002 -7.941536e-002 1.845345e-001 -1.482085e-001
<VARIANCE> 39
 1.968142e+001 5.505979e+001 6.780450e+001 1.014385e+002 8.748432e+001 1.028306e+002 8.289568e+001 8.127347e+001 6.604591e+001 5.768440e+001 7.463331e+001 7.498067e+001 2.798985e+001 4.427080e-001 1.165242e+000 1.211913e+000 2.261919e+000 2.140722e+000 2.287007e+000 1.999885e+000 2.821539e+000 2.246231e+000 2.213025e+000 2.261553e+000 2.203631e+000 8.236159e-001 5.481702e-002 1.659137e-001 2.125614e-001 3.644827e-001 3.841194e-001 3.959302e-001 4.239001e-001 4.865212e-001 4.324825e-001 4.226646e-001 3.774081e-001 4.357601e-001 7.584412e-002
<GCONST> 1.155059e+002
<TRANSP> 5
 0.000000e+000 1.000000e+000 0.000000e+000 0.000000e+000 0.000000e+000
 0.000000e+000 4.998064e-001 5.001936e-001 0.000000e+000 0.000000e+000
 0.000000e+000 0.000000e+000 5.295107e-001 4.704893e-001 0.000000e+000
 0.000000e+000 0.000000e+000 0.000000e+000 6.965641e-001 3.034359e-001
 0.000000e+000 0.000000e+000 0.000000e+000 0.000000e+000 0.000000e+000
<ENDHMM>
~h "AF"
<BEGINHMM>
<NUMSTATES> 5
<STATE> 2
<MEAN> 39
 -3.458436e+000 -1.593910e+001 -3.419239e+000 -1.535869e+001 -4.370637e+000 -5.239172e+000 -2.999110e+000 -1.670352e+000 -7.855185e+000 -8.733544e+000 -7.617024e+000 -6.684008e+000 7.630306e+001 -8.242143e-001 -1.996187e+000 -3.904667e-001 3.695155e-001 8.931146e-001 8.945453e-001 1.110227e+000 3.333051e-001 -8.739474e-001 -1.056108e+000 2.539668e-001 -6.713863e-002 1.487286e+000 7.680237e-002 6.679316e-001 3.619100e-001 4.814064e-001 -3.026536e-002 -1.948516e-001 -3.491691e-001 -5.660518e-001 1.220834e-001 2.672659e-001 3.352780e-001 1.624596e-001 -6.300170e-001
<VARIANCE> 39
 2.506740e+001 4.429796e+001 7.658069e+001 7.177257e+001 7.600409e+001 6.660620e+001 7.063993e+001 8.708292e+001 7.587077e+001 6.444425e+001 6.172371e+001 5.586933e+001 1.978626e+001 7.357344e-001 2.116243e+000 2.157738e+000 3.582169e+000 2.995685e+000 3.686463e+000 3.267386e+000 5.664348e+000 4.022828e+000 3.562354e+000 3.712123e+000 3.365801e+000 1.359366e+000 1.566351e-001 2.955379e-001 3.929892e-001 5.193478e-001 4.990709e-001 6.438900e-001 7.017345e-001 7.585450e-001 7.694781e-001 6.312984e-001 6.418227e-001 5.736232e-001 1.774542e-001
<GCONST> 1.276056e+002
<STATE> 3
<MEAN> 39
 -5.069842e+000 -1.881934e+001 -5.104010e+000 -1.302119e+001 -2.002935e+000 -4.234474e+000 -1.787058e+000 -4.363711e+000 -8.905442e+000 -1.041243e+001 -5.597015e+000 -6.263222e+000 7.813834e+001 -1.141235e-001 -3.719712e-001 1.847502e-001 5.881467e-001 2.007950e-001 6.029388e-002 1.867132e-001 -2.246585e-001 -1.124845e-001 -1.125704e-001 3.084125e-001 -2.539770e-002 1.343773e-001 2.268601e-001 4.403432e-001 1.896688e-001 -1.970398e-001 -2.873769e-001 -2.416472e-001 -2.023657e-001 1.102436e-001 2.258431e-001 2.965121e-001 -9.712566e-002 -2.585542e-002 -3.349534e-001
<VARIANCE> 39
 2.370077e+001 3.718578e+001 5.911725e+001 6.344006e+001 6.729129e+001 5.529481e+001 6.238322e+001 8.340435e+001 6.950935e+001 5.014307e+001 4.852112e+001 4.689228e+001 1.601494e+001 3.814684e-001 8.117297e-001 9.953630e-001 1.459183e+000 1.822968e+000 1.571220e+000 1.887069e+000 1.940374e+000 1.797020e+000 1.726366e+000 2.021873e+000 1.785699e+000 2.221271e-001 6.267184e-002 1.622427e-001 1.721836e-001 2.617307e-001 2.590153e-001 3.378766e-001 3.632141e-001 4.086526e-001 3.706533e-001 3.617472e-001 3.955852e-001 3.256539e-001 8.076438e-002
<GCONST> 1.059827e+002
<STATE> 4
<MEAN> 39
 -3.489811e+000 -1.821438e+001 -2.079369e+000 -1.176745e+001 -2.673339e+000 -2.598496e+000 -1.624136e+000 -2.203193e+000 -7.994187e+000 -8.388966e+000 -5.793464e+000 -7.308965e+000 7.711314e+001 2.448048e-001 4.585741e-001 3.211119e-001 -1.496067e-001 -2.992831e-001 -1.709771e-001 3.237759e-002 1.596399e-001 2.062360e-001 2.906549e-001 -8.767660e-002 -1.283451e-001 -3.868588e-001 8.324379e-002 2.687250e-001 8.060107e-002 -4.844921e-002 -1.110463e-001 -8.707385e-002 -9.570757e-002 -2.082391e-002 6.837799e-002 1.226762e-001 -2.658224e-002 6.571042e-003 -1.890895e-001
<VARIANCE> 39
 2.121360e+001 4.510209e+001 6.843591e+001 7.640683e+001 8.055219e+001 6.341934e+001 6.636305e+001 8.873463e+001 7.111729e+001 4.777644e+001 4.691178e+001 4.192469e+001 1.693178e+001 3.036665e-001 9.113433e-001 8.596241e-001 1.172467e+000 1.453315e+000 1.317992e+000 1.355163e+000 1.379419e+000 1.275424e+000 1.360272e+000 1.385581e+000 1.165223e+000 3.133185e-001 4.006325e-002 1.136074e-001 1.095297e-001 1.967770e-001 1.708880e-001 1.854363e-001 2.214572e-001 2.472894e-001 2.062360e-001 2.157934e-001 2.077787e-001 1.806076e-001 7.358450e-002
<GCONST> 9.814436e+001
<TRANSP> 5
 0.000000e+000 1.000000e+000 0.000000e+000 0.000000e+000 0.000000e+000
 0.000000e+000 4.987478e-001 5.012522e-001 0.000000e+000 0.000000e+000
 0.000000e+000 0.000000e+000 5.898556e-001 4.101445e-001 0.000000e+000
 0.000000e+000 0.000000e+000 0.000000e+000 8.312624e-001 1.687376e-001
 0.000000e+000 0.000000e+000 0.000000e+000 0.000000e+000 0.000000e+000
<ENDHMM>
~h "AJ"
<BEGINHMM>
<NUMSTATES> 5
<STATE> 2
<MEAN> 39
