~o
<STREAMINFO> 1 39
<VECSIZE> 39<NULLD><MFCC_D_A_0><DIAGC>
~h ":"
<BEGINHMM>
<NUMSTATES> 5
<STATE> 2
<MEAN> 39
 -4.901095e+000 -5.842618e+000 -5.097519e-001 -9.923710e+000 -4.122406e+000 -4.544213e+000 -4.531428e+000 -3.756145e+000 -3.134470e+000 -3.843007e+000 -3.141330e+000 -3.863289e+000 6.290533e+001 3.156596e-003 4.426242e-003 -3.008057e-004 -9.815464e-004 -7.398279e-004 -3.059326e-004 6.043092e-004 -2.233922e-003 1.730658e-004 -2.990019e-004 -3.013898e-003 -8.223696e-004 -5.428240e-004 -1.672899e-004 -1.806980e-004 4.561614e-005 -7.206317e-005 6.492341e-005 1.899766e-004 7.487284e-005 1.468558e-005 -2.101225e-005 1.112924e-004 1.261849e-004 6.155111e-006 1.118417e-005
<VARIANCE> 39
 3.977646e+001 6.976524e+001 7.436712e+001 1.058175e+002 8.034691e+001 6.925978e+001 7.782265e+001 7.860110e+001 6.821010e+001 5.800883e+001 6.279465e+001 4.830898e+001 1.459772e+002 1.544968e+000 2.667576e+000 2.529959e+000 4.061153e+000 3.472722e+000 3.155723e+000 3.471568e+000 3.756795e+000 3.266600e+000 3.146162e+000 3.154106e+000 2.635824e+000 3.396390e+000 2.536712e-001 3.905498e-001 3.963176e-001 6.350257e-001 5.963098e-001 5.526317e-001 6.014287e-001 6.646528e-001 5.859886e-001 5.718929e-001 5.669279e-001 4.794365e-001 4.314951e-001
<GCONST> 1.326273e+002
<STATE> 3
<MEAN> 39
 -4.901095e+000 -5.842618e+000 -5.097519e-001 -9.923710e+000 -4.122406e+000 -4.544213e+000 -4.531428e+000 -3.756145e+000 -3.134470e+000 -3.843007e+000 -3.141330e+000 -3.863289e+000 6.290533e+001 3.156596e-003 4.426242e-003 -3.008057e-004 -9.815464e-004 -7.398279e-004 -3.059326e-004 6.043092e-004 -2.233922e-003 1.730658e-004 -2.990019e-004 -3.013898e-003 -8.223696e-004 -5.428240e-004 -1.672899e-004 -1.806980e-004 4.561614e-005 -7.206317e-005 6.492341e-005 1.899766e-004 7.487284e-005 1.468558e-005 -2.101225e-005 1.112924e-004 1.261849e-004 6.155111e-006 1.118417e-005
<VARIANCE> 39
 3.977646e+001 6.976524e+001 7.436712e+001 1.058175e+002 8.034691e+001 6.925978e+001 7.782265e+001 7.860110e+001 6.821010e+001 5.800883e+001 6.279465e+001 4.830898e+001 1.459772e+002 1.544968e+000 2.667576e+000 2.529959e+000 4.061153e+000 3.472722e+000 3.155723e+000 3.471568e+000 3.756795e+000 3.266600e+000 3.146162e+000 3.154106e+000 2.635824e+000 3.396390e+000 2.536712e-001 3.905498e-001 3.963176e-001 6.350257e-001 5.963098e-001 5.526317e-001 6.014287e-001 6.646528e-001 5.859886e-001 5.718929e-001 5.669279e-001 4.794365e-001 4.314951e-001
<GCONST> 1.326273e+002
<STATE> 4
<MEAN> 39
 -4.901095e+000 -5.842618e+000 -5.097519e-001 -9.923710e+000 -4.122406e+000 -4.544213e+000 -4.531428e+000 -3.756145e+000 -3.134470e+000 -3.843007e+000 -3.141330e+000 -3.863289e+000 6.290533e+001 3.156596e-003 4.426242e-003 -3.008057e-004 -9.815464e-004 -7.398279e-004 -3.059326e-004 6.043092e-004 -2.233922e-003 1.730658e-004 -2.990019e-004 -3.013898e-003 -8.223696e-004 -5.428240e-004 -1.672899e-004 -1.806980e-004 4.561614e-005 -7.206317e-005 6.492341e-005 1.899766e-004 7.487284e-005 1.468558e-005 -2.101225e-005 1.112924e-004 1.261849e-004 6.155111e-006 1.118417e-005
<VARIANCE> 39
 3.977646e+001 6.976524e+001 7.436712e+001 1.058175e+002 8.034691e+001 6.925978e+001 7.782265e+001 7.860110e+001 6.821010e+001 5.800883e+001 6.279465e+001 4.830898e+001 1.459772e+002 1.544968e+000 2.667576e+000 2.529959e+000 4.061153e+000 3.472722e+000 3.155723e+000 3.471568e+000 3.756795e+000 3.266600e+000 3.146162e+000 3.154106e+000 2.635824e+000 3.396390e+000 2.536712e-001 3.905498e-001 3.963176e-001 6.350257e-001 5.963098e-001 5.526317e-001 6.014287e-001 6.646528e-001 5.859886e-001 5.718929e-001 5.669279e-001 4.794365e-001 4.314951e-001
<GCONST> 1.326273e+002
<TRANSP> 5
 0.000000e+000 1.000000e+000 0.000000e+000 0.000000e+000 0.000000e+000
 0.000000e+000 6.000000e-001 4.000000e-001 0.000000e+000 0.000000e+000
 0.000000e+000 0.000000e+000 6.000000e-001 4.000000e-001 0.000000e+000
 0.000000e+000 0.000000e+000 0.000000e+000 7.000000e-001 3.000000e-001
 0.000000e+000 0.000000e+000 0.000000e+000 0.000000e+000 0.000000e+000
<ENDHMM>
~h "A"
<BEGINHMM>
<NUMSTATES> 5
<STATE> 2
<MEAN> 39
 -4.637834e+000 -1.517419e+001 -4.221163e+000 -1.467728e+001 -3.650289e+000 -5.604276e+000 -3.442750e+000 -2.697432e+000 -7.034778e+000 -8.434852e+000 -5.819080e+000 -5.136534e+000 7.408618e+001 -3.679581e-001 -1.415618e+000 -3.194976e-001 4.092675e-001 6.773148e-001 3.550304e-001 2.347543e-001 -3.782969e-001 -7.989147e-001 -7.657784e-001 5.044184e-002 -1.611401e-001 9.010781e-001 4.159196e-002 4.711522e-001 2.176290e-001 2.328787e-001 -1.009180e-001 -7.519395e-002 -1.829724e-001 -2.020320e-001 1.528968e-001 2.714557e-001 2.182026e-001 7.480193e-002 -3.760828e-001
<VARIANCE> 39
 2.745201e+001 6.807546e+001 6.367200e+001 9.281733e+001 8.238207e+001 6.734605e+001 7.912811e+001 8.481605e+001 7.761949e+001 6.178370e+001 6.265811e+001 5.694958e+001 5.609794e+001 1.074535e+000 2.661751e+000 2.215333e+000 3.237738e+000 3.395486e+000 3.104056e+000 3.332453e+000 3.592198e+000 3.323810e+000 3.202233e+000 3.201273e+000 2.896405e+000 2.585538e+000 1.988368e-001 4.883910e-001 3.494724e-001 6.061106e-001 5.179806e-001 5.029403e-001 6.085308e-001 6.660635e-001 6.763950e-001 5.824746e-001 5.859246e-001 5.246478e-001 4.420998e-001
<GCONST> 1.303512e+002
<STATE> 3
<MEAN> 39
 -4.540156e+000 -1.686243e+001 -5.007212e+000 -1.431393e+001 -2.814491e+000 -5.165138e+000 -3.687963e+000 -3.934198e+000 -7.927482e+000 -9.048041e+000 -5.340690e+000 -5.596007e+000 7.599222e+001 -1.228044e-001 -3.375905e-001 4.888349e-002 4.324043e-001 1.170783e-001 5.608797e-002 -1.015336e-002 -3.446974e-001 -2.305362e-001 -1.009238e-001 2.145587e-001 -6.820209e-002 1.461025e-002 1.522796e-001 4.284984e-001 1.679829e-001 -6.862981e-002 -2.695689e-001 -1.443039e-001 -1.159461e-001 5.463706e-002 1.908719e-001 2.481659e-001 9.649744e-003 2.990926e-002 -2.825256e-001
<VARIANCE> 39
 2.647563e+001 7.220071e+001 6.293603e+001 8.346588e+001 8.077196e+001 6.931227e+001 7.812829e+001 8.732076e+001 7.478084e+001 6.276730e+001 5.774876e+001 5.471077e+001 3.666027e+001 5.329762e-001 1.227777e+000 1.347952e+000 1.993463e+000 2.294631e+000 1.963679e+000 2.209505e+000 2.186834e+000 2.065149e+000 2.041807e+000 2.078791e+000 1.829649e+000 7.088746e-001 9.019808e-002 2.223239e-001 2.150293e-001 3.492042e-001 3.223451e-001 3.318764e-001 3.680395e-001 4.220063e-001 4.305750e-001 3.852802e-001 3.747910e-001 3.384213e-001 1.395135e-001
<GCONST> 1.150206e+002
<STATE> 4
<MEAN> 39
 -4.809895e+000 -1.719041e+001 -3.923988e+000 -1.238102e+001 -3.081994e+000 -4.293705e+000 -3.593031e+000 -3.965804e+000 -8.504383e+000 -8.717674e+000 -5.050557e+000 -5.828300e+000 7.422061e+001 1.363412e-001 4.983235e-001 2.125820e-001 -9.347737e-002 -3.065719e-001 -1.505599e-001 -1.388170e-002 -3.341258e-002 1.094940e-001 1.754657e-001 -5.249633e-002 -4.078550e-002 -4.554966e-001 6.895689e-002 2.096208e-001 6.651827e-002 -2.342884e-002 -8.468521e-002 -6.907898e-002 -5.521190e-002 -1.941054e-003 7.422904e-002 8.722749e-002 -2.813843e-002 2.302798e-002 -1.518698e-001
<VARIANCE> 39
 2.518619e+001 6.667648e+001 5.964232e+001 8.737571e+001 7.257475e+001 6.146241e+001 7.225784e+001 8.499843e+001 7.227586e+001 5.760071e+001 5.010737e+001 5.399656e+001 7.168642e+001 4.087563e-001 1.138471e+000 9.701116e-001 1.644685e+000 1.610012e+000 1.551818e+000 1.648445e+000 1.586372e+000 1.593764e+000 1.628768e+000 1.538779e+000 1.294157e+000 5.926495e-001 5.762972e-002 1.444865e-001 1.414751e-001 2.487445e-001 2.146343e-001 2.431180e-001 2.643694e-001 2.837930e-001 2.696467e-001 2.638917e-001 2.475979e-001 2.150384e-001 8.741663e-002
<GCONST> 1.063051e+002
<TRANSP> 5
 0.000000e+000 1.000000e+000 0.000000e+000 0.000000e+000 0.000000e+000
 0.000000e+000 4.925894e-001 5.074106e-001 0.000000e+000 0.000000e+000
 0.000000e+000 0.000000e+000 4.093553e-001 5.906446e-001 0.000000e+000
 0.000000e+000 0.000000e+000 0.000000e+000 8.491048e-001 1.508951e-001
 0.000000e+000 0.000000e+000 0.000000e+000 0.000000e+000 0.000000e+000
<ENDHMM>
~h "B"
<BEGINHMM>
<NUMSTATES> 5
<STATE> 2
<MEAN> 39
 5.838108e-001 -1.286908e+000 1.616701e+000 -6.319999e+000 -3.619649e+000 -4.620641e+000 -7.040615e+000 -8.836714e+000 -6.216901e+000 -5.981901e+000 -5.649622e+000 -6.357901e+000 5.747918e+001 6.980315e-001 1.144639e+000 5.384045e-001 1.111736e+000 5.649620e-001 1.562036e-001 -3.010174e-001 -9.932207e-001 -8.068994e-001 -6.731299e-001 -3.696996e-001 -4.765666e-001 -1.013748e+000 -1.291787e-001 -4.436737e-001 -3.093055e-001 -5.457407e-001 -1.446846e-001 -7.619654e-002 -1.036276e-004 2.741496e-001 1.407116e-001 1.646954e-001 1.138061e-001 5.425096e-002 8.044637e-001
<VARIANCE> 39
 2.436572e+001 4.784988e+001 4.663138e+001 6.883172e+001 3.927706e+001 5.628415e+001 5.298460e+001 6.066184e+001 5.375596e+001 5.055687e+001 5.644694e+001 4.165017e+001 6.009904e+001 1.704153e+000 2.336192e+000 2.751929e+000 4.965561e+000 3.088660e+000 3.269146e+000 4.201299e+000 4.217925e+000 4.229542e+000 3.787530e+000 3.829149e+000 2.983965e+000 5.618093e+000 3.102980e-001 6.131241e-001 6.069179e-001 9.981097e-001 5.964749e-001 6.072298e-001 7.913470e-001 9.458742e-001 9.349842e-001 8.703660e-001 7.993971e-001 6.011593e-001 8.078457e-001
<GCONST> 1.338559e+002
<STATE> 3
<MEAN> 39
 2.527651e+000 -1.482293e+000 -2.947704e-001 -8.350534e+000 -3.326791e+000 -4.404290e+000 -9.022282e+000 -1.012667e+001 -6.998989e+000 -5.635409e+000 -5.473814e+000 -7.858429e+000 6.191021e+001 -2.080716e-001 -2.539492e+000 -1.971056e+000 -2.306855e+000 -1.026355e-001 -1.777215e-001 7.466300e-003 1.816613e+000 1.226633e+000 8.079872e-001 3.746386e-001 -2.714599e-001 3.865134e+000 -4.367907e-001 -8.537467e-001 -2.476210e-001 -5.219561e-001 -1.602983e-001 5.994615e-002 3.642221e-001 6.979665e-001 2.421259e-001 2.013577e-002 -1.716814e-002 1.718564e-001 7.720746e-001
<VARIANCE> 39
 1.413824e+001 5.162996e+001 5.435649e+001 7.116704e+001 3.304511e+001 6.175448e+001 5.188723e+001 6.324421e+001 5.893085e+001 5.874226e+001 6.533831e+001 4.269529e+001 7.003999e+001 2.032601e+000 6.252570e+000 4.930065e+000 6.841734e+000 4.389727e+000 4.739936e+000 6.596906e+000 7.940068e+000 7.272330e+000 6.630814e+000 6.796808e+000 5.479185e+000 6.424060e+000 3.002643e-001 9.535769e-001 1.088500e+000 1.711677e+000 8.859423e-001 8.592615e-001 1.224464e+000 1.396183e+000 1.541260e+000 1.507061e+000 1.297015e+000 9.990098e-001 1.602396e+000
<GCONST> 1.461964e+002
<STATE> 4
<MEAN> 39
 3.260002e-001 -9.481036e+000 -4.602971e+000 -1.384242e+001 -3.463628e+000 -5.103938e+000 -7.086936e+000 -3.539839e+000 -3.226110e+000 -5.286957e+000 -6.115571e+000 -7.791817e+000 7.137545e+001 -9.718136e-001 -2.638469e+000 -8.965539e-001 -1.753335e+000 -3.692472e-001 5.121773e-003 9.926314e-001 1.876776e+000 1.133050e-001 -2.394020e-001 4.889190e-002 5.074471e-001 3.155535e+000 -1.357899e-001 4.033640e-001 5.514100e-001 3.181614e-001 -1.293998e-001 1.700338e-001 1.136239e-001 -4.880347e-001 -5.302639e-001 -2.092317e-001 1.118633e-001 2.072902e-001 -6.502905e-001
<VARIANCE> 39
 1.849009e+001 7.936272e+001 6.570739e+001 8.512431e+001 5.168911e+001 7.604180e+001 6.220048e+001 7.523035e+001 6.322090e+001 6.984115e+001 6.676379e+001 6.130634e+001 7.180741e+001 1.734903e+000 5.308707e+000 5.359149e+000 8.689763e+000 6.452605e+000 6.032200e+000 6.819671e+000 6.338954e+000 6.188471e+000 7.148221e+000 6.214414e+000 4.793116e+000 5.423955e+000 2.808330e-001 8.756657e-001 6.738852e-001 1.610721e+000 8.533490e-001 8.480862e-001 9.683652e-001 1.246515e+000 1.083251e+000 1.083230e+000 1.006610e+000 8.491794e-001 1.194091e+000
<GCONST> 1.463974e+002
<TRANSP> 5
 0.000000e+000 1.000000e+000 0.000000e+000 0.000000e+000 0.000000e+000
 0.000000e+000 6.803268e-001 3.196733e-001 0.000000e+000 0.000000e+000
 0.000000e+000 0.000000e+000 6.341794e-001 3.658206e-001 0.000000e+000
 0.000000e+000 0.000000e+000 0.000000e+000 2.418377e-001 7.581623e-001
 0.000000e+000 0.000000e+000 0.000000e+000 0.000000e+000 0.000000e+000
<ENDHMM>
~h "C"
<BEGINHMM>
<NUMSTATES> 5
<STATE> 2
<MEAN> 39
 -4.962215e+000 -3.603747e+000 -1.293058e+000 -5.808694e+000 -2.804425e+000 -4.302088e+000 -2.144971e+000 -3.793448e+000 -9.699964e-001 -1.859402e+000 -2.027514e+000 -2.779797e+000 5.510554e+001 -8.338176e-001 -1.932788e-001 -3.039659e-001 1.141620e+000 8.579181e-001 4.482304e-001 8.234387e-001 7.693625e-001 9.545860e-001 4.528157e-001 5.489485e-001 3.058271e-001 -1.191706e+000 1.536895e-002 -2.473635e-001 -2.583125e-001 -4.169504e-001 -1.226989e-002 -1.600760e-001 -1.467212e-001 -3.126631e-003 -1.236559e-001 3.332372e-002 -7.769097e-002 3.061817e-002 8.054376e-001
<VARIANCE> 39
 2.375990e+001 3.614172e+001 4.789129e+001 5.157307e+001 4.958576e+001 5.280580e+001 5.288433e+001 5.475897e+001 5.052142e+001 4.288269e+001 4.849028e+001 3.974453e+001 5.036993e+001 1.739409e+000 2.937212e+000 3.740203e+000 4.466563e+000 4.123773e+000 4.512722e+000 4.307394e+000 4.256756e+000 4.167745e+000 3.761167e+000 3.752725e+000 3.121170e+000 6.331739e+000 3.650874e-001 5.628487e-001 6.006978e-001 8.058659e-001 8.092418e-001 9.404865e-001 8.380956e-001 8.490620e-001 8.511319e-001 7.544113e-001 7.350599e-001 6.205459e-001 8.444733e-001
<GCONST> 1.342696e+002
<STATE> 3
<MEAN> 39
 -7.500723e+000 -5.223526e+000 -4.416018e+000 -4.196951e+000 7.531022e-001 -5.367001e+000 -1.250641e+000 -1.987039e+000 1.264311e+000 3.830803e-001 -8.451872e-001 -1.021208e+000 5.837131e+001 3.450923e-001 -5.069585e-001 -9.157462e-001 -1.237251e+000 1.557247e-001 -9.807619e-001 -4.536073e-001 1.456580e-001 -4.259459e-001 3.115772e-001 -3.616811e-001 2.759598e-002 3.042187e+000 5.523616e-001 -4.816607e-002 1.649282e-001 -9.433497e-001 -6.052006e-001 -1.744472e-002 -3.959798e-001 -2.882445e-001 -5.927859e-001 -3.732066e-001 -3.321251e-001 -4.168746e-001 6.186028e-001
<VARIANCE> 39
 2.433987e+001 3.418069e+001 5.588923e+001 4.455127e+001 7.027195e+001 5.998122e+001 5.481502e+001 4.978830e+001 4.782943e+001 4.261069e+001 4.043970e+001 3.650035e+001 7.108177e+001 3.456517e+000 4.224716e+000 5.938566e+000 7.701937e+000 8.265160e+000 6.485771e+000 6.794862e+000 6.156398e+000 5.706397e+000 5.189227e+000 5.680057e+000 5.465046e+000 9.592464e+000 4.927872e-001 7.058272e-001 9.001191e-001 1.076026e+000 1.333210e+000 1.271454e+000 1.103673e+000 1.070910e+000 1.001607e+000 9.854446e-001 1.072095e+000 1.014741e+000 1.222179e+000
<GCONST> 1.448425e+002
<STATE> 4
<MEAN> 39
 -4.557445e+000 -6.218594e+000 -4.540511e+000 -1.040228e+001 -2.378560e+000 -6.812667e+000 -3.083145e+000 -2.501644e+000 -1.531801e+000 -6.441224e-001 -2.507201e+000 -2.788538e+000 6.443489e+001 1.107122e+000 -6.319351e-001 -2.247042e-001 -2.543452e+000 -9.930236e-001 -9.602861e-002 -7.001784e-001 -4.871387e-001 -1.435320e+000 -9.026442e-001 -9.089925e-001 -1.000652e+000 2.367352e+000 -2.062399e-003 -7.270639e-002 1.114669e-001 1.624087e-002 3.662268e-002 4.010737e-001 -5.522536e-003 -1.595875e-001 -1.382476e-001 -2.983762e-001 5.979489e-003 -1.272433e-001 -3.092820e-001
<VARIANCE> 39
 2.876901e+001 4.522166e+001 6.657319e+001 8.896611e+001 8.163435e+001 7.085184e+001 6.808255e+001 6.431817e+001 5.596989e+001 4.973871e+001 5.933605e+001 5.718802e+001 1.046055e+002 2.886352e+000 4.984696e+000 4.743288e+000 8.697767e+000 6.791503e+000 5.881584e+000 6.467597e+000 6.286934e+000 5.817931e+000 5.245874e+000 6.468953e+000 5.699158e+000 5.590553e+000 4.905342e-001 6.312444e-001 7.247233e-001 1.362603e+000 1.263453e+000 1.090804e+000 1.043703e+000 9.289629e-001 8.796311e-001 8.374724e-001 9.553358e-001 8.428026e-001 1.186190e+000
<GCONST> 1.465725e+002
<TRANSP> 5
 0.000000e+000 1.000000e+000 0.000000e+000 0.000000e+000 0.000000e+000
 0.000000e+000 7.166615e-001 2.833385e-001 0.000000e+000 0.000000e+000
 0.000000e+000 0.000000e+000 5.361190e-001 4.638809e-001 0.000000e+000
 0.000000e+000 0.000000e+000 0.000000e+000 3.933975e-001 6.066025e-001
 0.000000e+000 0.000000e+000 0.000000e+000 0.000000e+000 0.000000e+000
<ENDHMM>
~h "D"
<BEGINHMM>
<NUMSTATES> 5
<STATE> 2
<MEAN> 39
 -5.871440e+000 3.623643e+000 6.792686e+000 -8.471181e+000 -6.111913e+000 -9.121074e+000 -8.655172e+000 -9.396777e+000 -8.637809e+000 -5.737613e+000 -6.098264e+000 -6.447105e+000 6.224715e+001 -8.498088e-001 1.225464e+000 1.286760e+000 -3.266566e-001 2.608865e-001 -1.627287e-001 -6.165432e-001 -3.717195e-001 -6.422816e-001 -3.188823e-001 1.507922e-001 -3.090836e-001 3.638884e-001 -1.059649e-002 -4.478319e-001 -2.531960e-002 -4.353774e-001 -3.483107e-001 2.724902e-002 -4.211697e-002 1.536044e-001 1.501026e-001 2.110924e-001 1.670564e-001 1.378420e-001 4.955052e-001
<VARIANCE> 39
 3.320756e+001 5.279621e+001 7.514240e+001 9.543515e+001 6.309145e+001 5.840723e+001 5.773340e+001 7.471523e+001 5.521331e+001 5.321889e+001 6.856628e+001 5.341041e+001 5.488736e+001 2.885985e+000 3.208596e+000 5.310326e+000 6.441497e+000 5.967690e+000 4.193926e+000 4.972317e+000 4.549999e+000 4.747640e+000 4.230408e+000 4.200534e+000 3.394720e+000 5.067627e+000 5.075648e-001 6.864719e-001 8.970106e-001 1.033228e+000 1.413582e+000 8.411390e-001 9.607045e-001 8.409154e-001 8.548155e-001 8.523481e-001 7.489032e-001 6.299461e-001 5.002392e-001
<GCONST> 1.412487e+002
<STATE> 3
<MEAN> 39
 -8.670488e+000 4.033714e+000 1.254299e+001 -1.403681e+001 -9.471254e+000 -9.768897e+000 -1.181891e+001 -1.014694e+001 -1.024395e+001 -4.362593e+000 -3.912054e+000 -6.226305e+000 6.818461e+001 1.743273e-001 -2.221622e+000 2.799109e-001 -1.901494e+000 -2.645454e+000 -4.185555e-001 -1.240004e-001 8.904159e-001 6.550854e-001 1.149373e+000 6.318730e-001 4.139861e-001 2.513808e+000 4.824550e-001 -7.617769e-001 -8.956339e-001 2.165819e-001 -1.028328e-001 -1.875844e-003 5.107936e-001 5.316272e-001 4.651818e-001 6.353731e-002 -2.166117e-001 -4.824207e-002 -2.141256e-002
<VARIANCE> 39
 1.677736e+001 3.992982e+001 7.559447e+001 1.038584e+002 6.843623e+001 5.064571e+001 4.552775e+001 6.520900e+001 4.729486e+001 5.163557e+001 7.464019e+001 4.194652e+001 2.668601e+001 2.134224e+000 4.023533e+000 4.979287e+000 5.881844e+000 6.809412e+000 3.968318e+000 5.475348e+000 4.559157e+000 4.117385e+000 4.295165e+000 4.465327e+000 3.123800e+000 2.445315e+000 3.347735e-001 5.883995e-001 8.153242e-001 1.019059e+000 1.772431e+000 7.565908e-001 9.376360e-001 7.657390e-001 7.883221e-001 9.547107e-001 8.181201e-001 5.730948e-001 4.787301e-001
<GCONST> 1.372510e+002
<STATE> 4
<MEAN> 39
 -6.267933e+000 -5.418390e+000 7.657403e+000 -1.728492e+001 -1.573756e+001 -1.108939e+001 -8.518167e+000 -3.483543e+000 -5.774073e+000 -1.867885e+000 -3.408861e+000 -5.851285e+000 7.472704e+001 8.242967e-001 -2.329179e+000 -2.542269e+000 -3.087733e-001 4.891594e-001 7.744712e-002 1.063171e+000 1.849797e+000 1.323388e+000 -1.454641e-001 -7.237818e-001 -1.769130e-001 1.198022e+000 3.204828e-002 3.922623e-001 -2.846689e-001 3.156171e-001 1.083665e+000 3.715064e-001 -1.247354e-001 -3.438767e-001 -2.447651e-001 -3.779908e-001 -2.079020e-001 -6.224100e-002 -5.141134e-001
<VARIANCE> 39
 1.883981e+001 4.808932e+001 8.029429e+001 1.086684e+002 5.969500e+001 5.163101e+001 7.339578e+001 8.775558e+001 5.706528e+001 5.874369e+001 8.994823e+001 3.903007e+001 2.417956e+001 6.610795e-001 2.588091e+000 3.702575e+000 3.348524e+000 8.026195e+000 3.820028e+000 6.037168e+000 4.098278e+000 4.580274e+000 5.752252e+000 4.102557e+000 3.238001e+000 1.295265e+000 1.148935e-001 3.601083e-001 5.368356e-001 7.592345e-001 1.036455e+000 7.237993e-001 1.057692e+000 9.166130e-001 8.392210e-001 8.741547e-001 8.291194e-001 6.115265e-001 1.600615e-001
<GCONST> 1.324110e+002
<TRANSP> 5
 0.000000e+000 1.000000e+000 0.000000e+000 0.000000e+000 0.000000e+000
 0.000000e+000 7.682143e-001 2.317857e-001 0.000000e+000 0.000000e+000
 0.000000e+000 0.000000e+000 6.220189e-001 3.779811e-001 0.000000e+000
 0.000000e+000 0.000000e+000 0.000000e+000 6.729702e-001 3.270298e-001
 0.000000e+000 0.000000e+000 0.000000e+000 0.000000e+000 0.000000e+000
<ENDHMM>
~h "E"
<BEGINHMM>
<NUMSTATES> 5
<STATE> 2
<MEAN> 39
 -7.063675e+000 -1.076104e+001 2.675445e+000 -1.725258e+001 -1.190539e+001 -6.742636e+000 1.665835e+000 -2.665530e+000 -5.746281e+000 -5.660738e+000 -5.365999e+000 -5.394082e+000 7.245079e+001 -4.092991e-001 -9.892237e-001 2.815740e-001 -1.344618e+000 -8.621340e-001 2.971671e-001 4.424441e-001 3.230418e-002 -4.197444e-001 -2.146689e-001 -4.548140e-001 -8.589653e-001 1.330426e+000 1.372266e-002 2.890256e-001 -2.848430e-002 3.884682e-001 3.232809e-001 8.072150e-002 -1.925040e-001 -5.488078e-002 1.643513e-001 1.390222e-001 1.209653e-001 1.373459e-001 -2.831188e-001
<VARIANCE> 39
 2.139775e+001 4.305135e+001 6.221266e+001 9.484383e+001 7.027189e+001 6.511330e+001 5.786853e+001 8.510676e+001 6.724125e+001 4.861102e+001 5.421597e+001 4.075654e+001 7.284656e+001 9.991793e-001 2.128384e+000 2.056713e+000 2.853952e+000 2.625468e+000 2.706729e+000 3.053493e+000 2.949275e+000 2.677495e+000 2.481740e+000 2.836447e+000 2.144922e+000 3.175919e+000 2.324057e-001 4.122835e-001 3.457501e-001 6.390260e-001 5.004156e-001 5.095451e-001 5.838714e-001 5.397515e-001 4.826764e-001 4.492380e-001 4.661760e-001 3.971598e-001 5.923486e-001
<GCONST> 1.256203e+002
<STATE> 3
<MEAN> 39
 -7.859140e+000 -1.277886e+001 3.328360e+000 -2.069919e+001 -1.392384e+001 -6.617391e+000 1.809805e+000 -3.362949e+000 -6.880560e+000 -6.125241e+000 -6.777658e+000 -7.276128e+000 7.650346e+001 -9.637478e-002 -2.913076e-001 1.358636e-001 -2.368040e-001 -2.222833e-001 9.570647e-002 5.502798e-003 -4.588783e-003 -9.750924e-002 3.624197e-002 -1.018651e-001 -2.472684e-001 2.463257e-001 1.733775e-001 1.604443e-001 -6.206327e-002 3.154759e-001 1.711202e-001 -1.477610e-001 -1.644613e-001 1.974146e-003 5.874425e-002 2.112450e-002 7.338817e-002 1.955453e-001 -2.434132e-001
<VARIANCE> 39
 2.099869e+001 2.991606e+001 5.852666e+001 7.798440e+001 5.067477e+001 5.901258e+001 5.028428e+001 8.850687e+001 5.501076e+001 5.288884e+001 5.460212e+001 3.427074e+001 1.907594e+001 4.353086e-001 1.036085e+000 8.905451e-001 1.138896e+000 1.104694e+000 1.348000e+000 1.434636e+000 1.368139e+000 1.356587e+000 1.440547e+000 1.296200e+000 1.142367e+000 5.921938e-001 9.110750e-002 1.809119e-001 1.467925e-001 2.177834e-001 2.133880e-001 2.335159e-001 2.750860e-001 2.637157e-001 2.438406e-001 2.432330e-001 2.427586e-001 2.092083e-001 1.170203e-001
<GCONST> 1.011159e+002
<STATE> 4
<MEAN> 39
 -6.767175e+000 -1.238841e+001 4.147502e+000 -1.856551e+001 -1.385328e+001 -6.500278e+000 -7.076827e-003 -2.289476e+000 -6.759459e+000 -5.231931e+000 -6.190905e+000 -6.832268e+000 7.525407e+001 3.855509e-001 2.671536e-002 -1.557570e-001 4.570343e-001 3.112900e-001 -3.560138e-001 -3.545458e-001 3.017439e-002 1.984839e-002 -7.132395e-002 -1.031122e-002 1.769092e-001 -3.739395e-001 1.409493e-001 1.371498e-001 -6.914960e-002 1.892977e-001 1.757956e-001 -7.263684e-002 -2.075635e-001 -7.481173e-002 6.535054e-002 2.698533e-002 -2.356165e-003 3.891573e-002 -2.069711e-001
<VARIANCE> 39
 2.236259e+001 3.545953e+001 5.827654e+001 1.069001e+002 5.935415e+001 5.923352e+001 5.336208e+001 8.714072e+001 5.862875e+001 5.039827e+001 6.031566e+001 3.727701e+001 4.275688e+001 4.956462e-001 8.516984e-001 8.800401e-001 1.223657e+000 1.309870e+000 1.484556e+000 1.747288e+000 1.407096e+000 1.326280e+000 1.322998e+000 1.204123e+000 1.019380e+000 5.527117e-001 6.614707e-002 1.467643e-001 1.390428e-001 2.144512e-001 2.185127e-001 2.395265e-001 3.139547e-001 2.982205e-001 2.377550e-001 2.323994e-001 2.087196e-001 1.783072e-001 9.805102e-002
<GCONST> 1.021400e+002
<TRANSP> 5
 0.000000e+000 1.000000e+000 0.000000e+000 0.000000e+000 0.000000e+000
 0.000000e+000 5.524882e-001 4.475118e-001 0.000000e+000 0.000000e+000
 0.000000e+000 0.000000e+000 6.211656e-001 3.788344e-001 0.000000e+000
 0.000000e+000 0.000000e+000 0.000000e+000 8.551078e-001 1.448922e-001
 0.000000e+000 0.000000e+000 0.000000e+000 0.000000e+000 0.000000e+000
<ENDHMM>
~h "F"
<BEGINHMM>
<NUMSTATES> 5
<STATE> 2
<MEAN> 39
 -8.995248e+000 -1.455503e+000 1.193796e+001 -2.170435e+001 -1.351471e+001 -1.066974e+001 -1.052438e+001 -9.454596e+000 -8.648749e+000 -1.850017e+000 -6.738345e+000 -4.927557e+000 7.248886e+001 3.154723e-002 -2.719397e-001 4.916679e-001 -4.170137e-001 -6.870285e-001 2.239274e-001 -1.666877e-001 -1.731508e-001 3.571220e-001 4.733815e-001 1.752856e-001 5.854736e-002 3.306244e-001 3.642227e-002 1.745687e-001 -2.623402e-002 2.302626e-001 1.699841e-001 -3.295889e-002 -1.803788e-002 -1.023544e-001 5.024678e-003 -6.248139e-002 1.094084e-002 5.607196e-002 -1.973714e-001
<VARIANCE> 39
 1.586290e+001 4.742264e+001 5.443497e+001 1.055274e+002 5.480424e+001 3.813619e+001 5.946798e+001 6.011123e+001 4.693983e+001 5.623206e+001 7.611309e+001 3.329889e+001 2.513178e+001 3.294533e-001 1.131110e+000 8.904957e-001 1.107244e+000 1.724858e+000 1.011696e+000 1.514435e+000 1.598974e+000 1.402913e+000 1.573858e+000 1.418038e+000 1.339005e+000 6.635516e-001 5.886140e-002 1.523901e-001 1.497627e-001 2.202040e-001 3.086294e-001 1.756537e-001 2.797551e-001 2.421742e-001 2.487724e-001 2.796028e-001 2.523762e-001 2.001769e-001 8.673332e-002
<GCONST> 1.013577e+002
<STATE> 3
<MEAN> 39
 -7.894335e+000 -6.720387e-002 1.664604e+001 -2.041526e+001 -1.563778e+001 -8.741014e+000 -1.289146e+001 -1.079451e+001 -7.404004e+000 -7.420753e-001 -3.644558e+000 -4.022641e+000 7.172735e+001 2.191178e-001 1.892205e-001 3.866994e-001 4.801203e-001 9.997896e-002 1.802017e-001 -3.327282e-002 -2.036762e-001 -8.931159e-003 -5.806188e-002 3.840829e-002 5.724492e-002 -4.658788e-001 6.040554e-002 3.394918e-002 -9.478279e-002 2.285134e-001 1.540456e-001 1.080812e-002 1.217467e-001 7.247102e-002 -2.758977e-002 -9.418145e-002 -1.542624e-002 -4.430987e-002 -1.718891e-001
<VARIANCE> 39
 1.289308e+001 3.313335e+001 4.953393e+001 1.000184e+002 4.007557e+001 4.290313e+001 5.054505e+001 4.932915e+001 5.394438e+001 4.036301e+001 7.550659e+001 3.226079e+001 2.002769e+001 3.093658e-001 7.153251e-001 5.651233e-001 1.134065e+000 1.131742e+000 8.159294e-001 1.172471e+000 1.036167e+000 1.157885e+000 1.187484e+000 9.300764e-001 8.756732e-001 4.728444e-001 5.183451e-002 8.406737e-002 1.085709e-001 1.920318e-001 1.860986e-001 1.415168e-001 2.029207e-001 1.840449e-001 1.891014e-001 2.118502e-001 1.741657e-001 1.527196e-001 6.801610e-002
<GCONST> 9.175774e+001
<STATE> 4
<MEAN> 39
 -5.714217e+000 1.631727e+000 1.521026e+001 -7.443167e+000 -1.200978e+001 -3.809741e+000 -7.970597e+000 -7.367158e+000 -5.207849e+000 -4.235920e+000 1.459232e+000 -4.527006e+000 6.387424e+001 1.984790e-001 -5.271338e-002 -6.005264e-001 9.044310e-001 7.927564e-001 2.396468e-001 7.007582e-001 3.885745e-001 3.117286e-001 -6.009845e-002 -5.710746e-002 2.676594e-002 -9.888965e-001 -1.796604e-002 -3.024875e-002 -1.781608e-001 3.721885e-002 1.475047e-001 -2.744266e-002 5.226823e-002 8.819182e-002 6.763007e-002 1.324448e-002 -3.040068e-002 2.965663e-002 -7.084552e-002
<VARIANCE> 39
 1.444775e+001 3.925971e+001 8.503268e+001 8.809312e+001 7.396478e+001 5.054013e+001 5.054402e+001 5.916892e+001 5.605463e+001 4.024707e+001 6.802230e+001 2.626677e+001 7.821141e+001 7.319981e-001 1.155933e+000 1.937751e+000 2.700221e+000 2.193896e+000 1.806718e+000 2.415698e+000 1.947163e+000 2.182207e+000 2.089399e+000 1.798025e+000 1.424335e+000 1.316464e+000 1.122396e-001 1.862527e-001 2.727075e-001 3.893321e-001 3.885280e-001 3.005598e-001 3.682288e-001 3.352668e-001 3.585569e-001 3.730246e-001 2.791000e-001 2.658479e-001 1.896393e-001
<GCONST> 1.132585e+002
<TRANSP> 5
 0.000000e+000 1.000000e+000 0.000000e+000 0.000000e+000 0.000000e+000
 0.000000e+000 7.988696e-001 2.011304e-001 0.000000e+000 0.000000e+000
 0.000000e+000 0.000000e+000 8.448372e-001 1.551628e-001 0.000000e+000
 0.000000e+000 0.000000e+000 0.000000e+000 8.326536e-001 1.673463e-001
 0.000000e+000 0.000000e+000 0.000000e+000 0.000000e+000 0.000000e+000
<ENDHMM>
~h "G"
<BEGINHMM>
<NUMSTATES> 5
<STATE> 2
<MEAN> 39
 -2.650748e+000 -3.876391e+000 2.275876e+000 -1.132549e+001 -6.320075e+000 -1.323187e+001 -8.220360e+000 -5.991503e+000 -5.126935e+000 -1.813816e+000 -5.752320e+000 -3.618134e+000 6.602669e+001 -9.947648e-002 -1.169086e+000 -3.324677e-001 -1.526646e+000 -5.065510e-001 -4.186983e-001 2.925674e-001 1.390455e+000 3.987161e-001 3.509546e-001 -3.619128e-001 -3.166349e-001 1.754773e+000 3.073110e-002 -3.521418e-001 -2.861710e-001 -2.782072e-001 9.462576e-002 5.370699e-001 3.079660e-001 9.572535e-002 -4.201258e-002 -2.546900e-001 -1.543965e-001 -1.772340e-001 2.264922e-001
<VARIANCE> 39
 1.976519e+001 4.131052e+001 7.477485e+001 9.851862e+001 8.121810e+001 7.867212e+001 7.627605e+001 9.340058e+001 5.517340e+001 7.931019e+001 8.268417e+001 5.702249e+001 5.563876e+001 1.222293e+000 3.647850e+000 3.713298e+000 6.462459e+000 5.115407e+000 5.519826e+000 6.055229e+000 5.975736e+000 4.708438e+000 4.778270e+000 4.963129e+000 3.652615e+000 4.555897e+000 1.938109e-001 3.634865e-001 4.621294e-001 1.101345e+000 9.921348e-001 8.744037e-001 8.848212e-001 9.551713e-001 8.160746e-001 9.332827e-001 9.081540e-001 6.680382e-001 5.660406e-001
<GCONST> 1.399315e+002
<STATE> 3
<MEAN> 39
 -2.828613e+000 -1.006141e+001 -1.170431e+000 -1.886180e+001 -6.863008e+000 -1.134704e+001 -4.850938e+000 -8.369877e-001 -3.859764e+000 -2.376618e+000 -8.450216e+000 -5.817427e+000 7.325881e+001 -1.354710e-001 -1.939749e+000 -1.448507e+000 -8.515811e-001 9.612568e-001 1.746008e+000 1.374338e+000 7.335704e-001 -2.056498e-001 -1.133254e+000 -5.894397e-001 -7.039731e-001 1.465265e+000 2.660721e-002 1.416817e-001 -8.796237e-003 7.377164e-001 4.047159e-001 3.250055e-001 -1.517819e-001 -6.334179e-001 -3.172564e-001 -2.372480e-001 3.274212e-001 1.462939e-001 -4.401720e-001
<VARIANCE> 39
 2.074989e+001 4.673128e+001 7.586308e+001 8.828213e+001 8.344006e+001 9.106161e+001 9.552840e+001 9.062428e+001 5.912690e+001 8.520316e+001 9.205620e+001 5.907497e+001 3.775808e+001 4.899505e-001 2.275748e+000 2.038727e+000 3.799226e+000 3.640751e+000 3.594220e+000 3.947536e+000 3.867127e+000 3.861645e+000 3.911572e+000 3.818087e+000 2.888455e+000 1.967783e+000 9.117704e-002 2.441518e-001 3.029960e-001 6.368849e-001 5.461577e-001 5.619081e-001 7.241266e-001 6.573285e-001 5.315308e-001 7.020906e-001 7.249835e-001 4.997792e-001 2.867799e-001
<GCONST> 1.287444e+002
<STATE> 4
<MEAN> 39
 -2.456602e+000 -1.277707e+001 -3.819900e+000 -1.791793e+001 -3.970896e+000 -5.391377e+000 -3.507466e+000 -2.878027e+000 -6.276579e+000 -5.455155e+000 -7.347317e+000 -5.889588e+000 7.393562e+001 1.957252e-002 -5.853022e-001 -4.833778e-001 3.392579e-001 5.460878e-001 7.362083e-001 7.381359e-002 -3.040239e-001 -2.635124e-001 -4.527536e-001 1.938410e-001 -1.352971e-001 1.285000e-001 3.959627e-002 2.505473e-001 1.536841e-001 1.404840e-001 -8.826692e-002 -2.212152e-001 -1.824647e-001 -1.112970e-001 4.161539e-002 1.568113e-001 1.131020e-001 6.618061e-002 -2.262282e-001
<VARIANCE> 39
 2.490662e+001 1.027745e+002 6.790884e+001 1.066837e+002 8.876807e+001 1.044710e+002 8.460563e+001 9.966186e+001 7.219997e+001 6.456099e+001 7.198942e+001 5.406313e+001 4.909529e+001 3.294286e-001 1.876801e+000 1.383416e+000 2.325689e+000 2.349639e+000 2.972375e+000 2.697352e+000 2.262591e+000 2.272462e+000 2.685835e+000 2.371143e+000 1.751971e+000 1.037057e+000 5.924534e-002 1.943028e-001 1.719039e-001 3.776537e-001 3.173057e-001 3.390662e-001 4.136472e-001 4.412560e-001 3.958492e-001 4.048394e-001 4.303648e-001 3.282646e-001 1.765655e-001
<GCONST> 1.182532e+002
<TRANSP> 5
 0.000000e+000 1.000000e+000 0.000000e+000 0.000000e+000 0.000000e+000
 0.000000e+000 7.339072e-001 2.660928e-001 0.000000e+000 0.000000e+000
 0.000000e+000 0.000000e+000 4.128437e-001 5.871562e-001 0.000000e+000
 0.000000e+000 0.000000e+000 0.000000e+000 6.963609e-001 3.036390e-001
 0.000000e+000 0.000000e+000 0.000000e+000 0.000000e+000 0.000000e+000
<ENDHMM>
~h "H"
<BEGINHMM>
<NUMSTATES> 5
<STATE> 2
<MEAN> 39
 -4.772717e+000 -6.264215e+000 -1.559069e+000 -8.146540e+000 1.108477e+000 -4.299874e+000 -4.550922e+000 -5.646206e+000 -5.588695e+000 -9.516449e+000 -3.313815e+000 -4.852666e+000 6.607938e+001 -6.312023e-002 -7.038166e-001 -4.104658e-001 -6.107287e-003 5.560566e-001 1.982985e-001 -2.403986e-001 3.110049e-002 -1.930731e-001 -6.566880e-001 1.852362e-001 -3.347534e-001 5.332119e-001 8.926316e-002 -1.690714e-001 -9.238652e-002 -2.741586e-001 -2.345291e-001 -1.628885e-002 -6.589345e-002 -5.056846e-002 4.164026e-002 1.520260e-001 -3.077742e-002 -2.780544e-002 1.631173e-001
<VARIANCE> 39
 2.939874e+001 4.634670e+001 6.362798e+001 8.297269e+001 9.276369e+001 8.933136e+001 8.709674e+001 7.945336e+001 7.603587e+001 7.389624e+001 6.662637e+001 5.103690e+001 5.771253e+001 1.084987e+000 2.204742e+000 2.507770e+000 3.418950e+000 4.562490e+000 3.429970e+000 3.693079e+000 3.533732e+000 3.267451e+000 3.494057e+000 3.115376e+000 2.591863e+000 1.488780e+000 1.845595e-001 3.277125e-001 3.726606e-001 4.770886e-001 6.542446e-001 5.994824e-001 6.382594e-001 6.729671e-001 5.912305e-001 6.649157e-001 5.661662e-001 4.538322e-001 1.647451e-001
<GCONST> 1.290039e+002
<STATE> 3
<MEAN> 39
 -3.734619e+000 -8.853423e+000 -3.698886e+000 -1.048285e+001 1.208472e+000 -4.243187e+000 -6.644138e+000 -6.779015e+000 -6.873878e+000 -1.146951e+001 -3.608497e+000 -6.637954e+000 6.913626e+001 1.843935e-001 -9.859622e-001 -5.405363e-001 -7.389423e-001 -1.449946e-001 2.807116e-001 -1.267769e-001 1.108573e-001 5.048431e-002 9.915666e-002 1.313572e-002 -2.592957e-001 8.337332e-001 1.513472e-002 -5.800233e-002 5.185822e-002 -1.180646e-001 -1.096937e-001 3.884666e-002 6.490102e-002 6.027319e-002 4.821479e-002 2.229224e-001 -2.480816e-002 4.232061e-002 5.063479e-002
<VARIANCE> 39
 2.866628e+001 5.243916e+001 7.018501e+001 8.706400e+001 9.848372e+001 8.736276e+001 9.285430e+001 7.611842e+001 7.161772e+001 7.390326e+001 6.189487e+001 5.179055e+001 4.387593e+001 8.626473e-001 1.938067e+000 2.043117e+000 2.586994e+000 2.899206e+000 2.742721e+000 2.751906e+000 2.687135e+000 2.543459e+000 2.868910e+000 2.591750e+000 2.207791e+000 1.082655e+000 1.661366e-001 3.030981e-001 3.425083e-001 3.997453e-001 4.692274e-001 4.431625e-001 4.539556e-001 4.777271e-001 4.334571e-001 4.837669e-001 4.343094e-001 3.718202e-001 1.511406e-001
<GCONST> 1.227751e+002
<STATE> 4
<MEAN> 39
 -3.871688e+000 -1.086541e+001 -4.428860e+000 -1.119258e+001 -3.399104e-001 -2.004014e+000 -4.839990e+000 -4.715035e+000 -5.115498e+000 -7.699124e+000 -2.892790e+000 -6.003428e+000 6.799780e+001 3.391751e-002 -2.255777e-001 -6.098787e-002 -2.778459e-001 -1.495956e-001 6.011014e-002 5.626522e-002 7.460043e-002 5.463707e-002 1.621941e-001 1.251553e-003 -1.923317e-002 1.878346e-001 3.300820e-002 7.932775e-002 2.919742e-002 1.018285e-002 -4.491180e-002 -5.460744e-002 -1.872319e-003 -1.456803e-002 -1.483523e-002 2.660954e-002 -2.244149e-002 1.054329e-002 -4.189232e-002
<VARIANCE> 39
 3.235315e+001 6.642200e+001 6.288937e+001 1.152851e+002 9.382192e+001 7.982060e+001 9.379287e+001 7.039919e+001 6.883501e+001 5.753151e+001 5.012271e+001 4.618615e+001 1.158622e+002 4.515007e-001 1.228475e+000 1.050841e+000 1.437513e+000 1.511604e+000 1.562780e+000 1.673491e+000 1.675300e+000 1.610422e+000 1.704930e+000 1.617704e+000 1.435035e+000 7.464693e-001 7.989532e-002 1.679791e-001 1.641263e-001 2.135742e-001 2.411176e-001 2.440368e-001 2.706903e-001 2.851531e-001 2.760549e-001 2.821403e-001 2.684132e-001 2.410139e-001 9.209857e-002
<GCONST> 1.092804e+002
<TRANSP> 5
 0.000000e+000 1.000000e+000 0.000000e+000 0.000000e+000 0.000000e+000
 0.000000e+000 6.099750e-001 3.900250e-001 0.000000e+000 0.000000e+000
 0.000000e+000 0.000000e+000 5.082604e-001 4.917396e-001 0.000000e+000
 0.000000e+000 0.000000e+000 0.000000e+000 8.199056e-001 1.800943e-001
 0.000000e+000 0.000000e+000 0.000000e+000 0.000000e+000 0.000000e+000
<ENDHMM>
~h "I"
<BEGINHMM>
<NUMSTATES> 5
<STATE> 2
<MEAN> 39
 -4.222574e+000 -9.353701e+000 2.304139e+000 -1.565536e+001 -1.146869e+001 -1.160561e+001 -6.620478e+000 -2.581253e+000 -4.963588e+000 -4.025006e+000 -5.605981e+000 -4.780552e+000 7.380825e+001 -3.964918e-001 4.189717e-001 1.892633e+000 -5.595137e-001 -2.214960e+000 -1.013042e+000 1.061714e-004 -3.435890e-001 -7.517675e-001 5.116607e-001 3.501378e-001 2.054329e-001 1.017229e-001 2.670166e-002 3.060455e-001 -1.319475e-002 2.257547e-001 4.241622e-001 4.952815e-001 -1.028328e-001 -4.632895e-001 -9.729483e-002 2.054159e-002 1.550435e-001 -2.237467e-002 -4.795765e-001
<VARIANCE> 39
 2.286373e+001 5.736348e+001 8.569765e+001 9.395367e+001 7.974693e+001 6.405804e+001 9.565900e+001 9.374840e+001 6.681760e+001 7.185770e+001 7.779136e+001 5.692804e+001 2.728288e+001 1.207119e+000 2.553134e+000 2.711761e+000 5.049679e+000 4.462523e+000 4.371485e+000 5.273686e+000 4.870166e+000 4.557563e+000 4.746818e+000 4.904258e+000 3.802622e+000 2.432079e+000 2.006675e-001 3.132302e-001 4.079478e-001 7.303507e-001 8.142293e-001 7.467013e-001 9.461836e-001 8.266777e-001 8.340584e-001 7.874124e-001 7.787283e-001 6.683192e-001 2.703559e-001
<GCONST> 1.354140e+002
<STATE> 3
<MEAN> 39
 -5.135790e+000 -7.127608e+000 6.934022e+000 -1.662561e+001 -1.538089e+001 -1.204815e+001 -7.416242e+000 -5.213299e+000 -7.131030e+000 -2.313167e+000 -4.263842e+000 -4.578405e+000 7.280539e+001 -8.401619e-002 1.043786e+000 1.285417e+000 2.857813e-001 -3.686393e-001 1.716113e-001 -5.235523e-001 -1.234979e+000 -5.424096e-001 2.261752e-001 2.253221e-001 7.444006e-002 -9.685158e-001 1.309793e-001 1.698676e-001 -4.604160e-001 5.731992e-001 8.688226e-001 4.237152e-001 4.370659e-002 -3.801920e-002 2.357993e-001 -2.649016e-001 -1.180301e-001 -5.501984e-002 -5.125030e-001
<VARIANCE> 39
 2.235383e+001 4.524329e+001 7.659300e+001 1.030888e+002 6.655534e+001 5.864661e+001 7.184641e+001 9.086577e+001 6.045580e+001 6.130540e+001 8.183456e+001 5.418318e+001 2.528679e+001 1.212309e+000 2.395651e+000 2.591322e+000 4.578348e+000 4.280158e+000 3.483407e+000 4.401531e+000 3.956067e+000 3.598284e+000 3.620881e+000 3.607265e+000 3.045305e+000 2.502667e+000 1.914589e-001 3.259494e-001 4.395081e-001 6.739384e-001 7.022573e-001 6.753369e-001 7.787085e-001 8.128871e-001 7.523009e-001 7.389855e-001 7.364562e-001 5.956835e-001 2.575247e-001
<GCONST> 1.314871e+002
<STATE> 4
<MEAN> 39
 -5.927479e+000 -3.273970e+000 9.755660e+000 -1.356871e+001 -1.436639e+001 -8.872902e+000 -8.410807e+000 -8.303232e+000 -7.578104e+000 -2.945938e+000 -3.839615e+000 -5.024834e+000 6.835444e+001 1.320110e-001 5.995896e-001 -3.150989e-002 9.162180e-001 8.583994e-001 4.431992e-001 9.326091e-002 -3.095235e-001 1.273004e-001 -1.940300e-001 -2.930448e-002 5.654455e-002 -1.245021e+000 4.211865e-002 -8.276163e-002 -3.148319e-001 1.827515e-001 2.661031e-001 6.067836e-002 1.613607e-001 1.908049e-001 1.640875e-001 -3.810930e-002 2.442883e-006 1.655744e-002 -1.093702e-001
<VARIANCE> 39
 2.292109e+001 4.070063e+001 7.136258e+001 1.245540e+002 7.624277e+001 5.992840e+001 6.222513e+001 7.187708e+001 5.622331e+001 5.294742e+001 8.333128e+001 5.314794e+001 6.282928e+001 9.570528e-001 1.915615e+000 2.042139e+000 3.512858e+000 3.227089e+000 2.471410e+000 3.048934e+000 3.246385e+000 2.698104e+000 2.597851e+000 2.682961e+000 2.194127e+000 2.331852e+000 1.636508e-001 2.756460e-001 3.483801e-001 5.014954e-001 5.475247e-001 4.794435e-001 5.204310e-001 5.535126e-001 5.180398e-001 4.743409e-001 4.877921e-001 3.924166e-001 2.555989e-001
<GCONST> 1.246414e+002
<TRANSP> 5
 0.000000e+000 1.000000e+000 0.000000e+000 0.000000e+000 0.000000e+000
 0.000000e+000 4.528042e-001 5.471958e-001 0.000000e+000 0.000000e+000
 0.000000e+000 0.000000e+000 3.602283e-001 6.397718e-001 0.000000e+000
 0.000000e+000 0.000000e+000 0.000000e+000 6.713609e-001 3.286391e-001
 0.000000e+000 0.000000e+000 0.000000e+000 0.000000e+000 0.000000e+000
<ENDHMM>
~h "K"
<BEGINHMM>
<NUMSTATES> 5
<STATE> 2
<MEAN> 39
 -6.022007e+000 -3.096577e+000 6.817061e-002 -4.721070e+000 -3.553479e+000 -4.335198e+000 -1.978134e+000 -4.163727e+000 -4.376514e-001 -2.170766e+000 -2.417661e+000 -2.935038e+000 5.322581e+001 -1.048750e+000 -6.723635e-001 -3.535904e-001 6.454133e-001 3.083090e-001 4.710460e-002 8.138888e-001 6.632297e-001 8.047874e-001 4.107491e-001 6.371843e-001 4.118094e-001 -2.428456e-001 -2.207793e-002 -1.291906e-001 1.482410e-001 -3.920313e-001 -4.269735e-001 -3.062769e-001 -1.667705e-001 -2.532341e-001 -2.283891e-001 1.791739e-002 -9.343922e-002 6.109348e-002 1.024163e+000
<VARIANCE> 39
 2.072966e+001 2.948965e+001 4.356436e+001 3.986163e+001 4.119323e+001 4.090157e+001 4.162604e+001 5.109813e+001 4.451534e+001 3.790331e+001 4.397839e+001 3.171781e+001 4.261285e+001 1.797706e+000 2.758851e+000 2.972261e+000 3.792839e+000 3.724635e+000 4.375243e+000 3.689117e+000 4.650440e+000 4.119599e+000 3.494523e+000 3.496691e+000 2.778388e+000 9.327680e+000 3.205261e-001 5.500513e-001 6.435560e-001 7.437270e-001 7.629782e-001 7.884178e-001 7.336122e-001 9.041497e-001 8.027343e-001 6.872043e-001 6.629762e-001 5.622937e-001 8.525132e-001
<GCONST> 1.307664e+002
<STATE> 3
<MEAN> 39
 -1.090489e+001 -5.978187e+000 1.257214e+000 -4.646339e+000 -6.059408e+000 -8.184711e+000 1.349169e-001 -5.185014e+000 2.398916e-001 -6.560543e-001 -8.653192e-001 -1.812115e-001 6.447313e+001 3.850864e-001 4.296144e-002 1.943210e+000 -2.310014e+000 -2.972352e+000 -1.881017e+000 -1.391924e+000 -1.059081e+000 -1.526824e+000 1.639631e-001 -6.270146e-001 -1.932001e-001 4.714886e+000 6.416535e-001 1.187121e-001 3.727083e-001 -8.713709e-001 -5.760480e-001 1.218734e-001 -6.213108e-001 1.049076e-001 -4.575486e-001 -1.426496e-001 -3.270126e-001 -5.410483e-001 -2.174230e-001
<VARIANCE> 39
 2.490604e+001 3.731618e+001 4.826430e+001 5.164547e+001 5.658117e+001 5.312879e+001 5.132316e+001 5.592470e+001 4.739301e+001 3.715507e+001 3.647906e+001 3.139201e+001 6.251347e+001 3.142679e+000 4.233981e+000 5.204742e+000 8.179769e+000 5.849829e+000 5.214164e+000 6.632056e+000 6.071983e+000 5.501174e+000 4.562585e+000 6.828853e+000 5.123406e+000 4.682519e+000 4.731745e-001 7.894807e-001 8.581585e-001 1.199811e+000 1.187091e+000 1.121536e+000 1.112502e+000 1.096721e+000 9.926918e-001 8.569503e-001 1.253708e+000 7.895202e-001 1.229309e+000
<GCONST> 1.422943e+002
<STATE> 4
<MEAN> 39
 -6.801075e+000 -5.394457e+000 6.858658e+000 -1.383060e+001 -1.537417e+001 -1.163876e+001 -5.609143e+000 -6.570459e+000 -4.563640e+000 -7.844585e-001 -3.526661e+000 -3.105518e+000 7.269823e+001 9.651348e-001 -5.984426e-001 1.391742e+000 -3.044752e+000 -2.475479e+000 -5.265945e-001 -1.373858e+000 1.921256e-001 -1.397039e+000 -2.457419e-001 -9.209029e-001 -1.264794e+000 2.247358e+000 -1.816467e-001 -2.174752e-001 -5.228090e-001 5.568740e-001 8.179346e-001 5.594964e-001 4.498943e-001 3.876854e-001 3.290225e-001 -1.608065e-001 1.385275e-001 -8.752006e-003 -1.067882e+000
<VARIANCE> 39
 1.677706e+001 4.126278e+001 7.806930e+001 9.747472e+001 5.923558e+001 4.516230e+001 5.384361e+001 7.930730e+001 5.205436e+001 4.895800e+001 6.882101e+001 4.912199e+001 3.878083e+001 1.647335e+000 3.031854e+000 4.891034e+000 6.668280e+000 6.152241e+000 4.160254e+000 5.312433e+000 5.753488e+000 4.617362e+000 4.558464e+000 8.285118e+000 3.825788e+000 3.013237e+000 2.967706e-001 4.691910e-001 5.878026e-001 1.058472e+000 8.750769e-001 6.300080e-001 7.084647e-001 7.361271e-001 6.917952e-001 6.243053e-001 8.937620e-001 6.754275e-001 5.095177e-001
<GCONST> 1.366828e+002
<TRANSP> 5
 0.000000e+000 1.000000e+000 0.000000e+000 0.000000e+000 0.000000e+000
 0.000000e+000 8.106107e-001 1.893893e-001 0.000000e+000 0.000000e+000
 0.000000e+000 0.000000e+000 6.275614e-001 3.724387e-001 0.000000e+000
 0.000000e+000 0.000000e+000 0.000000e+000 3.600747e-001 6.399253e-001
 0.000000e+000 0.000000e+000 0.000000e+000 0.000000e+000 0.000000e+000
<ENDHMM>
~h "L"
<BEGINHMM>
<NUMSTATES> 5
<STATE> 2
<MEAN> 39
 -1.331949e+000 -7.263697e+000 2.303290e+000 -1.303671e+001 -6.876476e+000 -1.231246e+001 -1.377414e+001 -5.656089e+000 -2.584759e+000 -6.526769e+000 -4.125405e+000 -2.604433e+000 6.807776e+001 1.891180e-002 -2.277319e-001 1.933313e-001 -6.707316e-001 2.384182e-001 -1.127249e+000 -9.735417e-001 9.177455e-001 4.066571e-001 -1.881161e-001 -2.463725e-001 6.209300e-002 6.328053e-001 -1.099507e-001 -2.071609e-001 -2.583604e-001 -1.379849e-001 2.869081e-002 3.500812e-001 4.511206e-001 3.212538e-001 -1.038915e-001 1.773615e-002 -1.696286e-001 -1.182764e-001 1.985051e-001
<VARIANCE> 39
 2.354313e+001 4.586417e+001 7.520718e+001 7.996513e+001 6.142979e+001 1.062576e+002 1.030628e+002 8.432202e+001 7.413451e+001 9.001468e+001 6.937537e+001 6.771040e+001 3.964728e+001 9.874772e-001 2.336272e+000 2.866835e+000 3.962163e+000 3.856482e+000 5.926014e+000 5.955083e+000 5.954243e+000 4.720645e+000 4.747627e+000 4.164154e+000 3.371497e+000 2.000513e+000 1.671883e-001 3.707224e-001 4.642678e-001 6.884333e-001 7.252433e-001 1.141542e+000 1.245789e+000 1.020117e+000 8.671067e-001 8.993706e-001 7.793047e-001 6.232013e-001 2.192254e-001
<GCONST> 1.362070e+002
<STATE> 3
<MEAN> 39
 -2.245718e+000 -9.973473e+000 7.939003e-001 -1.729634e+001 -6.072124e+000 -1.434550e+001 -1.322679e+001 1.544974e-001 -2.445507e+000 -7.116630e+000 -6.374937e+000 -3.019046e+000 7.195558e+001 -3.446602e-001 -1.505548e+000 -1.457204e+000 -5.267082e-001 1.864140e-001 1.448653e+000 1.969916e+000 1.312016e+000 -3.577115e-001 -3.103449e-001 -1.012152e+000 -4.934642e-001 1.437370e+000 -9.176496e-002 -2.097079e-001 -2.653713e-001 3.137379e-001 1.189558e-001 6.674483e-001 5.121141e-001 -4.372267e-001 -3.061288e-001 -1.483004e-001 7.320899e-002 -4.355474e-002 9.353118e-002
<VARIANCE> 39
 1.755187e+001 4.080903e+001 6.328239e+001 6.107777e+001 5.485199e+001 9.130524e+001 1.065055e+002 7.310365e+001 7.236848e+001 1.003404e+002 6.022636e+001 6.446874e+001 2.342014e+001 5.969030e-001 2.583697e+000 3.184696e+000 3.289265e+000 3.544146e+000 6.865025e+000 7.106661e+000 5.386756e+000 5.070075e+000 4.663592e+000 3.944677e+000 3.186846e+000 1.087919e+000 8.529926e-002 4.020030e-001 3.963037e-001 5.107710e-001 6.040907e-001 9.488053e-001 1.175517e+000 9.282003e-001 7.401335e-001 8.847134e-001 7.497844e-001 5.415407e-001 1.930380e-001
<GCONST> 1.312867e+002
<STATE> 4
<MEAN> 39
 -3.646686e+000 -1.476772e+001 -3.717476e+000 -1.789434e+001 -3.639391e+000 -7.293464e+000 -6.935663e+000 4.068313e-001 -4.951779e+000 -8.979180e+000 -8.081586e+000 -4.758023e+000 7.571212e+001 -2.305245e-001 -6.068720e-001 -6.685869e-001 2.017527e-001 4.555050e-001 9.981872e-001 7.713609e-001 -2.894710e-001 -3.750536e-001 -2.012380e-001 1.359660e-002 -2.182118e-001 4.960744e-001 4.970184e-002 2.368656e-001 1.983340e-001 1.078352e-001 -1.814183e-002 -1.856487e-001 -2.901798e-001 -2.929314e-001 4.463484e-002 1.235446e-001 2.588955e-001 3.656682e-002 -2.219159e-001
<VARIANCE> 39
 1.860712e+001 4.611211e+001 6.518929e+001 6.518775e+001 7.266266e+001 9.297887e+001 1.041745e+002 8.055604e+001 7.981126e+001 7.770531e+001 5.233723e+001 5.907186e+001 2.466550e+001 4.853562e-001 2.135996e+000 2.134628e+000 2.278250e+000 3.011529e+000 4.903344e+000 4.751513e+000 3.459628e+000 3.123126e+000 3.506599e+000 2.678936e+000 2.200104e+000 1.120644e+000 6.733019e-002 2.495289e-001 2.534315e-001 3.160021e-001 3.869030e-001 6.064809e-001 7.548977e-001 6.352162e-001 5.032253e-001 4.806562e-001 5.067635e-001 3.671907e-001 1.436099e-001
<GCONST> 1.221679e+002
<TRANSP> 5
 0.000000e+000 1.000000e+000 0.000000e+000 0.000000e+000 0.000000e+000
 0.000000e+000 7.078194e-001 2.921806e-001 0.000000e+000 0.000000e+000
 0.000000e+000 0.000000e+000 6.220884e-001 3.779115e-001 0.000000e+000
 0.000000e+000 0.000000e+000 0.000000e+000 6.731207e-001 3.268792e-001
 0.000000e+000 0.000000e+000 0.000000e+000 0.000000e+000 0.000000e+000
<ENDHMM>
~h "M"
<BEGINHMM>
<NUMSTATES> 5
<STATE> 2
<MEAN> 39
 2.892905e-001 -7.566441e+000 -2.236658e-001 -9.451596e+000 -4.030447e+000 -5.949182e+000 -8.456099e+000 -8.616689e+000 -5.864928e+000 -5.226816e+000 -5.145150e+000 -6.617149e+000 6.565797e+001 6.357960e-001 1.531210e+000 9.894863e-001 1.421144e+000 3.228354e-001 -1.298807e-001 -1.194076e+000 -2.330899e+000 -1.147835e+000 1.670397e-001 -4.767753e-001 1.514173e-001 -1.464349e+000 -2.542365e-001 -8.216705e-002 9.332555e-002 -1.285539e-001 -6.142680e-002 7.666945e-002 9.679349e-002 -1.324296e-001 -2.514125e-001 -1.675407e-001 -1.052110e-001 1.064748e-001 2.296152e-001
<VARIANCE> 39
 2.190745e+001 6.099357e+001 6.241478e+001 7.290552e+001 6.169158e+001 9.022720e+001 7.228460e+001 8.558064e+001 6.380806e+001 6.791212e+001 7.415775e+001 6.726299e+001 6.164469e+001 1.433260e+000 2.672988e+000 3.739706e+000 4.239307e+000 3.746341e+000 4.444715e+000 4.757689e+000 5.861582e+000 5.463891e+000 5.151695e+000 4.730561e+000 4.067532e+000 3.488623e+000 2.229261e-001 3.990940e-001 5.073826e-001 7.215261e-001 5.293909e-001 5.857779e-001 7.175438e-001 1.107211e+000 8.433033e-001 7.541702e-001 7.344068e-001 6.504474e-001 3.188252e-001
<GCONST> 1.362942e+002
<STATE> 3
<MEAN> 39
 7.341499e-001 -4.634755e+000 1.849406e+000 -7.584042e+000 -3.860497e+000 -6.061693e+000 -1.149823e+001 -1.489799e+001 -1.022019e+001 -5.958762e+000 -7.371842e+000 -5.730903e+000 6.389006e+001 -6.048781e-002 1.428177e-001 6.866295e-002 -6.596327e-002 6.129889e-002 1.875762e-001 -1.975583e-001 -4.497956e-001 -4.567426e-001 -4.713664e-001 -3.874578e-001 9.191616e-002 8.992228e-002 -1.435403e-001 -3.515061e-001 -3.426871e-001 -4.820020e-001 -1.099942e-001 7.381850e-002 3.730673e-001 8.315420e-001 4.219588e-001 -9.414931e-002 1.497370e-001 -5.466033e-002 4.001854e-001
<VARIANCE> 39
 1.457310e+001 3.972188e+001 5.638377e+001 6.586946e+001 5.592748e+001 1.014344e+002 7.280176e+001 7.678220e+001 6.707431e+001 8.203828e+001 8.827129e+001 7.167596e+001 2.654263e+001 8.136374e-001 2.760613e+000 3.382429e+000 4.119173e+000 2.787646e+000 3.437554e+000 3.950473e+000 7.439565e+000 5.480955e+000 4.522444e+000 4.794648e+000 4.258430e+000 3.002562e+000 1.683672e-001 2.793258e-001 5.615184e-001 6.660816e-001 5.273815e-001 6.167208e-001 7.334269e-001 9.868524e-001 9.363467e-001 9.419767e-001 9.079569e-001 7.848406e-001 2.779930e-001
<GCONST> 1.333535e+002
<STATE> 4
<MEAN> 39
 4.708183e-001 -2.826825e+000 2.428706e+000 -7.810329e+000 -4.152954e+000 -3.400801e+000 -9.436395e+000 -1.316105e+001 -9.215142e+000 -7.003301e+000 -6.973433e+000 -5.241600e+000 6.237101e+001 -8.781580e-002 7.280972e-002 -3.433395e-001 -3.157362e-001 -7.778997e-002 1.455757e-001 3.342617e-001 6.637201e-001 3.415577e-001 -1.783234e-001 7.212231e-002 1.760413e-002 6.619486e-002 -3.696632e-002 -1.350298e-001 -1.919262e-001 -1.557040e-001 1.676787e-002 -1.714145e-002 1.048722e-001 3.539132e-001 1.901112e-001 1.068700e-001 1.837204e-001 -6.057287e-002 1.534738e-001
<VARIANCE> 39
 1.904828e+001 4.326592e+001 5.337483e+001 7.529705e+001 6.026225e+001 8.915594e+001 7.247987e+001 9.738413e+001 7.069874e+001 6.731686e+001 7.222417e+001 5.526645e+001 4.420028e+001 5.986373e-001 1.574892e+000 1.915192e+000 2.601462e+000 2.149725e+000 2.256982e+000 2.373619e+000 3.619946e+000 3.118824e+000 2.762993e+000 2.937439e+000 2.466589e+000 1.521508e+000 1.215431e-001 2.026879e-001 3.659891e-001 4.701351e-001 4.027602e-001 3.933844e-001 4.353958e-001 6.648227e-001 5.997946e-001 5.181052e-001 5.620394e-001 4.671238e-001 1.728634e-001
<GCONST> 1.217141e+002
<TRANSP> 5
 0.000000e+000 1.000000e+000 0.000000e+000 0.000000e+000 0.000000e+000
 0.000000e+000 5.333138e-001 4.666862e-001 0.000000e+000 0.000000e+000
 0.000000e+000 0.000000e+000 5.396879e-001 4.603121e-001 0.000000e+000
 0.000000e+000 0.000000e+000 0.000000e+000 7.660595e-001 2.339405e-001
 0.000000e+000 0.000000e+000 0.000000e+000 0.000000e+000 0.000000e+000
<ENDHMM>
~h "N"
<BEGINHMM>
<NUMSTATES> 5
<STATE> 2
<MEAN> 39
 -6.053771e-001 -5.628300e+000 1.099957e+000 -1.250240e+001 -8.096703e+000 -7.449666e+000 -7.154354e+000 -8.486221e+000 -6.535942e+000 -5.386550e+000 -8.073902e+000 -4.900877e+000 6.661566e+001 5.978108e-001 1.181357e+000 5.441241e-001 1.064145e+000 -4.512121e-001 -2.541471e-001 -4.039059e-001 -1.627901e+000 8.976304e-002 -3.166906e-001 -5.540965e-001 4.695949e-001 -1.358923e+000 -1.018496e-001 -1.028805e-001 -5.386343e-002 -5.074275e-002 4.359935e-002 1.030079e-001 1.431789e-002 7.014144e-002 8.110455e-003 -1.120983e-001 1.052474e-001 -4.550410e-002 1.426852e-001
<VARIANCE> 39
 2.015466e+001 4.740789e+001 7.572765e+001 7.585830e+001 7.158869e+001 8.249229e+001 8.193600e+001 9.662674e+001 7.704376e+001 7.995760e+001 8.597524e+001 6.954398e+001 3.708822e+001 9.138786e-001 2.097982e+000 3.358371e+000 3.457175e+000 3.656374e+000 4.328856e+000 3.955426e+000 5.230916e+000 3.905628e+000 4.335125e+000 3.683488e+000 3.576511e+000 1.740154e+000 1.429404e-001 3.054968e-001 4.220484e-001 5.335611e-001 5.633049e-001 6.504409e-001 6.178055e-001 9.266116e-001 6.508498e-001 6.801276e-001 6.111854e-001 5.741068e-001 2.197237e-001
<GCONST> 1.311853e+002
<STATE> 3
<MEAN> 39
 6.489331e-001 -2.663592e+000 2.373700e+000 -1.022662e+001 -9.565886e+000 -7.996206e+000 -8.493650e+000 -1.260756e+001 -6.403560e+000 -6.927197e+000 -9.154035e+000 -3.680332e+000 6.362320e+001 1.526826e-001 5.374949e-001 2.112911e-001 6.804739e-001 -5.979818e-002 -5.369242e-002 -2.049724e-001 -5.702936e-001 -3.303270e-002 -3.940406e-001 -1.122352e-001 1.083965e-001 -6.699587e-001 -2.365014e-001 -3.044395e-001 -1.386018e-001 -1.619806e-001 2.337835e-001 9.344185e-002 1.299757e-001 6.024659e-001 -3.475343e-002 7.735693e-002 2.197830e-001 -1.390128e-001 2.748580e-001
<VARIANCE> 39
 1.567222e+001 3.501971e+001 5.839730e+001 5.887083e+001 5.435186e+001 8.233997e+001 6.460749e+001 6.941879e+001 6.849149e+001 8.455074e+001 8.105724e+001 6.729652e+001 2.270805e+001 7.721606e-001 2.073425e+000 2.169332e+000 2.800454e+000 2.810565e+000 3.321998e+000 3.344407e+000 5.230220e+000 3.337575e+000 3.469264e+000 3.223879e+000 3.105621e+000 1.810221e+000 1.494594e-001 3.519692e-001 4.300844e-001 5.204842e-001 5.229673e-001 6.641117e-001 6.167440e-001 8.615742e-001 6.671643e-001 7.117789e-001 6.084994e-001 5.869901e-001 2.520888e-001
<GCONST> 1.267667e+002
<STATE> 4
<MEAN> 39
 -1.456465e-001 -1.022249e+000 2.734855e+000 -7.274426e+000 -7.628399e+000 -6.017055e+000 -7.246833e+000 -1.102910e+001 -5.414987e+000 -6.431284e+000 -7.011709e+000 -3.874627e+000 5.988993e+001 -2.858307e-001 1.240078e-002 -8.508703e-002 4.687930e-001 4.292214e-001 6.364673e-002 1.827077e-001 5.234663e-001 8.420282e-002 -1.665368e-003 2.359514e-001 -4.567008e-002 -3.816753e-001 -1.483537e-001 -2.081745e-001 -1.103187e-001 -1.078207e-001 1.390831e-001 3.763327e-002 8.430458e-002 3.110740e-001 4.221501e-002 8.273143e-002 9.860910e-002 -2.843110e-002 1.871213e-001
<VARIANCE> 39
 2.347336e+001 3.508084e+001 4.715458e+001 5.788912e+001 5.422377e+001 6.484707e+001 5.941699e+001 7.216740e+001 5.960049e+001 6.605204e+001 6.298682e+001 4.920627e+001 4.717650e+001 7.777633e-001 1.856531e+000 1.462427e+000 2.075897e+000 2.222729e+000 2.283121e+000 2.649761e+000 3.741200e+000 2.903120e+000 2.694824e+000 2.535471e+000 2.255013e+000 1.688618e+000 1.552854e-001 2.825910e-001 2.784593e-001 3.665942e-001 4.039040e-001 4.322000e-001 4.668310e-001 6.416198e-001 5.161870e-001 4.980103e-001 4.660161e-001 4.195603e-001 2.054768e-001
<GCONST> 1.197908e+002
<TRANSP> 5
 0.000000e+000 1.000000e+000 0.000000e+000 0.000000e+000 0.000000e+000
 0.000000e+000 5.263939e-001 4.736061e-001 0.000000e+000 0.000000e+000
 0.000000e+000 0.000000e+000 4.783334e-001 5.216666e-001 0.000000e+000
 0.000000e+000 0.000000e+000 0.000000e+000 7.504480e-001 2.495520e-001
 0.000000e+000 0.000000e+000 0.000000e+000 0.000000e+000 0.000000e+000
<ENDHMM>
~h "O"
<BEGINHMM>
<NUMSTATES> 5
<STATE> 2
<MEAN> 39
 -1.954688e+000 -1.603197e+001 -8.352682e+000 -1.607678e+001 -9.779093e-001 -4.214814e+000 -6.208269e+000 -2.690284e+000 -4.945698e+000 -7.613953e+000 -6.659162e+000 -7.806582e+000 7.554388e+001 6.301425e-001 -3.472694e-001 -1.441424e+000 -4.192933e-001 1.228692e+000 1.182894e+000 -8.502034e-001 -7.540738e-001 -1.018558e-001 9.268203e-002 1.207141e-001 -8.044347e-001 -1.088484e-002 -8.428969e-002 5.533296e-001 4.021190e-001 1.656304e-001 -2.370005e-001 3.697046e-002 6.859452e-002 -2.314639e-001 -3.221288e-002 2.855137e-001 4.283836e-001 2.450373e-001 -4.034133e-001
<VARIANCE> 39
 2.295415e+001 5.103698e+001 5.953959e+001 6.716589e+001 8.168003e+001 8.341756e+001 7.149514e+001 7.407412e+001 6.868886e+001 7.869328e+001 7.615350e+001 7.466077e+001 2.705595e+001 8.190830e-001 3.668826e+000 2.433440e+000 3.823900e+000 4.952371e+000 4.023451e+000 4.258372e+000 3.916564e+000 3.911795e+000 4.809468e+000 4.237296e+000 3.503885e+000 1.678477e+000 1.874867e-001 4.157442e-001 3.714976e-001 7.792650e-001 8.014117e-001 6.449054e-001 7.443171e-001 7.243274e-001 8.006606e-001 7.929775e-001 8.096777e-001 7.243946e-001 2.012697e-001
<GCONST> 1.326043e+002
<STATE> 3
<MEAN> 39
 3.272159e-001 -1.437330e+001 -1.087861e+001 -1.714161e+001 1.494852e-001 -6.714585e-001 -7.663836e+000 -5.310573e+000 -5.202794e+000 -5.730895e+000 -4.080916e+000 -9.712572e+000 7.420856e+001 5.417355e-001 9.437357e-001 5.228564e-002 -2.407873e-001 -4.849833e-001 4.050685e-001 -1.204350e-001 -5.526631e-001 -2.836036e-001 3.105265e-001 5.933560e-001 2.446349e-001 -8.370292e-001 -1.492523e-001 2.937026e-001 5.775700e-001 4.394635e-001 -3.296079e-001 -4.207246e-001 1.960113e-001 1.233860e-001 -1.994451e-002 -1.371981e-001 -1.116417e-001 3.934635e-001 -2.939702e-001
<VARIANCE> 39
 2.063179e+001 4.640934e+001 6.027191e+001 6.782280e+001 7.270559e+001 9.330782e+001 7.632822e+001 6.655505e+001 6.555115e+001 8.193759e+001 9.055856e+001 7.035146e+001 2.414622e+001 8.680965e-001 3.692034e+000 2.093443e+000 3.991297e+000 4.111808e+000 4.104384e+000 3.826642e+000 3.639504e+000 4.065082e+000 3.939453e+000 3.831733e+000 3.350042e+000 1.709330e+000 1.330625e-001 2.846371e-001 3.570074e-001 6.934237e-001 6.611825e-001 6.638546e-001 7.057536e-001 6.507962e-001 7.163074e-001 7.773600e-001 8.491976e-001 6.069432e-001 1.494299e-001
<GCONST> 1.299341e+002
<STATE> 4
<MEAN> 39
 1.216219e+000 -1.120938e+001 -9.447468e+000 -1.679741e+001 -1.355327e+000 9.033757e-001 -7.324442e+000 -5.837958e+000 -5.725712e+000 -5.635061e+000 -3.160440e+000 -8.822988e+000 7.134661e+001 1.815877e-002 9.542570e-001 9.057253e-001 7.534597e-001 -5.092787e-001 -6.328834e-001 1.950819e-002 -1.253763e-001 -5.005609e-003 -2.424576e-003 -1.544127e-001 5.678393e-001 -1.048900e+000 -1.506863e-001 2.818796e-002 2.422371e-001 2.992166e-001 3.436412e-002 -1.607638e-001 4.795013e-002 1.368021e-002 4.600873e-002 -4.625036e-002 -1.245622e-001 4.634387e-002 -1.132041e-001
<VARIANCE> 39
 2.309726e+001 6.766564e+001 5.723229e+001 7.826027e+001 7.852431e+001 9.260243e+001 8.687995e+001 7.199432e+001 6.113317e+001 6.644743e+001 7.011214e+001 6.647012e+001 4.626836e+001 7.701911e-001 2.230823e+000 2.097797e+000 3.745822e+000 3.109911e+000 3.273075e+000 2.994226e+000 3.051154e+000 3.015842e+000 3.027298e+000 3.224760e+000 2.737003e+000 1.455669e+000 1.312537e-001 2.665409e-001 2.826527e-001 6.027080e-001 5.507683e-001 5.592912e-001 5.360516e-001 5.259464e-001 5.426378e-001 5.374951e-001 5.513349e-001 4.657044e-001 1.599974e-001
<GCONST> 1.255717e+002
<TRANSP> 5
 0.000000e+000 1.000000e+000 0.000000e+000 0.000000e+000 0.000000e+000
 0.000000e+000 5.595749e-001 4.404251e-001 0.000000e+000 0.000000e+000
 0.000000e+000 0.000000e+000 4.706199e-001 5.293801e-001 0.000000e+000
 0.000000e+000 0.000000e+000 0.000000e+000 7.417324e-001 2.582676e-001
 0.000000e+000 0.000000e+000 0.000000e+000 0.000000e+000 0.000000e+000
<ENDHMM>
~h "P"
<BEGINHMM>
<NUMSTATES> 5
<STATE> 2
<MEAN> 39
 -6.061877e-001 -8.589202e+000 -2.412689e+000 -8.164375e+000 -2.657889e+000 -3.684512e+000 -2.977757e+000 -2.406048e+000 -8.772777e-001 -2.538194e+000 -1.305839e+000 -4.064455e+000 6.572289e+001 -4.411055e-002 1.941525e+000 1.029646e+000 2.564428e+000 1.489632e+000 1.402855e+000 1.301603e+000 8.226909e-001 1.217581e+000 7.995650e-001 4.871256e-001 3.955040e-001 -3.246316e+000 -6.202785e-001 -2.691215e-001 5.343622e-002 -2.182464e-002 -5.608996e-002 7.909022e-002 1.596577e-001 9.992416e-002 -1.028909e-001 -8.801030e-002 -1.666525e-001 -6.176063e-003 -1.240089e-001
<VARIANCE> 39
 2.860569e+001 6.011502e+001 7.339556e+001 7.077355e+001 6.774066e+001 6.339819e+001 5.083356e+001 4.827173e+001 4.622959e+001 4.589838e+001 5.363241e+001 7.556973e+001 7.561194e+001 3.188615e+000 4.244543e+000 4.156109e+000 5.245362e+000 4.213927e+000 4.251927e+000 4.666175e+000 4.312989e+000 4.322011e+000 3.677420e+000 4.325994e+000 4.159872e+000 7.051509e+000 4.875574e-001 8.642061e-001 6.877245e-001 1.122681e+000 8.009436e-001 8.020597e-001 7.412773e-001 7.154012e-001 7.492604e-001 6.621652e-001 7.848127e-001 7.457787e-001 9.234127e-001
<GCONST> 1.398140e+002
<STATE> 3
<MEAN> 39
 -3.675956e+000 -5.453176e+000 9.232172e-002 -2.362737e+000 8.321616e-001 -2.649206e-003 8.177394e-001 -1.945106e-001 1.265419e+000 -9.730083e-001 -8.602954e-001 -3.039024e+000 5.717921e+001 -1.337873e+000 1.510931e-001 6.901648e-002 9.565818e-001 3.673449e-001 4.829984e-001 8.068232e-001 5.931748e-001 6.557549e-001 3.381407e-001 1.847633e-001 3.931331e-001 -2.051232e+000 -8.210219e-002 -5.321665e-001 -4.097460e-001 -8.194849e-001 -5.364874e-001 -5.446645e-001 -4.973443e-001 -2.871875e-001 -3.299167e-001 -1.949340e-001 -1.181708e-001 -6.728818e-002 8.121189e-001
<VARIANCE> 39
 2.490055e+001 4.283474e+001 5.026141e+001 5.180508e+001 6.008215e+001 5.155162e+001 4.537428e+001 4.466202e+001 4.257767e+001 3.997840e+001 4.373707e+001 4.978086e+001 2.572931e+001 2.478049e+000 3.871863e+000 3.336442e+000 4.228495e+000 3.688722e+000 4.410022e+000 3.956608e+000 3.629833e+000 3.965024e+000 3.392132e+000 3.523192e+000 3.411344e+000 6.539888e+000 5.001549e-001 7.086185e-001 6.566491e-001 7.238122e-001 7.520854e-001 7.555845e-001 7.242858e-001 7.279041e-001 7.494232e-001 6.855685e-001 7.250536e-001 6.198270e-001 5.650273e-001
<GCONST> 1.328416e+002
<STATE> 4
<MEAN> 39
 -7.296264e+000 -5.574550e+000 -1.798188e+000 -2.774513e+000 -4.959432e-001 -1.181760e+000 3.898208e-001 -5.128936e-001 1.830932e+000 -7.145136e-001 -2.427760e-001 -1.942390e+000 5.246399e+001 -1.650192e-001 3.339019e-001 3.403043e-002 -4.750817e-003 -1.456816e-001 -3.761992e-001 -4.043076e-001 -3.951524e-001 -3.121611e-001 -2.344676e-001 -1.259837e-001 1.636223e-002 4.232089e-002 2.090525e-001 6.151871e-002 5.841162e-002 -1.655264e-001 -7.374531e-002 -1.597775e-001 -2.188136e-001 -1.597895e-001 -1.924418e-001 -1.064297e-001 -8.077023e-002 -5.236967e-002 4.510157e-001
<VARIANCE> 39
 1.756325e+001 3.150463e+001 3.548258e+001 3.180160e+001 4.222297e+001 3.287945e+001 3.543616e+001 3.507844e+001 3.321974e+001 2.966085e+001 3.042899e+001 2.842377e+001 2.637233e+001 1.819681e+000 2.116350e+000 2.090415e+000 2.119915e+000 2.488445e+000 2.815042e+000 3.225977e+000 3.027075e+000 3.010101e+000 2.529875e+000 2.360832e+000 2.109643e+000 2.535842e+000 2.859118e-001 3.837202e-001 3.705822e-001 4.542282e-001 4.827984e-001 5.087981e-001 5.590270e-001 5.463127e-001 5.554826e-001 4.838293e-001 4.684124e-001 4.053839e-001 4.227034e-001
<GCONST> 1.175214e+002
<TRANSP> 5
 0.000000e+000 1.000000e+000 0.000000e+000 0.000000e+000 0.000000e+000
 0.000000e+000 5.223723e-001 4.776277e-001 0.000000e+000 0.000000e+000
 0.000000e+000 0.000000e+000 4.436950e-001 5.563051e-001 0.000000e+000
 0.000000e+000 0.000000e+000 0.000000e+000 8.615944e-001 1.384056e-001
 0.000000e+000 0.000000e+000 0.000000e+000 0.000000e+000 0.000000e+000
<ENDHMM>
~h "R"
<BEGINHMM>
<NUMSTATES> 5
<STATE> 2
<MEAN> 39
 -2.746181e+000 -7.608585e+000 2.073785e+000 -3.775481e+000 -8.210277e+000 -9.979949e+000 -8.445289e+000 -3.710177e+000 -2.816782e+000 -6.203684e+000 -3.266184e+000 -3.352279e+000 6.557188e+001 3.458916e-001 -1.061206e+000 -1.352541e-001 -1.111536e-001 -7.758463e-001 -8.364239e-001 6.673805e-003 1.066020e+000 3.009767e-001 -2.243233e-002 2.643237e-003 1.341944e-001 1.023662e+000 9.399583e-002 -3.514746e-001 -1.885156e-001 -5.849601e-001 -1.301400e-001 3.086255e-001 5.432256e-002 1.741726e-001 -1.521510e-001 4.837580e-002 -2.145822e-001 -9.823062e-002 3.219086e-001
<VARIANCE> 39
 6.554521e+001 6.311401e+001 7.247829e+001 7.981708e+001 7.530087e+001 6.121809e+001 7.277824e+001 6.305439e+001 5.006374e+001 5.570748e+001 4.748896e+001 3.839922e+001 4.803176e+001 4.721415e+000 6.057803e+000 3.901339e+000 7.002585e+000 6.854718e+000 5.656190e+000 5.808290e+000 6.048511e+000 4.368184e+000 4.486292e+000 4.664000e+000 3.535552e+000 4.469239e+000 8.037569e-001 7.943265e-001 5.846207e-001 9.004561e-001 1.381618e+000 1.146740e+000 9.545333e-001 9.523479e-001 8.271634e-001 8.630819e-001 8.450379e-001 6.631701e-001 5.585424e-001
<GCONST> 1.437782e+002
<STATE> 3
<MEAN> 39
 1.194360e+000 -1.618755e+001 -7.747557e-001 -8.863380e+000 -1.386368e+001 -1.064517e+001 -8.630657e+000 2.216609e+000 -3.163935e+000 -5.949944e+000 -5.937402e+000 -3.830380e+000 7.225395e+001 -2.895471e-002 -1.857370e+000 -1.074447e+000 -2.067062e+000 1.363837e-001 1.590210e+000 4.842943e-001 1.156737e+000 -8.494414e-001 -9.450062e-002 -1.184992e+000 -6.663973e-001 1.624430e+000 -4.865372e-001 5.186255e-001 -3.655093e-002 5.872430e-002 9.199724e-001 4.237440e-001 1.499176e-001 -6.375744e-001 -2.698672e-001 -5.861508e-002 1.185104e-001 -8.306290e-002 -2.621059e-001
<VARIANCE> 39
 2.264506e+001 4.188361e+001 6.513416e+001 9.692709e+001 6.759178e+001 7.130152e+001 9.474977e+001 7.512503e+001 5.778042e+001 7.021918e+001 5.504905e+001 4.666792e+001 2.650038e+001 1.835564e+000 2.756480e+000 3.141145e+000 4.396465e+000 6.488515e+000 5.343747e+000 4.997594e+000 5.194069e+000 4.955539e+000 4.616493e+000 4.184366e+000 3.908337e+000 1.296615e+000 3.215357e-001 4.406946e-001 3.476404e-001 7.791996e-001 8.245135e-001 8.896529e-001 7.999966e-001 8.902441e-001 7.017013e-001 8.054166e-001 7.904786e-001 6.428206e-001 2.386769e-001
<GCONST> 1.347138e+002
<STATE> 4
<MEAN> 39
 -1.097018e+000 -1.829942e+001 -3.145039e+000 -1.245002e+001 -8.928607e+000 -5.918905e+000 -6.798390e+000 2.101057e+000 -6.080318e+000 -6.575797e+000 -7.740070e+000 -5.230192e+000 7.447787e+001 -5.741054e-001 -1.759800e-001 -6.346315e-001 -9.356042e-001 1.434981e+000 9.368778e-001 3.864298e-001 -5.350965e-001 -6.359385e-001 -5.684005e-002 -1.413004e-001 -3.024155e-001 5.447733e-001 -2.802867e-002 3.993320e-001 1.050858e-001 2.666640e-001 1.307236e-001 -2.121938e-001 -6.740691e-002 -3.909404e-001 1.270680e-001 4.733966e-002 3.189289e-001 9.404367e-002 -2.974523e-001
<VARIANCE> 39
 2.423790e+001 4.950304e+001 6.351890e+001 9.387293e+001 8.617776e+001 7.972285e+001 9.636383e+001 8.655138e+001 7.384621e+001 6.207421e+001 4.885748e+001 4.855306e+001 4.007394e+001 7.884881e-001 1.484167e+000 1.862336e+000 3.440072e+000 4.164197e+000 3.650111e+000 3.333503e+000 3.434854e+000 3.125547e+000 3.454809e+000 2.948913e+000 2.846509e+000 1.046358e+000 1.591133e-001 2.787240e-001 2.152975e-001 4.509070e-001 6.330585e-001 5.395987e-001 5.117583e-001 6.080607e-001 5.600569e-001 4.864337e-001 5.024694e-001 4.352528e-001 1.590304e-001
<GCONST> 1.245944e+002
<TRANSP> 5
 0.000000e+000 1.000000e+000 0.000000e+000 0.000000e+000 0.000000e+000
 0.000000e+000 7.848849e-001 2.151151e-001 0.000000e+000 0.000000e+000
 0.000000e+000 0.000000e+000 5.402967e-001 4.597033e-001 0.000000e+000
 0.000000e+000 0.000000e+000 0.000000e+000 5.937697e-001 4.062303e-001
 0.000000e+000 0.000000e+000 0.000000e+000 0.000000e+000 0.000000e+000
<ENDHMM>
~h "S"
<BEGINHMM>
<NUMSTATES> 5
<STATE> 2
<MEAN> 39
 -9.180408e+000 2.422103e+000 1.131511e+000 -5.740221e+000 -5.120207e+000 -8.844866e+000 -4.997310e+000 -5.262724e+000 -4.754857e+000 -5.222980e+000 -2.934525e+000 -2.998438e+000 6.593142e+001 -3.531369e+000 2.612952e+000 -2.318689e-001 2.120986e+000 1.815189e+000 1.114321e+000 1.440998e+000 1.258467e+000 1.027487e+000 4.278800e-001 1.021620e+000 3.396328e-001 -3.778068e-001 -5.299042e-001 -2.651221e-001 -2.737437e-001 -2.298541e-001 2.686911e-001 4.206114e-001 2.817768e-001 3.272769e-001 2.543853e-001 2.943541e-001 1.163002e-001 1.124372e-002 9.508587e-002
<VARIANCE> 39
 6.872495e+001 6.532417e+001 7.289982e+001 7.779901e+001 7.358430e+001 6.422950e+001 6.361155e+001 6.809370e+001 5.486379e+001 5.348118e+001 5.263764e+001 3.883688e+001 4.866835e+001 4.493990e+000 4.931408e+000 4.853871e+000 6.398326e+000 5.811380e+000 6.236443e+000 5.399353e+000 5.600658e+000 4.647529e+000 5.057037e+000 4.374437e+000 3.916156e+000 2.150504e+000 1.034916e+000 1.002600e+000 5.946441e-001 9.827827e-001 9.932956e-001 9.332063e-001 8.803980e-001 8.941796e-001 7.758135e-001 7.846934e-001 7.128448e-001 6.252491e-001 2.132998e-001
<GCONST> 1.416889e+002
<STATE> 3
<MEAN> 39
 -2.339559e+001 6.824007e+000 -1.692210e+000 -1.706140e+000 1.469846e+000 -2.944175e+000 1.283743e+000 9.012437e-001 4.481533e-001 -1.349655e+000 1.657259e+000 -9.843065e-001 6.536696e+001 2.339703e-001 -4.742934e-001 -1.626150e-001 -4.235639e-001 -1.934187e-001 -1.519623e-001 -1.053924e-002 2.502922e-001 1.130091e-001 -3.682348e-002 6.666643e-002 2.731974e-001 3.573792e-001 1.067697e+000 -5.300660e-001 8.742771e-002 -4.417210e-001 -4.533933e-001 -4.504890e-001 -4.125552e-001 -2.276862e-001 -2.593599e-001 -2.818094e-001 -3.126761e-001 -6.585233e-002 2.479908e-001
<VARIANCE> 39
 3.374720e+001 3.392457e+001 6.087321e+001 5.494324e+001 4.075735e+001 3.686226e+001 3.927801e+001 3.930153e+001 2.990173e+001 2.755024e+001 2.389180e+001 1.896613e+001 2.485787e+001 9.160810e+000 2.493815e+000 2.490108e+000 3.031848e+000 3.196184e+000 3.694723e+000 3.122088e+000 2.664299e+000 2.677450e+000 2.745420e+000 2.616962e+000 2.145678e+000 1.343785e+000 6.099043e-001 4.802344e-001 5.235546e-001 6.750660e-001 5.777127e-001 6.222427e-001 5.976376e-001 5.642490e-001 5.553536e-001 5.541496e-001 5.509541e-001 4.829169e-001 2.164907e-001
<GCONST> 1.228779e+002
<STATE> 4
<MEAN> 39
 -7.968449e+000 -2.592069e+000 -1.936810e+000 -9.482932e+000 -4.670947e+000 -9.577915e+000 -4.211058e+000 5.358983e-001 -1.530912e+000 -5.593832e+000 -2.697855e+000 -5.557320e-001 7.105062e+001 3.947484e+000 -3.868274e+000 -6.691108e-001 -2.860918e+000 -1.400571e+000 -1.386771e+000 -1.661435e+000 -1.584663e-001 -8.515497e-001 -1.214400e+000 -1.855924e+000 -8.123878e-001 2.218534e+000 -8.634649e-001 -1.398282e-001 -1.746410e-001 9.526031e-002 4.781771e-001 6.463428e-001 2.259909e-001 -5.538815e-002 -4.806272e-002 2.163630e-001 7.762623e-002 -3.519420e-001 -3.601138e-002
<VARIANCE> 39
 7.276040e+001 7.181460e+001 5.694703e+001 7.700305e+001 5.824538e+001 5.751044e+001 6.473550e+001 4.281490e+001 4.303773e+001 4.126518e+001 5.043340e+001 4.029691e+001 3.741304e+001 6.650230e+000 4.473570e+000 4.952864e+000 6.671461e+000 6.978157e+000 6.876451e+000 5.810509e+000 4.699642e+000 4.984063e+000 5.010536e+000 5.112303e+000 5.000816e+000 1.774045e+000 1.394862e+000 9.422598e-001 4.472187e-001 1.102608e+000 9.069787e-001 9.308988e-001 8.337885e-001 6.326008e-001 6.099920e-001 6.910880e-001 9.266663e-001 6.813188e-001 4.149571e-001
<GCONST> 1.410444e+002
<TRANSP> 5
 0.000000e+000 1.000000e+000 0.000000e+000 0.000000e+000 0.000000e+000
 0.000000e+000 7.309336e-001 2.690664e-001 0.000000e+000 0.000000e+000
 0.000000e+000 0.000000e+000 8.645180e-001 1.354820e-001 0.000000e+000
 0.000000e+000 0.000000e+000 0.000000e+000 6.691799e-001 3.308201e-001
 0.000000e+000 0.000000e+000 0.000000e+000 0.000000e+000 0.000000e+000
<ENDHMM>
~h "T"
<BEGINHMM>
<NUMSTATES> 5
<STATE> 2
<MEAN> 39
 -5.705746e+000 -3.396416e+000 -6.930498e-001 -5.074944e+000 -2.226215e+000 -3.704638e+000 -1.658213e+000 -2.268799e+000 3.330976e-001 -1.957442e+000 -1.421431e+000 -2.725056e+000 5.455639e+001 -8.005310e-001 -9.976140e-002 -1.595988e-001 8.768414e-001 6.272168e-001 5.854250e-001 9.153118e-001 6.521982e-001 8.042905e-001 4.282521e-001 5.285917e-001 1.836726e-001 -1.301071e+000 6.059217e-002 -1.834402e-001 -1.526117e-001 -4.958282e-001 -2.013847e-001 -2.068552e-001 -2.248202e-001 -4.542830e-002 -1.502851e-001 -7.339208e-002 -7.772971e-002 4.317496e-002 7.795639e-001
<VARIANCE> 39
 2.132808e+001 3.467998e+001 4.204139e+001 4.351473e+001 4.495535e+001 4.580317e+001 4.846616e+001 4.612371e+001 4.053127e+001 3.719138e+001 4.243803e+001 3.570255e+001 4.638374e+001 1.634080e+000 2.423995e+000 2.483229e+000 3.831480e+000 3.108396e+000 3.625278e+000 3.610769e+000 3.339594e+000 3.266791e+000 2.991089e+000 3.059165e+000 2.662684e+000 5.656398e+000 3.459399e-001 5.392386e-001 4.691008e-001 7.056388e-001 6.335142e-001 7.422389e-001 7.311010e-001 6.322025e-001 6.586890e-001 6.070122e-001 5.973203e-001 5.267763e-001 9.037663e-001
<GCONST> 1.277814e+002
<STATE> 3
<MEAN> 39
 -7.873326e+000 -3.997864e+000 -1.958085e+000 -5.064933e+000 -1.347345e+000 -4.187491e+000 -5.258160e-001 -9.198962e-001 1.811562e+000 -1.001349e+000 4.079051e-002 -1.412334e+000 5.687481e+001 4.180426e-001 -5.377686e-001 -5.504962e-001 -1.484883e+000 -3.198883e-001 -1.021373e+000 -8.868636e-001 4.062555e-001 -2.433571e-001 -3.069770e-001 -4.093831e-001 1.762137e-001 3.395002e+000 4.453636e-001 -2.809758e-001 -3.404134e-002 -6.867557e-001 -2.806646e-001 -1.906701e-001 -6.202135e-001 -1.836068e-001 -4.648883e-001 -3.336601e-001 -4.785609e-001 -2.663455e-001 8.572676e-001
<VARIANCE> 39
 2.203909e+001 2.764630e+001 3.811661e+001 4.034632e+001 4.028466e+001 4.594571e+001 4.504299e+001 4.079994e+001 3.446916e+001 3.203262e+001 3.628123e+001 3.026780e+001 7.501342e+001 2.899228e+000 4.177619e+000 4.265533e+000 6.558116e+000 4.723388e+000 5.363880e+000 6.328265e+000 5.310997e+000 5.110795e+000 4.309543e+000 4.665645e+000 3.913013e+000 1.331950e+001 4.646215e-001 6.848133e-001 6.521309e-001 8.965819e-001 8.791850e-001 1.051515e+000 9.658695e-001 9.037615e-001 8.248545e-001 7.699230e-001 8.527176e-001 7.234553e-001 1.521259e+000
<GCONST> 1.375379e+002
<STATE> 4
<MEAN> 39
 -5.811745e+000 -6.277515e+000 -3.553711e+000 -8.596381e+000 -2.489280e+000 -5.789043e+000 -3.545139e+000 -2.236882e-003 3.577012e-001 -2.969379e+000 -2.426722e+000 -1.874279e+000 6.198996e+001 6.217195e-001 -6.655506e-001 -1.364216e-001 -1.369454e+000 -5.057095e-001 -5.163040e-001 -1.205569e+000 -3.551782e-001 -9.362124e-001 -7.208727e-001 -9.388255e-001 -5.153260e-001 2.205946e+000 -3.601601e-002 2.459270e-002 1.633206e-001 1.089111e-001 -7.047021e-004 1.871354e-001 7.916259e-003 -2.880960e-001 -1.592343e-001 -4.026991e-003 9.188696e-003 -1.539057e-001 -3.201092e-001
<VARIANCE> 39
 2.090601e+001 3.940030e+001 4.754398e+001 7.294965e+001 4.629002e+001 5.632043e+001 6.227220e+001 5.119746e+001 4.463149e+001 4.179152e+001 4.580002e+001 4.065229e+001 1.548728e+002 2.344318e+000 4.604640e+000 3.970384e+000 6.485741e+000 5.134067e+000 4.990134e+000 5.723521e+000 5.163104e+000 4.787941e+000 4.288100e+000 4.656516e+000 3.551235e+000 9.026436e+000 3.538067e-001 5.186841e-001 4.487338e-001 8.052275e-001 6.637177e-001 7.772536e-001 8.576219e-001 7.912945e-001 7.131175e-001 6.411423e-001 7.361305e-001 6.226252e-001 1.709347e+000
<GCONST> 1.380737e+002
<TRANSP> 5
 0.000000e+000 1.000000e+000 0.000000e+000 0.000000e+000 0.000000e+000
 0.000000e+000 7.502656e-001 2.497344e-001 0.000000e+000 0.000000e+000
 0.000000e+000 0.000000e+000 5.436497e-001 4.563503e-001 0.000000e+000
 0.000000e+000 0.000000e+000 0.000000e+000 5.370782e-001 4.629217e-001
 0.000000e+000 0.000000e+000 0.000000e+000 0.000000e+000 0.000000e+000
<ENDHMM>
~h "U"
<BEGINHMM>
<NUMSTATES> 5
<STATE> 2
<MEAN> 39
 7.034853e-001 -5.987798e+000 -4.771727e+000 -1.800501e+001 -5.645461e+000 -5.475321e+000 -1.243047e+001 -6.158920e+000 -4.853259e+000 -1.931789e+000 -3.759225e+000 -5.588409e+000 7.138198e+001 9.110156e-001 8.240049e-001 -8.986937e-001 -1.474608e+000 -3.134503e-002 1.025040e+000 -8.296654e-001 -8.316382e-001 -6.706132e-001 3.832234e-001 3.657920e-001 3.229549e-003 -3.473896e-001 -2.275819e-001 1.377908e-001 3.517672e-001 2.601943e-001 -2.344527e-001 1.034119e-001 5.368360e-001 6.546408e-002 -2.127619e-001 -2.415557e-001 1.449995e-001 1.440499e-001 -2.842843e-001
<VARIANCE> 39
 2.069616e+001 5.855458e+001 9.754955e+001 1.078505e+002 8.140530e+001 1.250508e+002 9.217085e+001 7.044756e+001 6.562177e+001 8.022220e+001 9.226117e+001 6.584175e+001 2.941722e+001 9.963126e-001 2.498367e+000 4.094285e+000 5.878146e+000 7.406189e+000 6.128023e+000 5.456668e+000 5.538471e+000 5.468796e+000 4.740882e+000 4.880894e+000 3.977634e+000 2.245100e+000 2.043355e-001 3.707344e-001 4.898922e-001 8.153142e-001 9.084778e-001 1.018104e+000 1.055752e+000 1.009375e+000 1.071166e+000 9.418788e-001 9.493654e-001 7.512432e-001 2.297613e-001
<GCONST> 1.397413e+002
<STATE> 3
<MEAN> 39
 2.440382e+000 -3.026013e+000 -5.619349e+000 -2.021515e+001 -7.223358e+000 -2.813595e+000 -1.209545e+001 -7.511523e+000 -7.663232e+000 -2.580856e+000 -2.365130e+000 -4.359068e+000 6.945479e+001 2.005265e-001 6.195731e-001 4.925576e-001 3.046106e-001 -5.938254e-001 -2.632414e-002 3.948260e-001 -2.086953e-002 -3.179251e-001 -5.890703e-001 -9.140265e-002 1.979244e-001 -7.739935e-001 -3.284045e-001 -1.087155e-001 3.685455e-001 6.957289e-001 1.118131e-001 -2.376240e-001 3.783307e-001 2.418960e-001 3.170014e-001 -1.830911e-001 -1.788402e-001 -7.523856e-002 -2.100741e-001
<VARIANCE> 39
 2.136190e+001 4.942511e+001 9.640334e+001 1.108950e+002 7.822474e+001 1.068508e+002 8.078780e+001 7.543496e+001 6.989565e+001 7.170500e+001 8.677509e+001 6.180646e+001 2.417774e+001 9.877830e-001 2.775805e+000 3.132424e+000 7.950424e+000 4.958837e+000 5.912961e+000 5.595158e+000 4.995857e+000 5.174002e+000 5.186413e+000 4.963973e+000 3.907270e+000 2.409528e+000 1.735049e-001 3.581258e-001 5.612423e-001 8.358639e-001 1.027266e+000 1.053515e+000 9.754792e-001 9.967293e-001 1.003585e+000 9.572701e-001 9.273768e-001 7.488930e-001 2.141840e-001
<GCONST> 1.385916e+002
<STATE> 4
<MEAN> 39
 2.706374e+000 5.818629e-001 -4.287831e+000 -1.841368e+001 -8.223363e+000 -2.394369e+000 -9.190186e+000 -5.713748e+000 -6.780504e+000 -5.230142e+000 -3.129257e+000 -4.418318e+000 6.526299e+001 -4.248022e-001 1.135703e-001 7.442776e-001 1.427460e+000 2.669763e-001 -2.520243e-001 5.089833e-001 -1.962454e-002 3.789935e-001 -1.805362e-001 -1.849114e-001 -3.152018e-002 -8.830041e-001 -1.993269e-001 -1.554848e-001 3.195164e-002 1.902779e-001 1.739735e-001 7.920363e-003 4.777696e-002 2.099113e-002 1.198964e-001 9.677498e-002 3.936104e-002 -1.168048e-002 3.382522e-003
<VARIANCE> 39
 2.316564e+001 5.080313e+001 7.697816e+001 1.299436e+002 7.909513e+001 7.965053e+001 7.729296e+001 7.217986e+001 6.623737e+001 5.883377e+001 6.312510e+001 5.073018e+001 4.470444e+001 9.624521e-001 1.784175e+000 2.454952e+000 5.487329e+000 4.108978e+000 3.784075e+000 3.935285e+000 3.788683e+000 3.718027e+000 3.833958e+000 3.698298e+000 2.924340e+000 1.815336e+000 1.547272e-001 2.884583e-001 3.721222e-001 7.276969e-001 6.170715e-001 6.569765e-001 6.874906e-001 7.190973e-001 6.989368e-001 6.512304e-001 6.133986e-001 5.210071e-001 2.025973e-001
<GCONST> 1.301473e+002
<TRANSP> 5
 0.000000e+000 1.000000e+000 0.000000e+000 0.000000e+000 0.000000e+000
 0.000000e+000 5.041041e-001 4.958960e-001 0.000000e+000 0.000000e+000
 0.000000e+000 0.000000e+000 4.531770e-001 5.468230e-001 0.000000e+000
 0.000000e+000 0.000000e+000 0.000000e+000 6.716232e-001 3.283767e-001
 0.000000e+000 0.000000e+000 0.000000e+000 0.000000e+000 0.000000e+000
<ENDHMM>
~h "V"
<BEGINHMM>
<NUMSTATES> 5
<STATE> 2
<MEAN> 39
 -2.702650e+000 -9.815990e-001 -8.665967e-001 -5.219960e+000 -2.411214e+000 -3.997341e+000 -5.883150e+000 -7.651681e+000 -5.256687e+000 -4.879869e+000 -3.309621e+000 -4.422648e+000 5.896405e+001 1.066952e-002 4.083704e-001 -9.981437e-002 3.563657e-001 3.610047e-001 1.408060e-001 -2.623573e-001 -4.033256e-001 -2.841265e-001 -6.080316e-002 2.277671e-001 -1.060040e-001 7.583200e-002 1.221211e-001 -3.780704e-001 -1.772183e-001 -5.617334e-001 -2.033630e-001 -1.058980e-001 -1.213785e-001 1.449884e-001 1.246641e-001 1.669685e-001 -2.829020e-002 -4.194896e-002 5.699272e-001
<VARIANCE> 39
 3.591586e+001 3.606050e+001 4.145517e+001 6.246449e+001 3.403448e+001 4.517240e+001 4.862858e+001 5.311990e+001 4.900612e+001 4.153779e+001 4.471747e+001 3.511894e+001 5.260103e+001 2.686256e+000 2.497503e+000 2.813975e+000 5.423407e+000 2.877608e+000 2.998411e+000 3.987938e+000 3.983737e+000 3.929007e+000 3.612136e+000 3.496830e+000 2.775413e+000 4.016386e+000 4.874581e-001 4.230343e-001 4.806486e-001 8.902627e-001 5.511303e-001 5.822553e-001 7.695398e-001 7.739343e-001 7.736237e-001 7.408332e-001 6.750911e-001 5.487420e-001 4.089536e-001
<GCONST> 1.301764e+002
<STATE> 3
<MEAN> 39
 -2.652591e-001 -2.250813e+000 -3.200284e+000 -9.328651e+000 -2.854404e+000 -4.264066e+000 -8.836803e+000 -8.793892e+000 -5.833812e+000 -3.574729e+000 -2.817974e+000 -5.816039e+000 6.438455e+001 6.785647e-001 -1.915964e+000 -1.228558e+000 -2.315873e+000 -2.933558e-001 -2.799680e-001 -5.101994e-001 1.034729e+000 8.222576e-001 7.994358e-001 -2.682900e-001 -6.295101e-001 2.654983e+000 -1.476882e-001 -5.337915e-001 4.861167e-002 -2.747982e-001 -1.330017e-001 -6.446779e-002 2.575142e-001 4.840532e-001 1.506996e-001 -9.898894e-002 -3.079100e-001 -5.808991e-002 3.772695e-001
<VARIANCE> 39
 3.084471e+001 4.039363e+001 5.138596e+001 7.759351e+001 3.151579e+001 5.261417e+001 5.083852e+001 4.983711e+001 4.588449e+001 4.921194e+001 5.898428e+001 3.743114e+001 4.275888e+001 2.721853e+000 3.856835e+000 3.434613e+000 6.613940e+000 3.551984e+000 3.926308e+000 5.351605e+000 5.601261e+000 4.937782e+000 5.622116e+000 6.023424e+000 4.537177e+000 3.595536e+000 5.774316e-001 5.067794e-001 5.872692e-001 1.466775e+000 6.856744e-001 6.635102e-001 9.645562e-001 8.761993e-001 9.480602e-001 1.133651e+000 9.696416e-001 7.853195e-001 6.538013e-001
<GCONST> 1.379861e+002
<STATE> 4
<MEAN> 39
 1.225164e-002 -7.141447e+000 -5.302191e+000 -1.484306e+001 -3.374475e+000 -4.118203e+000 -8.340260e+000 -4.943043e+000 -3.549618e+000 -3.258534e+000 -4.756136e+000 -7.046827e+000 6.967969e+001 -2.061046e-001 -1.519183e+000 -2.538216e-001 -1.156514e+000 -2.789902e-001 -3.416656e-001 3.446059e-001 1.120441e+000 3.817439e-001 -1.140221e-001 -5.562170e-001 -2.238070e-001 1.775715e+000 -2.012593e-001 1.475713e-001 3.001380e-001 2.903280e-001 -7.301296e-002 -1.866158e-002 1.912669e-001 -8.157945e-002 -2.282897e-001 -1.742743e-001 5.949262e-002 1.724709e-001 -2.208010e-001
<VARIANCE> 39
 2.655843e+001 6.260202e+001 6.247386e+001 1.133749e+002 5.028434e+001 7.595661e+001 6.243357e+001 6.425819e+001 5.859944e+001 6.185249e+001 7.496011e+001 5.330719e+001 6.279976e+001 1.277641e+000 3.162844e+000 2.438270e+000 5.516569e+000 3.744340e+000 3.455339e+000 4.623225e+000 4.317404e+000 3.874438e+000 4.850230e+000 4.237980e+000 3.581902e+000 3.137898e+000 2.869941e-001 3.822004e-001 3.468148e-001 9.853421e-001 5.150117e-001 5.107353e-001 6.570467e-001 7.133880e-001 7.310044e-001 7.801139e-001 7.991633e-001 6.242580e-001 4.576590e-001
<GCONST> 1.340629e+002
<TRANSP> 5
 0.000000e+000 1.000000e+000 0.000000e+000 0.000000e+000 0.000000e+000
 0.000000e+000 6.814539e-001 3.185461e-001 0.000000e+000 0.000000e+000
 0.000000e+000 0.000000e+000 5.798842e-001 4.201158e-001 0.000000e+000
 0.000000e+000 0.000000e+000 0.000000e+000 4.847395e-001 5.152605e-001
 0.000000e+000 0.000000e+000 0.000000e+000 0.000000e+000 0.000000e+000
<ENDHMM>
~h "X"
<BEGINHMM>
<NUMSTATES> 5
<STATE> 2
<MEAN> 39
 -9.779630e+000 3.940986e+000 2.345322e-002 -4.381519e+000 -5.144001e+000 -8.845148e+000 -4.851615e+000 -5.250828e+000 -5.453104e+000 -4.965972e+000 -3.252234e+000 -3.088399e+000 6.583126e+001 -3.441982e+000 2.468059e+000 -7.914065e-001 2.264035e+000 1.764150e+000 1.110262e+000 1.580646e+000 1.357582e+000 1.096244e+000 5.838536e-001 1.081676e+000 3.551556e-001 -6.080741e-001 -3.771954e-001 -4.054006e-001 -2.383804e-001 -2.973279e-001 1.511844e-001 3.750088e-001 2.412659e-001 2.871884e-001 2.393765e-001 3.099021e-001 1.171984e-001 2.482182e-002 8.432156e-002
<VARIANCE> 39
 7.066644e+001 6.430515e+001 7.539272e+001 7.591470e+001 7.561146e+001 6.326005e+001 6.245485e+001 7.107398e+001 5.163394e+001 5.431194e+001 5.495272e+001 3.766948e+001 3.563191e+001 4.124536e+000 5.318014e+000 4.312998e+000 6.323266e+000 5.195054e+000 6.649683e+000 5.536983e+000 5.516282e+000 4.470767e+000 5.376664e+000 4.406363e+000 3.878056e+000 1.770057e+000 1.111393e+000 1.026018e+000 6.097221e-001 1.016003e+000 9.881360e-001 1.009531e+000 9.326881e-001 9.115066e-001 7.990652e-001 8.504099e-001 7.249198e-001 6.448557e-001 1.896874e-001
<GCONST> 1.413925e+002
<STATE> 3
<MEAN> 39
 -2.219896e+001 6.872744e+000 -3.931843e+000 -1.174036e-002 4.604001e-001 -3.217151e+000 1.674819e+000 1.042745e+000 -1.127179e-001 -5.412773e-001 1.458379e+000 -6.871029e-001 6.424713e+001 5.711867e-001 -6.631500e-001 -6.251788e-003 -5.853751e-001 -3.067275e-001 -2.960662e-001 -1.503756e-001 2.156472e-001 6.092269e-002 -4.462403e-002 3.568829e-002 3.274391e-001 4.563098e-001 1.000240e+000 -4.879140e-001 1.877478e-001 -5.198344e-001 -4.308624e-001 -4.553750e-001 -4.646112e-001 -2.589857e-001 -2.814497e-001 -3.069603e-001 -3.147808e-001 -7.481730e-002 3.185284e-001
<VARIANCE> 39
 3.070962e+001 3.368493e+001 4.918694e+001 5.050335e+001 4.233884e+001 3.746162e+001 3.649727e+001 4.037812e+001 2.752431e+001 2.468769e+001 2.278155e+001 1.890551e+001 2.402007e+001 8.351498e+000 2.498094e+000 2.643757e+000 3.668585e+000 3.059585e+000 3.996777e+000 3.519734e+000 2.831883e+000 2.631549e+000 2.780142e+000 2.744589e+000 2.341966e+000 1.578585e+000 6.012582e-001 4.631962e-001 4.949872e-001 6.938362e-001 5.655460e-001 6.691708e-001 6.564699e-001 6.129383e-001 5.424762e-001 5.567868e-001 5.642176e-001 5.107814e-001 2.304340e-001
<GCONST> 1.231488e+002
<STATE> 4
<MEAN> 39
 -7.057035e+000 -2.431014e+000 -1.640138e+000 -9.668668e+000 -6.347607e+000 -1.065661e+001 -4.344654e+000 2.711716e-001 -2.843009e+000 -4.489572e+000 -2.429482e+000 -9.875567e-003 7.101316e+001 3.470852e+000 -3.685618e+000 -1.617349e-001 -3.364370e+000 -1.743310e+000 -1.447457e+000 -1.766190e+000 -4.299802e-001 -1.098403e+000 -1.234940e+000 -1.706581e+000 -8.307531e-001 2.416878e+000 -9.749355e-001 -3.454502e-002 -2.329768e-001 1.359742e-001 4.695089e-001 7.541713e-001 2.790977e-001 -7.661889e-002 -6.186914e-002 1.943859e-001 9.588958e-002 -3.838313e-001 -1.517359e-001
<VARIANCE> 39
 5.792350e+001 5.963588e+001 6.414412e+001 7.435793e+001 7.041860e+001 5.505228e+001 6.637081e+001 4.658809e+001 3.922200e+001 3.915706e+001 5.055134e+001 4.532481e+001 3.485427e+001 6.458186e+000 4.115130e+000 4.356591e+000 6.461614e+000 6.327700e+000 7.362747e+000 7.741490e+000 5.740203e+000 4.650635e+000 4.778950e+000 5.288399e+000 4.864981e+000 1.935702e+000 1.112510e+000 7.634562e-001 4.669993e-001 1.089524e+000 8.420591e-001 9.513937e-001 9.089867e-001 6.811453e-001 6.038364e-001 6.747531e-001 8.978845e-001 7.310641e-001 4.313468e-001
<GCONST> 1.407814e+002
<TRANSP> 5
 0.000000e+000 1.000000e+000 0.000000e+000 0.000000e+000 0.000000e+000
 0.000000e+000 7.482984e-001 2.517016e-001 0.000000e+000 0.000000e+000
 0.000000e+000 0.000000e+000 8.596187e-001 1.403812e-001 0.000000e+000
 0.000000e+000 0.000000e+000 0.000000e+000 6.406820e-001 3.593180e-001
 0.000000e+000 0.000000e+000 0.000000e+000 0.000000e+000 0.000000e+000
<ENDHMM>
~h "Y"
<BEGINHMM>
<NUMSTATES> 5
<STATE> 2
<MEAN> 39
 -6.429599e+000 -1.309243e+001 4.148342e+000 -1.770586e+001 -1.362206e+001 -8.031425e+000 -9.484214e-002 -1.683110e+000 -7.653130e+000 -5.206571e+000 -5.257376e+000 -6.980795e+000 7.651817e+001 -3.026129e-001 1.243434e+000 1.426100e+000 -1.008954e+000 -1.541080e+000 -3.165563e-001 -3.827998e-001 -6.292035e-001 3.344336e-001 1.265500e+000 2.773436e-001 -1.741016e-001 -3.589458e-001 6.893568e-002 1.795449e-001 1.144789e-002 1.377488e-001 2.672030e-001 -4.934864e-003 -4.489509e-001 -2.792218e-001 3.526969e-002 4.759355e-002 1.960298e-002 1.744918e-001 -1.861186e-001
<VARIANCE> 39
 1.875549e+001 4.456826e+001 6.443800e+001 8.695725e+001 6.856423e+001 6.221625e+001 6.532771e+001 1.049099e+002 6.151493e+001 5.498358e+001 7.052811e+001 3.772392e+001 1.859642e+001 3.593515e-001 1.142522e+000 1.131347e+000 1.688273e+000 1.839096e+000 1.933142e+000 3.111565e+000 2.383668e+000 3.046956e+000 2.381464e+000 2.804579e+000 1.834873e+000 3.849183e-001 5.777330e-002 1.353724e-001 1.499638e-001 2.656976e-001 3.061000e-001 3.171714e-001 3.898654e-001 3.778539e-001 4.156259e-001 4.232545e-001 3.951523e-001 3.260238e-001 5.387103e-002
<GCONST> 1.098285e+002
<STATE> 3
<MEAN> 39
 -7.325485e+000 -6.460363e+000 1.089612e+001 -2.051492e+001 -1.780884e+001 -9.638671e+000 -5.796795e+000 -6.608039e+000 -6.949157e+000 -4.523536e-001 -4.457249e+000 -5.987078e+000 7.386292e+001 -1.783534e-002 1.128383e+000 1.009664e+000 1.052245e-001 3.780085e-002 -9.928774e-002 -1.256750e+000 -1.128920e+000 -2.987024e-001 1.614121e-001 2.893151e-002 5.024220e-001 -8.289559e-001 1.416343e-001 -7.533154e-002 -2.679217e-001 4.443553e-001 4.238840e-001 8.561668e-002 1.277862e-001 1.145023e-001 -1.298131e-001 -3.596295e-001 -8.525506e-002 1.978879e-002 -1.958883e-001
<VARIANCE> 39
 1.726693e+001 3.201514e+001 5.885894e+001 1.014327e+002 5.101701e+001 4.992833e+001 5.507215e+001 7.959811e+001 5.420901e+001 5.520722e+001 9.388694e+001 4.294650e+001 1.824344e+001 4.368535e-001 9.761407e-001 1.058612e+000 1.586589e+000 1.488661e+000 1.963699e+000 2.297943e+000 2.056725e+000 2.197078e+000 2.042211e+000 1.965475e+000 1.873719e+000 4.794162e-001 7.599703e-002 1.290917e-001 1.635742e-001 3.224752e-001 3.028143e-001 2.746061e-001 3.810722e-001 3.413447e-001 4.058800e-001 3.937823e-001 3.922130e-001 3.063276e-001 9.063007e-002
<GCONST> 1.080398e+002
<STATE> 4
<MEAN> 39
 -6.836642e+000 -1.885179e+000 1.077555e+001 -1.332314e+001 -1.294115e+001 -6.794880e+000 -7.185576e+000 -7.680786e+000 -6.778401e+000 -2.476453e+000 -3.229085e+000 -4.118355e+000 6.472269e+001 2.177225e-001 3.968683e-001 -3.373960e-001 1.124841e+000 9.007584e-001 2.021373e-001 1.575863e-001 -1.660294e-002 1.009716e-001 -3.201941e-001 -4.469881e-003 1.563903e-001 -1.197811e+000 3.897246e-002 -1.033791e-001 -2.619724e-001 1.602215e-001 1.634792e-001 3.898493e-002 1.942663e-001 1.708497e-001 1.166363e-001 -2.241524e-002 1.014667e-002 -4.751996e-002 -6.691791e-002
<VARIANCE> 39
 1.701271e+001 3.937994e+001 7.598372e+001 1.194641e+002 7.443037e+001 5.524930e+001 6.177511e+001 6.584503e+001 5.678409e+001 4.966354e+001 7.369495e+001 5.231228e+001 8.651998e+001 7.925924e-001 1.476909e+000 1.683595e+000 2.858828e+000 2.334114e+000 2.119751e+000 2.871640e+000 2.451577e+000 2.480628e+000 2.417295e+000 2.496488e+000 2.037203e+000 1.396796e+000 1.293984e-001 2.070590e-001 2.710597e-001 4.678006e-001 4.305489e-001 3.796893e-001 4.999283e-001 4.421912e-001 4.483535e-001 4.271456e-001 4.152632e-001 3.545347e-001 1.989920e-001
<GCONST> 1.194355e+002
<TRANSP> 5
 0.000000e+000 1.000000e+000 0.000000e+000 0.000000e+000 0.000000e+000
 0.000000e+000 7.314865e-001 2.685135e-001 0.000000e+000 0.000000e+000
 0.000000e+000 0.000000e+000 6.643223e-001 3.356777e-001 0.000000e+000
 0.000000e+000 0.000000e+000 0.000000e+000 7.785314e-001 2.214686e-001
 0.000000e+000 0.000000e+000 0.000000e+000 0.000000e+000 0.000000e+000
<ENDHMM>
~h "AA"
<BEGINHMM>
<NUMSTATES> 5
<STATE> 2
<MEAN> 39
 -5.180260e+000 -1.435590e+001 -4.203750e+000 -1.721980e+001 -5.209365e+000 -7.546147e+000 -5.131454e+000 -9.439664e-001 -6.967043e+000 -8.281194e+000 -7.396704e+000 -5.728976e+000 7.641209e+001 8.771546e-003 -1.646375e+000 -1.234035e+000 4.762539e-002 1.344400e+000 5.442138e-001 -2.880374e-001 8.186720e-002 -2.838243e-001 -7.869781e-001 -3.244218e-001 -4.897352e-001 7.740662e-001 7.622410e-002 7.633303e-001 2.881398e-001 4.778777e-001 9.404030e-002 -2.020643e-002 -2.721678e-001 -4.065188e-001 1.929965e-001 3.324783e-001 2.876186e-001 7.592468e-002 -7.473788e-001
<VARIANCE> 39
 1.906942e+001 5.138094e+001 8.003827e+001 7.172499e+001 9.766453e+001 6.517418e+001 7.657765e+001 8.521593e+001 6.805100e+001 6.697005e+001 7.327050e+001 7.251761e+001 2.462666e+001 9.926148e-001 3.060342e+000 2.562618e+000 4.375367e+000 5.354771e+000 3.622000e+000 5.028436e+000 5.392044e+000 4.014682e+000 4.129040e+000 4.117117e+000 4.098443e+000 1.824307e+000 2.571321e-001 4.763359e-001 5.549093e-001 8.614876e-001 9.537212e-001 6.864193e-001 9.264368e-001 8.532096e-001 7.996968e-001 8.045663e-001 8.495649e-001 7.582972e-001 3.101565e-001
<GCONST> 1.354485e+002
<STATE> 3
<MEAN> 39
 -4.144428e+000 -1.599055e+001 -7.020453e+000 -1.609432e+001 -1.524642e+000 -6.878551e+000 -7.173281e+000 -1.369538e+000 -6.153241e+000 -8.563129e+000 -7.279156e+000 -6.749357e+000 7.666636e+001 4.086695e-001 3.580538e-001 -3.023612e-001 5.845139e-002 5.090626e-001 3.100877e-001 -6.554532e-001 -6.771485e-001 -1.013582e-002 3.068211e-001 1.980694e-001 -4.856865e-001 -5.986406e-001 1.231645e-001 6.788219e-001 4.899185e-001 6.872099e-002 -5.304530e-001 -9.304887e-002 3.204073e-002 -2.612360e-001 -2.180783e-002 2.936794e-001 1.767705e-001 1.889257e-001 -4.923885e-001
<VARIANCE> 39
 1.811157e+001 4.698584e+001 6.636850e+001 7.026028e+001 9.343682e+001 7.603629e+001 8.069772e+001 8.613793e+001 6.988360e+001 6.742029e+001 7.328734e+001 7.739359e+001 2.153459e+001 7.313312e-001 1.980125e+000 1.737479e+000 2.261141e+000 3.323050e+000 2.753388e+000 3.140565e+000 2.912754e+000 2.685511e+000 2.939928e+000 2.897139e+000 2.628219e+000 1.203467e+000 9.818553e-002 2.249859e-001 2.840270e-001 5.448295e-001 5.789375e-001 5.137993e-001 6.527327e-001 7.347026e-001 6.406999e-001 6.074386e-001 5.680768e-001 6.168606e-001 1.215414e-001
<GCONST> 1.234785e+002
<STATE> 4
<MEAN> 39
 -1.961899e+000 -1.312524e+001 -8.111461e+000 -1.853067e+001 -1.229881e+000 -3.855102e+000 -8.816092e+000 -3.896377e+000 -7.652969e+000 -7.134398e+000 -5.598059e+000 -6.870763e+000 7.376009e+001 4.498266e-001 1.213463e+000 3.905476e-001 -2.275848e-001 -7.136437e-001 3.058606e-002 -1.265157e-001 -6.170000e-001 -1.865037e-001 2.539329e-001 1.956097e-001 1.183297e-001 -9.559706e-001 2.391770e-003 1.898689e-001 2.640817e-001 1.001521e-001 -2.559415e-001 -9.802137e-002 5.619038e-002 -9.932793e-002 -9.741207e-003 -1.709703e-003 -6.089550e-002 1.536658e-001 -1.382729e-001
<VARIANCE> 39
 2.062968e+001 5.817444e+001 7.121175e+001 9.714764e+001 9.113660e+001 9.989713e+001 8.359695e+001 8.327221e+001 6.590421e+001 5.885653e+001 7.500461e+001 7.188691e+001 3.154515e+001 4.411723e-001 1.294448e+000 1.462919e+000 2.377968e+000 2.388519e+000 2.329212e+000 2.184547e+000 2.961216e+000 2.323820e+000 2.342219e+000 2.296244e+000 2.307020e+000 9.057822e-001 6.432918e-002 1.862979e-001 2.090765e-001 3.613850e-001 3.847430e-001 3.994021e-001 4.258558e-001 4.872588e-001 4.477175e-001 4.383106e-001 3.824968e-001 4.251910e-001 8.812048e-002
<GCONST> 1.170872e+002
<TRANSP> 5
 0.000000e+000 1.000000e+000 0.000000e+000 0.000000e+000 0.000000e+000
 0.000000e+000 5.497214e-001 4.502786e-001 0.000000e+000 0.000000e+000
 0.000000e+000 0.000000e+000 4.221360e-001 5.778640e-001 0.000000e+000
 0.000000e+000 0.000000e+000 0.000000e+000 7.356607e-001 2.643393e-001
 0.000000e+000 0.000000e+000 0.000000e+000 0.000000e+000 0.000000e+000
<ENDHMM>
~h "AF"
<BEGINHMM>
<NUMSTATES> 5
<STATE> 2
<MEAN> 39
 -3.737942e+000 -1.624879e+001 -3.636803e+000 -1.476288e+001 -3.934593e+000 -5.158295e+000 -2.712421e+000 -2.179850e+000 -7.957170e+000 -9.116860e+000 -7.146024e+000 -6.663832e+000 7.635129e+001 -6.431429e-001 -1.674835e+000 -2.755691e-001 4.253810e-001 7.805603e-001 7.224698e-001 8.883464e-001 1.342195e-001 -7.365597e-001 -8.373163e-001 2.765423e-001 -6.029994e-002 1.195246e+000 1.117632e-001 6.175494e-001 3.276091e-001 3.275243e-001 -9.151898e-002 -2.094329e-001 -3.291949e-001 -4.110854e-001 1.681070e-001 2.919762e-001 2.478052e-001 1.191332e-001 -5.543808e-001
<VARIANCE> 39
 2.492938e+001 4.384487e+001 7.184132e+001 7.284090e+001 7.430665e+001 6.416541e+001 6.924617e+001 8.881395e+001 7.511441e+001 6.208745e+001 5.779095e+001 5.259732e+001 2.309076e+001 7.655930e-001 2.216403e+000 1.852709e+000 3.050120e+000 2.701349e+000 3.160413e+000 3.060244e+000 4.472083e+000 3.386230e+000 3.179538e+000 3.398668e+000 2.887835e+000 1.354231e+000 1.391205e-001 2.913137e-001 3.245899e-001 5.117905e-001 4.393156e-001 5.681027e-001 5.968453e-001 7.771816e-001 6.730369e-001 5.678746e-001 5.797357e-001 5.093997e-001 1.761176e-001
<GCONST> 1.249469e+002
<STATE> 3
<MEAN> 39
 -4.568716e+000 -1.826977e+001 -4.509929e+000 -1.310539e+001 -2.298315e+000 -4.354776e+000 -1.731223e+000 -3.786726e+000 -8.467420e+000 -1.013872e+001 -5.718499e+000 -6.704873e+000 7.766785e+001 -6.890400e-002 -3.069793e-001 2.348116e-001 4.590893e-001 1.166714e-001 5.508714e-002 2.015174e-001 -1.201803e-001 -8.957504e-002 -3.773069e-002 2.504292e-001 -2.394661e-002 8.482599e-002 1.987024e-001 4.386063e-001 1.791640e-001 -1.442333e-001 -2.648024e-001 -2.001361e-001 -1.923235e-001 4.554589e-002 1.999061e-001 2.807761e-001 -7.073420e-002 -1.104143e-002 -3.241003e-001
<VARIANCE> 39
 2.359059e+001 3.972873e+001 6.319492e+001 6.752219e+001 7.084241e+001 5.934400e+001 6.447467e+001 8.873526e+001 6.924191e+001 5.312972e+001 4.848194e+001 4.581078e+001 1.940633e+001 4.370804e-001 1.033961e+000 1.061482e+000 1.505397e+000 1.861361e+000 1.604633e+000 1.888498e+000 1.951317e+000 1.785040e+000 1.753192e+000 1.950897e+000 1.710612e+000 3.690656e-001 6.631450e-002 1.766473e-001 1.703914e-001 2.784227e-001 2.594683e-001 3.123136e-001 3.436855e-001 4.247479e-001 3.594649e-001 3.492250e-001 3.745349e-001 3.057507e-001 9.466725e-002
<GCONST> 1.076464e+002
<STATE> 4
<MEAN> 39
 -3.530434e+000 -1.771065e+001 -1.831244e+000 -1.189362e+001 -2.804875e+000 -2.757238e+000 -1.645160e+000 -2.280049e+000 -8.004348e+000 -8.187449e+000 -5.818789e+000 -7.103810e+000 7.633310e+001 2.469042e-001 5.643597e-001 3.469471e-001 -1.248649e-001 -3.380573e-001 -1.922946e-001 -1.151398e-002 1.012535e-001 2.407246e-001 3.307925e-001 -8.250985e-002 -1.042408e-001 -4.603888e-001 7.249175e-002 2.528743e-001 7.704338e-002 -2.386237e-002 -9.443434e-002 -8.153305e-002 -1.014339e-001 -3.817281e-002 6.649383e-002 1.089032e-001 -2.095127e-002 1.524612e-002 -1.858693e-001
<VARIANCE> 39
 2.264664e+001 4.942701e+001 6.806920e+001 7.799823e+001 7.853225e+001 6.207538e+001 6.483001e+001 8.657586e+001 7.185719e+001 4.968486e+001 4.694844e+001 4.142480e+001 2.986059e+001 3.596677e-001 1.146612e+000 9.588394e-001 1.375344e+000 1.564530e+000 1.455095e+000 1.506922e+000 1.532971e+000 1.414577e+000 1.514607e+000 1.512715e+000 1.257809e+000 4.870718e-001 4.746790e-002 1.280429e-001 1.222404e-001 2.329842e-001 1.931114e-001 2.100110e-001 2.459209e-001 2.867959e-001 2.350836e-001 2.406679e-001 2.325284e-001 2.006988e-001 8.296433e-002
<GCONST> 1.023416e+002
<TRANSP> 5
 0.000000e+000 1.000000e+000 0.000000e+000 0.000000e+000 0.000000e+000
 0.000000e+000 5.176617e-001 4.823383e-001 0.000000e+000 0.000000e+000
 0.000000e+000 0.000000e+000 5.322561e-001 4.677439e-001 0.000000e+000
 0.000000e+000 0.000000e+000 0.000000e+000 8.527039e-001 1.472961e-001
 0.000000e+000 0.000000e+000 0.000000e+000 0.000000e+000 0.000000e+000
<ENDHMM>
~h "AJ"
<BEGINHMM>
<NUMSTATES> 5
<STATE> 2
<MEAN> 39
 -3.524306e+000 -1.671238e+001 -3.890697e+000 -1.344331e+001 -1.901673e+000 -4.381584e+000 -9.558653e-001 -1.145819e+000 -5.991834e+000 -8.550398e+000 -6.594316e+000 -5.693631e+000 7.545733e+001 -6.474469e-001 -1.648237e+000 2.101336e-002 4.311329e-001 6.689982e-001 5.992583e-001 1.182793e+000 -3.677982e-002 -7.801534e-001 -9.099890e-001 1.992053e-001 2.573627e-001 8.273107e-001 -7.027632e-003 6.684878e-001 3.941664e-001 3.929802e-001 -1.102474e-001 -1.097660e-001 -2.928170e-001 -4.075040e-001 7.809415e-002 3.341337e-001 3.467072e-001 9.784041e-002 -7.075009e-001
<VARIANCE> 39
 2.239791e+001 5.564964e+001 6.336396e+001 7.942067e+001 7.991103e+001 5.945795e+001 6.973885e+001 8.562238e+001 6.947038e+001 6.018515e+001 4.957354e+001 4.912901e+001 4.579243e+001 1.302391e+000 3.866931e+000 2.742380e+000 4.307751e+000 3.896299e+000 4.544116e+000 4.230056e+000 5.778351e+000 4.438862e+000 4.283378e+000 3.762782e+000 3.326321e+000 3.437257e+000 2.658797e-001 5.645720e-001 4.580098e-001 7.891881e-001 6.033552e-001 6.707546e-001 7.805002e-001 9.154057e-001 8.286932e-001 7.177081e-001 6.713787e-001 6.455270e-001 5.682848e-001
<GCONST> 1.352374e+002
<STATE> 3
<MEAN> 39
