~o
<STREAMINFO> 1 39
<VECSIZE> 39<NULLD><MFCC_D_A_0><DIAGC>
~s "silst"
<MEAN> 39
 -8.142202e+000 -3.998354e+000 -8.921041e-001 -3.133695e+000 -8.422262e-001 -2.273336e+000 -4.984834e-001 -1.352090e+000 5.513512e-001 -2.095207e+000 -4.718101e-001 -1.741296e+000 5.096635e+001 -2.152045e-001 9.830356e-003 -4.947577e-002 1.983448e-001 1.321470e-001 9.218045e-002 1.792668e-001 1.554065e-001 1.720753e-001 1.106669e-001 1.122957e-001 8.716141e-002 -3.043695e-001 5.916136e-002 1.903496e-002 1.685585e-002 -6.473185e-002 -4.965535e-002 -5.682434e-002 -7.117449e-002 -6.860833e-002 -6.847867e-002 -3.242600e-002 -3.534675e-002 -1.179584e-002 1.312073e-001
<VARIANCE> 39
 1.742118e+001 2.687902e+001 3.301118e+001 3.127676e+001 3.339223e+001 3.215279e+001 3.290671e+001 3.406532e+001 3.311842e+001 3.073499e+001 2.944598e+001 2.261196e+001 2.856590e+001 9.852269e-001 1.341340e+000 1.492962e+000 1.782548e+000 1.883488e+000 2.031444e+000 2.312772e+000 2.424525e+000 2.450785e+000 2.300816e+000 2.098302e+000 1.788949e+000 1.243897e+000 1.723599e-001 2.320147e-001 2.608333e-001 3.406709e-001 3.590689e-001 3.871445e-001 4.323172e-001 4.498304e-001 4.565134e-001 4.315775e-001 3.957865e-001 3.414208e-001 2.083016e-001
<GCONST> 1.086945e+002
~h ":"
<BEGINHMM>
<NUMSTATES> 5
<STATE> 2
<MEAN> 39
 -4.901095e+000 -5.842618e+000 -5.097519e-001 -9.923710e+000 -4.122406e+000 -4.544213e+000 -4.531428e+000 -3.756145e+000 -3.134470e+000 -3.843007e+000 -3.141330e+000 -3.863289e+000 6.290533e+001 3.156596e-003 4.426242e-003 -3.008057e-004 -9.815464e-004 -7.398279e-004 -3.059326e-004 6.043092e-004 -2.233922e-003 1.730658e-004 -2.990019e-004 -3.013898e-003 -8.223696e-004 -5.428240e-004 -1.672899e-004 -1.806980e-004 4.561614e-005 -7.206317e-005 6.492341e-005 1.899766e-004 7.487284e-005 1.468558e-005 -2.101225e-005 1.112924e-004 1.261849e-004 6.155111e-006 1.118417e-005
<VARIANCE> 39
 3.977646e+001 6.976524e+001 7.436712e+001 1.058175e+002 8.034691e+001 6.925978e+001 7.782265e+001 7.860110e+001 6.821010e+001 5.800883e+001 6.279465e+001 4.830898e+001 1.459772e+002 1.544968e+000 2.667576e+000 2.529959e+000 4.061153e+000 3.472722e+000 3.155723e+000 3.471568e+000 3.756795e+000 3.266600e+000 3.146162e+000 3.154106e+000 2.635824e+000 3.396390e+000 2.536712e-001 3.905498e-001 3.963176e-001 6.350257e-001 5.963098e-001 5.526317e-001 6.014287e-001 6.646528e-001 5.859886e-001 5.718929e-001 5.669279e-001 4.794365e-001 4.314951e-001
<GCONST> 1.326273e+002
<STATE> 3
<MEAN> 39
 -4.901095e+000 -5.842618e+000 -5.097519e-001 -9.923710e+000 -4.122406e+000 -4.544213e+000 -4.531428e+000 -3.756145e+000 -3.134470e+000 -3.843007e+000 -3.141330e+000 -3.863289e+000 6.290533e+001 3.156596e-003 4.426242e-003 -3.008057e-004 -9.815464e-004 -7.398279e-004 -3.059326e-004 6.043092e-004 -2.233922e-003 1.730658e-004 -2.990019e-004 -3.013898e-003 -8.223696e-004 -5.428240e-004 -1.672899e-004 -1.806980e-004 4.561614e-005 -7.206317e-005 6.492341e-005 1.899766e-004 7.487284e-005 1.468558e-005 -2.101225e-005 1.112924e-004 1.261849e-004 6.155111e-006 1.118417e-005
<VARIANCE> 39
 3.977646e+001 6.976524e+001 7.436712e+001 1.058175e+002 8.034691e+001 6.925978e+001 7.782265e+001 7.860110e+001 6.821010e+001 5.800883e+001 6.279465e+001 4.830898e+001 1.459772e+002 1.544968e+000 2.667576e+000 2.529959e+000 4.061153e+000 3.472722e+000 3.155723e+000 3.471568e+000 3.756795e+000 3.266600e+000 3.146162e+000 3.154106e+000 2.635824e+000 3.396390e+000 2.536712e-001 3.905498e-001 3.963176e-001 6.350257e-001 5.963098e-001 5.526317e-001 6.014287e-001 6.646528e-001 5.859886e-001 5.718929e-001 5.669279e-001 4.794365e-001 4.314951e-001
<GCONST> 1.326273e+002
<STATE> 4
<MEAN> 39
 -4.901095e+000 -5.842618e+000 -5.097519e-001 -9.923710e+000 -4.122406e+000 -4.544213e+000 -4.531428e+000 -3.756145e+000 -3.134470e+000 -3.843007e+000 -3.141330e+000 -3.863289e+000 6.290533e+001 3.156596e-003 4.426242e-003 -3.008057e-004 -9.815464e-004 -7.398279e-004 -3.059326e-004 6.043092e-004 -2.233922e-003 1.730658e-004 -2.990019e-004 -3.013898e-003 -8.223696e-004 -5.428240e-004 -1.672899e-004 -1.806980e-004 4.561614e-005 -7.206317e-005 6.492341e-005 1.899766e-004 7.487284e-005 1.468558e-005 -2.101225e-005 1.112924e-004 1.261849e-004 6.155111e-006 1.118417e-005
<VARIANCE> 39
 3.977646e+001 6.976524e+001 7.436712e+001 1.058175e+002 8.034691e+001 6.925978e+001 7.782265e+001 7.860110e+001 6.821010e+001 5.800883e+001 6.279465e+001 4.830898e+001 1.459772e+002 1.544968e+000 2.667576e+000 2.529959e+000 4.061153e+000 3.472722e+000 3.155723e+000 3.471568e+000 3.756795e+000 3.266600e+000 3.146162e+000 3.154106e+000 2.635824e+000 3.396390e+000 2.536712e-001 3.905498e-001 3.963176e-001 6.350257e-001 5.963098e-001 5.526317e-001 6.014287e-001 6.646528e-001 5.859886e-001 5.718929e-001 5.669279e-001 4.794365e-001 4.314951e-001
<GCONST> 1.326273e+002
<TRANSP> 5
 0.000000e+000 1.000000e+000 0.000000e+000 0.000000e+000 0.000000e+000
 0.000000e+000 6.000000e-001 4.000000e-001 0.000000e+000 0.000000e+000
 0.000000e+000 0.000000e+000 6.000000e-001 4.000000e-001 0.000000e+000
 0.000000e+000 0.000000e+000 0.000000e+000 7.000000e-001 3.000000e-001
 0.000000e+000 0.000000e+000 0.000000e+000 0.000000e+000 0.000000e+000
<ENDHMM>
~h "A"
<BEGINHMM>
<NUMSTATES> 5
<STATE> 2
<MEAN> 39
 -3.906636e+000 -1.388457e+001 -4.160538e+000 -1.528932e+001 -4.225316e+000 -5.868492e+000 -4.027921e+000 -2.430394e+000 -6.275317e+000 -7.311043e+000 -5.970654e+000 -5.150507e+000 7.347271e+001 -5.490967e-001 -1.867803e+000 -3.240897e-001 2.873172e-001 7.041587e-001 3.253824e-001 3.864991e-001 -7.994003e-002 -8.867655e-001 -9.793395e-001 -1.422697e-001 -2.290040e-001 1.242498e+000 -5.280234e-002 4.524883e-001 2.342582e-001 3.969346e-001 1.082419e-002 -9.009491e-003 -1.315868e-001 -3.073053e-001 4.502279e-002 1.763219e-001 2.625811e-001 1.009892e-001 -4.296162e-001
<VARIANCE> 39
 2.799994e+001 7.105003e+001 6.916451e+001 9.365213e+001 8.725560e+001 7.308109e+001 8.123900e+001 8.406259e+001 7.779914e+001 6.506557e+001 6.730578e+001 6.225910e+001 5.691814e+001 1.199240e+000 3.244748e+000 2.855681e+000 4.320379e+000 4.132236e+000 4.079862e+000 4.122945e+000 4.947519e+000 4.456604e+000 3.914932e+000 3.929472e+000 3.513854e+000 3.463118e+000 2.608123e-001 6.115558e-001 4.552838e-001 7.963912e-001 6.714848e-001 6.352866e-001 7.518547e-001 8.010540e-001 7.969621e-001 7.262338e-001 7.395324e-001 6.559539e-001 6.667849e-001
<GCONST> 1.371035e+002
<STATE> 3
<MEAN> 39
 -4.798903e+000 -1.713905e+001 -5.645939e+000 -1.480240e+001 -2.881345e+000 -5.276365e+000 -3.576018e+000 -4.044884e+000 -8.227944e+000 -9.197658e+000 -5.501385e+000 -5.214184e+000 7.660155e+001 -2.251183e-001 -5.764610e-001 -1.469864e-002 7.501479e-001 3.546228e-001 4.936657e-002 -3.034100e-002 -5.329168e-001 -3.491603e-001 -2.630062e-001 2.775314e-001 -3.294016e-002 1.224328e-001 1.798251e-001 5.269493e-001 2.167155e-001 -2.031694e-002 -3.000363e-001 -1.652356e-001 -1.508041e-001 3.595732e-002 2.481916e-001 3.071524e-001 7.226358e-002 2.875640e-002 -3.700476e-001
<VARIANCE> 39
 2.672607e+001 6.671586e+001 6.239830e+001 8.144740e+001 8.013352e+001 6.746158e+001 7.982715e+001 8.574619e+001 7.737005e+001 6.258747e+001 5.972600e+001 5.648328e+001 2.678096e+001 5.183966e-001 1.123057e+000 1.603765e+000 2.252451e+000 2.748012e+000 2.326447e+000 2.531011e+000 2.522338e+000 2.420403e+000 2.353504e+000 2.526323e+000 2.222539e+000 4.923941e-001 9.278001e-002 2.221289e-001 2.376894e-001 4.194299e-001 3.683087e-001 3.931855e-001 4.397552e-001 4.758042e-001 5.207797e-001 4.657454e-001 4.528291e-001 4.164573e-001 1.294199e-001
<GCONST> 1.174153e+002
<STATE> 4
<MEAN> 39
 -4.785649e+000 -1.887452e+001 -4.050707e+000 -1.270158e+001 -3.092415e+000 -4.486066e+000 -3.692173e+000 -4.079757e+000 -9.050597e+000 -9.293986e+000 -5.275145e+000 -6.265790e+000 7.692355e+001 1.300681e-001 3.822964e-001 2.049779e-001 -6.881092e-002 -2.825736e-001 -1.474542e-001 8.186447e-004 -4.584211e-002 3.842297e-002 1.078876e-001 -5.288576e-002 -8.510134e-002 -3.434587e-001 8.505358e-002 2.538573e-001 7.558696e-002 -5.770744e-002 -1.106077e-001 -6.916748e-002 -4.560338e-002 2.640913e-002 8.197793e-002 1.002739e-001 -4.201842e-002 1.721144e-002 -1.844840e-001
<VARIANCE> 39
 2.401460e+001 5.329646e+001 6.213463e+001 7.488460e+001 7.564178e+001 6.349605e+001 7.605138e+001 9.108295e+001 7.005217e+001 5.603862e+001 5.013966e+001 5.542429e+001 2.047054e+001 3.355024e-001 9.449695e-001 9.108226e-001 1.587576e+000 1.523531e+000 1.415498e+000 1.527841e+000 1.461933e+000 1.445747e+000 1.461757e+000 1.407539e+000 1.186466e+000 4.085530e-001 4.987550e-002 1.261883e-001 1.283916e-001 2.297853e-001 1.961323e-001 2.228810e-001 2.406071e-001 2.508625e-001 2.416165e-001 2.373015e-001 2.247135e-001 1.961091e-001 7.626917e-002
<GCONST> 1.018961e+002
<TRANSP> 5
 0.000000e+000 1.000000e+000 0.000000e+000 0.000000e+000 0.000000e+000
 0.000000e+000 4.651669e-001 5.348331e-001 0.000000e+000 0.000000e+000
 0.000000e+000 0.000000e+000 4.186969e-001 5.813031e-001 0.000000e+000
 0.000000e+000 0.000000e+000 0.000000e+000 8.267170e-001 1.732830e-001
 0.000000e+000 0.000000e+000 0.000000e+000 0.000000e+000 0.000000e+000
<ENDHMM>
~h "B"
<BEGINHMM>
<NUMSTATES> 5
<STATE> 2
<MEAN> 39
 9.181407e-001 -7.942599e-001 2.080080e+000 -5.979087e+000 -3.532600e+000 -4.551698e+000 -7.191123e+000 -9.126040e+000 -6.602039e+000 -6.401919e+000 -5.999117e+000 -6.738412e+000 5.719290e+001 6.684679e-001 1.184730e+000 6.109887e-001 1.091275e+000 5.033055e-001 1.416730e-001 -2.728305e-001 -1.058282e+000 -8.876031e-001 -7.820241e-001 -4.450066e-001 -4.671760e-001 -9.553539e-001 -1.258772e-001 -5.136323e-001 -3.821189e-001 -6.854665e-001 -2.133055e-001 -1.166571e-001 -3.676453e-002 3.092490e-001 1.756524e-001 2.517566e-001 1.961634e-001 1.095545e-001 9.454620e-001
<VARIANCE> 39
 2.219184e+001 4.485653e+001 4.532292e+001 6.275736e+001 3.864278e+001 5.385893e+001 5.049313e+001 5.689702e+001 5.192411e+001 4.971448e+001 5.548252e+001 4.153418e+001 4.818097e+001 1.703750e+000 1.977357e+000 2.465134e+000 4.588449e+000 3.043216e+000 3.281718e+000 4.233104e+000 4.017297e+000 4.071299e+000 3.568067e+000 3.691239e+000 2.994925e+000 5.078046e+000 3.080165e-001 5.660591e-001 6.170497e-001 1.000103e+000 6.331434e-001 6.094924e-001 7.915277e-001 8.987414e-001 9.188091e-001 8.791765e-001 8.434780e-001 6.160740e-001 7.633684e-001
<GCONST> 1.324297e+002
<STATE> 3
<MEAN> 39
 2.669020e+000 9.823658e-001 1.801605e+000 -6.077551e+000 -3.162011e+000 -4.685390e+000 -8.886730e+000 -1.219340e+001 -9.050940e+000 -7.394907e+000 -6.096053e+000 -7.230274e+000 5.871566e+001 3.710943e-002 -2.438167e+000 -2.261540e+000 -2.941895e+000 -4.263866e-001 -3.594771e-001 -3.801731e-001 1.683042e+000 1.280533e+000 1.414662e+000 1.129610e+000 8.300269e-002 4.331034e+000 -4.730320e-001 -1.175489e+000 -5.154730e-001 -9.773273e-001 -2.183339e-001 1.489161e-001 3.255516e-001 9.868308e-001 5.575356e-001 3.169791e-001 7.062313e-002 9.672003e-002 1.196169e+000
<VARIANCE> 39
 1.315654e+001 2.943172e+001 3.366001e+001 4.399775e+001 2.940677e+001 5.325171e+001 4.660933e+001 4.902477e+001 4.138957e+001 4.164885e+001 5.437319e+001 3.370137e+001 2.550053e+001 1.891613e+000 4.308459e+000 4.519114e+000 5.731159e+000 4.831523e+000 5.081040e+000 6.102825e+000 6.266388e+000 6.279036e+000 5.763887e+000 6.013885e+000 4.792587e+000 3.382699e+000 2.884472e-001 5.838205e-001 7.545076e-001 9.254876e-001 9.277917e-001 8.681731e-001 1.280169e+000 1.084596e+000 1.122941e+000 1.098035e+000 1.104177e+000 9.835937e-001 6.488514e-001
<GCONST> 1.364278e+002
<STATE> 4
<MEAN> 39
 1.352040e+000 -1.009899e+001 -6.496887e+000 -1.717576e+001 -4.656631e+000 -5.183988e+000 -8.996034e+000 -3.077577e+000 -1.707703e+000 -1.805848e+000 -3.899339e+000 -7.888028e+000 7.424662e+001 -1.197096e+000 -3.688584e+000 -1.538617e+000 -2.593165e+000 -2.165301e-001 2.807993e-001 1.081536e+000 2.838579e+000 9.537061e-001 4.928187e-002 -3.546957e-001 -6.512520e-002 4.238004e+000 -2.740567e-001 5.122587e-001 8.524817e-001 8.947899e-001 7.805797e-002 2.198720e-001 4.082498e-001 -5.457161e-001 -8.162633e-001 -7.683133e-001 -2.920079e-001 1.692436e-001 -1.111872e+000
<VARIANCE> 39
 1.625086e+001 5.009702e+001 5.846539e+001 7.287767e+001 5.129269e+001 9.437614e+001 6.564082e+001 6.186723e+001 5.803435e+001 7.009193e+001 7.795338e+001 6.404118e+001 2.382241e+001 1.617054e+000 4.752390e+000 5.881126e+000 8.309521e+000 7.856423e+000 6.983269e+000 8.252896e+000 6.520319e+000 7.393686e+000 7.929391e+000 7.236880e+000 6.901732e+000 3.891791e+000 2.663878e-001 5.756164e-001 4.485835e-001 1.010307e+000 8.103229e-001 9.600977e-001 9.571673e-001 1.143413e+000 1.037413e+000 1.011656e+000 1.172249e+000 9.141924e-001 4.443211e-001
<GCONST> 1.432664e+002
<TRANSP> 5
 0.000000e+000 1.000000e+000 0.000000e+000 0.000000e+000 0.000000e+000
 0.000000e+000 7.097399e-001 2.902601e-001 0.000000e+000 0.000000e+000
 0.000000e+000 0.000000e+000 5.357934e-001 4.642066e-001 0.000000e+000
 0.000000e+000 0.000000e+000 0.000000e+000 4.620152e-001 5.379848e-001
 0.000000e+000 0.000000e+000 0.000000e+000 0.000000e+000 0.000000e+000
<ENDHMM>
~h "C"
<BEGINHMM>
<NUMSTATES> 5
<STATE> 2
<MEAN> 39
 -4.069657e+000 -3.687440e+000 -1.105489e+000 -6.425887e+000 -3.243095e+000 -4.689476e+000 -2.890018e+000 -4.254241e+000 -1.838938e+000 -2.207700e+000 -2.677374e+000 -3.449379e+000 5.597123e+001 -1.048352e+000 -2.806871e-001 -2.881000e-001 1.360914e+000 9.159451e-001 6.934109e-001 1.096199e+000 9.706079e-001 1.194150e+000 5.083262e-001 7.003221e-001 3.017551e-001 -1.732510e+000 -6.280039e-002 -2.923619e-001 -3.256079e-001 -4.576998e-001 -2.136637e-003 -1.547693e-001 -1.089175e-001 1.651044e-002 -8.781976e-002 8.350836e-002 -1.815930e-002 1.094234e-001 8.662548e-001
<VARIANCE> 39
 2.169065e+001 4.262715e+001 5.135035e+001 5.279831e+001 5.145407e+001 5.611560e+001 5.731383e+001 5.754916e+001 5.226883e+001 4.640187e+001 5.154655e+001 4.358701e+001 4.596537e+001 1.645190e+000 2.932416e+000 3.796480e+000 4.525080e+000 4.053015e+000 4.445149e+000 4.221831e+000 4.242191e+000 4.087071e+000 3.868389e+000 3.862492e+000 3.314827e+000 4.928577e+000 3.318118e-001 5.899619e-001 5.979367e-001 7.899516e-001 8.329471e-001 9.691646e-001 8.369768e-001 8.589906e-001 8.593248e-001 7.705104e-001 7.447801e-001 6.253617e-001 8.066447e-001
<GCONST> 1.346031e+002
<STATE> 3
<MEAN> 39
 -8.417698e+000 -5.815676e+000 -4.192129e+000 -3.547540e+000 9.904221e-001 -4.344892e+000 -5.367460e-002 -1.425350e+000 2.058961e+000 3.183967e-001 -2.341007e-001 -8.477339e-001 5.651058e+001 7.751997e-002 -4.037173e-001 -1.165581e+000 -8.521137e-001 5.842302e-001 -1.115500e+000 -3.134457e-001 9.499704e-002 -2.984793e-001 4.930164e-001 -3.145667e-001 4.795325e-001 2.988587e+000 7.208111e-001 9.037504e-002 1.716134e-001 -1.088244e+000 -6.516005e-001 -2.054441e-001 -5.964628e-001 -3.816842e-001 -7.207928e-001 -3.342384e-001 -4.430207e-001 -3.913675e-001 8.582981e-001
<VARIANCE> 39
 1.908391e+001 3.234005e+001 5.062903e+001 3.624413e+001 6.170119e+001 5.348571e+001 4.778573e+001 4.419754e+001 4.196973e+001 3.684209e+001 3.477349e+001 2.763820e+001 5.919911e+001 2.887364e+000 4.295926e+000 5.887416e+000 6.087242e+000 7.727981e+000 5.999455e+000 6.234860e+000 5.660110e+000 5.196335e+000 4.767444e+000 4.549373e+000 4.041541e+000 9.452717e+000 3.410345e-001 6.482742e-001 8.224220e-001 9.531837e-001 1.113813e+000 1.041014e+000 9.032339e-001 9.520871e-001 8.494095e-001 8.608275e-001 9.598621e-001 8.958729e-001 9.406829e-001
<GCONST> 1.392509e+002
<STATE> 4
<MEAN> 39
 -4.035009e+000 -4.933176e+000 -5.465364e+000 -1.049917e+001 -1.923971e+000 -7.603927e+000 -4.055683e+000 -2.700228e+000 -1.796578e+000 6.180668e-001 -2.285621e+000 -2.191600e+000 6.558119e+001 1.455868e+000 -5.491651e-001 -1.138521e-001 -3.149544e+000 -1.504505e+000 -2.706110e-001 -9.667735e-001 -3.646173e-001 -1.476461e+000 -7.609946e-001 -8.109910e-001 -1.226077e+000 2.791680e+000 4.398703e-003 -2.443430e-001 2.084725e-001 -1.078226e-001 -1.238527e-001 5.636429e-001 7.707075e-002 -1.149827e-001 -1.523639e-001 -4.825543e-001 -2.094059e-002 -3.190591e-001 -4.837086e-001
<VARIANCE> 39
 2.817033e+001 4.263236e+001 7.183678e+001 7.958456e+001 9.197380e+001 7.490901e+001 6.929035e+001 6.580331e+001 5.507623e+001 5.120586e+001 5.623868e+001 6.114358e+001 7.699417e+001 2.908077e+000 4.882315e+000 4.918441e+000 8.700459e+000 6.745655e+000 6.111212e+000 6.992975e+000 6.772376e+000 6.077764e+000 5.567669e+000 7.750192e+000 6.578805e+000 6.602519e+000 4.374637e-001 6.118549e-001 8.633143e-001 1.120534e+000 1.520000e+000 1.156718e+000 1.118902e+000 9.649777e-001 9.245989e-001 8.892274e-001 9.577217e-001 9.162747e-001 9.641035e-001
<GCONST> 1.473669e+002
<TRANSP> 5
 0.000000e+000 1.000000e+000 0.000000e+000 0.000000e+000 0.000000e+000
 0.000000e+000 7.014787e-001 2.985213e-001 0.000000e+000 0.000000e+000
 0.000000e+000 0.000000e+000 5.173633e-001 4.826367e-001 0.000000e+000
 0.000000e+000 0.000000e+000 0.000000e+000 3.673391e-001 6.326609e-001
 0.000000e+000 0.000000e+000 0.000000e+000 0.000000e+000 0.000000e+000
<ENDHMM>
~h "D"
<BEGINHMM>
<NUMSTATES> 5
<STATE> 2
<MEAN> 39
 -5.829717e+000 3.918890e+000 6.698017e+000 -8.028688e+000 -5.855514e+000 -8.928179e+000 -8.454878e+000 -9.230686e+000 -8.568921e+000 -5.913954e+000 -6.128289e+000 -6.694479e+000 6.190768e+001 -8.175892e-001 1.290985e+000 1.120273e+000 -2.258289e-001 4.028973e-001 -1.601430e-001 -5.181904e-001 -2.804864e-001 -5.348989e-001 -3.617548e-001 1.307445e-001 -3.032222e-001 2.973126e-001 -3.303877e-002 -4.420597e-001 5.016154e-002 -5.119169e-001 -4.021868e-001 -1.278689e-002 -1.026455e-001 8.602861e-002 1.187235e-001 2.323307e-001 1.957614e-001 1.859379e-001 5.677950e-001
<VARIANCE> 39
 3.420028e+001 5.157754e+001 7.732009e+001 9.264854e+001 6.188844e+001 5.831194e+001 5.817197e+001 7.358797e+001 5.570784e+001 5.255266e+001 6.784003e+001 5.219115e+001 5.132936e+001 2.831772e+000 2.783457e+000 5.121044e+000 5.953346e+000 5.152777e+000 4.043787e+000 4.773520e+000 4.417929e+000 4.646648e+000 3.959155e+000 3.976391e+000 3.252543e+000 4.577079e+000 4.975656e-001 6.602048e-001 8.425848e-001 1.000075e+000 1.345000e+000 8.151646e-001 9.098169e-001 8.250279e-001 8.291229e-001 8.215596e-001 7.377831e-001 6.034738e-001 4.799476e-001
<GCONST> 1.398286e+002
<STATE> 3
<MEAN> 39
 -9.057014e+000 4.696788e+000 1.324703e+001 -1.441727e+001 -9.229612e+000 -9.419142e+000 -1.261630e+001 -1.041390e+001 -1.050694e+001 -4.581360e+000 -3.409353e+000 -5.928278e+000 6.825636e+001 1.656119e-001 -2.491665e+000 6.077730e-001 -2.192307e+000 -3.233063e+000 -3.878539e-001 -2.898862e-001 6.487446e-001 6.327632e-001 1.389345e+000 7.934946e-001 5.512133e-001 2.840981e+000 5.102305e-001 -8.292993e-001 -9.175389e-001 2.774321e-001 -2.060436e-001 -1.930146e-002 6.549771e-001 6.102216e-001 4.910023e-001 1.082013e-001 -2.284053e-001 -1.051367e-001 -5.875525e-002
<VARIANCE> 39
 1.478173e+001 3.194514e+001 7.369691e+001 1.013321e+002 5.869817e+001 4.811798e+001 4.084148e+001 6.051093e+001 4.426443e+001 4.818892e+001 7.177576e+001 3.926810e+001 2.116329e+001 1.997860e+000 2.395494e+000 4.105056e+000 5.223832e+000 4.478293e+000 3.559560e+000 5.050707e+000 4.101990e+000 3.964962e+000 3.768044e+000 4.091045e+000 2.863098e+000 1.365281e+000 2.956971e-001 4.498838e-001 6.194817e-001 7.331082e-001 1.211630e+000 6.438540e-001 7.389216e-001 6.182315e-001 6.822606e-001 7.907075e-001 6.808525e-001 4.927868e-001 3.339655e-001
<GCONST> 1.304360e+002
<STATE> 4
<MEAN> 39
 -6.124474e+000 -5.764342e+000 7.957115e+000 -1.763459e+001 -1.715006e+001 -1.160000e+001 -7.716718e+000 -3.642851e+000 -5.321643e+000 -1.165444e+000 -2.861566e+000 -5.779428e+000 7.514417e+001 9.222289e-001 -2.674183e+000 -2.845698e+000 -2.627103e-001 4.029014e-001 -1.393479e-001 1.423048e+000 2.325189e+000 1.481629e+000 -2.129142e-001 -8.880356e-001 -2.991973e-001 1.354760e+000 1.609786e-002 4.597405e-001 -4.205683e-001 4.006329e-001 1.417040e+000 4.176862e-001 -1.845155e-001 -3.178584e-001 -2.493334e-001 -5.500540e-001 -3.297434e-001 -8.385219e-002 -5.973922e-001
<VARIANCE> 39
 1.853790e+001 3.612848e+001 6.798991e+001 1.110984e+002 5.058263e+001 4.941894e+001 6.789463e+001 8.850947e+001 5.462546e+001 5.528206e+001 8.774313e+001 3.803845e+001 1.959917e+001 6.547711e-001 2.021147e+000 3.173502e+000 3.195041e+000 6.968170e+000 4.023239e+000 6.023946e+000 3.406438e+000 4.497735e+000 5.687694e+000 4.134483e+000 3.292910e+000 8.917062e-001 1.310733e-001 2.638850e-001 5.435061e-001 8.438256e-001 7.820027e-001 7.405607e-001 1.027699e+000 9.137464e-001 8.636222e-001 8.368840e-001 8.198743e-001 6.378950e-001 1.192210e-001
<GCONST> 1.295777e+002
<TRANSP> 5
 0.000000e+000 1.000000e+000 0.000000e+000 0.000000e+000 0.000000e+000
 0.000000e+000 7.900139e-001 2.099861e-001 0.000000e+000 0.000000e+000
 0.000000e+000 0.000000e+000 6.253297e-001 3.746703e-001 0.000000e+000
 0.000000e+000 0.000000e+000 0.000000e+000 6.252446e-001 3.747554e-001
 0.000000e+000 0.000000e+000 0.000000e+000 0.000000e+000 0.000000e+000
<ENDHMM>
~h "E"
<BEGINHMM>
<NUMSTATES> 5
<STATE> 2
<MEAN> 39
 -6.533400e+000 -1.073824e+001 2.402747e+000 -1.693201e+001 -1.196257e+001 -7.160720e+000 1.313011e+000 -2.507395e+000 -5.327323e+000 -5.457458e+000 -5.173018e+000 -4.996089e+000 7.216426e+001 -4.769908e-001 -1.185993e+000 3.716627e-001 -1.497980e+000 -9.311780e-001 2.201965e-001 5.391415e-001 1.026514e-001 -5.661515e-001 -3.228925e-001 -4.846477e-001 -9.042856e-001 1.554423e+000 -7.261767e-002 3.094909e-001 -1.092143e-002 3.806189e-001 3.478586e-001 1.887830e-001 -1.468302e-001 -8.203250e-002 1.495776e-001 1.512580e-001 1.143134e-001 6.313203e-002 -2.828460e-001
<VARIANCE> 39
 2.237537e+001 4.270086e+001 6.572134e+001 9.067639e+001 7.471601e+001 6.660239e+001 6.184137e+001 8.117477e+001 6.792802e+001 4.756761e+001 5.624863e+001 4.394595e+001 7.148839e+001 1.187245e+000 2.533781e+000 2.411520e+000 3.502884e+000 3.124974e+000 3.125954e+000 3.853763e+000 3.603520e+000 3.044477e+000 2.863292e+000 3.419841e+000 2.577934e+000 3.673258e+000 2.861796e-001 4.598564e-001 3.946673e-001 7.862999e-001 5.838720e-001 5.846249e-001 6.741921e-001 6.262109e-001 5.307976e-001 5.312361e-001 5.248770e-001 4.614553e-001 7.294392e-001
<GCONST> 1.300822e+002
<STATE> 3
<MEAN> 39
 -8.699686e+000 -1.277522e+001 3.844352e+000 -2.287646e+001 -1.350955e+001 -5.661799e+000 7.539060e-001 -4.494299e+000 -7.307656e+000 -5.651655e+000 -7.605958e+000 -6.890648e+000 7.678395e+001 -3.497296e-002 -1.336068e-001 1.514523e-001 -1.207657e-001 -1.533585e-001 6.524429e-002 3.371388e-002 -1.103419e-001 -1.015753e-001 2.877515e-002 -5.325245e-002 -1.573927e-001 8.520867e-002 1.487459e-001 6.843563e-002 -4.425892e-002 2.378961e-001 9.526037e-002 -1.658780e-001 -7.688068e-002 4.220005e-002 3.828507e-003 -1.227213e-002 7.597923e-002 1.431143e-001 -1.753048e-001
<VARIANCE> 39
 1.778058e+001 2.482230e+001 5.758621e+001 6.869847e+001 4.552308e+001 5.042068e+001 4.666357e+001 7.919138e+001 5.352230e+001 5.080756e+001 5.405103e+001 3.261746e+001 1.266233e+001 2.768044e-001 7.241130e-001 6.117606e-001 7.621185e-001 7.801928e-001 9.921607e-001 1.103946e+000 1.004556e+000 1.055165e+000 1.106858e+000 9.312755e-001 8.300279e-001 2.884662e-001 6.356202e-002 1.345561e-001 1.055936e-001 1.673228e-001 1.581473e-001 1.826379e-001 2.064568e-001 1.956170e-001 1.906315e-001 1.928183e-001 1.823822e-001 1.692695e-001 6.811746e-002
<GCONST> 9.103755e+001
<STATE> 4
<MEAN> 39
 -5.054275e+000 -1.309159e+001 3.606587e+000 -1.575802e+001 -1.548716e+001 -7.727597e+000 5.076027e-002 -1.845283e-001 -6.822855e+000 -5.915750e+000 -5.083578e+000 -7.462132e+000 7.651558e+001 6.574373e-001 -1.808574e-002 -3.579405e-001 7.883546e-001 5.492260e-001 -6.721722e-001 -6.230624e-001 2.300216e-001 5.235938e-002 -2.017503e-001 -5.639413e-002 3.502914e-001 -5.379655e-001 2.014749e-001 2.786105e-001 -1.104887e-001 2.655528e-001 3.283924e-001 -3.278757e-002 -4.010677e-001 -1.717006e-001 1.852308e-001 8.603787e-002 -5.857166e-002 3.924324e-002 -3.341226e-001
<VARIANCE> 39
 2.012029e+001 4.264288e+001 6.052168e+001 8.859350e+001 5.740958e+001 6.961329e+001 6.218873e+001 9.709753e+001 6.241313e+001 5.220422e+001 6.364534e+001 4.123307e+001 1.741420e+001 5.040092e-001 1.136844e+000 1.146861e+000 1.340797e+000 1.598938e+000 1.920185e+000 2.144989e+000 1.824280e+000 1.596758e+000 1.688355e+000 1.575743e+000 1.302652e+000 4.903580e-001 8.122794e-002 1.601453e-001 1.889589e-001 2.786572e-001 2.669165e-001 3.051469e-001 3.923794e-001 3.878213e-001 2.899671e-001 2.953357e-001 2.634813e-001 2.262715e-001 1.165881e-001
<GCONST> 1.070912e+002
<TRANSP> 5
 0.000000e+000 1.000000e+000 0.000000e+000 0.000000e+000 0.000000e+000
 0.000000e+000 6.071162e-001 3.928838e-001 0.000000e+000 0.000000e+000
 0.000000e+000 0.000000e+000 7.998051e-001 2.001949e-001 0.000000e+000
 0.000000e+000 0.000000e+000 0.000000e+000 7.263781e-001 2.736219e-001
 0.000000e+000 0.000000e+000 0.000000e+000 0.000000e+000 0.000000e+000
<ENDHMM>
~h "F"
<BEGINHMM>
<NUMSTATES> 5
<STATE> 2
<MEAN> 39
 -9.258453e+000 -3.777654e+000 1.077133e+001 -2.371552e+001 -1.435071e+001 -1.085442e+001 -8.704834e+000 -9.310492e+000 -5.985544e+000 -2.544173e+000 -6.312682e+000 -5.502252e+000 7.385984e+001 7.742804e-002 -3.010432e-001 3.920380e-001 -3.352209e-001 -6.800985e-001 1.895563e-001 2.266335e-002 -7.019629e-002 6.062381e-001 6.334235e-001 2.710314e-001 5.763669e-002 3.061036e-001 5.386826e-003 3.157168e-001 4.697843e-002 2.840574e-001 2.564394e-001 -5.868108e-002 -1.556851e-001 -2.079866e-001 -1.143671e-001 -7.791864e-002 9.863212e-004 1.002698e-001 -2.708559e-001
<VARIANCE> 39
 1.515574e+001 3.673305e+001 5.370386e+001 9.667157e+001 3.983556e+001 3.664943e+001 5.721785e+001 6.277327e+001 5.684137e+001 5.280710e+001 8.112711e+001 3.204780e+001 1.851544e+001 2.970881e-001 8.017023e-001 8.461659e-001 7.624753e-001 1.303254e+000 1.056923e+000 1.409093e+000 1.682966e+000 1.222736e+000 1.657647e+000 1.370530e+000 1.459911e+000 3.163611e-001 5.205704e-002 1.004618e-001 1.279651e-001 1.670205e-001 2.514949e-001 1.771741e-001 2.587799e-001 2.185420e-001 2.474551e-001 3.109201e-001 2.532577e-001 1.994237e-001 4.267650e-002
<GCONST> 9.658826e+001
<STATE> 3
<MEAN> 39
 -7.206618e+000 7.273926e-001 1.749534e+001 -1.682190e+001 -1.696265e+001 -7.486237e+000 -1.284189e+001 -9.922467e+000 -7.670400e+000 -1.456289e+000 -1.354986e+000 -4.161057e+000 7.196484e+001 9.237872e-002 3.034879e-001 4.734025e-001 2.390071e-001 1.805246e-001 2.224596e-001 -2.279706e-001 -3.216636e-001 -1.446444e-001 -4.708019e-002 -1.120682e-001 2.489894e-002 -4.546043e-001 5.300483e-002 9.678126e-003 -5.827968e-002 1.378207e-001 1.030755e-001 -1.881788e-002 1.063655e-001 7.114724e-002 -4.828537e-002 -3.797300e-002 -3.692764e-002 -2.360343e-002 -1.170872e-001
<VARIANCE> 39
 1.395828e+001 3.260030e+001 5.084975e+001 1.289787e+002 3.753029e+001 4.661483e+001 4.950323e+001 5.188994e+001 4.816625e+001 4.815754e+001 8.857282e+001 3.129867e+001 1.862429e+001 1.988152e-001 4.805083e-001 4.314775e-001 4.758776e-001 6.998991e-001 6.114822e-001 8.589322e-001 8.283900e-001 7.549132e-001 7.945241e-001 6.580911e-001 6.433397e-001 2.105237e-001 3.517742e-002 5.977935e-002 7.343597e-002 1.121887e-001 1.137876e-001 1.039388e-001 1.571070e-001 1.440157e-001 1.314375e-001 1.456385e-001 1.243593e-001 1.161968e-001 3.490434e-002
<GCONST> 8.171865e+001
<STATE> 4
<MEAN> 39
 -5.812801e+000 1.601525e+000 1.710974e+001 -1.344405e+001 -1.245609e+001 -6.634696e+000 -9.795393e+000 -1.020726e+001 -6.970105e+000 -2.004807e+000 -3.208833e+000 -4.595566e+000 6.584732e+001 5.779801e-001 9.747941e-002 -9.653856e-001 2.112481e+000 1.382562e+000 3.955823e-001 1.338242e+000 6.872205e-001 4.807802e-001 -3.271864e-001 5.331722e-002 -9.329139e-002 -1.791994e+000 -6.025914e-002 -2.349932e-002 -4.040283e-001 1.831502e-001 3.375486e-001 8.727313e-002 1.247690e-001 1.922766e-001 2.539596e-001 -1.118626e-001 4.916137e-002 1.351430e-002 -2.262258e-001
<VARIANCE> 39
 1.465211e+001 4.015070e+001 4.361752e+001 1.212499e+002 5.153574e+001 6.136265e+001 4.526684e+001 6.077641e+001 5.445205e+001 4.724892e+001 8.017019e+001 3.063826e+001 4.010999e+001 1.023889e+000 1.687924e+000 2.173014e+000 3.592428e+000 3.121991e+000 2.540379e+000 3.110083e+000 2.577947e+000 3.191135e+000 3.270105e+000 2.847020e+000 2.125804e+000 1.578200e+000 1.608409e-001 2.986560e-001 2.797682e-001 6.592257e-001 5.447527e-001 4.106478e-001 5.207303e-001 4.842820e-001 4.297098e-001 5.496858e-001 4.334751e-001 3.832293e-001 2.940772e-001
<GCONST> 1.212504e+002
<TRANSP> 5
 0.000000e+000 1.000000e+000 0.000000e+000 0.000000e+000 0.000000e+000
 0.000000e+000 7.079026e-001 2.920975e-001 0.000000e+000 0.000000e+000
 0.000000e+000 0.000000e+000 8.670809e-001 1.329191e-001 0.000000e+000
 0.000000e+000 0.000000e+000 0.000000e+000 7.670755e-001 2.329246e-001
 0.000000e+000 0.000000e+000 0.000000e+000 0.000000e+000 0.000000e+000
<ENDHMM>
~h "G"
<BEGINHMM>
<NUMSTATES> 5
<STATE> 2
<MEAN> 39
 -2.156036e+000 -1.593262e+000 2.402653e+000 -8.442141e+000 -4.981878e+000 -1.197373e+001 -8.512549e+000 -8.006815e+000 -6.034569e+000 -2.560166e+000 -5.327609e+000 -3.592340e+000 6.311430e+001 -1.548070e-001 -7.586606e-001 -1.968922e-002 -9.777362e-001 -4.676138e-001 -9.197277e-001 -1.721812e-001 1.074027e+000 3.231262e-001 6.216036e-001 6.290248e-002 -8.896700e-002 1.558244e+000 -6.777633e-003 -5.050226e-001 -2.463633e-001 -6.326432e-001 -1.905852e-001 3.367396e-001 2.363653e-001 3.687335e-001 1.262164e-001 -6.392701e-002 -1.224790e-001 -1.521793e-001 5.322357e-001
<VARIANCE> 39
 2.309968e+001 3.853173e+001 7.681482e+001 8.693317e+001 7.121685e+001 7.768663e+001 6.821569e+001 7.989993e+001 5.567700e+001 7.134546e+001 7.149203e+001 5.380646e+001 4.488505e+001 1.942058e+000 3.645397e+000 3.885229e+000 7.388844e+000 5.914925e+000 5.121936e+000 5.973488e+000 6.245525e+000 4.898645e+000 4.898457e+000 5.226793e+000 3.931437e+000 5.222161e+000 2.848946e-001 4.159696e-001 5.726303e-001 8.138185e-001 9.730929e-001 9.702171e-001 9.684142e-001 9.064806e-001 8.690449e-001 9.601233e-001 9.008414e-001 7.264120e-001 5.508702e-001
<GCONST> 1.407558e+002
<STATE> 3
<MEAN> 39
 -3.158072e+000 -9.669954e+000 4.899297e-001 -1.910130e+001 -9.071137e+000 -1.236131e+001 -5.906987e+000 2.121417e-001 -3.246653e+000 -6.341907e-001 -7.020674e+000 -6.136730e+000 7.423293e+001 -1.571285e-001 -2.497406e+000 -1.804777e+000 -1.665657e+000 7.182163e-001 1.803660e+000 1.800398e+000 1.471236e+000 1.814619e-001 -1.178970e+000 -1.026811e+000 -1.076046e+000 2.153028e+000 2.216455e-002 1.090055e-001 -1.667913e-001 8.967308e-001 7.165567e-001 5.533141e-001 6.362592e-002 -7.387456e-001 -4.405150e-001 -4.940873e-001 1.580933e-001 1.146957e-001 -5.890824e-001
<VARIANCE> 39
 1.915494e+001 3.421371e+001 7.804061e+001 8.003449e+001 8.525471e+001 8.001398e+001 9.157866e+001 8.559187e+001 5.500286e+001 8.359016e+001 1.005692e+002 6.315403e+001 2.127124e+001 5.351869e-001 1.275451e+000 1.665591e+000 3.427793e+000 3.773111e+000 3.256565e+000 3.647675e+000 3.808588e+000 4.306685e+000 3.914725e+000 3.799743e+000 2.916600e+000 1.069827e+000 1.125734e-001 2.090943e-001 3.201281e-001 5.203707e-001 5.308129e-001 5.358223e-001 7.627881e-001 6.224647e-001 5.280564e-001 6.926014e-001 8.830463e-001 5.500997e-001 1.841824e-001
<GCONST> 1.257785e+002
<STATE> 4
<MEAN> 39
 -2.888749e+000 -1.476192e+001 -4.769135e+000 -1.958351e+001 -2.997056e+000 -5.626993e+000 -2.767591e+000 -1.112745e+000 -5.179231e+000 -5.205613e+000 -8.273419e+000 -6.750759e+000 7.648481e+001 -1.602051e-002 -1.399025e+000 -9.710453e-001 4.891896e-001 1.183475e+000 1.604312e+000 4.752378e-001 -5.175458e-001 -6.043780e-001 -9.389710e-001 2.801814e-001 -1.732170e-001 5.389630e-001 7.796053e-002 4.059770e-001 2.820431e-001 3.708600e-001 -6.665028e-002 -2.989542e-001 -4.103974e-001 -3.309698e-001 1.789311e-002 2.998290e-001 2.953764e-001 1.901963e-001 -4.540218e-001
<VARIANCE> 39
 2.145056e+001 5.319226e+001 6.508813e+001 8.397430e+001 8.575865e+001 9.565538e+001 9.262477e+001 8.525626e+001 6.733356e+001 6.945924e+001 8.319215e+001 5.517875e+001 1.941783e+001 3.159198e-001 1.182556e+000 1.275809e+000 2.719999e+000 2.422358e+000 2.564949e+000 2.858572e+000 2.303509e+000 2.660810e+000 2.911707e+000 2.856991e+000 2.018333e+000 5.012122e-001 6.489544e-002 1.672980e-001 1.556140e-001 3.902568e-001 3.092487e-001 3.437670e-001 4.393632e-001 4.626102e-001 4.389157e-001 4.305611e-001 5.364091e-001 3.753679e-001 1.430012e-001
<GCONST> 1.158650e+002
<TRANSP> 5
 0.000000e+000 1.000000e+000 0.000000e+000 0.000000e+000 0.000000e+000
 0.000000e+000 8.033624e-001 1.966376e-001 0.000000e+000 0.000000e+000
 0.000000e+000 0.000000e+000 5.772241e-001 4.227759e-001 0.000000e+000
 0.000000e+000 0.000000e+000 0.000000e+000 5.032420e-001 4.967580e-001
 0.000000e+000 0.000000e+000 0.000000e+000 0.000000e+000 0.000000e+000
<ENDHMM>
~h "H"
<BEGINHMM>
<NUMSTATES> 5
<STATE> 2
<MEAN> 39
 -5.602573e+000 -5.685198e+000 -2.752806e-001 -5.852263e+000 2.549258e+000 -2.302491e+000 -3.072301e+000 -4.221217e+000 -4.094962e+000 -8.187719e+000 -2.423809e+000 -3.942881e+000 6.474400e+001 7.652506e-002 -4.397517e-001 -1.922823e-001 2.441545e-002 4.591147e-001 2.611499e-002 -3.575127e-001 -1.514985e-001 -4.083025e-001 -7.861896e-001 1.869401e-002 -3.625405e-001 7.970805e-001 1.814524e-001 -2.030307e-001 -1.850661e-001 -4.402056e-001 -3.831008e-001 -1.349246e-001 -1.920366e-001 -1.418845e-001 -5.108892e-002 7.390410e-002 -6.016505e-002 -1.065550e-001 2.502785e-001
<VARIANCE> 39
 3.104943e+001 5.230054e+001 5.779548e+001 6.883987e+001 8.553776e+001 8.733629e+001 7.952209e+001 7.806254e+001 7.537391e+001 6.709979e+001 6.830061e+001 4.861708e+001 4.426423e+001 2.005709e+000 2.511866e+000 3.139119e+000 4.213856e+000 5.891973e+000 4.452454e+000 4.893487e+000 4.971531e+000 4.159732e+000 3.948160e+000 3.825873e+000 3.073473e+000 2.198754e+000 2.491336e-001 4.295224e-001 4.335862e-001 5.262069e-001 7.376270e-001 7.231544e-001 7.618763e-001 7.983019e-001 7.137040e-001 7.372552e-001 6.732699e-001 5.272160e-001 2.012821e-001
<GCONST> 1.340275e+002
<STATE> 3
<MEAN> 39
 -2.584038e+000 -7.876850e+000 -4.502207e+000 -1.098457e+001 1.416329e-001 -5.341104e+000 -8.694109e+000 -8.600212e+000 -8.549289e+000 -1.252890e+001 -4.740415e+000 -7.140126e+000 6.970205e+001 5.659536e-001 -1.379674e+000 -1.092296e+000 -1.310645e+000 -5.359674e-001 1.539590e-001 -3.031132e-001 1.018909e-002 -1.200342e-002 2.584676e-001 -8.369634e-002 -4.652440e-001 1.284835e+000 -1.633993e-001 -3.017815e-001 1.326688e-001 -6.694312e-002 6.197928e-002 2.518526e-001 2.369324e-001 2.806704e-001 1.865438e-001 3.397212e-001 7.233608e-002 7.549123e-002 8.651748e-002
<VARIANCE> 39
 2.653325e+001 4.860529e+001 7.051453e+001 7.300632e+001 9.278372e+001 8.313263e+001 9.027155e+001 7.065218e+001 6.243746e+001 6.761928e+001 5.952172e+001 5.131562e+001 1.994149e+001 9.414046e-001 1.964607e+000 2.204496e+000 2.900298e+000 3.420975e+000 3.179970e+000 3.089775e+000 2.998710e+000 2.875613e+000 3.084364e+000 3.021948e+000 2.514960e+000 1.235229e+000 2.150041e-001 2.603996e-001 3.828892e-001 4.130328e-001 4.960670e-001 4.617725e-001 5.118830e-001 5.369320e-001 4.794244e-001 5.114778e-001 4.889516e-001 4.193840e-001 1.450059e-001
<GCONST> 1.235543e+002
<STATE> 4
<MEAN> 39
 -1.428565e+000 -1.221536e+001 -6.184326e+000 -1.439022e+001 9.089178e-001 -7.058086e-001 -6.951138e+000 -6.598640e+000 -6.877697e+000 -8.648291e+000 -3.272862e+000 -7.827624e+000 7.311512e+001 -3.070682e-002 -8.175865e-001 -7.501747e-002 -6.708532e-001 -2.181007e-001 2.514098e-001 1.031436e-001 2.923293e-001 1.053988e-001 3.684779e-001 6.297415e-002 -1.552722e-001 6.550456e-001 -7.207704e-002 1.465894e-001 1.444971e-001 8.145481e-002 -9.126277e-003 -5.229571e-002 3.814500e-002 5.870192e-002 1.736884e-002 2.656104e-002 -6.179489e-003 4.430483e-002 -1.506764e-001
<VARIANCE> 39
 2.900169e+001 6.574030e+001 7.147903e+001 1.008159e+002 1.041068e+002 1.024294e+002 1.083720e+002 7.362383e+001 6.747449e+001 5.816246e+001 5.573286e+001 4.728795e+001 2.531682e+001 5.009224e-001 1.762834e+000 1.252292e+000 1.812249e+000 1.800751e+000 1.910965e+000 1.918742e+000 1.825279e+000 1.716998e+000 1.968775e+000 2.046378e+000 1.720873e+000 9.462076e-001 1.089707e-001 1.871780e-001 2.075879e-001 2.357804e-001 2.677382e-001 2.612887e-001 2.775675e-001 2.941871e-001 2.787130e-001 2.860752e-001 2.817633e-001 2.534626e-001 1.136739e-001
<GCONST> 1.119441e+002
<TRANSP> 5
 0.000000e+000 1.000000e+000 0.000000e+000 0.000000e+000 0.000000e+000
 0.000000e+000 7.499875e-001 2.500125e-001 0.000000e+000 0.000000e+000
 0.000000e+000 0.000000e+000 5.935799e-001 4.064200e-001 0.000000e+000
 0.000000e+000 0.000000e+000 0.000000e+000 6.489162e-001 3.510838e-001
 0.000000e+000 0.000000e+000 0.000000e+000 0.000000e+000 0.000000e+000
<ENDHMM>
~h "I"
<BEGINHMM>
<NUMSTATES> 5
<STATE> 2
<MEAN> 39
 -3.897352e+000 -1.045913e+001 9.628724e-001 -1.564217e+001 -1.056467e+001 -1.155401e+001 -6.692612e+000 -1.680453e+000 -4.285524e+000 -4.647223e+000 -6.124106e+000 -4.980996e+000 7.470803e+001 -4.886407e-001 4.243793e-001 1.994599e+000 -4.012515e-001 -2.405405e+000 -1.177091e+000 4.078062e-001 -1.869498e-002 -7.122518e-001 4.365642e-001 4.193230e-001 3.392598e-001 1.370533e-002 2.879333e-002 3.802242e-001 5.538346e-002 1.502976e-001 3.344049e-001 5.157413e-001 -1.268179e-001 -5.835397e-001 -1.745244e-001 1.271127e-001 2.572464e-001 -1.961626e-002 -4.794732e-001
<VARIANCE> 39
 2.206581e+001 5.589513e+001 8.914922e+001 8.943077e+001 8.290585e+001 6.439922e+001 1.068080e+002 9.092461e+001 7.078030e+001 7.559420e+001 7.832851e+001 5.850826e+001 2.010739e+001 9.457605e-001 2.278629e+000 2.518873e+000 4.652341e+000 3.462269e+000 4.372480e+000 4.787350e+000 4.502300e+000 4.707036e+000 4.911157e+000 4.843746e+000 3.949694e+000 1.503668e+000 1.658353e-001 2.520432e-001 3.723848e-001 6.744617e-001 7.639761e-001 7.210305e-001 9.713238e-001 7.436343e-001 8.364341e-001 7.751772e-001 7.440421e-001 6.799071e-001 2.267745e-001
<GCONST> 1.329984e+002
<STATE> 3
<MEAN> 39
 -5.425252e+000 -7.873985e+000 7.263651e+000 -1.752196e+001 -1.599558e+001 -1.216436e+001 -6.883469e+000 -4.657677e+000 -7.331098e+000 -1.671967e+000 -3.997098e+000 -4.340156e+000 7.351042e+001 -5.568640e-002 1.274738e+000 1.367589e+000 3.054503e-001 -2.610278e-001 2.094785e-001 -7.541955e-001 -1.486351e+000 -5.204232e-001 3.771095e-001 2.738118e-001 7.435830e-002 -1.157723e+000 1.674815e-001 1.985685e-001 -5.350887e-001 7.137145e-001 1.015970e+000 4.218496e-001 4.863619e-004 -1.558780e-002 2.633676e-001 -3.977742e-001 -2.115650e-001 -8.542358e-002 -5.968718e-001
<VARIANCE> 39
 2.100482e+001 4.175740e+001 7.405879e+001 9.598299e+001 5.971339e+001 5.549277e+001 7.155882e+001 9.304935e+001 5.877175e+001 5.918965e+001 8.047532e+001 5.741105e+001 1.813234e+001 1.163473e+000 2.349612e+000 2.231157e+000 4.187414e+000 3.498592e+000 3.352810e+000 4.321895e+000 3.611692e+000 3.528267e+000 3.502346e+000 3.393629e+000 2.952684e+000 2.112292e+000 1.816418e-001 3.024538e-001 4.406578e-001 6.225657e-001 6.021796e-001 6.360495e-001 7.917522e-001 7.877594e-001 7.900356e-001 7.329258e-001 7.336148e-001 6.227834e-001 2.097086e-001
<GCONST> 1.292211e+002
<STATE> 4
<MEAN> 39
 -5.690254e+000 -2.945293e+000 1.054462e+001 -1.442969e+001 -1.550953e+001 -9.313203e+000 -9.350423e+000 -8.962013e+000 -8.347778e+000 -3.245586e+000 -3.893666e+000 -5.280989e+000 6.997442e+001 1.903527e-001 7.510036e-001 -3.915732e-003 1.086009e+000 1.017768e+000 5.237600e-001 9.890102e-002 -3.353156e-001 1.245327e-001 -2.877603e-001 -1.224353e-001 -4.195086e-002 -1.408317e+000 3.743778e-002 -1.212228e-001 -3.698189e-001 2.457640e-001 3.154813e-001 7.356802e-002 2.312093e-001 2.600504e-001 2.108393e-001 -3.303346e-002 -2.733771e-003 1.309912e-002 -1.639546e-001
<VARIANCE> 39
 2.331821e+001 4.124356e+001 7.139656e+001 1.198219e+002 6.825687e+001 5.847877e+001 6.004898e+001 7.246935e+001 5.373882e+001 5.555944e+001 8.858384e+001 5.793042e+001 3.472012e+001 9.537822e-001 1.874738e+000 1.880517e+000 3.801117e+000 3.291319e+000 2.476014e+000 3.096554e+000 3.166788e+000 2.719880e+000 2.615390e+000 2.754597e+000 2.216870e+000 2.556988e+000 1.710396e-001 2.858387e-001 3.416065e-001 4.338042e-001 4.638779e-001 4.711203e-001 5.129083e-001 5.401589e-001 5.049952e-001 4.584038e-001 4.921713e-001 3.922684e-001 1.787642e-001
<GCONST> 1.234403e+002
<TRANSP> 5
 0.000000e+000 1.000000e+000 0.000000e+000 0.000000e+000 0.000000e+000
 0.000000e+000 4.843473e-001 5.156528e-001 0.000000e+000 0.000000e+000
 0.000000e+000 0.000000e+000 3.937272e-001 6.062728e-001 0.000000e+000
 0.000000e+000 0.000000e+000 0.000000e+000 6.211792e-001 3.788207e-001
 0.000000e+000 0.000000e+000 0.000000e+000 0.000000e+000 0.000000e+000
<ENDHMM>
~h "K"
<BEGINHMM>
<NUMSTATES> 5
<STATE> 2
<MEAN> 39
 -5.561030e+000 -3.156290e+000 1.297389e-001 -4.729575e+000 -3.567547e+000 -4.397280e+000 -2.326077e+000 -4.119577e+000 -5.578728e-001 -2.102741e+000 -2.567393e+000 -3.330066e+000 5.284435e+001 -1.183568e+000 -8.206722e-001 -4.440919e-001 6.626580e-001 3.328109e-001 6.468342e-002 9.081944e-001 7.124328e-001 8.731521e-001 4.279741e-001 6.904619e-001 4.698839e-001 -1.765680e-001 -5.305394e-002 -1.192672e-001 1.754712e-001 -4.158491e-001 -4.737090e-001 -3.664969e-001 -1.660774e-001 -3.102689e-001 -2.384251e-001 1.595534e-002 -1.033846e-001 9.720636e-002 1.206643e+000
<VARIANCE> 39
 1.845629e+001 3.049628e+001 4.454383e+001 3.707698e+001 4.106542e+001 4.097617e+001 4.254071e+001 4.889180e+001 4.557912e+001 3.938420e+001 4.499265e+001 3.204238e+001 3.455000e+001 1.730099e+000 2.684579e+000 2.930291e+000 3.674825e+000 3.506304e+000 4.430855e+000 3.705944e+000 4.684949e+000 4.046449e+000 3.608752e+000 3.578155e+000 2.831851e+000 9.660633e+000 3.130384e-001 5.685661e-001 6.645314e-001 7.331306e-001 7.320850e-001 7.838734e-001 7.276620e-001 8.848069e-001 8.012444e-001 6.943645e-001 6.774656e-001 5.591958e-001 7.465751e-001
<GCONST> 1.302814e+002
<STATE> 3
<MEAN> 39
 -1.222892e+001 -6.845089e+000 6.058060e-001 -3.309907e+000 -4.190137e+000 -7.118475e+000 1.574271e+000 -5.006516e+000 1.081939e+000 -6.795580e-001 -6.568162e-001 1.045353e-002 6.398903e+001 3.063807e-001 3.001188e-001 2.106860e+000 -2.028932e+000 -2.954466e+000 -2.155754e+000 -1.354766e+000 -1.429050e+000 -1.505700e+000 1.642464e-001 -5.521132e-001 9.771075e-003 5.115897e+000 8.327010e-001 2.386648e-001 5.337403e-001 -1.109068e+000 -8.571826e-001 -3.703581e-002 -8.248186e-001 4.218476e-002 -5.529103e-001 -1.177135e-001 -3.400021e-001 -5.629945e-001 -1.379727e-001
<VARIANCE> 39
 1.861890e+001 3.572111e+001 4.152160e+001 3.819788e+001 4.102175e+001 4.789258e+001 4.382207e+001 5.381483e+001 4.312812e+001 3.754515e+001 3.170234e+001 2.282067e+001 4.753304e+001 2.800582e+000 4.449960e+000 4.567121e+000 7.028471e+000 4.789936e+000 4.822665e+000 6.178054e+000 5.398044e+000 5.053133e+000 4.210505e+000 5.693015e+000 4.379616e+000 3.913211e+000 3.341952e-001 7.407418e-001 7.354977e-001 1.034943e+000 8.725561e-001 1.023752e+000 9.647530e-001 1.055822e+000 9.651943e-001 8.997639e-001 1.344814e+000 7.723661e-001 9.075782e-001
<GCONST> 1.370432e+002
<STATE> 4
<MEAN> 39
 -6.057112e+000 -4.326547e+000 7.795319e+000 -1.420967e+001 -1.639237e+001 -1.244862e+001 -6.724434e+000 -7.464619e+000 -5.187991e+000 -5.056359e-001 -3.495191e+000 -2.826939e+000 7.273434e+001 1.182316e+000 -7.116555e-001 1.523908e+000 -3.621084e+000 -2.958243e+000 -6.745322e-001 -1.596895e+000 3.507003e-001 -1.491685e+000 -1.574722e-001 -1.028022e+000 -1.400545e+000 2.573190e+000 -3.074620e-001 -4.237526e-001 -6.936141e-001 5.404032e-001 9.813091e-001 7.481344e-001 5.980217e-001 5.520740e-001 3.955736e-001 -1.818985e-001 8.770618e-002 -9.262322e-002 -1.146942e+000
<VARIANCE> 39
 1.553779e+001 3.825603e+001 7.615423e+001 9.914838e+001 4.671707e+001 4.434669e+001 5.130098e+001 8.397398e+001 5.035848e+001 4.915684e+001 7.092315e+001 5.789617e+001 2.438356e+001 1.587587e+000 2.952017e+000 5.182510e+000 6.326014e+000 6.118988e+000 4.441217e+000 5.707105e+000 6.065534e+000 5.225820e+000 5.206017e+000 9.634363e+000 4.334619e+000 2.204070e+000 2.234009e-001 4.032266e-001 4.370060e-001 9.180213e-001 6.252885e-001 5.767180e-001 6.075771e-001 6.976319e-001 6.795462e-001 6.143138e-001 8.715193e-001 7.544454e-001 3.883469e-001
<GCONST> 1.345965e+002
<TRANSP> 5
 0.000000e+000 1.000000e+000 0.000000e+000 0.000000e+000 0.000000e+000
 0.000000e+000 7.974861e-001 2.025139e-001 0.000000e+000 0.000000e+000
 0.000000e+000 0.000000e+000 5.801184e-001 4.198816e-001 0.000000e+000
 0.000000e+000 0.000000e+000 0.000000e+000 5.219095e-001 4.780905e-001
 0.000000e+000 0.000000e+000 0.000000e+000 0.000000e+000 0.000000e+000
<ENDHMM>
~h "L"
<BEGINHMM>
<NUMSTATES> 5
<STATE> 2
<MEAN> 39
 -8.032375e-001 -6.551728e+000 2.416692e+000 -1.162946e+001 -7.046539e+000 -1.204604e+001 -1.379363e+001 -6.394324e+000 -3.085295e+000 -6.478818e+000 -3.653026e+000 -2.731632e+000 6.760004e+001 4.750511e-002 -1.315357e-001 3.194493e-001 -5.914747e-001 2.742769e-001 -1.123102e+000 -1.174676e+000 5.805565e-001 3.879903e-001 -6.785082e-002 -8.672347e-002 4.614188e-002 6.437971e-001 -1.291854e-001 -2.137062e-001 -2.456630e-001 -2.463494e-001 -1.075234e-003 3.280593e-001 3.719079e-001 3.823192e-001 9.208686e-003 7.276602e-002 -1.942232e-001 -1.178946e-001 2.191990e-001
<VARIANCE> 39
 2.561986e+001 4.660310e+001 7.610783e+001 8.386900e+001 6.097385e+001 1.077195e+002 9.669686e+001 8.660162e+001 7.572844e+001 8.792834e+001 6.974709e+001 6.812419e+001 3.730262e+001 1.162744e+000 2.251670e+000 2.660187e+000 4.200369e+000 3.931334e+000 5.703895e+000 5.349724e+000 5.720655e+000 4.649873e+000 4.737902e+000 4.017468e+000 3.380262e+000 2.190962e+000 1.932592e-001 3.756516e-001 4.811995e-001 7.028512e-001 7.593807e-001 1.154090e+000 1.165865e+000 1.034508e+000 8.700894e-001 9.001973e-001 7.891040e-001 6.275620e-001 2.378086e-001
<GCONST> 1.365933e+002
<STATE> 3
<MEAN> 39
 -2.125581e+000 -8.904124e+000 2.133963e+000 -1.774044e+001 -5.713557e+000 -1.503159e+001 -1.481515e+001 -6.994961e-002 -2.128847e+000 -5.702774e+000 -5.583222e+000 -3.186328e+000 7.151788e+001 -3.018066e-001 -1.752917e+000 -1.702000e+000 -7.739822e-001 -6.911135e-002 1.542101e+000 2.236681e+000 1.773073e+000 -1.028964e-001 -1.578256e-001 -1.325370e+000 -6.050817e-001 1.657860e+000 -1.221706e-001 -3.816089e-001 -4.198182e-001 3.728853e-001 8.847731e-002 8.336170e-001 8.257812e-001 -3.519498e-001 -4.202085e-001 -3.195212e-001 -2.991796e-002 -5.950965e-002 2.011173e-001
<VARIANCE> 39
 1.826852e+001 3.451054e+001 5.820304e+001 5.840174e+001 5.173588e+001 8.259071e+001 9.430228e+001 6.861897e+001 6.889230e+001 1.020755e+002 5.691180e+001 6.729420e+001 1.657541e+001 5.803917e-001 1.887602e+000 2.487327e+000 3.038552e+000 3.385473e+000 5.616183e+000 5.614010e+000 4.970851e+000 4.992952e+000 4.501056e+000 3.765208e+000 3.130688e+000 7.406923e-001 7.663515e-002 3.210472e-001 2.993774e-001 4.752785e-001 5.708802e-001 7.178329e-001 8.478203e-001 8.072857e-001 6.631890e-001 8.179394e-001 6.646463e-001 5.496752e-001 1.382603e-001
<GCONST> 1.264507e+002
<STATE> 4
<MEAN> 39
 -2.904427e+000 -1.489450e+001 -4.133621e+000 -1.799726e+001 -5.720024e+000 -7.569512e+000 -5.937465e+000 2.652203e+000 -3.580016e+000 -8.686806e+000 -9.631023e+000 -4.838552e+000 7.651501e+001 -6.227303e-001 -1.567115e+000 -1.740310e+000 2.620526e-001 8.720867e-001 2.393669e+000 2.243237e+000 -5.995845e-002 -8.892985e-001 -8.430533e-001 -3.939397e-001 -3.476048e-001 1.445766e+000 1.698751e-002 4.448565e-001 3.577227e-001 3.343298e-001 2.704781e-001 -2.605967e-001 -6.120060e-001 -8.282030e-001 -3.959871e-002 1.150317e-001 6.304594e-001 9.029178e-002 -4.176215e-001
<VARIANCE> 39
 1.721162e+001 3.802802e+001 5.600170e+001 6.084150e+001 6.776327e+001 7.084517e+001 8.957705e+001 7.375195e+001 8.239689e+001 8.171999e+001 5.050661e+001 5.752602e+001 1.786952e+001 5.710999e-001 2.571994e+000 2.522971e+000 3.886207e+000 4.739793e+000 5.890931e+000 5.605429e+000 5.658788e+000 4.909076e+000 5.513291e+000 3.757016e+000 3.237397e+000 8.961275e-001 7.541809e-002 1.837951e-001 2.520864e-001 3.868999e-001 4.969541e-001 5.889956e-001 7.874756e-001 6.459982e-001 6.577872e-001 5.734229e-001 5.500426e-001 4.559420e-001 9.087309e-002
<GCONST> 1.251129e+002
<TRANSP> 5
 0.000000e+000 1.000000e+000 0.000000e+000 0.000000e+000 0.000000e+000
 0.000000e+000 7.757800e-001 2.242200e-001 0.000000e+000 0.000000e+000
 0.000000e+000 0.000000e+000 5.774013e-001 4.225987e-001 0.000000e+000
 0.000000e+000 0.000000e+000 0.000000e+000 3.667367e-001 6.332633e-001
 0.000000e+000 0.000000e+000 0.000000e+000 0.000000e+000 0.000000e+000
<ENDHMM>
~h "M"
<BEGINHMM>
<NUMSTATES> 5
<STATE> 2
<MEAN> 39
 3.306909e-001 -8.922157e+000 -1.258046e+000 -1.071007e+001 -4.064999e+000 -5.623270e+000 -7.677936e+000 -6.683671e+000 -4.854015e+000 -5.157814e+000 -4.285072e+000 -6.830136e+000 6.705514e+001 8.869201e-001 1.854117e+000 1.110899e+000 1.669394e+000 2.971836e-001 -2.017236e-001 -1.231063e+000 -2.385711e+000 -1.036365e+000 3.968709e-001 -4.354519e-001 2.227340e-001 -1.835237e+000 -2.936194e-001 5.140048e-002 2.618180e-001 5.379752e-002 -3.742669e-002 3.502751e-002 -4.371551e-003 -4.194172e-001 -4.198217e-001 -1.547533e-001 -1.900683e-001 1.571293e-001 1.150112e-001
<VARIANCE> 39
 2.342181e+001 6.727120e+001 6.675053e+001 7.736893e+001 6.605566e+001 8.674815e+001 7.102597e+001 7.570274e+001 5.884380e+001 6.598736e+001 7.069312e+001 6.525842e+001 6.533263e+001 1.444025e+000 2.474668e+000 4.011681e+000 4.472958e+000 4.320569e+000 4.824710e+000 5.055073e+000 5.821937e+000 6.015322e+000 5.399050e+000 5.001272e+000 4.241158e+000 3.367344e+000 2.280176e-001 4.194029e-001 4.474899e-001 7.339623e-001 5.538728e-001 6.033689e-001 7.170187e-001 8.802231e-001 7.338537e-001 7.294589e-001 7.100984e-001 6.365620e-001 3.444669e-001
<GCONST> 1.365406e+002
<STATE> 3
<MEAN> 39
 5.305422e-001 -4.432663e+000 2.636989e+000 -6.573357e+000 -3.464458e+000 -6.277317e+000 -1.206361e+001 -1.619570e+001 -1.124308e+001 -5.415090e+000 -7.082388e+000 -4.773892e+000 6.311116e+001 -3.790713e-002 3.149463e-001 3.661007e-001 1.512474e-001 7.313937e-002 1.609790e-001 -4.047929e-001 -1.142748e+000 -9.351785e-001 -4.975175e-001 -6.326230e-001 1.643513e-001 -5.335474e-002 -1.344581e-001 -4.792345e-001 -5.499179e-001 -7.526640e-001 -1.491509e-001 1.140060e-001 4.342022e-001 1.064576e+000 5.862788e-001 -1.230118e-001 1.895110e-001 -1.465518e-001 5.657702e-001
<VARIANCE> 39
 1.339471e+001 3.729243e+001 4.731836e+001 5.770457e+001 5.381221e+001 1.027371e+002 7.511455e+001 6.556792e+001 6.291141e+001 8.278115e+001 9.078611e+001 8.094943e+001 1.824723e+001 8.872234e-001 2.168130e+000 2.948334e+000 4.010732e+000 2.637814e+000 3.440989e+000 3.743394e+000 5.784681e+000 4.653944e+000 4.303729e+000 4.628771e+000 4.056423e+000 2.908094e+000 1.680299e-001 2.357838e-001 4.376683e-001 5.063709e-001 5.362422e-001 6.464482e-001 7.573280e-001 7.908900e-001 8.789788e-001 1.001685e+000 9.317310e-001 8.138927e-001 2.243695e-001
<GCONST> 1.304841e+002
<STATE> 4
<MEAN> 39
 1.090466e+000 -2.703764e+000 3.679460e+000 -7.866119e+000 -4.505364e+000 -4.220237e+000 -1.026076e+001 -1.486776e+001 -1.051181e+001 -7.256501e+000 -8.123616e+000 -5.405802e+000 6.291504e+001 -7.966446e-004 1.336408e-001 -4.909709e-001 -4.690239e-001 -1.398112e-001 1.652912e-001 3.046134e-001 7.229031e-001 4.300361e-001 -2.211105e-001 1.211923e-001 -2.912188e-002 1.197688e-001 -5.543764e-002 -1.717823e-001 -2.662879e-001 -1.799741e-001 5.545611e-002 -1.012270e-004 1.176852e-001 4.627402e-001 2.564031e-001 1.251890e-001 2.637808e-001 -7.778101e-002 1.760708e-001
<VARIANCE> 39
 1.348149e+001 3.864049e+001 4.760962e+001 6.101573e+001 5.884691e+001 9.902576e+001 6.740070e+001 8.178772e+001 6.086399e+001 7.097196e+001 7.582198e+001 5.689756e+001 2.133298e+001 4.993267e-001 1.720816e+000 2.136481e+000 3.009032e+000 2.271828e+000 2.292518e+000 2.411213e+000 3.709966e+000 3.153902e+000 2.973343e+000 3.217975e+000 2.700676e+000 1.740256e+000 1.247923e-001 1.848804e-001 3.385659e-001 4.645632e-001 4.219238e-001 4.173677e-001 4.327199e-001 5.718454e-001 5.567303e-001 5.404611e-001 5.989981e-001 4.765202e-001 1.520986e-001
<GCONST> 1.204079e+002
<TRANSP> 5
 0.000000e+000 1.000000e+000 0.000000e+000 0.000000e+000 0.000000e+000
 0.000000e+000 5.551120e-001 4.448880e-001 0.000000e+000 0.000000e+000
 0.000000e+000 0.000000e+000 5.330240e-001 4.669760e-001 0.000000e+000
 0.000000e+000 0.000000e+000 0.000000e+000 7.584121e-001 2.415880e-001
 0.000000e+000 0.000000e+000 0.000000e+000 0.000000e+000 0.000000e+000
<ENDHMM>
~h "N"
<BEGINHMM>
<NUMSTATES> 5
<STATE> 2
<MEAN> 39
 -1.032878e+000 -6.398400e+000 1.003180e+000 -1.297722e+001 -7.121198e+000 -7.374219e+000 -7.051838e+000 -6.866440e+000 -6.595240e+000 -4.037118e+000 -7.150716e+000 -5.312794e+000 6.736913e+001 8.069874e-001 1.428617e+000 6.311803e-001 1.380863e+000 -5.525612e-001 -2.814050e-001 -4.583834e-001 -1.902606e+000 1.493131e-001 -1.414527e-001 -5.866542e-001 5.963559e-001 -1.678631e+000 -7.859426e-002 -6.107228e-002 -1.467178e-002 -9.681606e-003 -2.502605e-002 1.521147e-001 1.700818e-002 -1.080813e-001 4.392096e-002 -2.361386e-001 5.371412e-002 7.267049e-003 9.899239e-002
<VARIANCE> 39
 2.067138e+001 4.836681e+001 8.365945e+001 8.094119e+001 7.562120e+001 8.031575e+001 8.858311e+001 9.688573e+001 7.744726e+001 7.729370e+001 8.793128e+001 7.135307e+001 3.724504e+001 1.006751e+000 2.131961e+000 3.973669e+000 3.923303e+000 4.403867e+000 5.007535e+000 4.609684e+000 5.301237e+000 4.591246e+000 4.892390e+000 4.296570e+000 3.951108e+000 1.830875e+000 1.494693e-001 3.030652e-001 4.390112e-001 5.622655e-001 6.215338e-001 6.970885e-001 7.044163e-001 8.998523e-001 6.966076e-001 6.973491e-001 6.581933e-001 5.946513e-001 2.135320e-001
<GCONST> 1.335919e+002
<STATE> 3
<MEAN> 39
 6.006649e-001 -2.564554e+000 1.829633e+000 -1.036086e+001 -1.033931e+001 -8.656911e+000 -9.154474e+000 -1.352444e+001 -6.392159e+000 -7.434722e+000 -9.581511e+000 -2.162582e+000 6.319473e+001 1.802926e-001 5.568861e-001 2.915306e-001 6.339800e-001 -2.113054e-001 -9.268726e-002 -2.307102e-001 -7.174641e-001 -2.728894e-002 -5.109087e-001 -1.859603e-001 1.476404e-001 -6.877457e-001 -2.816286e-001 -3.845488e-001 -1.367830e-001 -2.553445e-001 2.635497e-001 7.290412e-002 1.366878e-001 7.554417e-001 -7.640788e-002 9.570810e-002 2.326209e-001 -2.265335e-001 3.757292e-001
<VARIANCE> 39
 1.341134e+001 3.045956e+001 5.952963e+001 5.393412e+001 5.230427e+001 8.806718e+001 6.451243e+001 6.040532e+001 7.100642e+001 8.387701e+001 9.059529e+001 8.111302e+001 1.682698e+001 6.512179e-001 1.891702e+000 2.240710e+000 2.743159e+000 2.701836e+000 3.412904e+000 3.282969e+000 4.789247e+000 3.231272e+000 3.657921e+000 3.475443e+000 3.313625e+000 1.683277e+000 1.570756e-001 3.722700e-001 4.853550e-001 5.895888e-001 5.598831e-001 7.347753e-001 6.771792e-001 8.275729e-001 7.209398e-001 7.743514e-001 6.840670e-001 6.611061e-001 2.723117e-001
<GCONST> 1.270848e+002
<STATE> 4
<MEAN> 39
 1.378832e+000 -3.494148e-001 4.237727e+000 -8.140308e+000 -8.889855e+000 -6.240181e+000 -8.401095e+000 -1.261227e+001 -6.331792e+000 -6.696229e+000 -7.786345e+000 -4.716969e+000 6.181747e+001 -2.746303e-001 6.162530e-002 -4.310916e-002 5.127432e-001 4.966788e-001 5.132055e-002 1.660917e-001 5.812910e-001 -1.051950e-002 -8.666023e-002 1.900548e-001 -9.565999e-002 -3.946277e-001 -2.037501e-001 -2.331815e-001 -1.514974e-001 -9.211218e-002 2.011445e-001 6.322197e-002 1.296729e-001 3.971207e-001 6.442530e-002 1.039832e-001 1.265394e-001 -2.542851e-002 1.609155e-001
<VARIANCE> 39
 1.494114e+001 3.199045e+001 4.589655e+001 5.778991e+001 4.933613e+001 6.787696e+001 5.726657e+001 6.282449e+001 5.799173e+001 7.228731e+001 6.095925e+001 4.963144e+001 2.604257e+001 6.766599e-001 2.022204e+000 1.451445e+000 2.294142e+000 2.253879e+000 2.252111e+000 2.600792e+000 3.844468e+000 2.833964e+000 2.629481e+000 2.473752e+000 2.224033e+000 1.866712e+000 1.455343e-001 2.682950e-001 2.689655e-001 3.658482e-001 3.860061e-001 4.229158e-001 4.464628e-001 5.713421e-001 4.986491e-001 4.780666e-001 4.445705e-001 4.017249e-001 1.945198e-001
<GCONST> 1.178970e+002
<TRANSP> 5
 0.000000e+000 1.000000e+000 0.000000e+000 0.000000e+000 0.000000e+000
 0.000000e+000 5.640429e-001 4.359571e-001 0.000000e+000 0.000000e+000
 0.000000e+000 0.000000e+000 5.309474e-001 4.690526e-001 0.000000e+000
 0.000000e+000 0.000000e+000 0.000000e+000 7.185614e-001 2.814386e-001
 0.000000e+000 0.000000e+000 0.000000e+000 0.000000e+000 0.000000e+000
<ENDHMM>
~h "O"
<BEGINHMM>
<NUMSTATES> 5
<STATE> 2
<MEAN> 39
 -2.687302e+000 -1.751591e+001 -8.318013e+000 -1.612595e+001 -6.045149e-001 -5.171419e+000 -6.325166e+000 -2.567884e+000 -5.187307e+000 -8.715024e+000 -7.492213e+000 -6.703968e+000 7.633434e+001 5.324165e-001 -4.268756e-001 -1.464440e+000 -1.961982e-001 1.483867e+000 1.124373e+000 -9.744272e-001 -6.871561e-001 1.197478e-001 1.476498e-001 -5.894901e-002 -8.759417e-001 -6.586376e-002 -6.200235e-002 6.418881e-001 3.792987e-001 8.558031e-002 -2.400887e-001 9.960788e-002 5.963013e-002 -2.800860e-001 -3.433340e-002 3.822308e-001 4.988145e-001 1.618329e-001 -4.260581e-001
<VARIANCE> 39
 2.163379e+001 4.439948e+001 5.768683e+001 6.563156e+001 8.529236e+001 7.751827e+001 6.865539e+001 7.251378e+001 6.720676e+001 7.196818e+001 6.778725e+001 7.273492e+001 1.869804e+001 6.910803e-001 3.102381e+000 2.325873e+000 3.375323e+000 4.284750e+000 3.524160e+000 3.904391e+000 3.586181e+000 3.541369e+000 4.480459e+000 3.716639e+000 3.194932e+000 1.080586e+000 1.736049e-001 3.626186e-001 3.267974e-001 7.511420e-001 7.443044e-001 6.035695e-001 6.773749e-001 6.719622e-001 7.736599e-001 6.792161e-001 7.132310e-001 6.573893e-001 1.649326e-001
<GCONST> 1.285418e+002
<STATE> 3
<MEAN> 39
 2.326411e-003 -1.539415e+001 -1.137169e+001 -1.722231e+001 1.010185e+000 6.307744e-001 -8.868532e+000 -5.364818e+000 -5.257826e+000 -5.066825e+000 -3.968199e+000 -1.116127e+001 7.507520e+001 6.613140e-001 1.145763e+000 -3.243470e-002 -6.721514e-001 -6.756313e-001 5.146193e-001 6.204500e-002 -5.019779e-001 -4.848265e-001 3.431187e-001 7.992741e-001 3.334522e-001 -8.938617e-001 -9.085708e-002 3.319119e-001 5.539277e-001 3.857649e-001 -4.072441e-001 -4.676526e-001 2.218572e-001 1.542376e-001 -5.994564e-002 -2.098601e-001 -1.440801e-001 5.057332e-001 -3.049647e-001
<VARIANCE> 39
 1.669321e+001 3.795307e+001 5.647082e+001 6.688266e+001 6.885229e+001 8.758170e+001 7.387733e+001 6.892786e+001 6.284851e+001 7.569373e+001 8.720328e+001 6.815605e+001 1.839921e+001 6.800854e-001 2.813178e+000 1.518972e+000 3.124452e+000 3.296651e+000 3.728559e+000 3.276280e+000 3.310448e+000 3.589646e+000 3.386945e+000 3.162279e+000 2.849836e+000 1.127619e+000 1.021134e-001 2.048838e-001 3.112873e-001 6.083168e-001 5.135522e-001 5.388443e-001 6.057069e-001 5.736330e-001 6.212670e-001 6.514472e-001 7.373235e-001 4.893249e-001 1.168018e-001
<GCONST> 1.236462e+002
<STATE> 4
<MEAN> 39
 2.514422e+000 -9.347175e+000 -8.986279e+000 -1.801184e+001 -3.254097e+000 4.385641e-001 -6.303776e+000 -5.779842e+000 -5.719120e+000 -5.134756e+000 -2.836118e+000 -8.152597e+000 7.100516e+001 3.631578e-002 1.090287e+000 1.132473e+000 1.091588e+000 -5.422915e-001 -8.015252e-001 -3.961155e-002 -1.542714e-001 3.000651e-002 -6.325804e-002 -3.001094e-001 6.200539e-001 -1.217402e+000 -2.306806e-001 -5.255374e-002 2.576408e-001 4.621331e-001 2.077727e-001 -1.006294e-001 1.869226e-002 -2.737507e-002 9.178127e-002 -5.422714e-002 -1.417763e-001 -5.190016e-002 -1.295906e-001
<VARIANCE> 39
 2.102858e+001 6.550140e+001 5.711686e+001 7.052911e+001 7.601257e+001 9.907685e+001 9.287202e+001 7.664173e+001 6.597920e+001 7.095393e+001 7.078561e+001 6.299182e+001 3.323219e+001 6.854573e-001 2.378156e+000 2.168691e+000 4.001718e+000 3.350572e+000 3.402720e+000 3.220142e+000 3.231072e+000 3.191780e+000 3.251665e+000 3.427183e+000 2.896731e+000 1.702973e+000 1.312503e-001 2.799791e-001 2.886735e-001 5.638885e-001 5.919131e-001 6.445265e-001 5.996411e-001 5.637308e-001 6.085241e-001 5.888750e-001 5.838471e-001 4.974908e-001 1.501929e-001
<GCONST> 1.266282e+002
<TRANSP> 5
 0.000000e+000 1.000000e+000 0.000000e+000 0.000000e+000 0.000000e+000
 0.000000e+000 5.611291e-001 4.388709e-001 0.000000e+000 0.000000e+000
 0.000000e+000 0.000000e+000 5.803980e-001 4.196021e-001 0.000000e+000
 0.000000e+000 0.000000e+000 0.000000e+000 6.926340e-001 3.073660e-001
 0.000000e+000 0.000000e+000 0.000000e+000 0.000000e+000 0.000000e+000
<ENDHMM>
~h "P"
<BEGINHMM>
<NUMSTATES> 5
<STATE> 2
<MEAN> 39
 4.274584e-001 -9.790487e+000 -3.874172e+000 -9.938523e+000 -2.724156e+000 -4.212369e+000 -3.986272e+000 -3.267695e+000 -1.570420e+000 -2.785624e+000 -1.304974e+000 -4.242708e+000 6.800825e+001 2.161401e-001 2.500673e+000 1.325999e+000 2.946923e+000 1.535105e+000 1.544717e+000 1.391040e+000 8.436009e-001 1.276236e+000 8.964728e-001 5.822558e-001 4.597237e-001 -4.031715e+000 -7.751647e-001 -2.415081e-001 1.703246e-001 1.651840e-001 2.867890e-002 1.780650e-001 3.072856e-001 2.100181e-001 -6.366211e-002 -1.173814e-001 -2.194081e-001 9.872928e-003 -3.304910e-001
<VARIANCE> 39
 2.365132e+001 6.129662e+001 8.051961e+001 6.533685e+001 6.349567e+001 6.398134e+001 4.940907e+001 4.910028e+001 5.008652e+001 5.089918e+001 5.996966e+001 8.482338e+001 5.289674e+001 2.886793e+000 2.649192e+000 3.551790e+000 4.034935e+000 3.900599e+000 3.705920e+000 4.243339e+000 4.277198e+000 4.295760e+000 3.762251e+000 4.436886e+000 4.184483e+000 3.387458e+000 3.354017e-001 7.662466e-001 5.927437e-001 1.087442e+000 7.107480e-001 7.182553e-001 6.297788e-001 6.810610e-001 7.627379e-001 6.504862e-001 7.798664e-001 7.660484e-001 7.006164e-001
<GCONST> 1.362764e+002
<STATE> 3
<MEAN> 39
 -3.234618e+000 -5.613820e+000 1.009258e+000 -2.084644e+000 8.113282e-001 4.378882e-001 1.067945e+000 -1.017729e-001 8.115745e-001 -1.153288e+000 -1.292044e+000 -3.568540e+000 5.690355e+001 -1.700378e+000 -1.817575e-001 -1.623483e-001 9.014832e-001 2.430207e-001 6.349049e-001 1.073475e+000 8.652600e-001 9.500926e-001 4.862128e-001 2.085808e-001 3.936063e-001 -2.760922e+000 -1.247259e-001 -6.107735e-001 -5.570555e-001 -9.652556e-001 -6.331350e-001 -6.159772e-001 -5.344999e-001 -2.961124e-001 -2.743416e-001 -1.203973e-001 -3.279996e-002 -2.153211e-002 9.520755e-001
<VARIANCE> 39
 1.974332e+001 4.207721e+001 5.643262e+001 5.159167e+001 6.175163e+001 4.813130e+001 4.447006e+001 4.548394e+001 4.593467e+001 4.122441e+001 4.678764e+001 5.210246e+001 1.421274e+001 1.396529e+000 2.645508e+000 2.771054e+000 3.622495e+000 3.117738e+000 3.360966e+000 2.935771e+000 2.834777e+000 3.302639e+000 2.985912e+000 3.233795e+000 3.055391e+000 3.327517e+000 3.927214e-001 4.884560e-001 4.900296e-001 4.944767e-001 5.817065e-001 5.813866e-001 6.046184e-001 6.672173e-001 6.995360e-001 6.320321e-001 6.743035e-001 5.623010e-001 3.582813e-001
<GCONST> 1.259743e+002
<STATE> 4
<MEAN> 39
 -7.038585e+000 -7.616871e+000 -2.973033e+000 -3.660563e+000 -7.112246e-001 -8.343453e-001 6.691113e-001 1.881918e-001 2.273071e+000 -2.409520e-001 -4.744191e-001 -2.525780e+000 5.227534e+001 -3.162302e-001 5.045272e-001 2.660291e-002 1.270557e-001 -1.693994e-001 -3.888589e-001 -3.584940e-001 -4.715728e-001 -2.705482e-001 -2.260883e-001 -7.533257e-002 9.192051e-002 -2.863929e-001 3.028650e-001 2.159995e-001 1.822122e-001 -5.061516e-002 9.999394e-003 -1.563468e-001 -2.515785e-001 -2.404955e-001 -2.699753e-001 -1.676617e-001 -1.104783e-001 -6.359340e-002 5.311741e-001
<VARIANCE> 39
 1.103297e+001 3.182346e+001 3.962406e+001 3.164836e+001 4.865979e+001 3.272552e+001 3.357543e+001 3.370555e+001 3.282965e+001 3.065620e+001 3.277195e+001 3.447521e+001 1.341089e+001 1.281159e+000 1.861757e+000 1.991642e+000 1.772552e+000 2.219741e+000 2.362166e+000 2.692695e+000 2.678294e+000 2.715026e+000 2.367046e+000 2.184201e+000 2.074320e+000 1.434602e+000 2.323390e-001 3.409028e-001 3.318664e-001 3.916428e-001 4.461381e-001 4.889575e-001 5.516215e-001 5.315813e-001 5.433248e-001 4.736292e-001 4.562959e-001 4.198070e-001 3.224948e-001
<GCONST> 1.136453e+002
<TRANSP> 5
 0.000000e+000 1.000000e+000 0.000000e+000 0.000000e+000 0.000000e+000
 0.000000e+000 4.996067e-001 5.003933e-001 0.000000e+000 0.000000e+000
 0.000000e+000 0.000000e+000 5.464157e-001 4.535843e-001 0.000000e+000
 0.000000e+000 0.000000e+000 0.000000e+000 7.890784e-001 2.109216e-001
 0.000000e+000 0.000000e+000 0.000000e+000 0.000000e+000 0.000000e+000
<ENDHMM>
~h "R"
<BEGINHMM>
<NUMSTATES> 5
<STATE> 2
<MEAN> 39
 -3.242616e+000 -5.919569e+000 2.253896e+000 -2.957110e+000 -6.881204e+000 -9.357058e+000 -8.236561e+000 -4.941470e+000 -2.911699e+000 -6.287739e+000 -2.937809e+000 -3.317780e+000 6.438931e+001 1.702191e-001 -7.392886e-001 -7.111446e-003 1.443534e-001 -5.420768e-001 -9.390308e-001 -1.030704e-001 7.830455e-001 3.845653e-001 5.345138e-002 2.584158e-001 1.759577e-001 9.788325e-001 2.009995e-001 -4.991855e-001 -1.858875e-001 -6.814044e-001 -3.539407e-001 1.871047e-001 -7.409866e-003 2.913244e-001 -9.608427e-002 9.540398e-002 -2.060445e-001 -5.424830e-002 4.473272e-001
<VARIANCE> 39
 6.998955e+001 5.879943e+001 7.216990e+001 7.162920e+001 6.868722e+001 5.998206e+001 7.012417e+001 6.256634e+001 4.985352e+001 5.397889e+001 4.622022e+001 3.702992e+001 4.388243e+001 5.022481e+000 5.812608e+000 3.905545e+000 6.522568e+000 6.878509e+000 5.187134e+000 5.871342e+000 5.878706e+000 4.189624e+000 4.378888e+000 4.346805e+000 3.435083e+000 4.783043e+000 7.914553e-001 7.624268e-001 6.410906e-001 8.416506e-001 1.187212e+000 1.114258e+000 9.738793e-001 9.387090e-001 8.145921e-001 8.585643e-001 8.575148e-001 6.611263e-001 5.693949e-001
<GCONST> 1.428699e+002
<STATE> 3
<MEAN> 39
 1.909913e+000 -1.553092e+001 -1.023510e-001 -8.049065e+000 -1.479446e+001 -1.152127e+001 -9.839247e+000 1.838786e+000 -2.263011e+000 -5.003455e+000 -4.485066e+000 -3.506773e+000 7.206190e+001 4.108660e-001 -2.429634e+000 -1.094502e+000 -2.532621e+000 -7.081332e-001 1.548784e+000 3.260255e-001 1.816901e+000 -7.107528e-001 8.699124e-002 -1.378023e+000 -7.753420e-001 1.941994e+000 -6.029239e-001 4.928026e-001 -8.573708e-002 -5.784661e-002 1.058678e+000 6.484547e-001 2.831647e-001 -5.296463e-001 -3.935372e-001 -1.557561e-001 -1.069748e-001 -1.666098e-001 -2.862027e-001
<VARIANCE> 39
 2.089295e+001 3.184427e+001 6.759595e+001 9.152415e+001 5.873361e+001 6.419131e+001 9.438062e+001 6.880322e+001 5.080453e+001 6.804356e+001 5.457584e+001 4.895745e+001 1.778259e+001 2.182760e+000 2.645106e+000 3.378685e+000 3.632028e+000 5.656875e+000 5.386959e+000 5.611475e+000 4.945531e+000 4.894248e+000 4.849130e+000 4.473162e+000 4.078869e+000 9.209051e-001 3.058829e-001 3.601122e-001 3.813384e-001 7.166467e-001 6.794637e-001 7.596210e-001 8.141710e-001 8.639816e-001 6.640260e-001 7.878045e-001 7.457356e-001 6.691967e-001 2.151983e-001
<GCONST> 1.324315e+002
<STATE> 4
<MEAN> 39
 -2.164542e-001 -1.902082e+001 -2.731985e+000 -1.353694e+001 -1.143837e+001 -5.616518e+000 -7.455275e+000 4.130959e+000 -5.939072e+000 -5.968256e+000 -8.233789e+000 -5.987397e+000 7.581638e+001 -9.061863e-001 -4.677797e-001 -9.420070e-001 -1.616968e+000 2.143866e+000 1.525714e+000 7.284792e-001 -4.912394e-001 -1.143805e+000 -2.932997e-001 -6.043459e-001 -3.718708e-001 9.761006e-001 -1.421840e-001 6.237229e-001 9.048301e-002 4.885961e-001 4.695691e-001 -3.541234e-001 -4.450756e-002 -7.388671e-001 1.490248e-001 1.126742e-002 5.024995e-001 2.119192e-001 -4.353371e-001
<VARIANCE> 39
 1.891690e+001 3.779306e+001 6.265811e+001 7.960815e+001 7.120379e+001 8.037798e+001 1.016500e+002 8.788239e+001 7.160650e+001 7.351546e+001 5.588033e+001 5.622353e+001 1.756483e+001 5.572535e-001 1.518661e+000 2.197726e+000 3.293213e+000 3.645071e+000 3.811528e+000 3.901236e+000 3.621105e+000 3.565625e+000 4.313181e+000 3.307755e+000 3.503265e+000 4.460126e-001 1.763527e-001 2.669376e-001 2.304047e-001 4.261296e-001 6.054215e-001 6.249763e-001 6.303318e-001 6.459959e-001 6.141534e-001 6.321336e-001 5.897914e-001 5.328642e-001 1.026158e-001
<GCONST> 1.238409e+002
<TRANSP> 5
 0.000000e+000 1.000000e+000 0.000000e+000 0.000000e+000 0.000000e+000
 0.000000e+000 8.051820e-001 1.948180e-001 0.000000e+000 0.000000e+000
 0.000000e+000 0.000000e+000 5.889678e-001 4.110321e-001 0.000000e+000
 0.000000e+000 0.000000e+000 0.000000e+000 4.763376e-001 5.236624e-001
 0.000000e+000 0.000000e+000 0.000000e+000 0.000000e+000 0.000000e+000
<ENDHMM>
~h "S"
<BEGINHMM>
<NUMSTATES> 5
<STATE> 2
<MEAN> 39
 -8.603120e+000 2.445376e+000 1.156315e+000 -5.929126e+000 -5.446382e+000 -9.250556e+000 -5.309724e+000 -5.555315e+000 -5.027756e+000 -5.643961e+000 -3.187578e+000 -3.085488e+000 6.649590e+001 -3.625406e+000 2.769404e+000 -2.233401e-001 2.182820e+000 1.864879e+000 1.108143e+000 1.466676e+000 1.267545e+000 1.003503e+000 3.708968e-001 9.837798e-001 3.124157e-001 -3.921893e-001 -5.983348e-001 -2.705998e-001 -2.896391e-001 -2.160589e-001 2.996376e-001 4.634190e-001 3.107125e-001 3.559280e-001 2.797843e-001 3.376196e-001 1.454343e-001 1.227325e-002 7.723901e-002
<VARIANCE> 39
 6.256714e+001 7.128651e+001 7.524866e+001 8.043990e+001 7.337980e+001 6.204955e+001 6.545623e+001 6.763454e+001 5.592244e+001 5.418344e+001 5.452545e+001 4.054646e+001 4.605556e+001 4.688382e+000 4.573913e+000 5.102354e+000 6.513004e+000 6.027951e+000 6.675436e+000 5.515438e+000 5.707900e+000 4.732038e+000 5.223298e+000 4.597036e+000 4.080229e+000 2.208304e+000 9.404525e-001 1.090557e+000 6.031818e-001 1.033282e+000 1.001067e+000 9.030645e-001 8.982385e-001 8.842186e-001 7.656516e-001 7.872913e-001 7.304389e-001 6.451607e-001 2.112146e-001
<GCONST> 1.422071e+002
<STATE> 3
<MEAN> 39
 -2.384107e+001 6.677939e+000 -1.785717e+000 -1.855623e+000 1.483019e+000 -2.795318e+000 1.208966e+000 9.603500e-001 4.159356e-001 -1.260305e+000 1.601009e+000 -1.037653e+000 6.530782e+001 1.662833e-001 -3.933504e-001 -1.256530e-001 -3.072307e-001 -1.409769e-001 -9.620233e-002 4.862600e-002 2.314720e-001 1.415117e-001 2.660254e-002 1.026576e-001 2.362147e-001 2.956890e-001 1.131511e+000 -4.962804e-001 1.229947e-001 -4.151781e-001 -4.652104e-001 -4.772376e-001 -4.103636e-001 -2.343044e-001 -2.445451e-001 -2.819639e-001 -2.973393e-001 -5.995284e-002 2.499104e-001
<VARIANCE> 39
 2.867686e+001 3.420978e+001 6.169277e+001 5.586815e+001 4.068015e+001 3.595924e+001 3.962510e+001 4.002847e+001 3.010584e+001 2.740378e+001 2.364409e+001 1.883508e+001 2.522520e+001 7.930530e+000 1.803749e+000 2.291672e+000 2.311047e+000 2.735165e+000 3.248868e+000 2.744286e+000 2.556062e+000 2.542722e+000 2.561385e+000 2.349698e+000 1.923754e+000 1.155517e+000 5.407953e-001 4.314041e-001 4.837192e-001 6.539428e-001 5.565190e-001 5.963926e-001 5.819604e-001 5.543733e-001 5.460520e-001 5.358899e-001 5.228714e-001 4.667367e-001 2.167788e-001
<GCONST> 1.203885e+002
<STATE> 4
<MEAN> 39
 -7.302510e+000 -1.616427e+000 -1.495058e+000 -9.207799e+000 -5.023449e+000 -1.018730e+001 -4.323141e+000 1.972218e-001 -1.489533e+000 -5.505825e+000 -2.449146e+000 -4.341314e-001 7.100280e+001 4.532975e+000 -4.270090e+000 -7.788109e-001 -3.401964e+000 -1.749757e+000 -1.741420e+000 -1.928404e+000 -6.665921e-002 -8.946372e-001 -1.345775e+000 -2.001507e+000 -6.655268e-001 2.461683e+000 -1.006755e+000 -3.003187e-001 -2.831774e-001 1.054052e-002 5.316969e-001 7.257546e-001 2.506040e-001 -1.392839e-002 -9.388191e-002 1.847764e-001 5.657303e-004 -3.837553e-001 -4.569491e-003
<VARIANCE> 39
 5.863061e+001 6.470509e+001 5.631075e+001 7.649989e+001 5.844917e+001 5.373469e+001 6.747076e+001 4.234087e+001 4.131542e+001 3.910141e+001 5.123221e+001 4.092035e+001 3.085183e+001 5.431448e+000 3.523172e+000 5.442217e+000 6.360104e+000 7.292539e+000 7.076705e+000 6.172557e+000 5.122022e+000 5.434096e+000 5.387026e+000 5.507798e+000 5.947291e+000 1.523590e+000 1.027998e+000 9.400064e-001 4.622654e-001 1.160358e+000 8.773964e-001 8.599820e-001 8.763309e-001 6.611698e-001 6.261325e-001 7.239708e-001 9.944853e-001 7.022936e-001 3.908042e-001
<GCONST> 1.403664e+002
<TRANSP> 5
 0.000000e+000 1.000000e+000 0.000000e+000 0.000000e+000 0.000000e+000
 0.000000e+000 7.195320e-001 2.804680e-001 0.000000e+000 0.000000e+000
 0.000000e+000 0.000000e+000 8.657039e-001 1.342961e-001 0.000000e+000
 0.000000e+000 0.000000e+000 0.000000e+000 6.512594e-001 3.487406e-001
 0.000000e+000 0.000000e+000 0.000000e+000 0.000000e+000 0.000000e+000
<ENDHMM>
~h "T"
<BEGINHMM>
<NUMSTATES> 5
<STATE> 2
<MEAN> 39
 -4.812488e+000 -3.758623e+000 -7.879152e-001 -5.657208e+000 -2.609882e+000 -4.024839e+000 -2.345832e+000 -2.577855e+000 -3.980160e-001 -2.331728e+000 -2.118036e+000 -3.252176e+000 5.548716e+001 -9.958961e-001 -1.696418e-001 -1.750376e-001 1.079578e+000 7.136438e-001 7.678874e-001 1.142561e+000 7.513348e-001 9.570521e-001 4.958815e-001 6.220034e-001 1.696206e-001 -1.751409e+000 3.118651e-003 -1.867123e-001 -1.634703e-001 -5.319812e-001 -2.230458e-001 -2.167671e-001 -2.154193e-001 -4.742714e-002 -1.340146e-001 -4.313646e-002 -2.801459e-002 8.991534e-002 8.820837e-001
<VARIANCE> 39
 2.044223e+001 4.209141e+001 4.888651e+001 4.799649e+001 4.995534e+001 4.999453e+001 5.219241e+001 5.113242e+001 4.547400e+001 4.147400e+001 4.703010e+001 4.121780e+001 4.329996e+001 1.597927e+000 2.614762e+000 2.721325e+000 4.107680e+000 3.341371e+000 3.726048e+000 3.720633e+000 3.575817e+000 3.429932e+000 3.223365e+000 3.283856e+000 2.962494e+000 4.857526e+000 3.352972e-001 6.096567e-001 5.086250e-001 7.274209e-001 6.820846e-001 7.693980e-001 7.412840e-001 6.848892e-001 7.011608e-001 6.475708e-001 6.278694e-001 5.660078e-001 8.820946e-001
<GCONST> 1.301459e+002
<STATE> 3
<MEAN> 39
 -8.816381e+000 -3.825236e+000 -1.414909e+000 -4.212436e+000 -9.313573e-001 -3.259974e+000 3.759624e-001 -1.143112e+000 1.836455e+000 -7.281779e-001 6.591399e-001 -1.314190e+000 5.526514e+001 3.141254e-001 -1.623043e-001 -3.160749e-001 -1.158489e+000 -3.815690e-001 -1.122842e+000 -7.910689e-001 2.539085e-001 -2.331257e-001 -2.089690e-001 -1.773866e-001 3.362814e-001 3.328907e+000 6.276614e-001 -2.958571e-001 -6.357966e-002 -8.841486e-001 -4.084178e-001 -3.547971e-001 -8.004332e-001 -1.652716e-001 -4.884440e-001 -3.717934e-001 -5.651477e-001 -2.690121e-001 1.140092e+000
<VARIANCE> 39
 1.936588e+001 2.663845e+001 3.512010e+001 3.237116e+001 3.926621e+001 3.911394e+001 3.804844e+001 3.830354e+001 3.254134e+001 2.953479e+001 3.200416e+001 2.505630e+001 5.198318e+001 2.811995e+000 3.819233e+000 4.228567e+000 5.512600e+000 4.716566e+000 4.836518e+000 5.692991e+000 5.230700e+000 4.853653e+000 3.954727e+000 4.108484e+000 3.522722e+000 1.251581e+001 3.778462e-001 6.602217e-001 6.791416e-001 7.944009e-001 8.681995e-001 9.624872e-001 8.457456e-001 9.082456e-001 8.283864e-001 7.624087e-001 7.927777e-001 6.890318e-001 1.129866e+000
<GCONST> 1.338932e+002
<STATE> 4
<MEAN> 39
 -4.131698e+000 -5.304750e+000 -3.125151e+000 -1.101308e+001 -4.145864e+000 -8.106252e+000 -5.493914e+000 -3.642002e-001 1.761001e-002 -2.835635e+000 -2.507637e+000 -1.652387e+000 6.768110e+001 1.042978e+000 -1.391062e+000 -5.764018e-001 -2.514706e+000 -7.929858e-001 -7.750632e-001 -1.796020e+000 1.064150e-001 -9.669606e-001 -9.136814e-001 -1.451637e+000 -7.408161e-001 3.596434e+000 -1.682055e-001 -1.905396e-001 1.043928e-001 1.433942e-001 1.285401e-001 4.620559e-001 1.123720e-001 -3.379644e-001 -2.502861e-001 -8.609015e-002 -9.308392e-002 -3.154130e-001 -7.942540e-001
<VARIANCE> 39
 2.142486e+001 4.136882e+001 6.212831e+001 7.024149e+001 5.612116e+001 6.111962e+001 6.838771e+001 6.135606e+001 4.917505e+001 4.602779e+001 5.091354e+001 4.948213e+001 9.926020e+001 2.906126e+000 5.360858e+000 5.610628e+000 8.106530e+000 7.137444e+000 6.910030e+000 7.558104e+000 7.011213e+000 6.563067e+000 5.655095e+000 6.057642e+000 4.702868e+000 1.109828e+001 3.581965e-001 5.613181e-001 5.021606e-001 8.404837e-001 7.422257e-001 8.624889e-001 9.656472e-001 8.826779e-001 7.901106e-001 7.214295e-001 8.616539e-001 7.210796e-001 1.489876e+000
<GCONST> 1.435719e+002
<TRANSP> 5
 0.000000e+000 1.000000e+000 0.000000e+000 0.000000e+000 0.000000e+000
 0.000000e+000 7.160636e-001 2.839364e-001 0.000000e+000 0.000000e+000
 0.000000e+000 0.000000e+000 5.130485e-001 4.869515e-001 0.000000e+000
 0.000000e+000 0.000000e+000 0.000000e+000 3.501395e-001 6.498605e-001
 0.000000e+000 0.000000e+000 0.000000e+000 0.000000e+000 0.000000e+000
<ENDHMM>
~h "U"
<BEGINHMM>
<NUMSTATES> 5
<STATE> 2
<MEAN> 39
 2.931995e-001 -7.167474e+000 -4.018355e+000 -1.722235e+001 -5.584356e+000 -7.427807e+000 -1.355815e+001 -6.005344e+000 -3.725117e+000 -1.195438e+000 -4.767675e+000 -5.932052e+000 7.221553e+001 9.239948e-001 8.055736e-001 -1.226669e+000 -1.626997e+000 4.880380e-001 1.487426e+000 -8.631000e-001 -1.122966e+000 -5.927664e-001 7.535346e-001 5.354564e-001 -1.510824e-001 -4.493579e-001 -2.244732e-001 2.654314e-001 4.095943e-001 1.588122e-001 -3.447593e-001 2.422751e-001 7.013239e-001 1.535840e-002 -4.377007e-001 -3.119281e-001 3.203683e-001 2.632162e-001 -3.125443e-001
<VARIANCE> 39
 1.928901e+001 5.668437e+001 9.555106e+001 1.074890e+002 8.205828e+001 1.165309e+002 8.419300e+001 7.292968e+001 6.301493e+001 7.889712e+001 9.077093e+001 6.324361e+001 2.426525e+001 7.571093e-001 2.115881e+000 3.609529e+000 4.643420e+000 6.672437e+000 5.148779e+000 4.640149e+000 5.003443e+000 5.217006e+000 3.942740e+000 4.633030e+000 3.566141e+000 1.613052e+000 1.861088e-001 3.115308e-001 4.091126e-001 7.241056e-001 8.273545e-001 9.194666e-001 8.991004e-001 9.820852e-001 9.391666e-001 9.223523e-001 8.676921e-001 6.993619e-001 1.901464e-001
<GCONST> 1.356686e+002
<STATE> 3
<MEAN> 39
 2.252959e+000 -4.008132e+000 -6.541355e+000 -2.180638e+001 -6.349977e+000 -1.227419e+000 -1.218502e+001 -7.472991e+000 -8.549805e+000 -1.956638e+000 -1.175423e+000 -3.966028e+000 7.037521e+001 3.033325e-001 8.760317e-001 4.302843e-001 1.208878e-002 -9.123047e-001 -1.050763e-002 5.685725e-001 2.317698e-001 -4.313761e-001 -8.171971e-001 -6.938010e-002 4.449560e-001 -8.635163e-001 -2.925833e-001 -9.184925e-002 4.215918e-001 8.391740e-001 6.787445e-002 -4.216668e-001 3.002778e-001 2.818704e-001 4.533507e-001 -2.251640e-001 -3.543507e-001 -1.749928e-001 -2.379390e-001
<VARIANCE> 39
 1.863979e+001 4.857866e+001 9.710690e+001 1.015332e+002 7.676377e+001 1.073573e+002 8.374133e+001 7.397574e+001 6.662968e+001 7.128439e+001 8.941806e+001 6.693191e+001 2.000439e+001 8.076895e-001 2.701848e+000 2.336124e+000 7.051593e+000 3.974124e+000 5.159281e+000 5.210836e+000 4.347962e+000 4.790732e+000 4.857656e+000 4.505350e+000 3.843878e+000 1.943771e+000 1.460782e-001 3.227914e-001 4.591487e-001 6.596931e-001 9.011192e-001 9.444674e-001 8.861815e-001 9.137359e-001 8.776107e-001 8.599439e-001 8.635671e-001 7.038320e-001 1.783670e-001
<GCONST> 1.348515e+002
<STATE> 4
<MEAN> 39
 3.571932e+000 1.108072e+000 -4.985433e+000 -2.041772e+001 -9.649317e+000 -2.246945e+000 -8.782596e+000 -5.339890e+000 -6.958138e+000 -6.110769e+000 -3.330948e+000 -4.863153e+000 6.629581e+001 -3.272756e-001 2.441180e-001 7.920510e-001 1.511730e+000 2.391228e-001 -3.414276e-001 4.107073e-001 -1.070939e-001 3.771214e-001 -1.174150e-001 -2.417130e-001 -8.470926e-002 -9.307771e-001 -2.299183e-001 -1.968615e-001 6.383126e-002 3.083016e-001 2.973748e-001 5.193731e-002 2.410214e-002 -6.330888e-002 1.217702e-001 1.500423e-001 6.669103e-002 -1.252161e-002 -3.191821e-002
<VARIANCE> 39
 1.988442e+001 5.155177e+001 7.772668e+001 1.138499e+002 7.512459e+001 8.145216e+001 7.509058e+001 7.621056e+001 6.274877e+001 5.908204e+001 6.081683e+001 5.195850e+001 3.205443e+001 8.198851e-001 1.717814e+000 2.221669e+000 5.122645e+000 4.012545e+000 3.650443e+000 3.888778e+000 3.709096e+000 3.461290e+000 3.640373e+000 3.531728e+000 2.819460e+000 1.672599e+000 1.261839e-001 2.718574e-001 3.129122e-001 5.737306e-001 5.146340e-001 5.970860e-001 6.431479e-001 6.976916e-001 6.225512e-001 6.084778e-001 5.583954e-001 5.004691e-001 1.503758e-001
<GCONST> 1.270754e+002
<TRANSP> 5
 0.000000e+000 1.000000e+000 0.000000e+000 0.000000e+000 0.000000e+000
 0.000000e+000 4.703059e-001 5.296940e-001 0.000000e+000 0.000000e+000
 0.000000e+000 0.000000e+000 4.957860e-001 5.042140e-001 0.000000e+000
 0.000000e+000 0.000000e+000 0.000000e+000 6.773382e-001 3.226618e-001
 0.000000e+000 0.000000e+000 0.000000e+000 0.000000e+000 0.000000e+000
<ENDHMM>
~h "V"
<BEGINHMM>
<NUMSTATES> 5
<STATE> 2
<MEAN> 39
 -2.659643e+000 -3.081911e-002 -1.780318e-001 -4.416851e+000 -2.116679e+000 -3.836260e+000 -6.208361e+000 -8.291321e+000 -6.089295e+000 -5.545418e+000 -3.758525e+000 -4.953868e+000 5.913115e+001 -1.078810e-001 5.012036e-001 2.340620e-003 3.687970e-001 2.916084e-001 9.806333e-002 -2.512266e-001 -4.686348e-001 -3.908242e-001 -1.424507e-001 3.157699e-001 3.258251e-002 2.004644e-001 2.307869e-001 -4.772944e-001 -2.429966e-001 -8.032641e-001 -3.220338e-001 -1.786034e-001 -2.285712e-001 1.360263e-001 1.551132e-001 2.727464e-001 3.685061e-002 -1.123032e-002 7.346017e-001
<VARIANCE> 39
 3.511459e+001 3.314742e+001 3.804771e+001 5.193932e+001 3.100871e+001 4.129084e+001 4.535228e+001 4.890285e+001 4.474730e+001 3.998392e+001 4.285666e+001 3.288643e+001 3.679396e+001 2.720802e+000 2.094806e+000 2.524333e+000 4.737529e+000 2.771055e+000 2.883154e+000 3.732572e+000 3.738551e+000 3.636302e+000 3.229964e+000 3.136663e+000 2.564080e+000 3.619521e+000 5.069203e-001 3.872061e-001 5.080671e-001 8.219011e-001 5.577541e-001 5.809844e-001 7.503573e-001 7.430359e-001 7.609219e-001 7.313838e-001 6.759575e-001 5.494602e-001 3.555118e-001
<GCONST> 1.274778e+002
<STATE> 3
<MEAN> 39
 -7.584073e-001 -1.003169e+000 -2.782270e+000 -8.706465e+000 -3.088849e+000 -4.415408e+000 -9.276461e+000 -1.027500e+001 -6.978629e+000 -3.914228e+000 -1.551206e+000 -4.297017e+000 6.368702e+001 1.396743e+000 -2.176223e+000 -1.534372e+000 -3.471517e+000 -6.933481e-001 -4.951575e-001 -1.227554e+000 8.471279e-001 9.693329e-001 1.496957e+000 8.609279e-002 -6.908224e-001 3.339405e+000 -1.118902e-001 -7.154498e-001 -1.721694e-002 -4.421667e-001 -1.191680e-001 -1.296296e-002 2.945799e-001 7.494630e-001 3.760322e-001 8.833443e-003 -5.062415e-001 -3.039002e-001 4.679040e-001
<VARIANCE> 39
 3.084036e+001 2.649439e+001 4.085379e+001 5.939572e+001 2.814817e+001 4.656606e+001 4.671169e+001 4.233549e+001 3.904783e+001 3.830615e+001 4.368911e+001 2.986598e+001 2.515587e+001 2.770894e+000 2.520755e+000 3.966843e+000 5.117323e+000 4.354001e+000 4.756874e+000 5.501856e+000 5.504686e+000 5.499568e+000 5.275698e+000 6.372220e+000 4.361298e+000 1.855968e+000 4.789827e-001 3.722739e-001 5.125049e-001 9.658845e-001 6.987231e-001 6.406068e-001 8.866765e-001 7.718536e-001 7.985575e-001 9.296499e-001 7.796224e-001 6.901605e-001 3.973593e-001
<GCONST> 1.319100e+002
<STATE> 4
<MEAN> 39
 1.747160e+000 -8.872490e+000 -6.001442e+000 -1.695806e+001 -4.498955e+000 -5.649094e+000 -1.046520e+001 -4.192684e+000 -1.830325e+000 -2.953763e-001 -4.175176e+000 -8.331372e+000 7.251920e+001 -1.897065e-001 -2.721734e+000 -5.801029e-001 -2.008379e+000 -4.270155e-001 -4.490075e-001 6.695065e-001 2.285438e+000 8.171750e-001 -2.722453e-001 -1.490803e+000 -8.602261e-001 2.924769e+000 -5.838585e-001 3.391316e-001 5.225046e-001 8.714211e-001 1.326269e-001 1.588472e-001 6.196795e-001 -1.618252e-001 -5.685781e-001 -7.122137e-001 -6.149633e-002 3.436700e-001 -6.030044e-001
<VARIANCE> 39
 1.958092e+001 3.852511e+001 6.672023e+001 7.909621e+001 4.685646e+001 8.956815e+001 6.310572e+001 5.987389e+001 5.562266e+001 6.784840e+001 9.338214e+001 5.668304e+001 2.358093e+001 1.585477e+000 2.480180e+000 3.705025e+000 5.976382e+000 5.704522e+000 4.781899e+000 6.063013e+000 4.928309e+000 4.853024e+000 6.350760e+000 5.287529e+000 5.286174e+000 1.787638e+000 2.651911e-001 2.705177e-001 3.439059e-001 7.902293e-001 5.742276e-001 6.777399e-001 7.222691e-001 7.728873e-001 8.206046e-001 8.443279e-001 1.095307e+000 7.599738e-001 2.382697e-001
<GCONST> 1.344845e+002
<TRANSP> 5
 0.000000e+000 1.000000e+000 0.000000e+000 0.000000e+000 0.000000e+000
 0.000000e+000 7.352878e-001 2.647122e-001 0.000000e+000 0.000000e+000
 0.000000e+000 0.000000e+000 5.087142e-001 4.912858e-001 0.000000e+000
 0.000000e+000 0.000000e+000 0.000000e+000 4.478367e-001 5.521632e-001
 0.000000e+000 0.000000e+000 0.000000e+000 0.000000e+000 0.000000e+000
<ENDHMM>
~h "X"
<BEGINHMM>
<NUMSTATES> 5
<STATE> 2
<MEAN> 39
 -8.427886e+000 3.553183e+000 2.878923e-001 -4.818239e+000 -5.773539e+000 -9.531919e+000 -5.468376e+000 -5.786051e+000 -5.909226e+000 -5.544022e+000 -3.729876e+000 -3.202339e+000 6.629037e+001 -3.515574e+000 2.756818e+000 -7.159755e-001 2.432787e+000 1.854728e+000 1.049272e+000 1.579835e+000 1.328689e+000 1.049143e+000 4.882827e-001 1.038855e+000 3.255970e-001 -6.188717e-001 -5.344917e-001 -3.683652e-001 -2.961437e-001 -2.495605e-001 2.215328e-001 4.715551e-001 3.151061e-001 3.421934e-001 2.986677e-001 3.803309e-001 1.710979e-001 2.454544e-002 6.076958e-002
<VARIANCE> 39
 6.028504e+001 6.976493e+001 7.676378e+001 7.758471e+001 7.615503e+001 6.217699e+001 6.349563e+001 7.105484e+001 5.227381e+001 5.424836e+001 5.792941e+001 4.106073e+001 3.687613e+001 4.270949e+000 4.798117e+000 4.594687e+000 6.267093e+000 5.478565e+000 7.188714e+000 5.894751e+000 5.844610e+000 4.620169e+000 5.530879e+000 4.770859e+000 4.103903e+000 1.893202e+000 9.405009e-001 1.108210e+000 5.844713e-001 1.058261e+000 9.907556e-001 9.599798e-001 9.144137e-001 8.948362e-001 7.822587e-001 8.229521e-001 7.457842e-001 6.661752e-001 1.981568e-001
<GCONST> 1.419209e+002
<STATE> 3
<MEAN> 39
 -2.261640e+001 6.815062e+000 -3.873040e+000 -1.761931e-001 5.393895e-001 -3.081537e+000 1.548556e+000 1.067510e+000 -2.468273e-001 -4.986369e-001 1.373751e+000 -8.117327e-001 6.424260e+001 3.233587e-001 -5.254782e-001 -3.681311e-002 -3.794123e-001 -2.019529e-001 -1.500212e-001 -1.937268e-002 2.407172e-001 1.421642e-001 5.262269e-002 1.237991e-001 2.985415e-001 3.218463e-001 1.071977e+000 -4.606613e-001 2.265594e-001 -4.993366e-001 -4.568045e-001 -4.893744e-001 -4.701828e-001 -2.714041e-001 -2.653528e-001 -3.028215e-001 -2.955748e-001 -5.554399e-002 3.096906e-001
<VARIANCE> 39
 2.476345e+001 3.440194e+001 5.132018e+001 5.312411e+001 4.280252e+001 3.705721e+001 3.698452e+001 4.232861e+001 2.818647e+001 2.501697e+001 2.286718e+001 1.904268e+001 2.369807e+001 7.540512e+000 1.780394e+000 2.588479e+000 2.714816e+000 2.760144e+000 3.583632e+000 3.095580e+000 2.756599e+000 2.568626e+000 2.682662e+000 2.478481e+000 2.067205e+000 1.308271e+000 4.948227e-001 4.297902e-001 4.612302e-001 6.801547e-001 5.475371e-001 6.389856e-001 6.455836e-001 5.974464e-001 5.355951e-001 5.482882e-001 5.450318e-001 4.916324e-001 2.268136e-001
<GCONST> 1.209398e+002
<STATE> 4
<MEAN> 39
 -6.570123e+000 -1.323033e+000 -1.539240e+000 -8.876250e+000 -6.482891e+000 -1.094004e+001 -4.615886e+000 -1.596703e-001 -2.587865e+000 -4.422908e+000 -2.155180e+000 2.316965e-001 7.063016e+001 4.022264e+000 -3.993197e+000 -2.691078e-001 -3.879280e+000 -2.008579e+000 -1.777497e+000 -2.089135e+000 -3.457957e-001 -1.089230e+000 -1.304422e+000 -1.793024e+000 -6.356537e-001 2.643656e+000 -1.085123e+000 -2.129945e-001 -3.364574e-001 1.022521e-002 5.057450e-001 8.071455e-001 3.163907e-001 -2.728010e-002 -1.241943e-001 1.612739e-001 1.929781e-002 -4.341905e-001 -9.050288e-002
<VARIANCE> 39
 4.619578e+001 5.656027e+001 6.147287e+001 7.692065e+001 6.611242e+001 5.316351e+001 6.814619e+001 4.388795e+001 3.750600e+001 3.689238e+001 5.080556e+001 4.463327e+001 3.135791e+001 5.443316e+000 3.536811e+000 4.748000e+000 6.057157e+000 6.405721e+000 7.689237e+000 8.077096e+000 6.180065e+000 4.964986e+000 5.196467e+000 5.821325e+000 5.860660e+000 1.654229e+000 7.867870e-001 8.007816e-001 4.518075e-001 1.129293e+000 8.045776e-001 8.707657e-001 9.072433e-001 7.065118e-001 6.402251e-001 7.036251e-001 9.614053e-001 7.423415e-001 4.033980e-001
<GCONST> 1.400087e+002
<TRANSP> 5
 0.000000e+000 1.000000e+000 0.000000e+000 0.000000e+000 0.000000e+000
 0.000000e+000 7.266317e-001 2.733683e-001 0.000000e+000 0.000000e+000
 0.000000e+000 0.000000e+000 8.646330e-001 1.353670e-001 0.000000e+000
 0.000000e+000 0.000000e+000 0.000000e+000 6.367288e-001 3.632712e-001
 0.000000e+000 0.000000e+000 0.000000e+000 0.000000e+000 0.000000e+000
<ENDHMM>
~h "Y"
<BEGINHMM>
<NUMSTATES> 5
<STATE> 2
<MEAN> 39
 -6.466581e+000 -1.389831e+001 3.225157e+000 -1.775415e+001 -1.294040e+001 -7.340087e+000 9.298236e-001 -1.790443e+000 -8.086228e+000 -6.160111e+000 -5.828619e+000 -7.035872e+000 7.681900e+001 -2.850863e-001 1.404730e+000 1.484049e+000 -1.232376e+000 -1.746183e+000 -3.627687e-001 -2.607348e-001 -4.629126e-001 5.171681e-001 1.393253e+000 1.682634e-001 -2.852383e-001 -3.817843e-001 6.565145e-002 1.991372e-001 4.410554e-002 1.108106e-001 2.303440e-001 -5.730026e-002 -5.360208e-001 -2.951845e-001 8.793620e-002 1.260884e-001 5.246951e-002 1.815367e-001 -1.815789e-001
<VARIANCE> 39
 1.901860e+001 4.191450e+001 6.034200e+001 8.135340e+001 6.436898e+001 6.302534e+001 6.038568e+001 1.061221e+002 6.366898e+001 5.187389e+001 6.473422e+001 3.768260e+001 1.719226e+001 3.375522e-001 9.565891e-001 1.052661e+000 1.706797e+000 1.685320e+000 1.994455e+000 3.107346e+000 2.364780e+000 3.079227e+000 2.276724e+000 3.105635e+000 1.829723e+000 2.865199e-001 5.294362e-002 1.165252e-001 1.379061e-001 2.553109e-001 2.968504e-001 3.221497e-001 3.499142e-001 3.752410e-001 4.166128e-001 3.932373e-001 3.935854e-001 3.322729e-001 4.169769e-002
<GCONST> 1.079416e+002
<STATE> 3
<MEAN> 39
 -7.356629e+000 -5.520421e+000 1.181299e+001 -1.973836e+001 -1.799363e+001 -9.068553e+000 -6.749781e+000 -6.475894e+000 -7.036593e+000 -5.627512e-001 -3.761244e+000 -6.036431e+000 7.372427e+001 -4.245973e-002 1.075098e+000 9.964544e-001 7.401786e-002 5.496705e-002 -5.087314e-002 -1.187961e+000 -1.113423e+000 -3.494245e-001 1.217589e-001 2.455709e-002 4.629754e-001 -7.830116e-001 1.365136e-001 -1.004804e-001 -2.564903e-001 3.865310e-001 3.663103e-001 6.964140e-002 1.593097e-001 1.119483e-001 -1.302743e-001 -3.249520e-001 -1.035502e-001 2.417915e-003 -1.623525e-001
<VARIANCE> 39
 1.668048e+001 3.407934e+001 5.976740e+001 1.041112e+002 4.914955e+001 4.891509e+001 5.654954e+001 7.583644e+001 5.255811e+001 5.311694e+001 9.415869e+001 4.309909e+001 1.746753e+001 3.690737e-001 9.094225e-001 9.840095e-001 1.172751e+000 1.281216e+000 1.755986e+000 2.164036e+000 1.954193e+000 1.938572e+000 1.818397e+000 1.731798e+000 1.731122e+000 3.457502e-001 6.816561e-002 1.108571e-001 1.394335e-001 2.845244e-001 2.800899e-001 2.412905e-001 3.264906e-001 3.015765e-001 3.671777e-001 3.657327e-001 3.546787e-001 2.744277e-001 7.724342e-002
<GCONST> 1.045850e+002
<STATE> 4
<MEAN> 39
 -5.919958e+000 -1.731398e+000 1.185540e+001 -1.558104e+001 -1.457132e+001 -8.629373e+000 -8.299127e+000 -9.336286e+000 -8.349704e+000 -3.009006e+000 -4.512304e+000 -4.223648e+000 6.750053e+001 4.814034e-001 6.656901e-001 -4.842839e-001 1.971995e+000 1.346667e+000 2.735643e-001 3.466901e-001 4.019929e-002 1.642213e-001 -5.068733e-001 3.555446e-002 1.021902e-001 -1.833830e+000 -2.101843e-002 -1.711973e-001 -4.153194e-001 2.598310e-001 2.975077e-001 1.735400e-001 3.261802e-001 3.024762e-001 2.703777e-001 -1.856545e-002 5.983561e-002 -8.917893e-002 -1.713677e-001
<VARIANCE> 39
 1.931928e+001 4.693222e+001 6.049205e+001 1.088781e+002 6.109313e+001 6.204268e+001 5.957244e+001 7.167255e+001 5.636087e+001 5.768667e+001 8.134953e+001 6.543288e+001 3.944664e+001 1.130533e+000 1.846067e+000 2.163940e+000 3.837677e+000 3.155168e+000 2.846991e+000 3.841298e+000 3.195024e+000 3.284968e+000 3.122268e+000 3.494132e+000 2.720811e+000 1.940370e+000 1.928803e-001 3.188768e-001 3.261763e-001 6.358498e-001 5.507060e-001 5.239490e-001 6.461875e-001 5.968474e-001 5.683826e-001 5.555317e-001 5.438737e-001 4.749088e-001 2.568491e-001
<GCONST> 1.265957e+002
<TRANSP> 5
 0.000000e+000 1.000000e+000 0.000000e+000 0.000000e+000 0.000000e+000
 0.000000e+000 7.069787e-001 2.930213e-001 0.000000e+000 0.000000e+000
 0.000000e+000 0.000000e+000 7.366681e-001 2.633320e-001 0.000000e+000
 0.000000e+000 0.000000e+000 0.000000e+000 6.931210e-001 3.068790e-001
 0.000000e+000 0.000000e+000 0.000000e+000 0.000000e+000 0.000000e+000
<ENDHMM>
~h "AA"
<BEGINHMM>
<NUMSTATES> 5
<STATE> 2
<MEAN> 39
 -5.328278e+000 -1.381433e+001 -2.834235e+000 -1.810158e+001 -7.301938e+000 -7.654784e+000 -3.984343e+000 -6.054103e-001 -7.376930e+000 -7.670087e+000 -7.147013e+000 -5.769481e+000 7.649215e+001 -1.269005e-001 -2.197718e+000 -1.396629e+000 1.317357e-001 1.418216e+000 5.744115e-001 1.450468e-001 3.310669e-001 -5.794936e-001 -1.252361e+000 -4.515212e-001 -2.962129e-001 1.133903e+000 1.060406e-002 7.824661e-001 1.718918e-001 7.237418e-001 4.155393e-001 -8.238945e-003 -4.153384e-001 -5.162760e-001 2.345630e-001 2.452017e-001 2.824206e-001 1.098614e-001 -8.627629e-001
<VARIANCE> 39
 1.947610e+001 4.608744e+001 8.493993e+001 7.252784e+001 9.466988e+001 6.556030e+001 7.807733e+001 8.389653e+001 6.757716e+001 6.293161e+001 7.286326e+001 6.904467e+001 2.104029e+001 9.770693e-001 2.656441e+000 2.803628e+000 4.792802e+000 5.522985e+000 3.782222e+000 4.742944e+000 5.774510e+000 4.406967e+000 4.184946e+000 4.471220e+000 4.343763e+000 1.471807e+000 3.143475e-001 4.583284e-001 6.278279e-001 8.314949e-001 8.867370e-001 7.743844e-001 9.815502e-001 8.198386e-001 7.989143e-001 7.822023e-001 8.817642e-001 7.601979e-001 3.376189e-001
<GCONST> 1.356807e+002
<STATE> 3
<MEAN> 39
 -4.824791e+000 -1.718925e+001 -7.053953e+000 -1.563996e+001 -1.091639e+000 -7.044326e+000 -7.136286e+000 -1.065566e+000 -6.359343e+000 -9.553772e+000 -7.899460e+000 -5.730526e+000 7.744672e+001 3.504759e-001 1.352751e-001 -5.737565e-001 7.453705e-002 1.007900e+000 2.657818e-001 -9.994739e-001 -6.675231e-001 2.724745e-001 2.837363e-001 5.951412e-002 -7.100334e-001 -4.378331e-001 1.678292e-001 7.433984e-001 4.567994e-001 -5.009727e-002 -5.369875e-001 -9.134150e-002 -9.045828e-003 -2.534551e-001 5.437536e-003 4.238349e-001 2.461983e-001 5.301908e-002 -5.163703e-001
<VARIANCE> 39
 1.658659e+001 4.467322e+001 5.952603e+001 6.807690e+001 8.721346e+001 6.673420e+001 7.488242e+001 8.355885e+001 6.903960e+001 6.307257e+001 7.116770e+001 7.504345e+001 1.627112e+001 5.723472e-001 1.354555e+000 1.480582e+000 1.861403e+000 3.006399e+000 2.606401e+000 2.988015e+000 2.465441e+000 2.420995e+000 2.582189e+000 2.611157e+000 2.362536e+000 6.325011e-001 8.844839e-002 1.939459e-001 2.470254e-001 5.045542e-001 4.525944e-001 4.433498e-001 5.763723e-001 6.793684e-001 6.190651e-001 5.390097e-001 5.442730e-001 5.875754e-001 1.035406e-001
<GCONST> 1.185664e+002
<STATE> 4
<MEAN> 39
 -2.016884e+000 -1.380944e+001 -8.691968e+000 -1.863619e+001 -2.791162e-001 -3.380709e+000 -8.738819e+000 -4.332860e+000 -7.518143e+000 -6.804721e+000 -5.025017e+000 -7.243660e+000 7.417948e+001 4.845483e-001 1.254514e+000 2.674578e-001 -4.454293e-001 -7.085986e-001 1.229287e-001 -4.293714e-002 -5.649408e-001 -2.763967e-001 3.278946e-001 3.299289e-001 1.270400e-001 -9.262608e-001 1.457374e-002 2.317011e-001 3.019176e-001 1.074668e-001 -3.420006e-001 -1.216560e-001 7.346094e-002 -7.479387e-002 -2.471208e-002 -5.382729e-003 -7.812472e-002 2.130200e-001 -1.639931e-001
<VARIANCE> 39
 1.908811e+001 5.149977e+001 6.872821e+001 1.009867e+002 8.764561e+001 1.034799e+002 8.427951e+001 8.324311e+001 6.703004e+001 5.767316e+001 7.436263e+001 7.734670e+001 2.742749e+001 4.686309e-001 1.117214e+000 1.143711e+000 2.154257e+000 2.053245e+000 2.301040e+000 1.974241e+000 2.733013e+000 2.209363e+000 2.209881e+000 2.270823e+000 2.146674e+000 7.903524e-001 5.285196e-002 1.645635e-001 2.209759e-001 3.661118e-001 3.926539e-001 3.949686e-001 4.333115e-001 5.054272e-001 4.340360e-001 4.239211e-001 3.787869e-001 4.430064e-001 8.179583e-002
<GCONST> 1.154148e+002
<TRANSP> 5
 0.000000e+000 1.000000e+000 0.000000e+000 0.000000e+000 0.000000e+000
 0.000000e+000 4.820074e-001 5.179926e-001 0.000000e+000 0.000000e+000
 0.000000e+000 0.000000e+000 5.650824e-001 4.349176e-001 0.000000e+000
 0.000000e+000 0.000000e+000 0.000000e+000 6.664484e-001 3.335516e-001
 0.000000e+000 0.000000e+000 0.000000e+000 0.000000e+000 0.000000e+000
<ENDHMM>
~h "AF"
<BEGINHMM>
<NUMSTATES> 5
<STATE> 2
<MEAN> 39
 -3.331535e+000 -1.549537e+001 -3.111438e+000 -1.548202e+001 -4.638150e+000 -5.313715e+000 -3.155224e+000 -1.605925e+000 -7.691892e+000 -8.437590e+000 -7.634532e+000 -6.735651e+000 7.608232e+001 -8.529853e-001 -2.106273e+000 -4.266690e-001 2.682588e-001 8.770053e-001 9.080027e-001 1.173790e+000 4.734498e-001 -8.796781e-001 -1.098530e+000 2.111671e-001 -9.514917e-002 1.589749e+000 5.982824e-002 6.457052e-001 3.448777e-001 5.301627e-001 1.353719e-005 -1.683834e-001 -3.226407e-001 -5.997831e-001 8.891629e-002 2.308844e-001 3.404569e-001 1.729417e-001 -6.329915e-001
<VARIANCE> 39
 2.546224e+001 4.726683e+001 7.962152e+001 7.305853e+001 7.747596e+001 6.784412e+001 7.123550e+001 8.688470e+001 7.514996e+001 6.493387e+001 6.311957e+001 5.581424e+001 2.034543e+001 7.588910e-001 2.116884e+000 2.321887e+000 3.816648e+000 3.166317e+000 3.865174e+000 3.352327e+000 5.980110e+000 4.299239e+000 3.679622e+000 3.783913e+000 3.490418e+000 1.408751e+000 1.674067e-001 3.280125e-001 4.263972e-001 5.284724e-001 5.240055e-001 6.516553e-001 7.273574e-001 7.543910e-001 7.778789e-001 6.506960e-001 6.612021e-001 5.835413e-001 1.931564e-001
<GCONST> 1.289081e+002
<STATE> 3
<MEAN> 39
 -5.174361e+000 -1.885731e+001 -5.253752e+000 -1.301712e+001 -2.119859e+000 -4.162704e+000 -1.850035e+000 -4.469503e+000 -9.062916e+000 -1.040366e+001 -5.657040e+000 -6.061136e+000 7.815315e+001 -1.525589e-001 -4.200418e-001 1.513698e-001 6.658280e-001 2.560290e-001 8.858877e-002 1.873425e-001 -2.943607e-001 -1.296462e-001 -1.436058e-001 3.438613e-001 -3.492455e-002 1.756145e-001 2.342562e-001 4.529074e-001 1.999823e-001 -1.999809e-001 -2.865496e-001 -2.654479e-001 -2.212249e-001 1.138785e-001 2.386070e-001 3.050108e-001 -8.875109e-002 -2.553947e-002 -3.497841e-001
<VARIANCE> 39
 2.408180e+001 3.729131e+001 5.865332e+001 6.323912e+001 6.617473e+001 5.358379e+001 6.165384e+001 8.136218e+001 7.009496e+001 4.967527e+001 4.877565e+001 4.714103e+001 1.648920e+001 3.811399e-001 7.983523e-001 1.012662e+000 1.508702e+000 1.859120e+000 1.633650e+000 1.939941e+000 2.011967e+000 1.878992e+000 1.805430e+000 2.121120e+000 1.857512e+000 2.064164e-001 6.427804e-002 1.644398e-001 1.801092e-001 2.723970e-001 2.662944e-001 3.604669e-001 3.877327e-001 4.213262e-001 3.947566e-001 3.797149e-001 4.139088e-001 3.427759e-001 8.147176e-002
<GCONST> 1.067322e+002
<STATE> 4
<MEAN> 39
 -3.540262e+000 -1.831612e+001 -2.165807e+000 -1.167965e+001 -2.571890e+000 -2.629560e+000 -1.557799e+000 -2.171942e+000 -7.892884e+000 -8.461688e+000 -5.747037e+000 -7.345039e+000 7.728456e+001 2.276786e-001 3.961371e-001 3.060925e-001 -1.307685e-001 -2.639826e-001 -1.625348e-001 5.338100e-002 1.682806e-001 1.808447e-001 2.584068e-001 -7.551873e-002 -1.226142e-001 -3.527721e-001 8.744085e-002 2.707855e-001 8.255911e-002 -6.110888e-002 -1.187783e-001 -8.636232e-002 -9.185432e-002 -6.767612e-003 6.946450e-002 1.283024e-001 -2.990364e-002 1.915762e-003 -1.896300e-001
<VARIANCE> 39
 2.080265e+001 4.417527e+001 6.772863e+001 7.590108e+001 8.059045e+001 6.348689e+001 6.639258e+001 8.922898e+001 7.102514e+001 4.731544e+001 4.673015e+001 4.208784e+001 1.577143e+001 2.855524e-001 8.387849e-001 8.204408e-001 1.103669e+000 1.405001e+000 1.265295e+000 1.308599e+000 1.342003e+000 1.233202e+000 1.311614e+000 1.341668e+000 1.139562e+000 2.699784e-001 3.972854e-002 1.112650e-001 1.066042e-001 1.848691e-001 1.653365e-001 1.783654e-001 2.132676e-001 2.323906e-001 1.988392e-001 2.114750e-001 2.030435e-001 1.758640e-001 7.322791e-002
<GCONST> 9.694872e+001
<TRANSP> 5
 0.000000e+000 1.000000e+000 0.000000e+000 0.000000e+000 0.000000e+000
 0.000000e+000 4.829425e-001 5.170575e-001 0.000000e+000 0.000000e+000
 0.000000e+000 0.000000e+000 5.811007e-001 4.188993e-001 0.000000e+000
 0.000000e+000 0.000000e+000 0.000000e+000 8.286474e-001 1.713525e-001
 0.000000e+000 0.000000e+000 0.000000e+000 0.000000e+000 0.000000e+000
<ENDHMM>
~h "AJ"
<BEGINHMM>
<NUMSTATES> 5
<STATE> 2
<MEAN> 39
