~o
<STREAMINFO> 1 39
<VECSIZE> 39<NULLD><MFCC_D_A_0><DIAGC>
~h ":"
<BEGINHMM>
<NUMSTATES> 5
<STATE> 2
<MEAN> 39
 -4.901095e+000 -5.842618e+000 -5.097519e-001 -9.923710e+000 -4.122406e+000 -4.544213e+000 -4.531428e+000 -3.756145e+000 -3.134470e+000 -3.843007e+000 -3.141330e+000 -3.863289e+000 6.290533e+001 3.156596e-003 4.426242e-003 -3.008057e-004 -9.815464e-004 -7.398279e-004 -3.059326e-004 6.043092e-004 -2.233922e-003 1.730658e-004 -2.990019e-004 -3.013898e-003 -8.223696e-004 -5.428240e-004 -1.672899e-004 -1.806980e-004 4.561614e-005 -7.206317e-005 6.492341e-005 1.899766e-004 7.487284e-005 1.468558e-005 -2.101225e-005 1.112924e-004 1.261849e-004 6.155111e-006 1.118417e-005
<VARIANCE> 39
 3.977646e+001 6.976524e+001 7.436712e+001 1.058175e+002 8.034691e+001 6.925978e+001 7.782265e+001 7.860110e+001 6.821010e+001 5.800883e+001 6.279465e+001 4.830898e+001 1.459772e+002 1.544968e+000 2.667576e+000 2.529959e+000 4.061153e+000 3.472722e+000 3.155723e+000 3.471568e+000 3.756795e+000 3.266600e+000 3.146162e+000 3.154106e+000 2.635824e+000 3.396390e+000 2.536712e-001 3.905498e-001 3.963176e-001 6.350257e-001 5.963098e-001 5.526317e-001 6.014287e-001 6.646528e-001 5.859886e-001 5.718929e-001 5.669279e-001 4.794365e-001 4.314951e-001
<GCONST> 1.326273e+002
<STATE> 3
<MEAN> 39
 -4.901095e+000 -5.842618e+000 -5.097519e-001 -9.923710e+000 -4.122406e+000 -4.544213e+000 -4.531428e+000 -3.756145e+000 -3.134470e+000 -3.843007e+000 -3.141330e+000 -3.863289e+000 6.290533e+001 3.156596e-003 4.426242e-003 -3.008057e-004 -9.815464e-004 -7.398279e-004 -3.059326e-004 6.043092e-004 -2.233922e-003 1.730658e-004 -2.990019e-004 -3.013898e-003 -8.223696e-004 -5.428240e-004 -1.672899e-004 -1.806980e-004 4.561614e-005 -7.206317e-005 6.492341e-005 1.899766e-004 7.487284e-005 1.468558e-005 -2.101225e-005 1.112924e-004 1.261849e-004 6.155111e-006 1.118417e-005
<VARIANCE> 39
 3.977646e+001 6.976524e+001 7.436712e+001 1.058175e+002 8.034691e+001 6.925978e+001 7.782265e+001 7.860110e+001 6.821010e+001 5.800883e+001 6.279465e+001 4.830898e+001 1.459772e+002 1.544968e+000 2.667576e+000 2.529959e+000 4.061153e+000 3.472722e+000 3.155723e+000 3.471568e+000 3.756795e+000 3.266600e+000 3.146162e+000 3.154106e+000 2.635824e+000 3.396390e+000 2.536712e-001 3.905498e-001 3.963176e-001 6.350257e-001 5.963098e-001 5.526317e-001 6.014287e-001 6.646528e-001 5.859886e-001 5.718929e-001 5.669279e-001 4.794365e-001 4.314951e-001
<GCONST> 1.326273e+002
<STATE> 4
<MEAN> 39
 -4.901095e+000 -5.842618e+000 -5.097519e-001 -9.923710e+000 -4.122406e+000 -4.544213e+000 -4.531428e+000 -3.756145e+000 -3.134470e+000 -3.843007e+000 -3.141330e+000 -3.863289e+000 6.290533e+001 3.156596e-003 4.426242e-003 -3.008057e-004 -9.815464e-004 -7.398279e-004 -3.059326e-004 6.043092e-004 -2.233922e-003 1.730658e-004 -2.990019e-004 -3.013898e-003 -8.223696e-004 -5.428240e-004 -1.672899e-004 -1.806980e-004 4.561614e-005 -7.206317e-005 6.492341e-005 1.899766e-004 7.487284e-005 1.468558e-005 -2.101225e-005 1.112924e-004 1.261849e-004 6.155111e-006 1.118417e-005
<VARIANCE> 39
 3.977646e+001 6.976524e+001 7.436712e+001 1.058175e+002 8.034691e+001 6.925978e+001 7.782265e+001 7.860110e+001 6.821010e+001 5.800883e+001 6.279465e+001 4.830898e+001 1.459772e+002 1.544968e+000 2.667576e+000 2.529959e+000 4.061153e+000 3.472722e+000 3.155723e+000 3.471568e+000 3.756795e+000 3.266600e+000 3.146162e+000 3.154106e+000 2.635824e+000 3.396390e+000 2.536712e-001 3.905498e-001 3.963176e-001 6.350257e-001 5.963098e-001 5.526317e-001 6.014287e-001 6.646528e-001 5.859886e-001 5.718929e-001 5.669279e-001 4.794365e-001 4.314951e-001
<GCONST> 1.326273e+002
<TRANSP> 5
 0.000000e+000 1.000000e+000 0.000000e+000 0.000000e+000 0.000000e+000
 0.000000e+000 6.000000e-001 4.000000e-001 0.000000e+000 0.000000e+000
 0.000000e+000 0.000000e+000 6.000000e-001 4.000000e-001 0.000000e+000
 0.000000e+000 0.000000e+000 0.000000e+000 7.000000e-001 3.000000e-001
 0.000000e+000 0.000000e+000 0.000000e+000 0.000000e+000 0.000000e+000
<ENDHMM>
~h "A"
<BEGINHMM>
<NUMSTATES> 5
<STATE> 2
<MEAN> 39
 -4.680438e+000 -6.830992e+000 -9.641236e-001 -1.040524e+001 -4.125150e+000 -4.741628e+000 -4.322351e+000 -3.810196e+000 -3.771995e+000 -4.453748e+000 -3.403959e+000 -4.149900e+000 6.432675e+001 -1.086295e-003 6.943004e-004 -1.541124e-003 1.413816e-003 2.816186e-004 2.167675e-003 6.636918e-003 -3.837148e-003 2.049338e-003 -9.198008e-004 -5.135275e-004 -2.577791e-003 -5.245681e-003 3.339389e-005 5.154787e-004 5.243032e-004 3.930836e-004 -1.296345e-004 -6.846152e-006 -4.853730e-004 2.725546e-004 2.304156e-004 4.114155e-004 9.434911e-005 -3.666056e-005 -9.597454e-004
<VARIANCE> 39
 4.049340e+001 8.023122e+001 7.520190e+001 1.094879e+002 8.100399e+001 7.014243e+001 7.771941e+001 7.865840e+001 6.983483e+001 6.150672e+001 6.239566e+001 4.940486e+001 1.393315e+002 1.597280e+000 2.907633e+000 2.529835e+000 4.134417e+000 3.447125e+000 3.119200e+000 3.446092e+000 3.686497e+000 3.280647e+000 3.166536e+000 3.094813e+000 2.593247e+000 3.396758e+000 2.602375e-001 4.067376e-001 3.980070e-001 6.442404e-001 5.898240e-001 5.446996e-001 5.940366e-001 6.493447e-001 5.865589e-001 5.704286e-001 5.565132e-001 4.726930e-001 4.276757e-001
<GCONST> 1.329501e+002
<STATE> 3
<MEAN> 39
 -4.683841e+000 -6.824243e+000 -9.653787e-001 -1.039766e+001 -4.125355e+000 -4.735326e+000 -4.305048e+000 -3.820915e+000 -3.762011e+000 -4.451296e+000 -3.404611e+000 -4.155979e+000 6.430344e+001 -1.057420e-003 2.287379e-003 -7.032443e-005 2.562745e-003 -1.680737e-004 2.061576e-003 4.919695e-003 -3.388949e-003 2.712521e-003 2.678356e-004 -3.508664e-004 -2.615021e-003 -8.017636e-003 5.205219e-005 4.688442e-004 5.373308e-004 4.715773e-004 -1.320072e-004 -5.820818e-005 -5.234212e-004 1.858613e-004 1.684256e-004 4.215475e-004 4.421991e-005 4.183385e-005 -9.438184e-004
<VARIANCE> 39
 4.043711e+001 8.025485e+001 7.516081e+001 1.093540e+002 8.078345e+001 7.013001e+001 7.767810e+001 7.858250e+001 6.973755e+001 6.150380e+001 6.220548e+001 4.933119e+001 1.398620e+002 1.595267e+000 2.903376e+000 2.522237e+000 4.126793e+000 3.439429e+000 3.114243e+000 3.439229e+000 3.683140e+000 3.273070e+000 3.160728e+000 3.089197e+000 2.586930e+000 3.388300e+000 2.597380e-001 4.060690e-001 3.966531e-001 6.435876e-001 5.886997e-001 5.437168e-001 5.927283e-001 6.486375e-001 5.851935e-001 5.695633e-001 5.556507e-001 4.714898e-001 4.266507e-001
<GCONST> 1.328901e+002
<STATE> 4
<MEAN> 39
 -4.836957e+000 -6.752625e+000 -9.439101e-001 -1.021281e+001 -4.078844e+000 -4.493466e+000 -4.348625e+000 -3.703934e+000 -3.747311e+000 -4.342876e+000 -3.423324e+000 -4.077230e+000 6.391882e+001 -1.190224e-003 4.744526e-003 1.545873e-003 4.561497e-003 -7.213797e-004 1.873443e-003 2.667968e-003 -3.212332e-003 3.819313e-003 2.451213e-003 1.294066e-004 -1.400747e-003 -1.181214e-002 7.921591e-006 3.763949e-004 3.794364e-004 4.931380e-004 -9.660012e-005 -2.903483e-006 -2.965508e-004 9.681865e-005 1.270877e-004 3.999420e-004 8.762418e-005 1.762937e-004 -8.076620e-004
<VARIANCE> 39
 4.011223e+001 8.043812e+001 7.479617e+001 1.092592e+002 7.965947e+001 6.923880e+001 7.774783e+001 7.773869e+001 7.033523e+001 6.011357e+001 6.186991e+001 4.917031e+001 1.449225e+002 1.544250e+000 2.838978e+000 2.455162e+000 4.018646e+000 3.354784e+000 3.045106e+000 3.375620e+000 3.609300e+000 3.220364e+000 3.094943e+000 3.037794e+000 2.541224e+000 3.300131e+000 2.507227e-001 3.951909e-001 3.843383e-001 6.254849e-001 5.732187e-001 5.310028e-001 5.807087e-001 6.353913e-001 5.746434e-001 5.586591e-001 5.463247e-001 4.620708e-001 4.126869e-001
<GCONST> 1.322396e+002
<TRANSP> 5
 0.000000e+000 1.000000e+000 0.000000e+000 0.000000e+000 0.000000e+000
 0.000000e+000 6.865417e-001 3.134583e-001 0.000000e+000 0.000000e+000
 0.000000e+000 0.000000e+000 6.865411e-001 3.134589e-001 0.000000e+000
 0.000000e+000 0.000000e+000 0.000000e+000 8.110710e-001 1.889290e-001
 0.000000e+000 0.000000e+000 0.000000e+000 0.000000e+000 0.000000e+000
<ENDHMM>
~h "B"
<BEGINHMM>
<NUMSTATES> 5
<STATE> 2
<MEAN> 39
 -4.256435e+000 -6.231029e+000 -6.744419e-001 -1.040564e+001 -4.148167e+000 -4.223244e+000 -4.659231e+000 -4.087979e+000 -3.579771e+000 -4.277863e+000 -3.363003e+000 -4.359078e+000 6.339015e+001 8.899344e-003 9.474805e-003 -1.559259e-003 -4.513811e-003 -3.684497e-003 1.916427e-003 7.785149e-003 -7.429120e-003 -1.626418e-003 -6.920557e-003 -5.988837e-003 -1.545445e-003 -1.894859e-003 -4.504766e-004 2.546647e-005 3.377123e-004 1.866965e-004 6.052609e-005 5.262432e-004 4.165545e-004 3.382029e-004 1.342189e-004 5.548465e-004 -2.020502e-004 1.337704e-004 -4.761646e-004
<VARIANCE> 39
 3.946667e+001 7.428458e+001 7.603497e+001 1.099927e+002 7.961138e+001 7.009474e+001 7.726103e+001 7.982027e+001 6.882037e+001 5.908236e+001 6.402670e+001 5.028146e+001 1.418271e+002 1.454906e+000 2.914352e+000 2.643906e+000 4.298226e+000 3.398537e+000 3.171355e+000 3.477684e+000 3.934449e+000 3.397331e+000 3.249988e+000 3.230044e+000 2.677421e+000 3.870177e+000 2.393828e-001 4.283098e-001 4.148398e-001 6.793940e-001 5.794542e-001 5.529404e-001 6.079397e-001 7.013534e-001 6.167743e-001 5.979037e-001 5.840307e-001 4.900046e-001 5.050210e-001
<GCONST> 1.337026e+002
<STATE> 3
<MEAN> 39
 -4.230276e+000 -6.198133e+000 -6.760134e-001 -1.041707e+001 -4.156869e+000 -4.212700e+000 -4.631625e+000 -4.107619e+000 -3.581621e+000 -4.294793e+000 -3.383611e+000 -4.364949e+000 6.337974e+001 7.991109e-003 9.570559e-003 -5.157016e-004 -3.657439e-003 -3.413361e-003 3.142959e-003 8.724046e-003 -6.130564e-003 -1.991164e-004 -4.807711e-003 -6.586657e-003 -1.217837e-003 -2.931998e-003 -3.170600e-004 -1.319496e-005 4.072386e-004 2.914617e-004 1.567695e-004 3.929823e-004 4.295268e-004 4.301462e-004 5.344212e-004 7.542282e-004 -2.507786e-004 1.159116e-004 -4.286260e-004
<VARIANCE> 39
 3.940998e+001 7.447816e+001 7.612176e+001 1.102873e+002 7.954230e+001 6.999499e+001 7.710955e+001 7.986430e+001 6.871465e+001 5.912225e+001 6.399489e+001 5.024440e+001 1.420692e+002 1.456401e+000 2.923988e+000 2.647721e+000 4.311875e+000 3.398724e+000 3.167888e+000 3.479870e+000 3.938632e+000 3.406474e+000 3.258582e+000 3.233209e+000 2.684293e+000 3.883527e+000 2.394115e-001 4.297299e-001 4.152832e-001 6.813771e-001 5.793307e-001 5.524240e-001 6.080398e-001 7.021575e-001 6.189774e-001 5.994762e-001 5.846337e-001 4.913435e-001 5.060938e-001
<GCONST> 1.337451e+002
<STATE> 4
<MEAN> 39
 -4.350905e+000 -6.102628e+000 -6.840776e-001 -1.026139e+001 -4.139604e+000 -3.987135e+000 -4.642612e+000 -4.026484e+000 -3.601295e+000 -4.245595e+000 -3.435533e+000 -4.277750e+000 6.305161e+001 6.410535e-003 9.366349e-003 1.413472e-003 -2.006051e-003 -2.927992e-003 2.891331e-003 8.276762e-003 -4.380421e-003 1.446796e-003 -2.016766e-003 -5.917628e-003 -4.202956e-004 -3.329793e-003 -3.225186e-004 -6.109993e-005 3.947016e-004 3.271999e-004 1.126177e-004 -7.406979e-005 2.810778e-005 2.428341e-004 3.907210e-004 5.618553e-004 1.225419e-004 2.264211e-004 -2.056334e-004
<VARIANCE> 39
 3.920829e+001 7.512537e+001 7.594096e+001 1.107716e+002 7.875137e+001 6.889064e+001 7.704820e+001 7.927560e+001 6.903647e+001 5.809751e+001 6.371986e+001 5.002681e+001 1.463200e+002 1.420686e+000 2.891611e+000 2.586664e+000 4.229068e+000 3.321646e+000 3.091354e+000 3.428886e+000 3.857797e+000 3.364059e+000 3.211963e+000 3.181129e+000 2.649295e+000 3.800210e+000 2.324609e-001 4.223171e-001 4.039904e-001 6.668418e-001 5.649519e-001 5.384304e-001 5.972100e-001 6.878662e-001 6.106027e-001 5.909824e-001 5.744419e-001 4.838188e-001 4.901957e-001
<GCONST> 1.332068e+002
<TRANSP> 5
 0.000000e+000 1.000000e+000 0.000000e+000 0.000000e+000 0.000000e+000
 0.000000e+000 6.868209e-001 3.131791e-001 0.000000e+000 0.000000e+000
 0.000000e+000 0.000000e+000 6.868207e-001 3.131793e-001 0.000000e+000
 0.000000e+000 0.000000e+000 0.000000e+000 8.113376e-001 1.886624e-001
 0.000000e+000 0.000000e+000 0.000000e+000 0.000000e+000 0.000000e+000
<ENDHMM>
~h "C"
<BEGINHMM>
<NUMSTATES> 5
<STATE> 2
<MEAN> 39
 -4.609632e+000 -6.011174e+000 -1.393812e+000 -1.031046e+001 -3.930237e+000 -4.585176e+000 -4.501520e+000 -3.671156e+000 -3.133096e+000 -3.534885e+000 -3.042424e+000 -3.796488e+000 6.323179e+001 7.323068e-003 -5.075299e-004 -9.807267e-003 -9.363181e-003 1.385538e-003 2.436375e-003 2.532651e-004 -3.428065e-003 -3.910625e-003 -1.079908e-003 -5.760304e-003 -2.253899e-003 9.178150e-003 -2.233137e-004 1.142378e-004 3.201781e-004 3.225562e-004 -2.888337e-005 3.590921e-004 1.098836e-004 -2.321837e-004 1.132067e-004 -4.843825e-005 8.597312e-005 -1.181325e-004 -3.087441e-004
<VARIANCE> 39
 4.030005e+001 7.015852e+001 7.501854e+001 1.107220e+002 8.110204e+001 7.036662e+001 7.906329e+001 7.749137e+001 6.790733e+001 5.851173e+001 6.321295e+001 5.066762e+001 1.358460e+002 1.671743e+000 2.871465e+000 2.732278e+000 4.754047e+000 3.791747e+000 3.446936e+000 3.763388e+000 3.954175e+000 3.571026e+000 3.364056e+000 3.372603e+000 2.874252e+000 4.251776e+000 2.776556e-001 4.341084e-001 4.394754e-001 7.447941e-001 6.645198e-001 6.158297e-001 6.557162e-001 7.091712e-001 6.449326e-001 6.163924e-001 6.148121e-001 5.297348e-001 5.401417e-001
<GCONST> 1.353456e+002
<STATE> 3
<MEAN> 39
 -4.587758e+000 -6.012552e+000 -1.421292e+000 -1.033915e+001 -3.925771e+000 -4.575807e+000 -4.500054e+000 -3.683469e+000 -3.145391e+000 -3.539555e+000 -3.059205e+000 -3.804412e+000 6.326046e+001 6.755680e-003 1.876734e-004 -8.737579e-003 -8.150378e-003 1.261317e-003 2.749440e-003 6.223230e-004 -4.088270e-003 -3.336810e-003 -1.159396e-003 -5.543011e-003 -2.300640e-003 8.298870e-003 -1.987567e-004 1.746027e-004 3.427799e-004 3.921562e-004 -1.810025e-005 5.903776e-005 6.191601e-005 -1.992774e-004 2.330070e-004 -3.460697e-005 5.793103e-005 -2.038603e-005 -2.224749e-004
<VARIANCE> 39
 4.025747e+001 7.030569e+001 7.518769e+001 1.109949e+002 8.120525e+001 7.045918e+001 7.908519e+001 7.745641e+001 6.798277e+001 5.857012e+001 6.322406e+001 5.081371e+001 1.357144e+002 1.674454e+000 2.873327e+000 2.736919e+000 4.766514e+000 3.795605e+000 3.454119e+000 3.766004e+000 3.957595e+000 3.575937e+000 3.367541e+000 3.378274e+000 2.882121e+000 4.259419e+000 2.779337e-001 4.340371e-001 4.400632e-001 7.466488e-001 6.652334e-001 6.169814e-001 6.561526e-001 7.097791e-001 6.456529e-001 6.169038e-001 6.157034e-001 5.309767e-001 5.411472e-001
<GCONST> 1.353946e+002
<STATE> 4
<MEAN> 39
 -4.721950e+000 -5.979842e+000 -1.469908e+000 -1.025161e+001 -3.908558e+000 -4.339155e+000 -4.568683e+000 -3.619958e+000 -3.186289e+000 -3.495760e+000 -3.111935e+000 -3.739691e+000 6.301503e+001 6.118876e-003 7.586208e-004 -6.269199e-003 -7.170679e-003 6.908014e-004 2.349603e-003 6.521132e-004 -5.143229e-003 -2.935125e-003 -1.387194e-003 -5.452823e-003 -2.434866e-003 8.726346e-003 -1.559432e-004 1.254764e-004 4.327325e-004 2.138162e-004 -8.417358e-005 -1.115836e-004 -3.497367e-005 -2.235574e-004 1.308640e-004 -3.634811e-005 -4.549327e-005 -1.084808e-004 4.428001e-005
<VARIANCE> 39
 4.002162e+001 7.052413e+001 7.518597e+001 1.116327e+002 8.068616e+001 6.971722e+001 7.921300e+001 7.683882e+001 6.852228e+001 5.755223e+001 6.314807e+001 5.080034e+001 1.395299e+002 1.630905e+000 2.819245e+000 2.679844e+000 4.667417e+000 3.722271e+000 3.397567e+000 3.714901e+000 3.889697e+000 3.531770e+000 3.307986e+000 3.337219e+000 2.851340e+000 4.171523e+000 2.700954e-001 4.228666e-001 4.288214e-001 7.282689e-001 6.519792e-001 6.063381e-001 6.461652e-001 6.971716e-001 6.365427e-001 6.065394e-001 6.075211e-001 5.238078e-001 5.263834e-001
<GCONST> 1.349002e+002
<TRANSP> 5
 0.000000e+000 1.000000e+000 0.000000e+000 0.000000e+000 0.000000e+000
 0.000000e+000 6.825487e-001 3.174513e-001 0.000000e+000 0.000000e+000
 0.000000e+000 0.000000e+000 6.825423e-001 3.174577e-001 0.000000e+000
 0.000000e+000 0.000000e+000 0.000000e+000 8.060887e-001 1.939112e-001
 0.000000e+000 0.000000e+000 0.000000e+000 0.000000e+000 0.000000e+000
<ENDHMM>
~h "D"
<BEGINHMM>
<NUMSTATES> 5
<STATE> 2
<MEAN> 39
 -4.913060e+000 -4.975296e+000 8.143831e-001 -1.062026e+001 -5.461500e+000 -5.578382e+000 -5.274439e+000 -4.533983e+000 -3.914325e+000 -3.796521e+000 -3.506640e+000 -4.176088e+000 6.418893e+001 3.786354e-003 6.303676e-003 1.636887e-002 -1.343337e-002 -1.481336e-002 -1.036782e-002 -6.618374e-003 -1.222392e-002 -5.710190e-003 -6.644385e-003 -5.517763e-003 -5.590028e-003 1.061584e-002 3.388340e-004 -2.668315e-004 -8.914626e-004 8.466411e-004 1.468153e-003 6.736185e-004 5.822204e-006 4.234996e-004 6.068693e-004 -5.038558e-004 8.621538e-005 -2.952476e-005 -1.109691e-003
<VARIANCE> 39
 3.943943e+001 7.594006e+001 8.613665e+001 1.105070e+002 8.322225e+001 7.166613e+001 8.020148e+001 8.254772e+001 7.040979e+001 5.986503e+001 6.811502e+001 5.089428e+001 1.308683e+002 1.579385e+000 3.051845e+000 3.009588e+000 4.142783e+000 4.003741e+000 3.274703e+000 3.711686e+000 3.896383e+000 3.459509e+000 3.384577e+000 3.260605e+000 2.725345e+000 3.315123e+000 2.580512e-001 4.255174e-001 4.558374e-001 6.564851e-001 7.141103e-001 5.773430e-001 6.509370e-001 6.861097e-001 6.199131e-001 6.211761e-001 5.914655e-001 4.976289e-001 4.124950e-001
<GCONST> 1.347198e+002
<STATE> 3
<MEAN> 39
 -4.901343e+000 -4.957088e+000 8.617218e-001 -1.065791e+001 -5.500628e+000 -5.608704e+000 -5.295391e+000 -4.567473e+000 -3.927359e+000 -3.819535e+000 -3.524188e+000 -4.193743e+000 6.421472e+001 4.615610e-003 6.208004e-003 1.437380e-002 -1.138755e-002 -1.085163e-002 -8.748748e-003 -5.790222e-003 -1.091429e-002 -3.176822e-003 -7.422072e-003 -5.809078e-003 -5.567231e-003 7.225084e-003 4.048353e-004 1.328019e-004 -6.492128e-004 8.072205e-004 1.298287e-003 6.445794e-004 2.551235e-004 3.343305e-004 7.838996e-004 -5.771823e-005 -8.722278e-005 4.232842e-005 -1.236606e-003
<VARIANCE> 39
 3.925472e+001 7.593021e+001 8.635506e+001 1.106035e+002 8.310648e+001 7.172210e+001 8.016783e+001 8.279457e+001 7.037623e+001 5.984533e+001 6.815975e+001 5.101586e+001 1.307272e+002 1.571293e+000 3.057888e+000 3.016406e+000 4.142375e+000 4.009142e+000 3.278799e+000 3.715634e+000 3.899298e+000 3.469119e+000 3.384702e+000 3.266039e+000 2.726168e+000 3.310602e+000 2.568322e-001 4.265891e-001 4.566097e-001 6.569187e-001 7.157297e-001 5.781188e-001 6.514032e-001 6.866207e-001 6.217725e-001 6.209733e-001 5.924363e-001 4.979908e-001 4.115930e-001
<GCONST> 1.347363e+002
<STATE> 4
<MEAN> 39
 -5.043663e+000 -4.909794e+000 8.199706e-001 -1.054499e+001 -5.417862e+000 -5.390690e+000 -5.360981e+000 -4.459812e+000 -3.926310e+000 -3.767057e+000 -3.547159e+000 -4.095063e+000 6.386940e+001 5.023720e-003 4.206653e-003 1.098263e-002 -8.475364e-003 -6.093501e-003 -5.278445e-003 -3.261167e-003 -8.305516e-003 -5.305324e-004 -5.775296e-003 -5.739897e-003 -4.648287e-003 3.379019e-003 3.222174e-004 -1.061504e-004 -6.494696e-004 7.426550e-004 1.013279e-003 8.051444e-004 4.566992e-004 3.027011e-004 3.969633e-004 4.819974e-004 1.507721e-006 1.478098e-004 -1.036206e-003
<VARIANCE> 39
 3.879457e+001 7.581223e+001 8.669253e+001 1.108401e+002 8.239398e+001 7.077749e+001 8.036873e+001 8.238985e+001 7.101493e+001 5.843847e+001 6.792062e+001 5.076576e+001 1.351317e+002 1.518685e+000 3.004014e+000 2.951573e+000 4.054445e+000 3.929653e+000 3.223374e+000 3.661493e+000 3.830735e+000 3.443764e+000 3.322581e+000 3.230638e+000 2.688830e+000 3.225384e+000 2.477808e-001 4.167732e-001 4.450465e-001 6.410052e-001 6.999407e-001 5.676342e-001 6.402007e-001 6.748832e-001 6.162351e-001 6.094098e-001 5.854905e-001 4.909502e-001 3.974331e-001
<GCONST> 1.342002e+002
<TRANSP> 5
 0.000000e+000 1.000000e+000 0.000000e+000 0.000000e+000 0.000000e+000
 0.000000e+000 6.826732e-001 3.173268e-001 0.000000e+000 0.000000e+000
 0.000000e+000 0.000000e+000 6.826719e-001 3.173281e-001 0.000000e+000
 0.000000e+000 0.000000e+000 0.000000e+000 8.066766e-001 1.933234e-001
 0.000000e+000 0.000000e+000 0.000000e+000 0.000000e+000 0.000000e+000
<ENDHMM>
~h "E"
<BEGINHMM>
<NUMSTATES> 5
<STATE> 2
<MEAN> 39
 -5.627092e+000 -6.415618e+000 3.454678e-001 -1.031732e+001 -5.221156e+000 -5.107844e+000 -3.080777e+000 -3.192092e+000 -3.309404e+000 -3.774477e+000 -3.191768e+000 -3.953681e+000 6.394881e+001 1.223008e-002 5.592659e-003 6.707974e-003 -7.583111e-003 -1.216446e-002 -5.989148e-003 3.593068e-003 -1.313878e-002 -3.922487e-003 -6.370098e-003 -8.536090e-003 -7.937901e-003 5.472125e-003 3.228264e-004 1.458854e-004 -6.687268e-005 5.055626e-004 6.439870e-004 1.091159e-003 -1.610414e-003 -8.968241e-004 2.814209e-004 6.192991e-005 2.402133e-004 -3.134481e-004 -8.758473e-004
<VARIANCE> 39
 4.148646e+001 6.889467e+001 7.297122e+001 1.142696e+002 8.480696e+001 6.669468e+001 7.520975e+001 7.701780e+001 6.790062e+001 5.622983e+001 6.222196e+001 4.674482e+001 1.424945e+002 1.645153e+000 2.667620e+000 2.323572e+000 3.933582e+000 3.359159e+000 3.096739e+000 3.424902e+000 3.561181e+000 3.139451e+000 2.966510e+000 2.900503e+000 2.464785e+000 3.157113e+000 2.635056e-001 3.862069e-001 3.701885e-001 6.021208e-001 5.612513e-001 5.374154e-001 5.908871e-001 6.312608e-001 5.630924e-001 5.406546e-001 5.223237e-001 4.461582e-001 3.957399e-001
<GCONST> 1.314901e+002
<STATE> 3
<MEAN> 39
 -5.588539e+000 -6.398799e+000 3.636827e-001 -1.033543e+001 -5.252707e+000 -5.121806e+000 -3.074532e+000 -3.237285e+000 -3.315826e+000 -3.792466e+000 -3.213225e+000 -3.976782e+000 6.396379e+001 1.306681e-002 5.950890e-003 6.597688e-003 -5.884055e-003 -1.027975e-002 -3.196936e-003 -5.529920e-004 -1.588309e-002 -3.343567e-003 -6.671451e-003 -7.732594e-003 -8.005633e-003 2.881737e-003 1.377894e-004 1.822697e-004 -1.939613e-004 6.513421e-004 7.062398e-004 9.827554e-004 -1.513174e-003 -6.294829e-004 2.491566e-004 -4.773871e-005 2.605500e-004 5.610988e-005 -8.839202e-004
<VARIANCE> 39
 4.127782e+001 6.889997e+001 7.322258e+001 1.140896e+002 8.524102e+001 6.674037e+001 7.536775e+001 7.719161e+001 6.794527e+001 5.652219e+001 6.213648e+001 4.672812e+001 1.422684e+002 1.633431e+000 2.666127e+000 2.322886e+000 3.930754e+000 3.368191e+000 3.094721e+000 3.429704e+000 3.567179e+000 3.145750e+000 2.967679e+000 2.896081e+000 2.464477e+000 3.168685e+000 2.618926e-001 3.858166e-001 3.702248e-001 6.017153e-001 5.625735e-001 5.370197e-001 5.922818e-001 6.318772e-001 5.633017e-001 5.405877e-001 5.211459e-001 4.458020e-001 3.965683e-001
<GCONST> 1.314969e+002
<STATE> 4
<MEAN> 39
 -5.666972e+000 -6.298250e+000 4.130038e-001 -1.022676e+001 -5.247627e+000 -4.875932e+000 -3.192813e+000 -3.162304e+000 -3.298391e+000 -3.712179e+000 -3.244929e+000 -3.934903e+000 6.363683e+001 1.261615e-002 6.479471e-003 4.402385e-003 -1.772250e-003 -4.540952e-003 1.124976e-003 -3.566436e-003 -1.758771e-002 -1.399856e-003 -5.776640e-003 -5.769157e-003 -5.493926e-003 -1.363293e-003 -1.260588e-005 2.830640e-004 -3.138806e-004 7.188520e-004 8.353778e-004 8.638753e-004 -1.081889e-003 -4.284562e-004 2.183737e-004 5.372150e-005 2.266338e-004 3.301347e-004 -1.011913e-003
<VARIANCE> 39
 4.070557e+001 6.874276e+001 7.380515e+001 1.141275e+002 8.501654e+001 6.598164e+001 7.568506e+001 7.690022e+001 6.813830e+001 5.549100e+001 6.156965e+001 4.638491e+001 1.459389e+002 1.563088e+000 2.594309e+000 2.271665e+000 3.825158e+000 3.304285e+000 3.019584e+000 3.367359e+000 3.520754e+000 3.100242e+000 2.906863e+000 2.841966e+000 2.421118e+000 3.097184e+000 2.496741e-001 3.732578e-001 3.608740e-001 5.827953e-001 5.506443e-001 5.243379e-001 5.813640e-001 6.225025e-001 5.540308e-001 5.289559e-001 5.100186e-001 4.367000e-001 3.843275e-001
<GCONST> 1.308488e+002
<TRANSP> 5
 0.000000e+000 1.000000e+000 0.000000e+000 0.000000e+000 0.000000e+000
 0.000000e+000 6.915340e-001 3.084659e-001 0.000000e+000 0.000000e+000
 0.000000e+000 0.000000e+000 6.915298e-001 3.084702e-001 0.000000e+000
 0.000000e+000 0.000000e+000 0.000000e+000 8.170968e-001 1.829032e-001
 0.000000e+000 0.000000e+000 0.000000e+000 0.000000e+000 0.000000e+000
<ENDHMM>
~h "F"
<BEGINHMM>
<NUMSTATES> 5
<STATE> 2
<MEAN> 39
 -5.776803e+000 -3.869257e+000 3.088845e+000 -1.068689e+001 -5.375770e+000 -5.609590e+000 -5.286207e+000 -5.555392e+000 -3.467308e+000 -3.756977e+000 -3.015671e+000 -3.909554e+000 6.332127e+001 -6.073803e-003 5.970710e-003 -2.113103e-002 4.824935e-002 2.857864e-002 6.863658e-003 2.029425e-002 2.451889e-002 4.467789e-002 9.292983e-003 1.798723e-002 1.398380e-002 -5.526173e-002 7.728959e-004 -3.366716e-003 -3.902555e-003 -1.139564e-003 1.504139e-003 1.578663e-003 3.019277e-003 3.722791e-003 -3.449268e-004 2.795949e-004 4.359960e-004 4.873969e-004 1.187206e-003
<VARIANCE> 39
 3.347647e+001 7.412479e+001 1.013756e+002 1.112947e+002 8.790184e+001 7.101199e+001 7.614411e+001 8.248579e+001 6.987087e+001 5.634122e+001 6.250911e+001 4.688320e+001 1.279781e+002 1.345684e+000 2.490813e+000 2.577058e+000 3.878903e+000 3.401564e+000 2.792668e+000 3.211031e+000 3.313533e+000 2.939302e+000 2.995757e+000 2.772009e+000 2.494106e+000 2.845146e+000 2.249835e-001 3.563268e-001 3.735180e-001 6.122676e-001 5.702198e-001 4.972761e-001 5.541557e-001 5.816402e-001 5.230489e-001 5.424166e-001 4.802119e-001 4.558547e-001 3.659576e-001
<GCONST> 1.305284e+002
<STATE> 3
<MEAN> 39
 -5.792761e+000 -3.855540e+000 2.993234e+000 -1.052367e+001 -5.273420e+000 -5.578187e+000 -5.196991e+000 -5.465912e+000 -3.313592e+000 -3.726809e+000 -2.954974e+000 -3.862346e+000 6.313059e+001 -3.955068e-003 -2.885864e-003 -3.264263e-002 4.521916e-002 3.365389e-002 1.242892e-002 2.868250e-002 3.514406e-002 4.403656e-002 1.105953e-002 1.950465e-002 1.528515e-002 -5.150582e-002 4.211492e-004 -3.129054e-003 -3.884732e-003 -1.405388e-003 1.473512e-003 2.488435e-003 3.753745e-003 3.547267e-003 -1.007914e-003 7.767897e-004 1.047688e-003 8.499495e-004 1.813072e-003
<VARIANCE> 39
 3.335251e+001 7.335543e+001 1.003774e+002 1.110942e+002 8.663660e+001 7.008778e+001 7.603452e+001 8.235876e+001 7.025059e+001 5.544154e+001 6.194387e+001 4.651231e+001 1.295637e+002 1.336448e+000 2.481536e+000 2.564722e+000 3.877822e+000 3.362794e+000 2.776338e+000 3.191654e+000 3.295301e+000 2.936472e+000 2.992551e+000 2.768757e+000 2.480923e+000 2.847884e+000 2.232976e-001 3.580995e-001 3.721865e-001 6.126209e-001 5.658484e-001 4.941112e-001 5.503526e-001 5.787693e-001 5.224069e-001 5.438933e-001 4.818566e-001 4.539412e-001 3.684060e-001
<GCONST> 1.303803e+002
<STATE> 4
<MEAN> 39
 -5.928304e+000 -3.876280e+000 2.723798e+000 -9.982417e+000 -5.082146e+000 -5.204090e+000 -5.025071e+000 -5.095548e+000 -3.123771e+000 -3.668146e+000 -2.808130e+000 -3.699959e+000 6.255780e+001 -2.741450e-003 -8.726901e-003 -4.646337e-002 4.232721e-002 3.975161e-002 1.882221e-002 3.932616e-002 4.270133e-002 4.549016e-002 1.591015e-002 2.335968e-002 1.785462e-002 -4.854515e-002 -2.880894e-004 -2.300906e-003 -3.010613e-003 -1.236628e-003 8.863223e-004 2.077136e-003 2.455867e-003 1.772257e-003 -6.626977e-004 9.512621e-004 1.957768e-003 1.501486e-003 1.952418e-003
<VARIANCE> 39
 3.302929e+001 7.183294e+001 9.879956e+001 1.108620e+002 8.464971e+001 6.866546e+001 7.655746e+001 8.103839e+001 6.985377e+001 5.361032e+001 6.114986e+001 4.565168e+001 1.360309e+002 1.292451e+000 2.415339e+000 2.497079e+000 3.768762e+000 3.232334e+000 2.716808e+000 3.141769e+000 3.228359e+000 2.897915e+000 2.929078e+000 2.733690e+000 2.422869e+000 2.787677e+000 2.157645e-001 3.512293e-001 3.634219e-001 5.957812e-001 5.458711e-001 4.823141e-001 5.412985e-001 5.679536e-001 5.156884e-001 5.339254e-001 4.796073e-001 4.443608e-001 3.600630e-001
<GCONST> 1.296695e+002
<TRANSP> 5
 0.000000e+000 1.000000e+000 0.000000e+000 0.000000e+000 0.000000e+000
 0.000000e+000 6.864262e-001 3.135738e-001 0.000000e+000 0.000000e+000
 0.000000e+000 0.000000e+000 6.864256e-001 3.135745e-001 0.000000e+000
 0.000000e+000 0.000000e+000 0.000000e+000 8.107002e-001 1.892997e-001
 0.000000e+000 0.000000e+000 0.000000e+000 0.000000e+000 0.000000e+000
<ENDHMM>
~h "G"
<BEGINHMM>
<NUMSTATES> 5
<STATE> 2
<MEAN> 39
 -4.287689e+000 -6.539436e+000 -8.160427e-001 -1.136457e+001 -4.094414e+000 -4.711589e+000 -4.419304e+000 -3.566190e+000 -3.446891e+000 -3.771175e+000 -3.632920e+000 -4.152577e+000 6.444656e+001 4.138929e-003 -4.387912e-003 3.155594e-003 1.802848e-003 5.398138e-004 -8.821764e-003 6.706513e-003 1.013617e-003 5.045593e-003 -6.101367e-006 -4.014469e-003 2.099499e-003 1.192061e-002 -3.351750e-004 -2.686194e-004 1.146663e-003 7.536148e-004 -5.939876e-005 -5.083228e-004 -3.118728e-004 1.808095e-004 -7.733093e-004 4.666499e-005 -2.413143e-004 -6.409475e-005 -1.735556e-004
<VARIANCE> 39
 3.863652e+001 7.593928e+001 7.528003e+001 1.162272e+002 8.491791e+001 8.200243e+001 7.964339e+001 8.339495e+001 6.933518e+001 6.122611e+001 7.007339e+001 5.203201e+001 1.339385e+002 1.334569e+000 2.760832e+000 2.539196e+000 4.175075e+000 3.465543e+000 3.441294e+000 3.530154e+000 3.797924e+000 3.310606e+000 3.259086e+000 3.218281e+000 2.688568e+000 3.458050e+000 2.186331e-001 3.859266e-001 3.887248e-001 6.437151e-001 5.908232e-001 5.774971e-001 6.044717e-001 6.653093e-001 5.831180e-001 5.883490e-001 5.730824e-001 4.855003e-001 4.278536e-001
<GCONST> 1.333146e+002
<STATE> 3
<MEAN> 39
 -4.282317e+000 -6.557184e+000 -7.968850e-001 -1.135273e+001 -4.090503e+000 -4.741708e+000 -4.398567e+000 -3.556941e+000 -3.434686e+000 -3.768027e+000 -3.644127e+000 -4.142703e+000 6.448347e+001 2.942232e-003 -5.398237e-003 5.699030e-003 3.895822e-003 9.877773e-005 -9.412052e-003 5.231100e-003 1.387402e-003 2.071705e-003 -3.993293e-005 -4.267266e-003 1.949816e-003 1.136885e-002 -3.303220e-004 -2.933063e-004 9.044326e-004 4.734494e-004 -2.909549e-004 -7.782412e-005 -5.583995e-004 2.417364e-004 -1.244408e-003 1.050992e-006 -9.601039e-005 -2.399730e-004 -1.238125e-004
<VARIANCE> 39
 3.859361e+001 7.659008e+001 7.549844e+001 1.161688e+002 8.517759e+001 8.181502e+001 7.992863e+001 8.373031e+001 6.920325e+001 6.117148e+001 6.999812e+001 5.220866e+001 1.337954e+002 1.331771e+000 2.767380e+000 2.541976e+000 4.169098e+000 3.465728e+000 3.450907e+000 3.541838e+000 3.799604e+000 3.310698e+000 3.247891e+000 3.221744e+000 2.693531e+000 3.444041e+000 2.181556e-001 3.855894e-001 3.890295e-001 6.428292e-001 5.895324e-001 5.791845e-001 6.048376e-001 6.652514e-001 5.827886e-001 5.859554e-001 5.738548e-001 4.855596e-001 4.255028e-001
<GCONST> 1.333221e+002
<STATE> 4
<MEAN> 39
 -4.496867e+000 -6.496378e+000 -7.204948e-001 -1.114652e+001 -4.080137e+000 -4.493708e+000 -4.382779e+000 -3.395901e+000 -3.443898e+000 -3.645791e+000 -3.614408e+000 -4.022904e+000 6.416367e+001 4.934792e-004 -5.185820e-003 9.243922e-003 7.565811e-003 -1.171202e-003 -9.106656e-003 2.819085e-003 1.828802e-003 -5.792739e-004 1.186153e-003 -2.592549e-003 4.535280e-004 8.833634e-003 -2.286127e-004 -1.987202e-005 7.709985e-004 4.752620e-004 -4.976999e-004 8.441591e-005 -5.835603e-004 1.223450e-004 -9.098040e-004 -1.266274e-005 2.034459e-004 -5.788465e-004 -2.224459e-004
<VARIANCE> 39
 3.872634e+001 7.721399e+001 7.580165e+001 1.163002e+002 8.534801e+001 7.992619e+001 8.048071e+001 8.347736e+001 6.973138e+001 5.990526e+001 6.955470e+001 5.212122e+001 1.380517e+002 1.292437e+000 2.715004e+000 2.477031e+000 4.064261e+000 3.395397e+000 3.381689e+000 3.506721e+000 3.730273e+000 3.275764e+000 3.179015e+000 3.160560e+000 2.649246e+000 3.343448e+000 2.115344e-001 3.759629e-001 3.775285e-001 6.245931e-001 5.745102e-001 5.676109e-001 5.955709e-001 6.530601e-001 5.760714e-001 5.741147e-001 5.630525e-001 4.751907e-001 4.095996e-001
<GCONST> 1.327587e+002
<TRANSP> 5
 0.000000e+000 1.000000e+000 0.000000e+000 0.000000e+000 0.000000e+000
 0.000000e+000 6.921918e-001 3.078082e-001 0.000000e+000 0.000000e+000
 0.000000e+000 0.000000e+000 6.921916e-001 3.078084e-001 0.000000e+000
 0.000000e+000 0.000000e+000 0.000000e+000 8.165492e-001 1.834507e-001
 0.000000e+000 0.000000e+000 0.000000e+000 0.000000e+000 0.000000e+000
<ENDHMM>
~h "H"
<BEGINHMM>
<NUMSTATES> 5
<STATE> 2
<MEAN> 39
 -4.648770e+000 -6.675140e+000 -9.210152e-001 -1.012725e+001 -3.443999e+000 -4.183816e+000 -4.424229e+000 -4.024343e+000 -3.640913e+000 -4.606906e+000 -3.184828e+000 -4.269164e+000 6.424374e+001 5.494649e-003 -5.439927e-003 -9.292369e-004 3.393935e-003 3.704451e-003 2.263003e-003 1.878062e-003 -4.876143e-003 -3.660502e-003 -1.153576e-002 -2.871026e-003 -6.866114e-003 9.810816e-003 -5.206283e-005 4.659853e-004 4.055271e-004 2.680780e-004 -8.566172e-004 -4.914979e-004 -4.970761e-004 1.346168e-004 1.116118e-004 1.654284e-004 -2.965439e-004 3.575187e-006 -7.953380e-004
<VARIANCE> 39
 3.920176e+001 7.266497e+001 7.634662e+001 1.081231e+002 8.750465e+001 7.215803e+001 8.015308e+001 7.906695e+001 6.984504e+001 6.415110e+001 6.384091e+001 4.984218e+001 1.325520e+002 1.432131e+000 2.614006e+000 2.460009e+000 3.878608e+000 3.468550e+000 3.127838e+000 3.414829e+000 3.631925e+000 3.135836e+000 3.163444e+000 3.086407e+000 2.588789e+000 3.022120e+000 2.337695e-001 3.758177e-001 3.793864e-001 5.928513e-001 5.736407e-001 5.389646e-001 5.810024e-001 6.387856e-001 5.601766e-001 5.608429e-001 5.462720e-001 4.636773e-001 3.761422e-001
<GCONST> 1.318734e+002
<STATE> 3
<MEAN> 39
 -4.634403e+000 -6.692447e+000 -9.195705e-001 -1.011494e+001 -3.437198e+000 -4.179715e+000 -4.418066e+000 -4.038494e+000 -3.651808e+000 -4.639076e+000 -3.195227e+000 -4.286541e+000 6.427412e+001 5.023265e-003 -4.093731e-003 1.881944e-004 3.955903e-003 1.374828e-003 1.098027e-003 5.845199e-004 -4.413910e-003 -2.891492e-003 -1.111588e-002 -3.311543e-003 -6.320033e-003 7.753665e-003 -1.437280e-004 3.975930e-004 2.758642e-004 2.445357e-004 -7.327691e-004 -3.928202e-004 -4.176942e-004 2.853006e-004 3.071809e-004 2.244437e-004 -1.253300e-004 1.957340e-004 -6.442158e-004
<VARIANCE> 39
 3.915319e+001 7.282956e+001 7.645488e+001 1.079334e+002 8.776008e+001 7.218111e+001 8.017035e+001 7.911904e+001 6.978810e+001 6.435190e+001 6.375394e+001 4.965980e+001 1.323982e+002 1.432151e+000 2.618322e+000 2.456186e+000 3.874562e+000 3.465023e+000 3.124764e+000 3.411527e+000 3.632309e+000 3.133667e+000 3.165817e+000 3.076533e+000 2.585413e+000 3.017499e+000 2.335444e-001 3.758442e-001 3.784201e-001 5.916662e-001 5.724043e-001 5.381590e-001 5.801174e-001 6.391466e-001 5.593156e-001 5.607015e-001 5.441298e-001 4.626526e-001 3.744032e-001
<GCONST> 1.318418e+002
<STATE> 4
<MEAN> 39
 -4.776082e+000 -6.675560e+000 -8.958329e-001 -9.932280e+000 -3.451191e+000 -3.972134e+000 -4.481095e+000 -3.930355e+000 -3.689364e+000 -4.583466e+000 -3.251598e+000 -4.211432e+000 6.397744e+001 4.226202e-003 -2.498172e-003 2.310963e-003 3.415927e-003 -1.931577e-003 -2.952937e-004 -5.417393e-004 -3.991385e-003 -1.996437e-003 -8.085974e-003 -2.881336e-003 -4.273779e-003 5.837887e-003 -9.563525e-005 3.708270e-004 2.483674e-004 2.858488e-005 -5.873817e-004 -2.046532e-004 -3.373009e-004 1.512834e-004 2.489330e-004 4.897735e-004 8.309408e-005 2.744644e-004 -6.013648e-004
<VARIANCE> 39
 3.883554e+001 7.312054e+001 7.641425e+001 1.074924e+002 8.697485e+001 7.115540e+001 8.061922e+001 7.844112e+001 7.036687e+001 6.292110e+001 6.341807e+001 4.933000e+001 1.368449e+002 1.398088e+000 2.572221e+000 2.401560e+000 3.784064e+000 3.385473e+000 3.055265e+000 3.357486e+000 3.574595e+000 3.098119e+000 3.101465e+000 3.025536e+000 2.545130e+000 2.954102e+000 2.275840e-001 3.671423e-001 3.681900e-001 5.762199e-001 5.581106e-001 5.253194e-001 5.698695e-001 6.294870e-001 5.516075e-001 5.498687e-001 5.346194e-001 4.543507e-001 3.620620e-001
<GCONST> 1.312741e+002
<TRANSP> 5
 0.000000e+000 1.000000e+000 0.000000e+000 0.000000e+000 0.000000e+000
 0.000000e+000 6.836995e-001 3.163005e-001 0.000000e+000 0.000000e+000
 0.000000e+000 0.000000e+000 6.837046e-001 3.162954e-001 0.000000e+000
 0.000000e+000 0.000000e+000 0.000000e+000 8.081155e-001 1.918844e-001
 0.000000e+000 0.000000e+000 0.000000e+000 0.000000e+000 0.000000e+000
<ENDHMM>
~h "I"
<BEGINHMM>
<NUMSTATES> 5
<STATE> 2
<MEAN> 39
 -4.753786e+000 -6.037511e+000 1.016440e-001 -1.044727e+001 -5.053653e+000 -5.201493e+000 -5.106287e+000 -4.226948e+000 -3.583557e+000 -3.893095e+000 -3.321359e+000 -4.077258e+000 6.433252e+001 1.011573e-003 5.157449e-003 8.494128e-003 -3.362742e-003 -1.075247e-002 -2.631253e-003 2.234356e-003 -5.971755e-003 -1.631008e-003 9.678719e-004 -2.693558e-003 -9.307217e-004 4.073388e-003 -1.300774e-004 7.761368e-005 -2.335247e-004 2.398824e-004 3.922945e-004 2.959571e-004 3.433096e-004 1.073910e-004 2.580820e-004 1.681971e-004 1.924884e-004 2.194053e-004 -1.054159e-003
<VARIANCE> 39
 3.877932e+001 7.230342e+001 8.167554e+001 1.097671e+002 8.604053e+001 7.280452e+001 7.924284e+001 8.179842e+001 6.898711e+001 6.083359e+001 6.555213e+001 5.069298e+001 1.340767e+002 1.555157e+000 2.679108e+000 2.715856e+000 4.225194e+000 3.779394e+000 3.348315e+000 3.616141e+000 3.899231e+000 3.389767e+000 3.254380e+000 3.305193e+000 2.711130e+000 3.546636e+000 2.566693e-001 3.920111e-001 4.125860e-001 6.541126e-001 6.344950e-001 5.770353e-001 6.258981e-001 6.893494e-001 6.068998e-001 5.899665e-001 5.909666e-001 4.927262e-001 4.537359e-001
<GCONST> 1.339939e+002
<STATE> 3
<MEAN> 39
 -4.751588e+000 -6.019612e+000 1.245415e-001 -1.045297e+001 -5.082087e+000 -5.205942e+000 -5.095647e+000 -4.243282e+000 -3.585909e+000 -3.889754e+000 -3.327352e+000 -4.078963e+000 6.433350e+001 7.527913e-004 5.634172e-003 7.447487e-003 -2.465041e-003 -9.350866e-003 -1.477021e-003 3.216744e-003 -5.643142e-003 -7.376050e-004 1.411547e-003 -2.229810e-003 -2.602877e-004 3.813133e-004 -6.886643e-005 1.866094e-004 -3.469484e-004 3.332936e-004 5.053239e-004 3.946959e-004 2.975579e-004 1.168836e-004 2.373036e-004 1.853298e-004 1.262769e-004 1.649414e-004 -1.233518e-003
<VARIANCE> 39
 3.869509e+001 7.235178e+001 8.187224e+001 1.099596e+002 8.617241e+001 7.294312e+001 7.912190e+001 8.169462e+001 6.902364e+001 6.083937e+001 6.539380e+001 5.066047e+001 1.343131e+002 1.553848e+000 2.678466e+000 2.713983e+000 4.228880e+000 3.781060e+000 3.346848e+000 3.613758e+000 3.894408e+000 3.386610e+000 3.252424e+000 3.301243e+000 2.710851e+000 3.548750e+000 2.563932e-001 3.919623e-001 4.120656e-001 6.543233e-001 6.345557e-001 5.766893e-001 6.255259e-001 6.885774e-001 6.063377e-001 5.894316e-001 5.902402e-001 4.927174e-001 4.540980e-001
<GCONST> 1.339849e+002
<STATE> 4
<MEAN> 39
 -4.897043e+000 -5.939437e+000 1.223938e-001 -1.028028e+001 -5.070759e+000 -4.973738e+000 -5.129677e+000 -4.149741e+000 -3.607965e+000 -3.806726e+000 -3.346903e+000 -3.991952e+000 6.397626e+001 5.113687e-004 6.675979e-003 4.558012e-003 -7.516688e-005 -5.803245e-003 9.074548e-004 4.812590e-003 -4.225289e-003 1.087293e-003 1.690929e-003 -1.639828e-003 3.215600e-004 -6.621843e-003 -2.393778e-005 2.630101e-004 -4.735362e-004 4.247541e-004 5.714568e-004 4.565857e-004 2.625163e-004 2.008027e-004 2.660677e-004 1.298258e-004 5.056660e-005 -8.259975e-007 -1.321494e-003
<VARIANCE> 39
 3.842693e+001 7.234805e+001 8.184196e+001 1.102402e+002 8.535542e+001 7.211201e+001 7.913107e+001 8.085892e+001 6.964139e+001 5.959740e+001 6.508427e+001 5.035567e+001 1.392269e+002 1.510448e+000 2.621607e+000 2.649848e+000 4.128272e+000 3.695413e+000 3.272176e+000 3.554613e+000 3.818351e+000 3.338771e+000 3.188315e+000 3.243093e+000 2.668429e+000 3.457198e+000 2.485827e-001 3.818392e-001 4.008750e-001 6.366921e-001 6.188438e-001 5.632327e-001 6.139603e-001 6.744580e-001 5.966417e-001 5.781516e-001 5.796277e-001 4.846206e-001 4.395932e-001
<GCONST> 1.333864e+002
<TRANSP> 5
 0.000000e+000 1.000000e+000 0.000000e+000 0.000000e+000 0.000000e+000
 0.000000e+000 6.821824e-001 3.178176e-001 0.000000e+000 0.000000e+000
 0.000000e+000 0.000000e+000 6.821759e-001 3.178241e-001 0.000000e+000
 0.000000e+000 0.000000e+000 0.000000e+000 8.058990e-001 1.941010e-001
 0.000000e+000 0.000000e+000 0.000000e+000 0.000000e+000 0.000000e+000
<ENDHMM>
~h "K"
<BEGINHMM>
<NUMSTATES> 5
<STATE> 2
<MEAN> 39
 -5.378119e+000 -5.431868e+000 7.414190e-001 -9.793534e+000 -5.974109e+000 -5.565107e+000 -4.120533e+000 -4.294698e+000 -3.217828e+000 -3.204497e+000 -3.064410e+000 -3.513703e+000 6.309448e+001 -3.932035e-003 7.972918e-003 1.587994e-002 -3.839657e-003 -1.455828e-002 -4.184044e-003 5.179009e-003 -6.501486e-003 4.358890e-003 1.692912e-003 -4.686718e-003 5.177694e-003 2.128067e-003 3.543759e-004 -1.527245e-004 -7.420241e-004 2.457943e-004 8.354624e-004 1.212937e-003 -8.365806e-004 -4.701056e-004 4.961525e-005 9.742642e-005 3.220320e-004 1.491681e-005 -3.013740e-004
<VARIANCE> 39
 3.768259e+001 6.005297e+001 7.899844e+001 1.033665e+002 8.760696e+001 6.697294e+001 7.308647e+001 8.153864e+001 6.787801e+001 5.597002e+001 6.541597e+001 4.949643e+001 1.376679e+002 1.596761e+000 2.614131e+000 2.688472e+000 4.327082e+000 3.905229e+000 3.276583e+000 3.663280e+000 3.917509e+000 3.452157e+000 3.213244e+000 3.363693e+000 2.776507e+000 4.474812e+000 2.659674e-001 4.036605e-001 4.230787e-001 6.885046e-001 6.676797e-001 5.832759e-001 6.434774e-001 6.917299e-001 6.184230e-001 5.876337e-001 6.033949e-001 5.133064e-001 5.681423e-001
<GCONST> 1.342968e+002
<STATE> 3
<MEAN> 39
 -5.390504e+000 -5.406936e+000 7.857563e-001 -9.803309e+000 -6.017834e+000 -5.572127e+000 -4.109913e+000 -4.318073e+000 -3.205528e+000 -3.199813e+000 -3.073378e+000 -3.506303e+000 6.310525e+001 -3.000574e-003 7.791849e-003 1.314256e-002 -3.811971e-003 -1.209923e-002 -1.139664e-003 1.920687e-003 -8.221555e-003 4.498936e-003 1.638953e-003 -3.804516e-003 3.966766e-003 2.162288e-003 3.360260e-004 -7.806365e-005 -9.758235e-004 1.298064e-004 9.437008e-004 9.940868e-004 -1.008710e-003 -5.907785e-004 1.383549e-004 -1.152882e-004 3.479547e-004 -4.630011e-004 4.999512e-005
<VARIANCE> 39
 3.757553e+001 6.011709e+001 7.920205e+001 1.037153e+002 8.774670e+001 6.699278e+001 7.292553e+001 8.182650e+001 6.780991e+001 5.589376e+001 6.547238e+001 4.948486e+001 1.377347e+002 1.598548e+000 2.612898e+000 2.690295e+000 4.330004e+000 3.907194e+000 3.271159e+000 3.661439e+000 3.920676e+000 3.454832e+000 3.210207e+000 3.380240e+000 2.771285e+000 4.480570e+000 2.660976e-001 4.032333e-001 4.232394e-001 6.880800e-001 6.673582e-001 5.819201e-001 6.429911e-001 6.921276e-001 6.182646e-001 5.866209e-001 6.056529e-001 5.124505e-001 5.683727e-001
<GCONST> 1.343049e+002
<STATE> 4
<MEAN> 39
 -5.598748e+000 -5.334352e+000 7.984660e-001 -9.665412e+000 -5.966896e+000 -5.281013e+000 -4.144431e+000 -4.174699e+000 -3.180839e+000 -3.137888e+000 -3.091522e+000 -3.436877e+000 6.275708e+001 -1.375758e-003 6.244062e-003 9.679032e-003 -6.482303e-003 -9.636589e-003 9.132894e-004 -4.474500e-003 -9.468937e-003 2.461276e-003 5.371645e-004 -2.634036e-003 -1.498194e-004 7.218613e-003 4.002494e-004 -2.899109e-004 -9.085793e-004 -1.999754e-004 9.598201e-004 5.756015e-004 -1.032016e-003 -2.584371e-004 -2.226016e-005 -3.399679e-004 8.360730e-005 -5.034863e-004 6.276229e-004
<VARIANCE> 39
 3.718776e+001 6.017985e+001 7.918719e+001 1.038773e+002 8.716591e+001 6.614296e+001 7.298130e+001 8.089933e+001 6.837713e+001 5.460458e+001 6.539610e+001 4.892812e+001 1.423577e+002 1.548133e+000 2.550767e+000 2.633190e+000 4.205024e+000 3.802452e+000 3.183823e+000 3.591274e+000 3.835701e+000 3.407104e+000 3.140637e+000 3.336094e+000 2.714769e+000 4.340961e+000 2.570768e-001 3.905156e-001 4.121166e-001 6.648604e-001 6.470553e-001 5.643588e-001 6.283396e-001 6.776602e-001 6.078230e-001 5.742258e-001 5.964612e-001 5.007269e-001 5.456275e-001
<GCONST> 1.336180e+002
<TRANSP> 5
 0.000000e+000 1.000000e+000 0.000000e+000 0.000000e+000 0.000000e+000
 0.000000e+000 6.847916e-001 3.152085e-001 0.000000e+000 0.000000e+000
 0.000000e+000 0.000000e+000 6.847941e-001 3.152060e-001 0.000000e+000
 0.000000e+000 0.000000e+000 0.000000e+000 8.099566e-001 1.900433e-001
 0.000000e+000 0.000000e+000 0.000000e+000 0.000000e+000 0.000000e+000
<ENDHMM>
~h "L"
<BEGINHMM>
<NUMSTATES> 5
<STATE> 2
<MEAN> 39
 -4.356210e+000 -7.188645e+000 -6.584969e-001 -1.088417e+001 -4.135255e+000 -5.191007e+000 -5.301544e+000 -3.545240e+000 -3.361749e+000 -4.554496e+000 -3.606879e+000 -4.088746e+000 6.497223e+001 8.582841e-003 -4.469505e-003 -1.060979e-003 -6.386806e-003 -1.194225e-003 -2.446057e-003 -3.862395e-004 -3.232127e-003 -2.975826e-003 -6.849675e-003 -8.882134e-003 -2.518975e-003 1.800600e-002 -4.285864e-004 9.812631e-004 6.909952e-004 6.924715e-004 -1.139971e-004 3.311528e-005 4.712419e-004 2.047186e-005 3.381916e-004 4.336197e-004 5.503836e-004 -3.311477e-005 -1.473764e-003
<VARIANCE> 39
 3.843253e+001 7.526080e+001 7.477266e+001 1.064707e+002 8.000851e+001 7.890720e+001 8.613914e+001 8.327792e+001 7.005070e+001 6.500992e+001 6.443529e+001 5.102271e+001 1.335146e+002 1.408960e+000 2.695718e+000 2.584302e+000 3.978023e+000 3.447055e+000 3.598761e+000 3.862643e+000 3.954175e+000 3.376603e+000 3.316996e+000 3.238336e+000 2.673292e+000 3.127854e+000 2.308516e-001 3.874716e-001 3.947604e-001 6.263072e-001 5.852154e-001 6.114240e-001 6.609755e-001 6.988623e-001 6.024663e-001 5.982258e-001 5.825247e-001 4.808752e-001 3.870832e-001
<GCONST> 1.334438e+002
<STATE> 3
<MEAN> 39
 -4.330426e+000 -7.198162e+000 -6.594236e-001 -1.090168e+001 -4.137385e+000 -5.195737e+000 -5.299797e+000 -3.556695e+000 -3.367765e+000 -4.571948e+000 -3.632166e+000 -4.097590e+000 6.502195e+001 7.346079e-003 -1.565449e-003 7.230616e-004 -4.249409e-003 -1.706818e-003 -2.307171e-003 9.738126e-004 -2.920633e-003 -1.966083e-003 -6.048101e-003 -7.295014e-003 -2.245853e-003 1.350315e-002 -3.554680e-004 1.031608e-003 5.739634e-004 6.980833e-004 -4.586471e-005 -8.597880e-005 4.048157e-004 1.232029e-004 3.554083e-004 2.429042e-004 4.518804e-004 5.040382e-005 -1.528643e-003
<VARIANCE> 39
 3.835568e+001 7.557206e+001 7.478431e+001 1.064825e+002 7.984621e+001 7.919880e+001 8.617544e+001 8.326844e+001 7.011661e+001 6.521288e+001 6.435204e+001 5.106627e+001 1.333933e+002 1.409052e+000 2.695178e+000 2.588182e+000 3.973104e+000 3.444362e+000 3.605463e+000 3.873965e+000 3.952847e+000 3.375336e+000 3.321039e+000 3.239791e+000 2.672332e+000 3.120807e+000 2.307175e-001 3.870232e-001 3.951801e-001 6.251615e-001 5.843992e-001 6.122615e-001 6.623320e-001 6.980827e-001 6.020839e-001 5.991666e-001 5.828956e-001 4.804277e-001 3.855830e-001
<GCONST> 1.334485e+002
<STATE> 4
<MEAN> 39
 -4.451972e+000 -7.139524e+000 -6.534590e-001 -1.076376e+001 -4.117296e+000 -4.978811e+000 -5.363554e+000 -3.496714e+000 -3.418264e+000 -4.482121e+000 -3.703626e+000 -4.022841e+000 6.476913e+001 5.608479e-003 1.798161e-003 1.830681e-003 -1.522417e-003 -1.664362e-003 -4.755865e-004 2.922524e-003 -2.552030e-003 -8.265874e-004 -4.344696e-003 -5.110985e-003 -1.421706e-003 7.422659e-003 -3.272685e-004 8.999842e-004 2.813909e-004 5.724178e-004 -6.314923e-006 7.804960e-005 3.361107e-004 1.375312e-004 2.053561e-004 2.476205e-004 3.686321e-004 1.385666e-004 -1.374575e-003
<VARIANCE> 39
 3.813488e+001 7.607569e+001 7.478146e+001 1.069348e+002 7.914504e+001 7.843473e+001 8.626080e+001 8.258231e+001 7.082790e+001 6.393422e+001 6.430857e+001 5.111903e+001 1.377384e+002 1.379199e+000 2.653139e+000 2.546792e+000 3.889178e+000 3.382176e+000 3.543308e+000 3.840973e+000 3.883053e+000 3.335867e+000 3.269038e+000 3.202759e+000 2.642459e+000 3.055115e+000 2.251573e-001 3.786280e-001 3.873420e-001 6.096163e-001 5.723464e-001 6.005265e-001 6.548727e-001 6.848645e-001 5.937430e-001 5.899211e-001 5.756140e-001 4.736592e-001 3.745765e-001
<GCONST> 1.329949e+002
<TRANSP> 5
 0.000000e+000 1.000000e+000 0.000000e+000 0.000000e+000 0.000000e+000
 0.000000e+000 6.845168e-001 3.154832e-001 0.000000e+000 0.000000e+000
 0.000000e+000 0.000000e+000 6.845109e-001 3.154891e-001 0.000000e+000
 0.000000e+000 0.000000e+000 0.000000e+000 8.083811e-001 1.916189e-001
 0.000000e+000 0.000000e+000 0.000000e+000 0.000000e+000 0.000000e+000
<ENDHMM>
~h "M"
<BEGINHMM>
<NUMSTATES> 5
<STATE> 2
<MEAN> 39
 -4.241020e+000 -6.288554e+000 -4.855880e-001 -1.022334e+001 -3.996569e+000 -4.369846e+000 -5.090387e+000 -4.573425e+000 -3.871181e+000 -4.513619e+000 -3.476746e+000 -4.307776e+000 6.367720e+001 1.106637e-002 4.354241e-003 -4.424383e-003 -6.465652e-003 -1.894439e-004 3.613422e-003 -6.864500e-003 -8.194810e-003 -1.025750e-002 -3.813079e-003 -1.247652e-003 -4.407201e-003 8.597211e-003 -7.824138e-004 5.615595e-005 -1.571783e-004 1.532400e-004 1.968374e-004 3.112863e-004 3.053982e-004 6.874147e-004 6.944106e-004 3.221780e-004 6.185576e-004 7.151872e-005 -2.528081e-004
<VARIANCE> 39
 4.004760e+001 7.545495e+001 7.395451e+001 1.066687e+002 8.099206e+001 7.417572e+001 8.139175e+001 8.944815e+001 7.131431e+001 6.159409e+001 6.502555e+001 5.162279e+001 1.352906e+002 1.507124e+000 2.729001e+000 2.645202e+000 4.084263e+000 3.408084e+000 3.184623e+000 3.482755e+000 4.160791e+000 3.412798e+000 3.228860e+000 3.284802e+000 2.690812e+000 3.344303e+000 2.455860e-001 3.882609e-001 4.136424e-001 6.395118e-001 5.813617e-001 5.479742e-001 5.960791e-001 7.161167e-001 6.076090e-001 5.832729e-001 5.854645e-001 4.859047e-001 4.164683e-001
<GCONST> 1.334641e+002
<STATE> 3
<MEAN> 39
 -4.210568e+000 -6.273393e+000 -4.989433e-001 -1.024234e+001 -3.996863e+000 -4.353302e+000 -5.109554e+000 -4.595775e+000 -3.897460e+000 -4.522325e+000 -3.474840e+000 -4.320405e+000 6.370050e+001 8.364395e-003 4.831360e-003 -4.598610e-003 -5.586596e-003 4.853759e-004 4.006235e-003 -5.791781e-003 -5.495766e-003 -7.403411e-003 -2.411810e-003 5.829546e-004 -3.893272e-003 7.024966e-003 -8.626900e-004 5.098344e-005 -5.555135e-005 1.994221e-004 2.523662e-004 1.873120e-004 4.065936e-004 8.906751e-004 9.895317e-004 4.773449e-004 5.404298e-004 1.655116e-004 -4.232973e-004
<VARIANCE> 39
 4.003779e+001 7.566793e+001 7.397577e+001 1.068215e+002 8.100954e+001 7.448134e+001 8.157548e+001 8.956739e+001 7.140874e+001 6.171012e+001 6.504231e+001 5.163808e+001 1.349655e+002 1.506930e+000 2.726851e+000 2.650023e+000 4.093597e+000 3.411899e+000 3.191064e+000 3.487894e+000 4.168405e+000 3.423433e+000 3.233622e+000 3.292255e+000 2.693383e+000 3.338573e+000 2.452377e-001 3.878202e-001 4.142430e-001 6.401653e-001 5.817615e-001 5.485892e-001 5.968696e-001 7.171475e-001 6.092562e-001 5.841166e-001 5.867705e-001 4.862733e-001 4.156305e-001
<GCONST> 1.335030e+002
<STATE> 4
<MEAN> 39
 -4.329410e+000 -6.184786e+000 -5.034211e-001 -1.009587e+001 -3.967112e+000 -4.058567e+000 -5.185130e+000 -4.511137e+000 -3.905868e+000 -4.439030e+000 -3.453210e+000 -4.235603e+000 6.340004e+001 3.809300e-003 5.817186e-003 -4.449857e-003 -3.540775e-003 6.817891e-004 4.125532e-003 -3.073310e-003 -7.048934e-004 -2.180851e-003 1.271677e-004 3.097374e-003 -2.386233e-003 2.454918e-003 -8.756499e-004 1.365612e-004 1.206400e-005 2.949290e-004 1.411565e-004 -2.074620e-005 5.564161e-004 9.570518e-004 1.024675e-003 4.839685e-004 3.388425e-004 2.535130e-004 -7.633338e-004
<VARIANCE> 39
 3.990075e+001 7.607567e+001 7.387444e+001 1.073653e+002 8.041956e+001 7.391328e+001 8.250044e+001 8.951186e+001 7.237217e+001 6.065776e+001 6.480708e+001 5.141615e+001 1.385119e+002 1.459884e+000 2.660233e+000 2.592313e+000 4.000721e+000 3.335589e+000 3.128925e+000 3.439519e+000 4.079306e+000 3.382918e+000 3.164994e+000 3.244718e+000 2.648515e+000 3.236367e+000 2.366311e-001 3.762125e-001 4.038478e-001 6.224887e-001 5.669889e-001 5.370291e-001 5.870981e-001 7.013185e-001 5.998388e-001 5.715004e-001 5.772495e-001 4.771802e-001 4.000067e-001
<GCONST> 1.329271e+002
<TRANSP> 5
 0.000000e+000 1.000000e+000 0.000000e+000 0.000000e+000 0.000000e+000
 0.000000e+000 6.879660e-001 3.120340e-001 0.000000e+000 0.000000e+000
 0.000000e+000 0.000000e+000 6.879631e-001 3.120369e-001 0.000000e+000
 0.000000e+000 0.000000e+000 0.000000e+000 8.129080e-001 1.870921e-001
 0.000000e+000 0.000000e+000 0.000000e+000 0.000000e+000 0.000000e+000
<ENDHMM>
~h "N"
<BEGINHMM>
<NUMSTATES> 5
<STATE> 2
<MEAN> 39
 -4.310134e+000 -5.923175e+000 -1.614849e-001 -1.050574e+001 -4.710873e+000 -4.941601e+000 -5.035594e+000 -4.386876e+000 -3.666896e+000 -4.277100e+000 -3.703484e+000 -4.159758e+000 6.392160e+001 4.430493e-003 1.511278e-003 -5.248568e-003 2.948142e-003 5.783236e-003 2.351399e-003 2.459340e-003 -5.534819e-003 1.414007e-003 -1.954444e-003 -4.433599e-003 8.730996e-004 -5.018944e-003 -5.124368e-004 -1.535949e-004 -3.307849e-004 4.165426e-004 6.776028e-004 2.775663e-004 4.131115e-004 5.875261e-004 3.572514e-004 3.032333e-004 2.068907e-004 1.594709e-004 -7.140246e-004
<VARIANCE> 39
 3.925753e+001 7.124825e+001 7.815064e+001 1.080038e+002 8.324597e+001 7.227462e+001 7.874120e+001 8.377171e+001 6.936163e+001 6.152951e+001 6.666177e+001 5.159211e+001 1.322214e+002 1.537254e+000 2.754866e+000 2.601680e+000 4.072119e+000 3.529889e+000 3.214214e+000 3.519016e+000 4.036609e+000 3.331851e+000 3.250641e+000 3.258997e+000 2.738864e+000 3.436233e+000 2.524759e-001 3.986016e-001 4.030069e-001 6.330563e-001 6.012637e-001 5.612316e-001 6.110471e-001 7.055312e-001 5.972271e-001 5.870647e-001 5.799130e-001 4.941787e-001 4.347694e-001
<GCONST> 1.335083e+002
<STATE> 3
<MEAN> 39
 -4.301011e+000 -5.918058e+000 -1.782362e-001 -1.049120e+001 -4.689051e+000 -4.931066e+000 -5.023697e+000 -4.398242e+000 -3.657838e+000 -4.279047e+000 -3.714083e+000 -4.155087e+000 6.389904e+001 2.741772e-003 1.241120e-003 -6.209756e-003 4.298578e-003 7.557951e-003 3.095964e-003 3.756372e-003 -3.594267e-003 2.439156e-003 -8.744439e-004 -3.674221e-003 1.258214e-003 -7.262900e-003 -5.656487e-004 -7.678221e-005 -2.766306e-004 3.244562e-004 5.566333e-004 1.881190e-004 4.284666e-004 6.632835e-004 4.229574e-004 4.134084e-004 2.210704e-004 8.449065e-005 -6.114582e-004
<VARIANCE> 39
 3.922485e+001 7.137472e+001 7.791679e+001 1.080014e+002 8.309206e+001 7.227063e+001 7.878049e+001 8.378312e+001 6.930126e+001 6.153370e+001 6.648653e+001 5.160188e+001 1.325273e+002 1.536371e+000 2.752257e+000 2.595884e+000 4.060684e+000 3.522861e+000 3.206824e+000 3.514487e+000 4.037667e+000 3.324873e+000 3.247312e+000 3.254653e+000 2.736500e+000 3.420025e+000 2.522461e-001 3.978370e-001 4.020982e-001 6.312826e-001 6.000674e-001 5.601057e-001 6.100381e-001 7.057183e-001 5.961329e-001 5.863584e-001 5.791360e-001 4.935916e-001 4.325852e-001
<GCONST> 1.334582e+002
<STATE> 4
<MEAN> 39
 -4.465416e+000 -5.859118e+000 -2.357191e-001 -1.027885e+001 -4.597049e+000 -4.673549e+000 -5.042232e+000 -4.287542e+000 -3.651306e+000 -4.188931e+000 -3.739329e+000 -4.039389e+000 6.350910e+001 -1.217169e-004 1.393352e-003 -6.621005e-003 6.479688e-003 8.964037e-003 3.911122e-003 5.683347e-003 -4.790541e-004 4.675000e-003 1.558722e-003 -1.658585e-003 1.647436e-003 -1.049077e-002 -5.219007e-004 -1.955758e-006 -1.500255e-004 2.694049e-004 3.100052e-004 7.122631e-005 3.475449e-004 5.757008e-004 4.591130e-004 4.666140e-004 3.562004e-004 1.590901e-005 -5.165791e-004
<VARIANCE> 39
 3.908658e+001 7.146555e+001 7.711167e+001 1.078761e+002 8.212438e+001 7.114279e+001 7.894984e+001 8.316377e+001 6.998686e+001 6.029589e+001 6.626640e+001 5.140372e+001 1.375008e+002 1.492127e+000 2.693171e+000 2.526518e+000 3.948275e+000 3.438577e+000 3.129773e+000 3.449294e+000 3.962666e+000 3.268157e+000 3.180015e+000 3.201137e+000 2.692095e+000 3.314825e+000 2.444330e-001 3.868072e-001 3.899743e-001 6.126547e-001 5.853776e-001 5.465030e-001 5.974379e-001 6.921005e-001 5.854229e-001 5.748160e-001 5.695015e-001 4.846650e-001 4.164964e-001
<GCONST> 1.328157e+002
<TRANSP> 5
 0.000000e+000 1.000000e+000 0.000000e+000 0.000000e+000 0.000000e+000
 0.000000e+000 6.830884e-001 3.169115e-001 0.000000e+000 0.000000e+000
 0.000000e+000 0.000000e+000 6.830803e-001 3.169198e-001 0.000000e+000
 0.000000e+000 0.000000e+000 0.000000e+000 8.070000e-001 1.930000e-001
 0.000000e+000 0.000000e+000 0.000000e+000 0.000000e+000 0.000000e+000
<ENDHMM>
~h "O"
<BEGINHMM>
<NUMSTATES> 5
<STATE> 2
<MEAN> 39
 -4.267847e+000 -6.959850e+000 -1.525155e+000 -1.054115e+001 -3.588699e+000 -4.183480e+000 -4.486569e+000 -3.910278e+000 -3.500962e+000 -4.336314e+000 -3.326401e+000 -4.506012e+000 6.457757e+001 7.507972e-003 2.887219e-003 -7.547035e-003 -1.301457e-003 7.372788e-003 4.346520e-003 -1.047666e-003 -7.530336e-003 3.287802e-004 -3.256946e-003 -3.167715e-003 -4.407378e-003 -4.992969e-003 -1.977214e-004 1.028451e-003 8.445951e-004 1.076086e-004 -5.658328e-004 -3.536599e-004 1.788838e-004 2.058018e-004 1.660920e-004 3.674154e-004 6.785597e-005 3.004136e-004 -1.442017e-003
<VARIANCE> 39
 4.183081e+001 7.891926e+001 7.798353e+001 1.033398e+002 8.283108e+001 7.329533e+001 7.823659e+001 7.861590e+001 6.786109e+001 6.192931e+001 6.353993e+001 5.200329e+001 1.336413e+002 1.693280e+000 3.037887e+000 2.752473e+000 4.293165e+000 3.786302e+000 3.386544e+000 3.596918e+000 3.829055e+000 3.379550e+000 3.312770e+000 3.297451e+000 2.770662e+000 3.652240e+000 2.777823e-001 4.311105e-001 4.310701e-001 6.868877e-001 6.605827e-001 5.937127e-001 6.236194e-001 6.810173e-001 6.089987e-001 6.040305e-001 5.992774e-001 5.042518e-001 4.637456e-001
<GCONST> 1.346584e+002
<STATE> 3
<MEAN> 39
 -4.246764e+000 -6.944535e+000 -1.540796e+000 -1.054391e+001 -3.569998e+000 -4.169545e+000 -4.489385e+000 -3.931779e+000 -3.497717e+000 -4.341564e+000 -3.334950e+000 -4.517271e+000 6.455446e+001 6.713069e-003 6.041107e-003 -4.884620e-003 -6.014712e-004 5.689878e-003 3.414751e-003 -5.742500e-004 -6.677005e-003 1.005711e-003 -2.014723e-003 -2.947515e-003 -3.280422e-003 -9.392297e-003 -2.833194e-004 9.020002e-004 9.675946e-004 2.010885e-004 -6.401006e-004 -3.032354e-004 1.833737e-004 3.836979e-004 1.990166e-004 4.125527e-004 1.656365e-004 3.475397e-004 -1.300994e-003
<VARIANCE> 39
 4.170793e+001 7.897066e+001 7.791061e+001 1.035214e+002 8.275854e+001 7.329406e+001 7.826754e+001 7.861644e+001 6.777921e+001 6.204132e+001 6.343579e+001 5.195272e+001 1.338020e+002 1.689657e+000 3.034600e+000 2.750911e+000 4.297810e+000 3.787069e+000 3.387064e+000 3.596671e+000 3.824082e+000 3.375301e+000 3.311823e+000 3.295945e+000 2.770870e+000 3.644456e+000 2.772250e-001 4.307763e-001 4.307541e-001 6.874699e-001 6.614066e-001 5.938063e-001 6.238414e-001 6.799462e-001 6.083511e-001 6.037155e-001 5.990492e-001 5.041108e-001 4.627645e-001
<GCONST> 1.346410e+002
<STATE> 4
<MEAN> 39
 -4.389980e+000 -6.853769e+000 -1.527182e+000 -1.042512e+001 -3.520018e+000 -3.918421e+000 -4.549186e+000 -3.831498e+000 -3.507249e+000 -4.241714e+000 -3.352607e+000 -4.441808e+000 6.420442e+001 4.433054e-003 9.785177e-003 -2.063004e-004 1.302779e-003 2.770704e-003 2.801168e-003 -4.537421e-004 -4.749595e-003 2.095957e-003 2.969695e-004 -2.154194e-003 -1.263524e-003 -1.426716e-002 -4.031725e-004 6.805485e-004 9.750972e-004 3.687071e-004 -6.186938e-004 -1.845166e-004 5.457000e-005 4.719814e-004 1.799290e-004 4.035984e-004 2.731312e-004 3.914771e-004 -1.015522e-003
<VARIANCE> 39
 4.146056e+001 7.910560e+001 7.747215e+001 1.043469e+002 8.203876e+001 7.232895e+001 7.868140e+001 7.808532e+001 6.836269e+001 6.075626e+001 6.329270e+001 5.173018e+001 1.384003e+002 1.639301e+000 2.963735e+000 2.685728e+000 4.215766e+000 3.708223e+000 3.319078e+000 3.539225e+000 3.752589e+000 3.326037e+000 3.244139e+000 3.244212e+000 2.727660e+000 3.554600e+000 2.684121e-001 4.187201e-001 4.190276e-001 6.718001e-001 6.467658e-001 5.807974e-001 6.127524e-001 6.670620e-001 5.985963e-001 5.913079e-001 5.888641e-001 4.950252e-001 4.479278e-001
<GCONST> 1.340674e+002
<TRANSP> 5
 0.000000e+000 1.000000e+000 0.000000e+000 0.000000e+000 0.000000e+000
 0.000000e+000 6.853818e-001 3.146182e-001 0.000000e+000 0.000000e+000
 0.000000e+000 0.000000e+000 6.853815e-001 3.146185e-001 0.000000e+000
 0.000000e+000 0.000000e+000 0.000000e+000 8.097309e-001 1.902691e-001
 0.000000e+000 0.000000e+000 0.000000e+000 0.000000e+000 0.000000e+000
<ENDHMM>
~h "P"
<BEGINHMM>
<NUMSTATES> 5
<STATE> 2
<MEAN> 39
 -4.940171e+000 -6.077014e+000 -6.637217e-001 -9.360376e+000 -3.845814e+000 -4.367136e+000 -4.101962e+000 -3.159484e+000 -2.752908e+000 -3.384181e+000 -3.095479e+000 -3.858891e+000 6.286670e+001 5.266509e-004 1.001821e-002 -4.470253e-003 2.043522e-002 9.050649e-003 1.596219e-002 6.999378e-003 8.282662e-003 1.302208e-002 5.351592e-003 6.156553e-003 4.708354e-003 -3.133732e-002 -2.556917e-007 4.667129e-004 -4.175697e-004 2.173750e-004 1.211940e-004 2.551727e-004 -2.688890e-004 -5.675190e-004 2.188538e-004 -2.513479e-004 1.371471e-004 3.068415e-004 -4.211028e-004
<VARIANCE> 39
 3.940460e+001 6.894549e+001 7.416025e+001 1.040319e+002 8.403524e+001 6.839362e+001 7.562106e+001 7.272495e+001 6.578939e+001 5.747506e+001 6.233347e+001 4.975158e+001 1.392471e+002 1.847785e+000 3.070572e+000 2.711654e+000 4.505384e+000 3.737142e+000 3.420459e+000 3.727658e+000 3.825985e+000 3.457842e+000 3.304147e+000 3.334171e+000 2.829192e+000 4.475165e+000 3.152972e-001 4.724312e-001 4.420669e-001 7.153136e-001 6.452258e-001 6.089536e-001 6.509743e-001 6.878061e-001 6.215369e-001 6.073535e-001 6.096993e-001 5.187238e-001 5.590611e-001
<GCONST> 1.351408e+002
<STATE> 3
<MEAN> 39
 -4.940126e+000 -6.040844e+000 -6.752616e-001 -9.296096e+000 -3.820357e+000 -4.319960e+000 -4.081641e+000 -3.135954e+000 -2.710871e+000 -3.370603e+000 -3.075298e+000 -3.844660e+000 6.276824e+001 4.337560e-004 1.147805e-002 -5.266329e-003 2.110237e-002 9.164366e-003 1.616233e-002 6.230531e-003 6.477669e-003 1.365725e-002 4.896300e-003 6.800850e-003 5.755875e-003 -3.219278e-002 -1.587852e-004 3.123458e-004 -1.193037e-004 -1.768530e-004 -1.086015e-004 -3.268062e-004 -2.992299e-004 -9.202840e-004 -1.640878e-004 -4.092948e-004 6.112154e-005 1.628504e-004 2.298193e-004
<VARIANCE> 39
 3.925944e+001 6.882118e+001 7.403762e+001 1.037671e+002 8.346382e+001 6.815477e+001 7.581774e+001 7.248847e+001 6.590656e+001 5.728720e+001 6.206682e+001 4.959418e+001 1.397005e+002 1.833181e+000 3.050989e+000 2.705096e+000 4.478444e+000 3.714371e+000 3.406739e+000 3.714454e+000 3.808297e+000 3.448642e+000 3.292392e+000 3.317252e+000 2.820953e+000 4.444026e+000 3.127917e-001 4.695776e-001 4.410219e-001 7.103553e-001 6.411086e-001 6.058192e-001 6.487283e-001 6.841310e-001 6.197862e-001 6.048559e-001 6.065351e-001 5.171257e-001 5.544214e-001
<GCONST> 1.349849e+002
<STATE> 4
<MEAN> 39
 -5.151150e+000 -5.919302e+000 -6.727772e-001 -9.081882e+000 -3.738362e+000 -4.014086e+000 -4.124735e+000 -3.006806e+000 -2.669977e+000 -3.300362e+000 -3.076236e+000 -3.738256e+000 6.233144e+001 -1.431078e-004 1.346389e-002 -4.173528e-003 1.931191e-002 7.036268e-003 1.320742e-002 4.727861e-003 2.590014e-003 1.204877e-002 3.448356e-003 7.198913e-003 5.693827e-003 -2.969976e-002 -2.286220e-004 1.550225e-004 1.118208e-004 -6.990635e-004 -3.704303e-004 -7.566509e-004 -4.198712e-004 -1.268944e-003 -6.286563e-004 -3.428884e-004 -7.801499e-005 -2.341899e-004 7.436679e-004
<VARIANCE> 39
 3.906261e+001 6.857140e+001 7.374628e+001 1.032008e+002 8.188227e+001 6.670977e+001 7.680154e+001 7.175414e+001 6.690897e+001 5.614442e+001 6.197862e+001 4.907587e+001 1.436615e+002 1.763448e+000 2.950575e+000 2.628378e+000 4.322592e+000 3.597076e+000 3.299787e+000 3.654170e+000 3.719556e+000 3.395045e+000 3.217604e+000 3.246371e+000 2.758417e+000 4.263846e+000 2.996483e-001 4.513845e-001 4.268438e-001 6.828799e-001 6.199293e-001 5.857874e-001 6.374246e-001 6.676507e-001 6.092623e-001 5.919111e-001 5.926216e-001 5.045480e-001 5.278571e-001
<GCONST> 1.341760e+002
<TRANSP> 5
 0.000000e+000 1.000000e+000 0.000000e+000 0.000000e+000 0.000000e+000
 0.000000e+000 6.857121e-001 3.142879e-001 0.000000e+000 0.000000e+000
 0.000000e+000 0.000000e+000 6.857146e-001 3.142854e-001 0.000000e+000
 0.000000e+000 0.000000e+000 0.000000e+000 8.106165e-001 1.893835e-001
 0.000000e+000 0.000000e+000 0.000000e+000 0.000000e+000 0.000000e+000
<ENDHMM>
~h "R"
<BEGINHMM>
<NUMSTATES> 5
<STATE> 2
<MEAN> 39
 -4.238933e+000 -7.718373e+000 -7.160934e-001 -1.001888e+001 -4.702112e+000 -5.016174e+000 -5.013390e+000 -3.287292e+000 -3.556825e+000 -4.445002e+000 -3.650170e+000 -3.955992e+000 6.462823e+001 -9.322220e-005 -3.025265e-003 -4.560004e-003 8.566041e-003 8.037316e-003 7.652511e-004 7.831169e-003 1.319925e-003 2.908163e-003 -3.449620e-003 -6.186049e-003 -5.790826e-004 -4.903897e-003 -7.982890e-004 1.344454e-003 3.532466e-004 5.690838e-004 1.455429e-004 5.264968e-004 6.200745e-004 -3.632493e-004 3.652868e-004 9.353147e-004 7.681617e-004 -2.214395e-004 -1.468745e-003
<VARIANCE> 39
 4.115624e+001 7.898231e+001 7.576759e+001 1.091512e+002 8.363647e+001 7.391917e+001 8.378723e+001 8.212923e+001 6.896461e+001 6.079626e+001 6.416594e+001 4.863123e+001 1.329597e+002 1.602941e+000 2.878987e+000 2.514519e+000 4.248271e+000 3.733303e+000 3.449448e+000 3.616581e+000 3.913614e+000 3.277283e+000 3.196982e+000 3.221502e+000 2.657714e+000 3.250798e+000 2.704072e-001 4.180662e-001 3.821754e-001 6.498631e-001 6.435667e-001 5.938115e-001 6.179779e-001 6.848261e-001 5.824991e-001 5.765271e-001 5.775489e-001 4.809621e-001 4.084204e-001
<GCONST> 1.337438e+002
<STATE> 3
<MEAN> 39
 -4.242152e+000 -7.718780e+000 -7.281745e-001 -9.982085e+000 -4.672042e+000 -5.009068e+000 -4.982440e+000 -3.280558e+000 -3.542061e+000 -4.447616e+000 -3.663670e+000 -3.957604e+000 6.460133e+001 -1.819783e-003 1.351692e-003 -3.609841e-003 1.014670e-002 8.728149e-003 2.486762e-003 9.149256e-003 9.465071e-004 4.312728e-003 1.309381e-004 -3.314746e-003 -7.980997e-004 -9.645368e-003 -5.162046e-004 1.485189e-003 4.500915e-004 4.800934e-004 4.248622e-005 7.080858e-004 3.310775e-004 -2.360056e-004 5.335265e-004 1.196021e-003 1.001847e-003 -1.062072e-004 -1.486503e-003
<VARIANCE> 39
 4.116886e+001 7.912338e+001 7.566186e+001 1.090447e+002 8.347536e+001 7.392881e+001 8.382306e+001 8.181263e+001 6.890977e+001 6.067794e+001 6.409319e+001 4.860329e+001 1.333119e+002 1.605411e+000 2.878798e+000 2.509505e+000 4.243748e+000 3.739640e+000 3.440382e+000 3.616573e+000 3.910696e+000 3.272454e+000 3.188237e+000 3.219696e+000 2.652829e+000 3.244051e+000 2.712447e-001 4.183824e-001 3.813824e-001 6.491557e-001 6.444882e-001 5.925130e-001 6.182422e-001 6.844771e-001 5.820286e-001 5.745908e-001 5.771855e-001 4.802155e-001 4.072645e-001
<GCONST> 1.337151e+002
<STATE> 4
<MEAN> 39
 -4.441110e+000 -7.600789e+000 -7.218300e-001 -9.816698e+000 -4.587511e+000 -4.746391e+000 -4.992566e+000 -3.180808e+000 -3.562456e+000 -4.359126e+000 -3.674109e+000 -3.854457e+000 6.423474e+001 -3.362609e-003 8.477326e-003 -1.751175e-003 1.226494e-002 9.015119e-003 4.872379e-003 1.019569e-002 1.668890e-003 6.775977e-003 5.243895e-003 7.497462e-004 -5.301111e-005 -1.648775e-002 -3.094978e-004 1.439929e-003 5.565180e-004 1.033719e-004 -1.700637e-004 6.916589e-004 3.653990e-005 -4.458474e-005 4.033278e-004 1.123932e-003 8.358024e-004 4.038391e-005 -1.220596e-003
<VARIANCE> 39
 4.116966e+001 7.921565e+001 7.540797e+001 1.086644e+002 8.271612e+001 7.317513e+001 8.380160e+001 8.054542e+001 6.974100e+001 5.932412e+001 6.391776e+001 4.848086e+001 1.379491e+002 1.572532e+000 2.825896e+000 2.450923e+000 4.128557e+000 3.662256e+000 3.375432e+000 3.562778e+000 3.842497e+000 3.232001e+000 3.123210e+000 3.167322e+000 2.617797e+000 3.152872e+000 2.650643e-001 4.089146e-001 3.707883e-001 6.284502e-001 6.302757e-001 5.804045e-001 6.082457e-001 6.736799e-001 5.745106e-001 5.624516e-001 5.674006e-001 4.731828e-001 3.924683e-001
<GCONST> 1.331535e+002
<TRANSP> 5
 0.000000e+000 1.000000e+000 0.000000e+000 0.000000e+000 0.000000e+000
 0.000000e+000 6.921200e-001 3.078800e-001 0.000000e+000 0.000000e+000
 0.000000e+000 0.000000e+000 6.921174e-001 3.078826e-001 0.000000e+000
 0.000000e+000 0.000000e+000 0.000000e+000 8.173725e-001 1.826275e-001
 0.000000e+000 0.000000e+000 0.000000e+000 0.000000e+000 0.000000e+000
<ENDHMM>
~h "S"
<BEGINHMM>
<NUMSTATES> 5
<STATE> 2
<MEAN> 39
 -6.289299e+000 -5.164664e+000 -1.203981e+000 -9.690598e+000 -3.652848e+000 -5.205209e+000 -4.169576e+000 -3.262833e+000 -3.120810e+000 -4.025261e+000 -2.950315e+000 -3.561294e+000 6.441567e+001 -5.091697e-003 8.465203e-003 -1.289057e-002 -7.527181e-003 3.596788e-003 -5.002625e-004 6.726431e-005 1.714467e-003 2.254302e-003 -2.663811e-003 -8.376929e-004 -5.087322e-004 1.547169e-002 9.336780e-004 -1.221750e-003 -4.393395e-004 -1.333765e-003 -2.218430e-004 4.205158e-004 -9.944893e-004 -1.021688e-003 4.508174e-004 6.124289e-004 -1.964092e-004 -2.587181e-004 -2.398393e-004
<VARIANCE> 39
 6.496689e+001 8.396031e+001 7.484269e+001 1.065274e+002 8.062700e+001 7.039687e+001 7.862215e+001 7.667618e+001 6.546589e+001 5.723468e+001 6.332961e+001 4.890500e+001 1.285478e+002 3.257467e+000 3.615015e+000 2.589781e+000 4.521530e+000 3.760876e+000 3.525356e+000 3.709951e+000 3.784045e+000 3.372140e+000 3.283236e+000 3.389611e+000 2.796588e+000 3.128775e+000 4.780046e-001 4.921782e-001 4.076943e-001 6.877548e-001 6.432828e-001 6.180235e-001 6.324388e-001 6.631192e-001 6.003104e-001 5.955964e-001 6.041996e-001 5.056995e-001 4.015041e-001
<GCONST> 1.360470e+002
<STATE> 3
<MEAN> 39
 -6.296306e+000 -5.150012e+000 -1.245145e+000 -9.723290e+000 -3.643835e+000 -5.202308e+000 -4.174944e+000 -3.263296e+000 -3.113652e+000 -4.035176e+000 -2.956151e+000 -3.567934e+000 6.446621e+001 -1.094040e-003 4.488302e-003 -1.343557e-002 -1.161238e-002 2.208309e-003 9.175981e-004 -2.740505e-003 -1.048892e-003 2.451734e-003 -2.021014e-003 -1.862797e-003 -1.895822e-003 1.454313e-002 1.373011e-003 -1.319713e-003 -8.397484e-005 -1.310042e-003 -5.207478e-004 4.884803e-004 -9.110747e-004 -8.463408e-004 -1.104035e-004 2.463166e-004 -4.294760e-004 -4.999990e-004 -3.838986e-004
<VARIANCE> 39
 6.551063e+001 8.425403e+001 7.517247e+001 1.067301e+002 8.065015e+001 7.048727e+001 7.875340e+001 7.648546e+001 6.546122e+001 5.743040e+001 6.325319e+001 4.895816e+001 1.282235e+002 3.285492e+000 3.637733e+000 2.588825e+000 4.531296e+000 3.761351e+000 3.533001e+000 3.711540e+000 3.776934e+000 3.368983e+000 3.285196e+000 3.388432e+000 2.798869e+000 3.127088e+000 4.824129e-001 4.944653e-001 4.075897e-001 6.887407e-001 6.431334e-001 6.196370e-001 6.325881e-001 6.616040e-001 5.996123e-001 5.957642e-001 6.038826e-001 5.058429e-001 4.006359e-001
<GCONST> 1.360957e+002
<STATE> 4
<MEAN> 39
 -6.371783e+000 -5.181764e+000 -1.309133e+000 -9.681306e+000 -3.636722e+000 -4.975867e+000 -4.271503e+000 -3.200408e+000 -3.152750e+000 -3.975883e+000 -3.014814e+000 -3.523098e+000 6.419763e+001 7.051896e-003 -1.553138e-003 -1.183452e-002 -1.617520e-002 -9.518123e-004 3.002677e-003 -5.433212e-003 -4.186341e-003 6.104602e-004 -3.076080e-003 -3.886077e-003 -4.170423e-003 1.178416e-002 1.611306e-003 -1.058393e-003 3.594037e-004 -9.491523e-004 -6.413184e-004 4.054562e-004 -6.212788e-004 -6.016506e-004 -3.938474e-004 8.349348e-005 -4.561484e-004 -3.663540e-004 -6.993811e-004
<VARIANCE> 39
 6.474496e+001 8.403441e+001 7.554741e+001 1.071041e+002 7.997457e+001 6.963566e+001 7.896114e+001 7.613071e+001 6.617488e+001 5.689574e+001 6.322874e+001 4.894275e+001 1.322844e+002 3.185240e+000 3.553927e+000 2.540770e+000 4.414607e+000 3.681192e+000 3.459656e+000 3.650273e+000 3.709159e+000 3.323990e+000 3.228499e+000 3.333261e+000 2.763556e+000 3.062315e+000 4.670449e-001 4.807655e-001 3.981298e-001 6.700063e-001 6.282839e-001 6.065428e-001 6.213478e-001 6.491613e-001 5.907867e-001 5.851143e-001 5.937883e-001 4.982299e-001 3.890772e-001
<GCONST> 1.355545e+002
<TRANSP> 5
 0.000000e+000 1.000000e+000 0.000000e+000 0.000000e+000 0.000000e+000
 0.000000e+000 6.842955e-001 3.157045e-001 0.000000e+000 0.000000e+000
 0.000000e+000 0.000000e+000 6.842984e-001 3.157017e-001 0.000000e+000
 0.000000e+000 0.000000e+000 0.000000e+000 8.082259e-001 1.917741e-001
 0.000000e+000 0.000000e+000 0.000000e+000 0.000000e+000 0.000000e+000
<ENDHMM>
~h "T"
<BEGINHMM>
<NUMSTATES> 5
<STATE> 2
<MEAN> 39
 -4.894395e+000 -6.046939e+000 -8.658106e-001 -1.009426e+001 -3.850790e+000 -4.668553e+000 -4.514512e+000 -3.526086e+000 -2.900888e+000 -3.759447e+000 -3.040739e+000 -3.710665e+000 6.301702e+001 5.243293e-003 2.910703e-003 -2.716745e-003 -1.275112e-003 1.906797e-003 1.939405e-003 -3.176879e-003 -2.016301e-003 1.156111e-003 7.595778e-004 -3.496713e-003 -7.875629e-004 -4.119374e-004 -1.918896e-004 1.344468e-005 7.910886e-005 -8.533995e-005 -1.556774e-004 2.549126e-004 7.378470e-005 -3.677424e-004 2.172788e-005 2.713016e-004 2.621839e-004 -2.064300e-004 -1.118962e-004
<VARIANCE> 39
 3.856483e+001 6.811501e+001 7.305066e+001 1.079187e+002 7.985327e+001 7.018402e+001 7.790307e+001 7.713747e+001 6.811049e+001 5.772919e+001 6.286936e+001 4.950077e+001 1.392343e+002 1.625359e+000 2.787627e+000 2.615593e+000 4.479132e+000 3.567221e+000 3.355824e+000 3.730050e+000 3.894777e+000 3.451135e+000 3.230494e+000 3.332624e+000 2.769031e+000 4.367221e+000 2.722747e-001 4.208966e-001 4.145021e-001 6.977850e-001 6.179449e-001 5.958249e-001 6.497220e-001 6.922350e-001 6.173935e-001 5.902917e-001 6.023565e-001 5.088949e-001 5.662181e-001
<GCONST> 1.343842e+002
<STATE> 3
<MEAN> 39
 -4.878479e+000 -6.040116e+000 -8.734598e-001 -1.009740e+001 -3.844448e+000 -4.661407e+000 -4.525793e+000 -3.534504e+000 -2.899402e+000 -3.757475e+000 -3.052069e+000 -3.715492e+000 6.301817e+001 4.739085e-003 3.109187e-003 -2.307835e-003 -1.338071e-003 1.588181e-003 2.551215e-003 -2.995014e-003 -3.016515e-003 1.083577e-003 1.282222e-003 -3.074213e-003 -1.480690e-003 -4.775210e-004 -1.825779e-004 5.312652e-005 1.473586e-004 -2.285543e-005 -1.693795e-004 1.939461e-004 4.486197e-005 -2.857777e-004 -5.644172e-005 1.073438e-004 1.013342e-004 -2.675611e-004 -3.087754e-007
<VARIANCE> 39
 3.842373e+001 6.817347e+001 7.301747e+001 1.079934e+002 7.978464e+001 7.027453e+001 7.796432e+001 7.703781e+001 6.815556e+001 5.778263e+001 6.281070e+001 4.948630e+001 1.393489e+002 1.622499e+000 2.782942e+000 2.613062e+000 4.481472e+000 3.563240e+000 3.358026e+000 3.727153e+000 3.892540e+000 3.450641e+000 3.230757e+000 3.331592e+000 2.771877e+000 4.380959e+000 2.716343e-001 4.201075e-001 4.138128e-001 6.977228e-001 6.170854e-001 5.958694e-001 6.489765e-001 6.916101e-001 6.169792e-001 5.901121e-001 6.019339e-001 5.094221e-001 5.680840e-001
<GCONST> 1.343741e+002
<STATE> 4
<MEAN> 39
 -4.997889e+000 -6.008365e+000 -9.005122e-001 -9.969212e+000 -3.812539e+000 -4.437890e+000 -4.608873e+000 -3.451326e+000 -2.939656e+000 -3.698671e+000 -3.096199e+000 -3.656471e+000 6.273409e+001 4.205945e-003 3.118320e-003 -1.027442e-003 -6.690535e-004 9.452883e-004 2.799043e-003 -2.554483e-003 -3.826382e-003 3.645339e-004 1.333429e-003 -2.894216e-003 -2.716916e-003 6.270439e-004 -1.184936e-004 1.959753e-004 2.683410e-004 7.694762e-005 -2.531995e-004 7.565095e-005 1.657853e-004 -1.275493e-004 -8.839807e-005 6.740874e-006 9.796321e-005 -2.359725e-004 -9.176275e-006
<VARIANCE> 39
 3.807312e+001 6.852368e+001 7.285378e+001 1.083245e+002 7.900518e+001 6.956939e+001 7.825666e+001 7.651427e+001 6.870412e+001 5.689874e+001 6.260001e+001 4.921584e+001 1.431056e+002 1.577302e+000 2.729160e+000 2.553635e+000 4.379503e+000 3.482627e+000 3.296099e+000 3.671122e+000 3.820850e+000 3.407567e+000 3.177691e+000 3.280111e+000 2.732206e+000 4.290896e+000 2.630650e-001 4.092571e-001 4.026854e-001 6.797318e-001 6.019546e-001 5.837158e-001 6.378328e-001 6.789122e-001 6.081187e-001 5.802379e-001 5.921502e-001 5.007011e-001 5.526917e-001
<GCONST> 1.338240e+002
<TRANSP> 5
 0.000000e+000 1.000000e+000 0.000000e+000 0.000000e+000 0.000000e+000
 0.000000e+000 6.838129e-001 3.161871e-001 0.000000e+000 0.000000e+000
 0.000000e+000 0.000000e+000 6.838067e-001 3.161934e-001 0.000000e+000
 0.000000e+000 0.000000e+000 0.000000e+000 8.074206e-001 1.925794e-001
 0.000000e+000 0.000000e+000 0.000000e+000 0.000000e+000 0.000000e+000
<ENDHMM>
~h "U"
<BEGINHMM>
<NUMSTATES> 5
<STATE> 2
<MEAN> 39
 -4.310394e+000 -5.155848e+000 -6.663381e-001 -1.099554e+001 -4.674459e+000 -4.645606e+000 -5.300700e+000 -4.138075e+000 -3.507813e+000 -3.736576e+000 -3.031575e+000 -3.965859e+000 6.366142e+001 5.577320e-003 8.335468e-003 -4.745642e-004 -6.120708e-003 -1.425107e-003 5.618770e-003 -6.680203e-003 -5.186761e-003 -1.592724e-003 2.132951e-003 -4.257483e-003 7.286586e-004 -5.127226e-004 -4.269927e-004 -1.577546e-004 3.034292e-004 7.814122e-004 2.967960e-004 1.978566e-004 2.188852e-004 -1.544798e-004 1.163830e-004 2.459817e-004 1.352508e-004 2.865353e-004 -2.931237e-004
<VARIANCE> 39
 4.388276e+001 7.147936e+001 8.325349e+001 1.181383e+002 8.610712e+001 7.341014e+001 8.038856e+001 7.780138e+001 6.867123e+001 5.940931e+001 6.438788e+001 4.997168e+001 1.311502e+002 1.768742e+000 2.743826e+000 2.778269e+000 4.529325e+000 3.837322e+000 3.477752e+000 3.737071e+000 3.923029e+000 3.475067e+000 3.319805e+000 3.355647e+000 2.780226e+000 3.434516e+000 2.803122e-001 4.002825e-001 4.302827e-001 6.901729e-001 6.562948e-001 6.107110e-001 6.516426e-001 7.018874e-001 6.272105e-001 6.063973e-001 6.038726e-001 5.072752e-001 4.370902e-001
<GCONST> 1.349065e+002
<STATE> 3
<MEAN> 39
 -4.296854e+000 -5.130471e+000 -6.641783e-001 -1.100688e+001 -4.677274e+000 -4.626067e+000 -5.315174e+000 -4.153134e+000 -3.510634e+000 -3.728410e+000 -3.042622e+000 -3.961952e+000 6.365277e+001 4.346502e-003 7.734515e-003 1.527170e-004 -3.874858e-003 -5.181101e-004 5.896158e-003 -5.679801e-003 -5.544203e-003 -1.054560e-003 2.810357e-003 -4.023456e-003 1.473563e-003 -1.606696e-003 -3.674066e-004 -1.320388e-004 2.078972e-004 7.131862e-004 3.017345e-004 1.159574e-005 2.049754e-004 -9.656046e-005 2.405453e-004 1.957407e-004 6.075532e-005 3.221040e-004 -3.357336e-004
<VARIANCE> 39
 4.374855e+001 7.137071e+001 8.334617e+001 1.183828e+002 8.617007e+001 7.353573e+001 8.041089e+001 7.791982e+001 6.880536e+001 5.946840e+001 6.445431e+001 5.000294e+001 1.312711e+002 1.763291e+000 2.733435e+000 2.782701e+000 4.528346e+000 3.836510e+000 3.474921e+000 3.736868e+000 3.925605e+000 3.479223e+000 3.319921e+000 3.362848e+000 2.779161e+000 3.435452e+000 2.794003e-001 3.993543e-001 4.310625e-001 6.896520e-001 6.562353e-001 6.102253e-001 6.517932e-001 7.022066e-001 6.279404e-001 6.067733e-001 6.049417e-001 5.069345e-001 4.371640e-001
<GCONST> 1.349105e+002
<STATE> 4
<MEAN> 39
 -4.420394e+000 -5.058915e+000 -6.926085e-001 -1.086604e+001 -4.655707e+000 -4.370246e+000 -5.382726e+000 -4.075865e+000 -3.537285e+000 -3.664583e+000 -3.090177e+000 -3.875925e+000 6.333916e+001 2.321500e-003 6.290693e-003 9.140832e-004 2.643615e-004 1.138318e-003 5.699242e-003 -2.704204e-003 -4.974077e-003 7.458764e-004 3.168613e-003 -3.726836e-003 2.098858e-003 -4.990034e-003 -3.168938e-004 -2.138012e-004 1.210046e-004 6.730905e-004 2.988037e-004 -1.809497e-004 3.225371e-004 3.728416e-005 3.779963e-004 -3.934533e-005 -1.204936e-004 1.370411e-004 -4.513863e-004
<VARIANCE> 39
 4.347293e+001 7.112994e+001 8.304113e+001 1.190796e+002 8.561578e+001 7.264667e+001 8.086343e+001 7.758965e+001 6.963855e+001 5.862640e+001 6.463422e+001 4.999531e+001 1.352084e+002 1.707052e+000 2.668805e+000 2.726025e+000 4.430685e+000 3.754764e+000 3.400720e+000 3.679484e+000 3.854658e+000 3.435139e+000 3.268763e+000 3.324267e+000 2.742370e+000 3.351344e+000 2.697421e-001 3.884408e-001 4.210035e-001 6.724945e-001 6.417785e-001 5.965291e-001 6.403787e-001 6.890182e-001 6.190452e-001 5.976862e-001 5.974734e-001 4.990363e-001 4.236913e-001
<GCONST> 1.343802e+002
<TRANSP> 5
 0.000000e+000 1.000000e+000 0.000000e+000 0.000000e+000 0.000000e+000
 0.000000e+000 6.818589e-001 3.181411e-001 0.000000e+000 0.000000e+000
 0.000000e+000 0.000000e+000 6.818528e-001 3.181473e-001 0.000000e+000
 0.000000e+000 0.000000e+000 0.000000e+000 8.050624e-001 1.949376e-001
 0.000000e+000 0.000000e+000 0.000000e+000 0.000000e+000 0.000000e+000
<ENDHMM>
~h "V"
<BEGINHMM>
<NUMSTATES> 5
<STATE> 2
<MEAN> 39
 -4.161753e+000 -6.082371e+000 -9.269249e-001 -1.057426e+001 -4.420986e+000 -4.776064e+000 -4.977391e+000 -4.124190e+000 -3.551940e+000 -3.811919e+000 -3.437595e+000 -4.221350e+000 6.410304e+001 1.118960e-002 -2.559213e-003 5.134344e-004 -7.010576e-003 -5.008303e-003 -2.363675e-003 2.743724e-004 -4.475297e-003 -5.497192e-003 -1.984193e-003 -8.202335e-003 -4.268419e-003 1.640375e-002 -3.137419e-004 2.245741e-004 4.745687e-004 1.906612e-004 -6.057044e-004 2.762132e-004 -2.612467e-004 -4.377417e-004 1.006555e-004 1.329753e-004 6.692934e-004 3.391912e-004 -2.473872e-004
<VARIANCE> 39
 4.059600e+001 7.013734e+001 7.792820e+001 1.091068e+002 8.102383e+001 7.053919e+001 7.553255e+001 7.974971e+001 6.729400e+001 5.961411e+001 6.525877e+001 4.986656e+001 1.304652e+002 1.569495e+000 2.757311e+000 2.573035e+000 4.392577e+000 3.484483e+000 3.138638e+000 3.492454e+000 3.845437e+000 3.313830e+000 3.265949e+000 3.254032e+000 2.692876e+000 3.481282e+000 2.631633e-001 3.962566e-001 3.961408e-001 6.860676e-001 5.897593e-001 5.499078e-001 6.086950e-001 6.759884e-001 5.995421e-001 5.959360e-001 5.891817e-001 4.885187e-001 4.342060e-001
<GCONST> 1.332824e+002
<STATE> 3
<MEAN> 39
 -4.129038e+000 -6.091545e+000 -9.212041e-001 -1.059539e+001 -4.437813e+000 -4.781248e+000 -4.978614e+000 -4.139447e+000 -3.570519e+000 -3.817372e+000 -3.459404e+000 -4.234953e+000 6.415724e+001 1.006029e-002 -1.765669e-003 1.679053e-003 -6.495592e-003 -6.437343e-003 -1.610180e-003 -4.795042e-004 -5.421666e-003 -5.035006e-003 -1.949139e-003 -6.771887e-003 -3.760940e-003 1.568389e-002 -3.708648e-004 3.254697e-004 3.944819e-004 1.877382e-004 -5.354187e-004 2.051495e-004 -2.952200e-004 -3.003613e-004 1.921738e-004 8.510558e-006 4.563662e-004 1.031927e-004 -2.461171e-004
<VARIANCE> 39
 4.039274e+001 7.041055e+001 7.829091e+001 1.093490e+002 8.110375e+001 7.060419e+001 7.557282e+001 7.980169e+001 6.731886e+001 5.967250e+001 6.524892e+001 4.986627e+001 1.301563e+002 1.567180e+000 2.762156e+000 2.575796e+000 4.399257e+000 3.489320e+000 3.136327e+000 3.492621e+000 3.846913e+000 3.318198e+000 3.269208e+000 3.256838e+000 2.691840e+000 3.484892e+000 2.627416e-001 3.969239e-001 3.962051e-001 6.868178e-001 5.903581e-001 5.492821e-001 6.084092e-001 6.761252e-001 5.999728e-001 5.964797e-001 5.894249e-001 4.884327e-001 4.341328e-001
<GCONST> 1.333005e+002
<STATE> 4
<MEAN> 39
 -4.258211e+000 -6.078274e+000 -9.449863e-001 -1.047001e+001 -4.440778e+000 -4.588103e+000 -5.041587e+000 -4.074070e+000 -3.622525e+000 -3.751538e+000 -3.518174e+000 -4.164721e+000 6.393774e+001 8.098094e-003 -1.625526e-003 2.582376e-003 -5.863325e-003 -6.028015e-003 -1.251785e-003 -2.104169e-003 -5.505504e-003 -4.825305e-003 -2.663346e-003 -5.681119e-003 -4.130921e-003 1.565410e-002 -3.525029e-004 2.060036e-004 1.727306e-004 1.676775e-004 -7.866191e-005 2.718849e-005 -3.493855e-004 -4.663036e-005 1.833711e-004 -2.112045e-004 2.056159e-004 -1.024256e-004 -1.448770e-004
<VARIANCE> 39
 4.005597e+001 7.076668e+001 7.863902e+001 1.097946e+002 8.074258e+001 6.984408e+001 7.583568e+001 7.920968e+001 6.800522e+001 5.856459e+001 6.534553e+001 4.970730e+001 1.342005e+002 1.529454e+000 2.722472e+000 2.526046e+000 4.315734e+000 3.435018e+000 3.078095e+000 3.455529e+000 3.787601e+000 3.290135e+000 3.217102e+000 3.221874e+000 2.659586e+000 3.412276e+000 2.556568e-001 3.892466e-001 3.868800e-001 6.716859e-001 5.798011e-001 5.377121e-001 6.003561e-001 6.656095e-001 5.930036e-001 5.872186e-001 5.821533e-001 4.817359e-001 4.211538e-001
<GCONST> 1.328548e+002
<TRANSP> 5
 0.000000e+000 1.000000e+000 0.000000e+000 0.000000e+000 0.000000e+000
 0.000000e+000 6.834396e-001 3.165604e-001 0.000000e+000 0.000000e+000
 0.000000e+000 0.000000e+000 6.834403e-001 3.165597e-001 0.000000e+000
 0.000000e+000 0.000000e+000 0.000000e+000 8.068093e-001 1.931906e-001
 0.000000e+000 0.000000e+000 0.000000e+000 0.000000e+000 0.000000e+000
<ENDHMM>
~h "X"
<BEGINHMM>
<NUMSTATES> 5
<STATE> 2
<MEAN> 39
 -6.253112e+000 -5.275286e+000 -7.842417e-001 -9.902132e+000 -4.163479e+000 -5.284173e+000 -4.484627e+000 -3.046980e+000 -3.698704e+000 -3.783951e+000 -2.965646e+000 -3.543569e+000 6.483893e+001 -7.313684e-003 8.950122e-003 -5.885748e-003 4.670318e-003 5.010542e-003 -1.503623e-003 4.982060e-003 6.152023e-003 6.289814e-004 -1.378941e-003 3.371086e-003 5.327332e-003 -2.960867e-003 1.481635e-004 -5.078580e-004 -8.916365e-005 -2.821556e-004 9.226425e-004 1.016288e-004 -6.050433e-005 1.142232e-004 1.844513e-005 3.531009e-005 -8.844605e-005 -4.428884e-005 -8.197468e-004
<VARIANCE> 39
 6.056649e+001 8.613068e+001 7.575179e+001 1.120152e+002 8.413775e+001 7.182487e+001 8.170413e+001 7.823289e+001 6.590211e+001 5.694132e+001 6.126612e+001 4.831862e+001 1.225416e+002 3.076026e+000 3.562518e+000 2.570610e+000 4.680494e+000 3.743897e+000 3.546637e+000 3.897965e+000 3.897623e+000 3.314369e+000 3.220255e+000 3.341438e+000 2.753236e+000 3.146652e+000 4.553896e-001 4.885386e-001 4.052698e-001 6.964772e-001 6.270631e-001 6.180741e-001 6.582261e-001 6.794621e-001 5.877993e-001 5.823317e-001 5.947331e-001 5.006483e-001 3.998245e-001
<GCONST> 1.359852e+002
<STATE> 3
<MEAN> 39
 -6.268214e+000 -5.252700e+000 -8.017923e-001 -9.890975e+000 -4.148438e+000 -5.286722e+000 -4.474032e+000 -3.032254e+000 -3.697091e+000 -3.789788e+000 -2.955970e+000 -3.530957e+000 6.482710e+001 -5.845669e-003 7.248708e-003 -6.278629e-003 3.789312e-003 6.494140e-003 -9.951446e-004 4.353718e-003 4.932927e-003 1.343295e-003 -1.475619e-003 2.555406e-003 4.037460e-003 -6.111452e-003 5.636557e-004 -6.982262e-004 -3.702886e-004 -4.131855e-004 5.968950e-004 2.625954e-004 -2.278818e-004 -4.431905e-004 2.261053e-004 -1.079161e-005 -3.661203e-004 -5.442075e-004 -9.546170e-004
<VARIANCE> 39
 6.068892e+001 8.624103e+001 7.537498e+001 1.119479e+002 8.421691e+001 7.194223e+001 8.182375e+001 7.819695e+001 6.576898e+001 5.690538e+001 6.131857e+001 4.849299e+001 1.225898e+002 3.074931e+000 3.559010e+000 2.563211e+000 4.672593e+000 3.739456e+000 3.546600e+000 3.898474e+000 3.890550e+000 3.314181e+000 3.212788e+000 3.325851e+000 2.753733e+000 3.137541e+000 4.551199e-001 4.872997e-001 4.035795e-001 6.945029e-001 6.258788e-001 6.175618e-001 6.587511e-001 6.781104e-001 5.875730e-001 5.805996e-001 5.916936e-001 5.008336e-001 3.969620e-001
<GCONST> 1.359408e+002
<STATE> 4
<MEAN> 39
 -6.395486e+000 -5.250949e+000 -8.508604e-001 -9.750381e+000 -4.076143e+000 -5.066848e+000 -4.538196e+000 -2.935949e+000 -3.695732e+000 -3.747432e+000 -2.959381e+000 -3.429722e+000 6.445025e+001 -1.622131e-005 4.669205e-003 -5.625819e-003 2.266754e-003 4.523252e-003 6.293264e-004 2.578931e-003 1.340393e-005 2.622184e-003 -2.354379e-003 1.606206e-004 1.229116e-003 -1.133069e-002 1.071047e-003 -6.289097e-004 -2.698623e-004 -3.158313e-004 1.740677e-005 4.112579e-004 -3.392826e-004 -8.113879e-004 2.698943e-004 -1.548439e-004 -5.899864e-004 -5.487356e-004 -1.246544e-003
<VARIANCE> 39
 5.963839e+001 8.554160e+001 7.518556e+001 1.121514e+002 8.389106e+001 7.121516e+001 8.219736e+001 7.759620e+001 6.643229e+001 5.574808e+001 6.116291e+001 4.883358e+001 1.277089e+002 2.948205e+000 3.444649e+000 2.512147e+000 4.529234e+000 3.646034e+000 3.465162e+000 3.829716e+000 3.809944e+000 3.266176e+000 3.145681e+000 3.258869e+000 2.713655e+000 3.049949e+000 4.355723e-001 4.699770e-001 3.933629e-001 6.714950e-001 6.086392e-001 6.028258e-001 6.470352e-001 6.635209e-001 5.781033e-001 5.685889e-001 5.799757e-001 4.923621e-001 3.814591e-001
<GCONST> 1.352746e+002
<TRANSP> 5
 0.000000e+000 1.000000e+000 0.000000e+000 0.000000e+000 0.000000e+000
 0.000000e+000 6.889042e-001 3.110958e-001 0.000000e+000 0.000000e+000
 0.000000e+000 0.000000e+000 6.889071e-001 3.110929e-001 0.000000e+000
 0.000000e+000 0.000000e+000 0.000000e+000 8.134333e-001 1.865668e-001
 0.000000e+000 0.000000e+000 0.000000e+000 0.000000e+000 0.000000e+000
<ENDHMM>
~h "Y"
<BEGINHMM>
<NUMSTATES> 5
<STATE> 2
<MEAN> 39
 -5.377780e+000 -6.078619e+000 1.016942e+000 -1.047525e+001 -5.587512e+000 -5.299354e+000 -4.040209e+000 -4.060641e+000 -3.639415e+000 -3.791498e+000 -3.265826e+000 -3.907534e+000 6.387458e+001 4.546682e-004 5.257464e-003 8.290810e-003 -6.892559e-003 -1.093633e-002 -1.577935e-003 1.995430e-003 -6.778936e-003 -2.295476e-003 5.085975e-003 -2.187392e-003 -1.909918e-003 2.659523e-003 4.425014e-004 4.120071e-004 -8.392603e-004 6.000193e-004 9.320453e-004 6.533429e-004 -4.204040e-005 5.961631e-004 3.882896e-004 -7.135872e-005 2.718912e-004 5.693988e-006 -8.549621e-004
<VARIANCE> 39
 3.690208e+001 7.186396e+001 7.977390e+001 1.090768e+002 8.552895e+001 6.793665e+001 7.483406e+001 8.009498e+001 6.931553e+001 5.798767e+001 6.396904e+001 4.753176e+001 1.426369e+002 1.475425e+000 2.777742e+000 2.593641e+000 3.985825e+000 3.569617e+000 3.130807e+000 3.578447e+000 3.797026e+000 3.304171e+000 3.172304e+000 3.117373e+000 2.602139e+000 3.397114e+000 2.435796e-001 3.973298e-001 3.897029e-001 6.201952e-001 5.896914e-001 5.455232e-001 6.182414e-001 6.679298e-001 5.910868e-001 5.729554e-001 5.554213e-001 4.734345e-001 4.247340e-001
<GCONST> 1.326628e+002
<STATE> 3
<MEAN> 39
 -5.373358e+000 -6.061373e+000 1.033991e+000 -1.049114e+001 -5.614448e+000 -5.302345e+000 -4.037412e+000 -4.077422e+000 -3.644017e+000 -3.777660e+000 -3.269884e+000 -3.913291e+000 6.387551e+001 1.637779e-003 6.669214e-003 5.360352e-003 -5.133379e-003 -7.898485e-003 3.929176e-004 1.964363e-003 -5.106754e-003 -5.727755e-004 5.029797e-003 -1.308214e-003 -1.820046e-003 -3.943559e-004 4.090348e-004 3.723959e-004 -1.105720e-003 5.978158e-004 1.070147e-003 5.768209e-004 7.550409e-006 6.905934e-004 5.778885e-004 -5.019034e-005 1.565159e-004 -5.954282e-005 -9.087857e-004
<VARIANCE> 39
 3.684130e+001 7.183499e+001 7.983170e+001 1.093423e+002 8.566698e+001 6.798546e+001 7.480377e+001 8.024014e+001 6.942038e+001 5.795115e+001 6.388492e+001 4.759247e+001 1.429002e+002 1.475085e+000 2.772349e+000 2.595572e+000 3.991391e+000 3.570006e+000 3.130646e+000 3.578860e+000 3.794828e+000 3.301294e+000 3.168691e+000 3.120383e+000 2.601412e+000 3.398048e+000 2.435379e-001 3.970168e-001 3.899150e-001 6.209138e-001 5.897087e-001 5.453126e-001 6.184739e-001 6.678278e-001 5.905603e-001 5.724431e-001 5.559785e-001 4.732355e-001 4.251760e-001
<GCONST> 1.326693e+002
<STATE> 4
<MEAN> 39
 -5.512618e+000 -5.966068e+000 9.952919e-001 -1.033372e+001 -5.567019e+000 -5.061160e+000 -4.119910e+000 -3.975418e+000 -3.656085e+000 -3.678487e+000 -3.281719e+000 -3.836563e+000 6.352411e+001 2.748170e-003 7.798765e-003 -6.049292e-004 -1.558939e-003 -2.464906e-003 2.803141e-003 1.357670e-003 -2.442559e-003 2.972119e-003 4.657574e-003 -3.311240e-005 -1.478344e-003 -5.761356e-003 2.563379e-004 2.448515e-004 -1.134664e-003 5.191247e-004 1.179251e-003 4.915326e-004 -4.691525e-005 6.466341e-004 7.000658e-004 1.007554e-005 -5.488782e-006 -1.235762e-005 -8.596525e-004
<VARIANCE> 39
 3.657060e+001 7.184528e+001 8.028448e+001 1.095927e+002 8.508862e+001 6.716176e+001 7.493658e+001 7.955688e+001 7.013570e+001 5.675246e+001 6.360176e+001 4.761129e+001 1.473650e+002 1.434264e+000 2.707928e+000 2.546076e+000 3.905240e+000 3.486184e+000 3.062237e+000 3.522140e+000 3.723068e+000 3.259719e+000 3.112859e+000 3.082601e+000 2.569833e+000 3.311284e+000 2.361310e-001 3.861247e-001 3.807259e-001 6.064789e-001 5.752465e-001 5.328525e-001 6.074762e-001 6.552411e-001 5.821937e-001 5.621587e-001 5.494055e-001 4.664182e-001 4.123530e-001
<GCONST> 1.321256e+002
<TRANSP> 5
 0.000000e+000 1.000000e+000 0.000000e+000 0.000000e+000 0.000000e+000
 0.000000e+000 6.827903e-001 3.172097e-001 0.000000e+000 0.000000e+000
 0.000000e+000 0.000000e+000 6.827910e-001 3.172090e-001 0.000000e+000
 0.000000e+000 0.000000e+000 0.000000e+000 8.070885e-001 1.929115e-001
 0.000000e+000 0.000000e+000 0.000000e+000 0.000000e+000 0.000000e+000
<ENDHMM>
~h "AA"
<BEGINHMM>
<NUMSTATES> 5
<STATE> 2
<MEAN> 39
 -4.637970e+000 -5.942299e+000 -4.746830e-001 -1.050399e+001 -4.391858e+000 -4.966694e+000 -4.937670e+000 -3.946521e+000 -3.650995e+000 -4.253969e+000 -3.706613e+000 -4.173330e+000 6.379288e+001 1.966459e-003 2.555661e-003 -2.260217e-003 -1.518463e-003 -8.093839e-004 -4.928371e-003 2.904141e-003 -1.026985e-003 -8.965721e-005 -2.879207e-003 -7.958401e-004 -5.650341e-004 4.218382e-003 2.154847e-005 -2.336177e-004 1.248263e-004 1.806137e-004 -8.767933e-006 5.839752e-004 2.898922e-004 -1.321611e-004 -5.211724e-005 -1.689782e-004 2.887914e-004 1.884996e-004 1.115650e-004
<VARIANCE> 39
 3.908332e+001 7.166324e+001 7.640024e+001 1.096847e+002 8.208964e+001 7.187160e+001 7.797374e+001 8.076982e+001 6.975112e+001 6.002237e+001 6.533553e+001 5.050473e+001 1.364590e+002 1.569829e+000 2.922260e+000 2.633360e+000 4.091774e+000 3.636968e+000 3.187609e+000 3.558054e+000 3.991200e+000 3.334532e+000 3.252203e+000 3.173628e+000 2.716525e+000 3.473690e+000 2.559847e-001 4.185623e-001 4.043943e-001 6.433001e-001 6.314101e-001 5.606928e-001 6.181350e-001 6.931520e-001 5.966157e-001 5.943317e-001 5.704435e-001 4.940926e-001 4.449523e-001
<GCONST> 1.336449e+002
<STATE> 3
<MEAN> 39
 -4.629728e+000 -5.934888e+000 -4.783846e-001 -1.050847e+001 -4.398294e+000 -4.980288e+000 -4.930189e+000 -3.950624e+000 -3.651413e+000 -4.260557e+000 -3.709032e+000 -4.175024e+000 6.380525e+001 1.919474e-003 1.779317e-003 -1.900363e-003 -1.720847e-003 -1.347876e-003 -3.466689e-003 3.259800e-003 -1.253112e-003 -1.919232e-004 -3.262262e-003 -5.241965e-004 -3.115811e-004 4.758951e-003 -2.929097e-005 -3.611538e-004 6.294552e-005 9.291643e-006 -1.001432e-004 5.259621e-004 6.198414e-005 -8.143853e-005 -1.008480e-004 -1.869577e-004 1.623068e-005 2.955131e-005 1.416948e-004
<VARIANCE> 39
 3.902209e+001 7.156982e+001 7.640925e+001 1.098099e+002 8.215433e+001 7.189401e+001 7.801842e+001 8.075961e+001 6.956078e+001 6.004585e+001 6.514273e+001 5.044989e+001 1.366778e+002 1.572858e+000 2.932258e+000 2.636515e+000 4.096543e+000 3.642267e+000 3.184264e+000 3.563649e+000 4.002127e+000 3.337011e+000 3.248904e+000 3.175071e+000 2.717300e+000 3.487052e+000 2.564848e-001 4.197496e-001 4.050416e-001 6.433085e-001 6.318011e-001 5.595989e-001 6.183516e-001 6.950012e-001 5.970304e-001 5.935754e-001 5.704489e-001 4.943222e-001 4.458840e-001
<GCONST> 1.336668e+002
<STATE> 4
<MEAN> 39
 -4.769139e+000 -5.895130e+000 -5.003660e-001 -1.036527e+001 -4.398568e+000 -4.786294e+000 -5.009152e+000 -3.864886e+000 -3.695034e+000 -4.166430e+000 -3.717116e+000 -4.049284e+000 6.350694e+001 1.408734e-003 1.350561e-003 -1.134915e-003 -2.298243e-003 -2.741134e-003 -1.679902e-003 2.460768e-003 -1.312005e-003 -1.074425e-004 -1.868292e-003 -5.163452e-004 -9.184081e-005 3.854639e-003 -1.801349e-004 -1.987526e-004 -2.359536e-005 9.183557e-006 -4.315173e-005 3.170314e-004 -4.731865e-005 9.230741e-005 -6.864529e-005 6.353554e-005 -5.652007e-005 1.726509e-005 -2.047212e-004
<VARIANCE> 39
 3.865208e+001 7.137585e+001 7.665821e+001 1.103783e+002 8.147964e+001 7.089962e+001 7.830237e+001 8.034652e+001 7.008543e+001 5.885335e+001 6.460719e+001 5.043120e+001 1.410766e+002 1.523966e+000 2.881480e+000 2.580701e+000 4.020582e+000 3.567390e+000 3.115817e+000 3.515427e+000 3.935160e+000 3.297953e+000 3.183437e+000 3.131846e+000 2.682511e+000 3.428189e+000 2.479281e-001 4.100567e-001 3.949870e-001 6.281541e-001 6.170965e-001 5.461461e-001 6.075423e-001 6.830480e-001 5.884103e-001 5.815058e-001 5.620837e-001 4.872569e-001 4.346737e-001
<GCONST> 1.331330e+002
<TRANSP> 5
 0.000000e+000 1.000000e+000 0.000000e+000 0.000000e+000 0.000000e+000
 0.000000e+000 6.835346e-001 3.164655e-001 0.000000e+000 0.000000e+000
 0.000000e+000 0.000000e+000 6.835394e-001 3.164606e-001 0.000000e+000
 0.000000e+000 0.000000e+000 0.000000e+000 8.071898e-001 1.928103e-001
 0.000000e+000 0.000000e+000 0.000000e+000 0.000000e+000 0.000000e+000
<ENDHMM>
~h "AF"
<BEGINHMM>
<NUMSTATES> 5
<STATE> 2
<MEAN> 39
 -4.276243e+000 -7.211103e+000 -4.597249e-001 -1.029800e+001 -4.074829e+000 -4.640048e+000 -4.117178e+000 -3.734875e+000 -3.889149e+000 -4.524483e+000 -3.720242e+000 -4.407418e+000 6.490121e+001 9.884514e-003 -3.949066e-003 -4.061043e-004 -7.136022e-004 4.187033e-003 9.537952e-004 4.529053e-003 -3.915618e-003 -4.505490e-003 -4.837757e-003 -6.728417e-003 -4.970104e-003 1.007680e-002 -3.658934e-004 8.502288e-004 1.468126e-004 1.321580e-004 1.611131e-005 -4.016038e-006 -4.428882e-004 1.033194e-004 3.688949e-004 2.898686e-004 5.161098e-004 2.746985e-004 -8.139455e-004
<VARIANCE> 39
 3.955122e+001 7.913608e+001 7.612510e+001 1.027277e+002 7.941750e+001 7.154701e+001 7.714009e+001 8.181407e+001 6.948822e+001 6.213415e+001 6.401756e+001 4.877495e+001 1.351637e+002 1.499803e+000 2.917339e+000 2.511812e+000 4.010748e+000 3.311001e+000 3.162796e+000 3.484444e+000 3.772364e+000 3.221075e+000 3.161958e+000 3.114482e+000 2.597063e+000 3.322669e+000 2.454182e-001 4.063731e-001 3.867390e-001 6.382777e-001 5.605018e-001 5.487436e-001 5.974011e-001 6.669652e-001 5.750518e-001 5.717667e-001 5.588571e-001 4.675225e-001 4.146733e-001
<GCONST> 1.325934e+002
<STATE> 3
<MEAN> 39
 -4.246708e+000 -7.220870e+000 -4.617454e-001 -1.030199e+001 -4.061094e+000 -4.636639e+000 -4.106804e+000 -3.746256e+000 -3.901728e+000 -4.536013e+000 -3.738853e+000 -4.421708e+000 6.493275e+001 8.665420e-003 -1.372592e-003 -2.615521e-004 -3.734346e-004 3.987917e-003 9.258522e-004 3.150302e-003 -3.688033e-003 -3.352601e-003 -3.925846e-003 -5.008980e-003 -4.150648e-003 7.492455e-003 -4.358018e-004 8.701419e-004 5.445706e-005 4.123764e-005 -1.338499e-004 5.265736e-006 -4.104177e-004 1.546568e-004 5.167648e-004 4.071738e-004 5.651484e-004 2.557916e-004 -8.292983e-004
<VARIANCE> 39
 3.945116e+001 7.944631e+001 7.611140e+001 1.027492e+002 7.942421e+001 7.158401e+001 7.712899e+001 8.180453e+001 6.937898e+001 6.216249e+001 6.394487e+001 4.873144e+001 1.351344e+002 1.500567e+000 2.921063e+000 2.511539e+000 4.015516e+000 3.307637e+000 3.162281e+000 3.487467e+000 3.773720e+000 3.219461e+000 3.162628e+000 3.113938e+000 2.595113e+000 3.328404e+000 2.453740e-001 4.065922e-001 3.865826e-001 6.387427e-001 5.601676e-001 5.486810e-001 5.975962e-001 6.671024e-001 5.746580e-001 5.718387e-001 5.586007e-001 4.671544e-001 4.151215e-001
<GCONST> 1.325951e+002
<STATE> 4
<MEAN> 39
 -4.385489e+000 -7.168317e+000 -4.875185e-001 -1.015386e+001 -4.011184e+000 -4.390522e+000 -4.175631e+000 -3.661341e+000 -3.924848e+000 -4.445560e+000 -3.787124e+000 -4.338126e+000 6.463668e+001 6.580400e-003 2.244351e-003 -5.515566e-004 -5.462075e-004 2.751335e-003 9.027874e-004 1.028317e-003 -3.207869e-003 -1.316981e-003 -1.744486e-003 -2.414214e-003 -2.877305e-003 3.557384e-003 -4.339603e-004 9.035366e-004 -2.024213e-005 5.427625e-005 -3.099992e-004 7.896335e-006 -2.392236e-004 1.281672e-004 6.513005e-004 4.967291e-004 5.484620e-004 2.633526e-004 -1.030453e-003
<VARIANCE> 39
 3.927264e+001 8.003365e+001 7.594269e+001 1.029288e+002 7.899161e+001 7.061214e+001 7.719331e+001 8.085731e+001 7.003208e+001 6.076797e+001 6.398862e+001 4.854495e+001 1.398954e+002 1.463411e+000 2.868353e+000 2.455543e+000 3.939093e+000 3.239278e+000 3.099242e+000 3.439123e+000 3.707194e+000 3.172345e+000 3.105588e+000 3.072099e+000 2.558741e+000 3.257309e+000 2.386865e-001 3.966602e-001 3.763931e-001 6.242402e-001 5.484807e-001 5.373423e-001 5.883722e-001 6.552012e-001 5.654546e-001 5.620685e-001 5.503397e-001 4.594273e-001 4.029406e-001
<GCONST> 1.320733e+002
<TRANSP> 5
 0.000000e+000 1.000000e+000 0.000000e+000 0.000000e+000 0.000000e+000
 0.000000e+000 6.858562e-001 3.141438e-001 0.000000e+000 0.000000e+000
 0.000000e+000 0.000000e+000 6.858467e-001 3.141533e-001 0.000000e+000
 0.000000e+000 0.000000e+000 0.000000e+000 8.103757e-001 1.896244e-001
 0.000000e+000 0.000000e+000 0.000000e+000 0.000000e+000 0.000000e+000
<ENDHMM>
~h "AJ"
<BEGINHMM>
<NUMSTATES> 5
<STATE> 2
<MEAN> 39
 -4.655826e+000 -7.072636e+000 -2.984561e-001 -9.691656e+000 -4.013510e+000 -4.655137e+000 -3.460349e+000 -3.452109e+000 -3.323060e+000 -4.367303e+000 -3.288442e+000 -4.130519e+000 6.416891e+001 1.022914e-003 2.337767e-004 2.123863e-003 3.726904e-003 -2.690206e-003 4.781201e-003 1.148940e-002 -2.526678e-003 4.623591e-003 -4.334123e-003 -1.178341e-003 -4.764064e-003 -3.579894e-003 -7.653977e-005 6.344710e-004 1.453263e-004 1.418494e-004 4.330599e-004 4.353979e-004 -2.170094e-004 -3.440400e-004 5.628965e-005 7.362161e-004 -3.489550e-005 1.993462e-004 -9.034424e-004
<VARIANCE> 39
 3.909189e+001 7.897805e+001 7.257781e+001 1.003621e+002 7.841447e+001 6.923222e+001 7.731067e+001 8.090800e+001 6.705849e+001 5.903123e+001 6.067730e+001 4.678152e+001 1.390005e+002 1.608107e+000 3.087582e+000 2.594905e+000 4.153807e+000 3.531529e+000 3.332398e+000 3.661154e+000 3.942656e+000 3.371369e+000 3.278504e+000 3.171686e+000 2.665633e+000 3.693477e+000 2.680366e-001 4.387387e-001 4.080319e-001 6.630069e-001 6.031855e-001 5.828841e-001 6.317703e-001 7.022852e-001 6.100912e-001 6.001163e-001 5.760842e-001 4.873339e-001 4.669172e-001
<GCONST> 1.337321e+002
<STATE> 3
<MEAN> 39
