~o
<STREAMINFO> 1 39
<VECSIZE> 39<NULLD><MFCC_D_A_0><DIAGC>
~h "proto"
<BEGINHMM>
<NUMSTATES> 5
<STATE> 2
<MEAN> 39
 -4.901095e+000 -5.842618e+000 -5.097519e-001 -9.923710e+000 -4.122406e+000 -4.544213e+000 -4.531428e+000 -3.756145e+000 -3.134470e+000 -3.843007e+000 -3.141330e+000 -3.863289e+000 6.290533e+001 3.156596e-003 4.426242e-003 -3.008057e-004 -9.815464e-004 -7.398279e-004 -3.059326e-004 6.043092e-004 -2.233922e-003 1.730658e-004 -2.990019e-004 -3.013898e-003 -8.223696e-004 -5.428240e-004 -1.672899e-004 -1.806980e-004 4.561614e-005 -7.206317e-005 6.492341e-005 1.899766e-004 7.487284e-005 1.468558e-005 -2.101225e-005 1.112924e-004 1.261849e-004 6.155111e-006 1.118417e-005
<VARIANCE> 39
 3.977646e+001 6.976524e+001 7.436712e+001 1.058175e+002 8.034691e+001 6.925978e+001 7.782265e+001 7.860110e+001 6.821010e+001 5.800884e+001 6.279465e+001 4.830898e+001 1.459772e+002 1.544968e+000 2.667576e+000 2.529959e+000 4.061153e+000 3.472722e+000 3.155723e+000 3.471568e+000 3.756795e+000 3.266600e+000 3.146162e+000 3.154106e+000 2.635824e+000 3.396390e+000 2.536712e-001 3.905498e-001 3.963176e-001 6.350257e-001 5.963098e-001 5.526317e-001 6.014287e-001 6.646528e-001 5.859886e-001 5.718929e-001 5.669279e-001 4.794365e-001 4.314951e-001
<GCONST> 1.326273e+002
<STATE> 3
<MEAN> 39
 -4.901095e+000 -5.842618e+000 -5.097519e-001 -9.923710e+000 -4.122406e+000 -4.544213e+000 -4.531428e+000 -3.756145e+000 -3.134470e+000 -3.843007e+000 -3.141330e+000 -3.863289e+000 6.290533e+001 3.156596e-003 4.426242e-003 -3.008057e-004 -9.815464e-004 -7.398279e-004 -3.059326e-004 6.043092e-004 -2.233922e-003 1.730658e-004 -2.990019e-004 -3.013898e-003 -8.223696e-004 -5.428240e-004 -1.672899e-004 -1.806980e-004 4.561614e-005 -7.206317e-005 6.492341e-005 1.899766e-004 7.487284e-005 1.468558e-005 -2.101225e-005 1.112924e-004 1.261849e-004 6.155111e-006 1.118417e-005
<VARIANCE> 39
 3.977646e+001 6.976524e+001 7.436712e+001 1.058175e+002 8.034691e+001 6.925978e+001 7.782265e+001 7.860110e+001 6.821010e+001 5.800884e+001 6.279465e+001 4.830898e+001 1.459772e+002 1.544968e+000 2.667576e+000 2.529959e+000 4.061153e+000 3.472722e+000 3.155723e+000 3.471568e+000 3.756795e+000 3.266600e+000 3.146162e+000 3.154106e+000 2.635824e+000 3.396390e+000 2.536712e-001 3.905498e-001 3.963176e-001 6.350257e-001 5.963098e-001 5.526317e-001 6.014287e-001 6.646528e-001 5.859886e-001 5.718929e-001 5.669279e-001 4.794365e-001 4.314951e-001
<GCONST> 1.326273e+002
<STATE> 4
<MEAN> 39
 -4.901095e+000 -5.842618e+000 -5.097519e-001 -9.923710e+000 -4.122406e+000 -4.544213e+000 -4.531428e+000 -3.756145e+000 -3.134470e+000 -3.843007e+000 -3.141330e+000 -3.863289e+000 6.290533e+001 3.156596e-003 4.426242e-003 -3.008057e-004 -9.815464e-004 -7.398279e-004 -3.059326e-004 6.043092e-004 -2.233922e-003 1.730658e-004 -2.990019e-004 -3.013898e-003 -8.223696e-004 -5.428240e-004 -1.672899e-004 -1.806980e-004 4.561614e-005 -7.206317e-005 6.492341e-005 1.899766e-004 7.487284e-005 1.468558e-005 -2.101225e-005 1.112924e-004 1.261849e-004 6.155111e-006 1.118417e-005
<VARIANCE> 39
 3.977646e+001 6.976524e+001 7.436712e+001 1.058175e+002 8.034691e+001 6.925978e+001 7.782265e+001 7.860110e+001 6.821010e+001 5.800884e+001 6.279465e+001 4.830898e+001 1.459772e+002 1.544968e+000 2.667576e+000 2.529959e+000 4.061153e+000 3.472722e+000 3.155723e+000 3.471568e+000 3.756795e+000 3.266600e+000 3.146162e+000 3.154106e+000 2.635824e+000 3.396390e+000 2.536712e-001 3.905498e-001 3.963176e-001 6.350257e-001 5.963098e-001 5.526317e-001 6.014287e-001 6.646528e-001 5.859886e-001 5.718929e-001 5.669279e-001 4.794365e-001 4.314951e-001
<GCONST> 1.326273e+002
<TRANSP> 5
 0.000000e+000 1.000000e+000 0.000000e+000 0.000000e+000 0.000000e+000
 0.000000e+000 6.000000e-001 4.000000e-001 0.000000e+000 0.000000e+000
 0.000000e+000 0.000000e+000 6.000000e-001 4.000000e-001 0.000000e+000
 0.000000e+000 0.000000e+000 0.000000e+000 7.000000e-001 3.000000e-001
 0.000000e+000 0.000000e+000 0.000000e+000 0.000000e+000 0.000000e+000
<ENDHMM>
