~o
<STREAMINFO> 1 39
<VECSIZE> 39<NULLD><MFCC_D_A_0><DIAGC>
~h ":"
<BEGINHMM>
<NUMSTATES> 5
<STATE> 2
<MEAN> 39
 -4.901095e+000 -5.842618e+000 -5.097519e-001 -9.923710e+000 -4.122406e+000 -4.544213e+000 -4.531428e+000 -3.756145e+000 -3.134470e+000 -3.843007e+000 -3.141330e+000 -3.863289e+000 6.290533e+001 3.156596e-003 4.426242e-003 -3.008057e-004 -9.815464e-004 -7.398279e-004 -3.059326e-004 6.043092e-004 -2.233922e-003 1.730658e-004 -2.990019e-004 -3.013898e-003 -8.223696e-004 -5.428240e-004 -1.672899e-004 -1.806980e-004 4.561614e-005 -7.206317e-005 6.492341e-005 1.899766e-004 7.487284e-005 1.468558e-005 -2.101225e-005 1.112924e-004 1.261849e-004 6.155111e-006 1.118417e-005
<VARIANCE> 39
 3.977646e+001 6.976524e+001 7.436712e+001 1.058175e+002 8.034691e+001 6.925978e+001 7.782265e+001 7.860110e+001 6.821010e+001 5.800883e+001 6.279465e+001 4.830898e+001 1.459772e+002 1.544968e+000 2.667576e+000 2.529959e+000 4.061153e+000 3.472722e+000 3.155723e+000 3.471568e+000 3.756795e+000 3.266600e+000 3.146162e+000 3.154106e+000 2.635824e+000 3.396390e+000 2.536712e-001 3.905498e-001 3.963176e-001 6.350257e-001 5.963098e-001 5.526317e-001 6.014287e-001 6.646528e-001 5.859886e-001 5.718929e-001 5.669279e-001 4.794365e-001 4.314951e-001
<GCONST> 1.326273e+002
<STATE> 3
<MEAN> 39
 -4.901095e+000 -5.842618e+000 -5.097519e-001 -9.923710e+000 -4.122406e+000 -4.544213e+000 -4.531428e+000 -3.756145e+000 -3.134470e+000 -3.843007e+000 -3.141330e+000 -3.863289e+000 6.290533e+001 3.156596e-003 4.426242e-003 -3.008057e-004 -9.815464e-004 -7.398279e-004 -3.059326e-004 6.043092e-004 -2.233922e-003 1.730658e-004 -2.990019e-004 -3.013898e-003 -8.223696e-004 -5.428240e-004 -1.672899e-004 -1.806980e-004 4.561614e-005 -7.206317e-005 6.492341e-005 1.899766e-004 7.487284e-005 1.468558e-005 -2.101225e-005 1.112924e-004 1.261849e-004 6.155111e-006 1.118417e-005
<VARIANCE> 39
 3.977646e+001 6.976524e+001 7.436712e+001 1.058175e+002 8.034691e+001 6.925978e+001 7.782265e+001 7.860110e+001 6.821010e+001 5.800883e+001 6.279465e+001 4.830898e+001 1.459772e+002 1.544968e+000 2.667576e+000 2.529959e+000 4.061153e+000 3.472722e+000 3.155723e+000 3.471568e+000 3.756795e+000 3.266600e+000 3.146162e+000 3.154106e+000 2.635824e+000 3.396390e+000 2.536712e-001 3.905498e-001 3.963176e-001 6.350257e-001 5.963098e-001 5.526317e-001 6.014287e-001 6.646528e-001 5.859886e-001 5.718929e-001 5.669279e-001 4.794365e-001 4.314951e-001
<GCONST> 1.326273e+002
<STATE> 4
<MEAN> 39
 -4.901095e+000 -5.842618e+000 -5.097519e-001 -9.923710e+000 -4.122406e+000 -4.544213e+000 -4.531428e+000 -3.756145e+000 -3.134470e+000 -3.843007e+000 -3.141330e+000 -3.863289e+000 6.290533e+001 3.156596e-003 4.426242e-003 -3.008057e-004 -9.815464e-004 -7.398279e-004 -3.059326e-004 6.043092e-004 -2.233922e-003 1.730658e-004 -2.990019e-004 -3.013898e-003 -8.223696e-004 -5.428240e-004 -1.672899e-004 -1.806980e-004 4.561614e-005 -7.206317e-005 6.492341e-005 1.899766e-004 7.487284e-005 1.468558e-005 -2.101225e-005 1.112924e-004 1.261849e-004 6.155111e-006 1.118417e-005
<VARIANCE> 39
 3.977646e+001 6.976524e+001 7.436712e+001 1.058175e+002 8.034691e+001 6.925978e+001 7.782265e+001 7.860110e+001 6.821010e+001 5.800883e+001 6.279465e+001 4.830898e+001 1.459772e+002 1.544968e+000 2.667576e+000 2.529959e+000 4.061153e+000 3.472722e+000 3.155723e+000 3.471568e+000 3.756795e+000 3.266600e+000 3.146162e+000 3.154106e+000 2.635824e+000 3.396390e+000 2.536712e-001 3.905498e-001 3.963176e-001 6.350257e-001 5.963098e-001 5.526317e-001 6.014287e-001 6.646528e-001 5.859886e-001 5.718929e-001 5.669279e-001 4.794365e-001 4.314951e-001
<GCONST> 1.326273e+002
<TRANSP> 5
 0.000000e+000 1.000000e+000 0.000000e+000 0.000000e+000 0.000000e+000
 0.000000e+000 6.000000e-001 4.000000e-001 0.000000e+000 0.000000e+000
 0.000000e+000 0.000000e+000 6.000000e-001 4.000000e-001 0.000000e+000
 0.000000e+000 0.000000e+000 0.000000e+000 7.000000e-001 3.000000e-001
 0.000000e+000 0.000000e+000 0.000000e+000 0.000000e+000 0.000000e+000
<ENDHMM>
~h "A"
<BEGINHMM>
<NUMSTATES> 5
<STATE> 2
<MEAN> 39
 -4.337915e+000 -1.478213e+001 -3.938787e+000 -1.373776e+001 -3.619975e+000 -5.296652e+000 -3.622712e+000 -3.631052e+000 -7.177574e+000 -8.119164e+000 -5.328223e+000 -5.471930e+000 7.388387e+001 -1.682025e-001 -6.687940e-001 -1.138918e-001 2.934157e-001 2.724270e-001 1.736525e-001 1.522472e-001 -2.863630e-001 -3.689237e-001 -3.601204e-001 5.309819e-002 -1.124159e-001 2.788209e-001 4.734224e-002 2.843092e-001 1.163881e-001 4.536247e-002 -9.706273e-002 -6.377356e-002 -9.599448e-002 -4.172792e-002 1.040946e-001 1.601442e-001 7.585827e-002 4.373561e-002 -2.059311e-001
<VARIANCE> 39
 2.846104e+001 8.318033e+001 6.637896e+001 9.069524e+001 8.127343e+001 6.776276e+001 7.674774e+001 8.674676e+001 7.563604e+001 6.408410e+001 5.901383e+001 5.377791e+001 6.347194e+001 9.051397e-001 2.692071e+000 1.912155e+000 2.873662e+000 2.813823e+000 2.535030e+000 2.798300e+000 2.917080e+000 2.857591e+000 2.771203e+000 2.596787e+000 2.227714e+000 2.153548e+000 1.572686e-001 3.953594e-001 2.901243e-001 5.106043e-001 4.346876e-001 4.141492e-001 4.719663e-001 5.289592e-001 5.243410e-001 4.846554e-001 4.711919e-001 3.983598e-001 3.173136e-001
<GCONST> 1.255364e+002
<STATE> 3
<MEAN> 39
 -4.414174e+000 -1.564266e+001 -3.947396e+000 -1.321112e+001 -3.406879e+000 -5.154361e+000 -3.585586e+000 -4.271491e+000 -7.696699e+000 -8.513134e+000 -5.113487e+000 -5.673045e+000 7.422502e+001 -4.408629e-003 -6.833740e-002 1.038397e-001 1.681583e-001 -5.573728e-002 -2.344636e-003 5.533578e-004 -2.099889e-001 -1.191826e-001 -3.928143e-002 4.275386e-002 -6.096300e-002 -1.061493e-001 6.652939e-002 2.580000e-001 9.261405e-002 -4.594214e-002 -1.263186e-001 -7.457051e-002 -6.480336e-002 2.032901e-002 9.559822e-002 1.288382e-001 -5.301850e-003 2.890860e-002 -1.651649e-001
<VARIANCE> 39
 2.804810e+001 8.294601e+001 6.516754e+001 8.664945e+001 7.922799e+001 6.729627e+001 7.518623e+001 8.561272e+001 7.350327e+001 6.318652e+001 5.671880e+001 5.214552e+001 5.963769e+001 7.499802e-001 2.223031e+000 1.575645e+000 2.419765e+000 2.395883e+000 2.128464e+000 2.336302e+000 2.381737e+000 2.328694e+000 2.289992e+000 2.128378e+000 1.811055e+000 1.808045e+000 1.190196e-001 2.932466e-001 2.392609e-001 3.829263e-001 3.507172e-001 3.482846e-001 3.879480e-001 4.288707e-001 4.180593e-001 4.002949e-001 3.716571e-001 3.240728e-001 2.252775e-001
<GCONST> 1.197177e+002
<STATE> 4
<MEAN> 39
 -4.694532e+000 -1.573511e+001 -3.418563e+000 -1.192193e+001 -3.222301e+000 -4.411569e+000 -3.553859e+000 -4.188895e+000 -8.077848e+000 -8.106835e+000 -5.005329e+000 -5.482834e+000 7.260168e+001 1.246644e-001 5.342327e-001 2.244634e-001 -9.768664e-003 -2.696362e-001 -1.377178e-001 -3.086933e-002 -6.292085e-002 1.322294e-001 1.719154e-001 -4.614812e-002 -2.412653e-003 -5.412072e-001 4.699589e-002 1.802578e-001 5.810208e-002 -7.350264e-003 -6.015366e-002 -5.374081e-002 -4.637085e-002 -1.250742e-002 6.055377e-002 7.168031e-002 -1.040676e-002 2.596294e-002 -1.234746e-001
<VARIANCE> 39
 2.737357e+001 8.001524e+001 6.156375e+001 9.043552e+001 7.275760e+001 6.279757e+001 7.073686e+001 8.116978e+001 7.451495e+001 5.945202e+001 5.266098e+001 5.132860e+001 8.579102e+001 6.328123e-001 1.717510e+000 1.337078e+000 2.188884e+000 2.025657e+000 1.942666e+000 2.098140e+000 2.096417e+000 2.059081e+000 2.064916e+000 1.899875e+000 1.608309e+000 1.211922e+000 9.396711e-002 2.195126e-001 1.980077e-001 3.296160e-001 2.930794e-001 3.102731e-001 3.382133e-001 3.638314e-001 3.529731e-001 3.406608e-001 3.166300e-001 2.748924e-001 1.609990e-001
<GCONST> 1.151023e+002
<TRANSP> 5
 0.000000e+000 1.000000e+000 0.000000e+000 0.000000e+000 0.000000e+000
 0.000000e+000 5.505375e-001 4.494626e-001 0.000000e+000 0.000000e+000
 0.000000e+000 0.000000e+000 5.542525e-001 4.457475e-001 0.000000e+000
 0.000000e+000 0.000000e+000 0.000000e+000 7.820180e-001 2.179820e-001
 0.000000e+000 0.000000e+000 0.000000e+000 0.000000e+000 0.000000e+000
<ENDHMM>
~h "B"
<BEGINHMM>
<NUMSTATES> 5
<STATE> 2
<MEAN> 39
 -2.120488e-001 -4.378771e+000 -1.924385e-001 -9.726283e+000 -4.090115e+000 -4.227596e+000 -6.770772e+000 -7.606127e+000 -5.771926e+000 -5.555525e+000 -5.427732e+000 -6.564251e+000 6.236596e+001 3.375699e-001 2.523969e-001 -4.177327e-002 3.092978e-001 2.836673e-001 9.622983e-002 -9.940516e-002 -2.488866e-001 -1.935317e-001 -2.515757e-001 -1.054379e-001 -2.844082e-001 -1.556493e-001 -7.692071e-002 -2.131638e-001 -1.171259e-001 -2.070003e-001 -4.972343e-002 -3.156997e-002 2.259948e-002 1.519727e-001 4.382572e-002 2.898969e-002 1.775402e-002 2.730847e-002 3.837334e-001
<VARIANCE> 39
 2.731768e+001 6.976083e+001 6.464230e+001 9.535356e+001 5.444337e+001 6.659443e+001 6.524767e+001 7.762910e+001 6.300682e+001 5.916907e+001 6.503598e+001 4.854634e+001 1.007448e+002 1.518089e+000 4.614535e+000 3.652436e+000 6.124535e+000 3.207243e+000 3.273226e+000 4.184410e+000 5.695138e+000 4.838490e+000 4.227970e+000 4.022413e+000 3.232398e+000 7.610882e+000 2.660656e-001 7.447948e-001 6.055766e-001 1.089852e+000 5.743402e-001 5.794069e-001 7.653442e-001 1.038499e+000 9.329658e-001 8.517236e-001 7.667468e-001 6.271067e-001 1.101106e+000
<GCONST> 1.395355e+002
<STATE> 3
<MEAN> 39
 2.794273e-001 -4.975112e+000 -1.000495e+000 -1.011526e+001 -3.644654e+000 -4.043825e+000 -6.960612e+000 -7.400553e+000 -5.817899e+000 -5.846352e+000 -5.597584e+000 -7.194786e+000 6.392977e+001 -1.562714e-002 -6.198080e-001 -4.430407e-001 -3.555123e-001 1.152132e-001 6.296065e-002 9.539168e-002 3.625879e-001 4.374692e-002 -1.315798e-001 -6.991391e-002 -1.723252e-001 9.747776e-001 -1.337007e-001 -2.602836e-001 -7.667878e-002 -1.908145e-001 -7.192900e-002 -2.294035e-002 8.060677e-002 1.745689e-001 3.440974e-002 2.757997e-002 3.202834e-002 8.874270e-002 3.211896e-001
<VARIANCE> 39
 2.416677e+001 7.839772e+001 6.536555e+001 9.485530e+001 5.114104e+001 6.567675e+001 6.311815e+001 7.937334e+001 6.252600e+001 6.030495e+001 6.431944e+001 4.988378e+001 1.052142e+002 1.699092e+000 6.626236e+000 4.413743e+000 7.323338e+000 3.316370e+000 3.475346e+000 4.663954e+000 7.011100e+000 5.771369e+000 4.937946e+000 4.541960e+000 3.881466e+000 9.423904e+000 2.644442e-001 9.299750e-001 7.274681e-001 1.298669e+000 6.060646e-001 6.127043e-001 8.346958e-001 1.221401e+000 1.082283e+000 9.872270e-001 8.719081e-001 7.148872e-001 1.376643e+000
<GCONST> 1.433332e+002
<STATE> 4
<MEAN> 39
 -7.402878e-001 -6.471818e+000 -1.862937e+000 -1.045526e+001 -3.473657e+000 -3.434170e+000 -5.826744e+000 -5.961756e+000 -5.447813e+000 -6.188318e+000 -5.459799e+000 -6.858608e+000 6.515302e+001 -1.342213e-001 -5.887792e-001 -2.548378e-001 -3.434626e-001 -4.191538e-002 -6.293170e-002 1.500773e-001 3.160211e-001 -4.439823e-002 -9.183326e-002 4.233711e-002 6.657540e-002 9.067532e-001 -4.481633e-002 -7.712016e-002 1.161565e-002 -1.307013e-001 -8.538822e-002 -4.027768e-002 3.759142e-003 4.475396e-002 1.531017e-002 7.125226e-002 8.392438e-002 8.626432e-002 1.337551e-001
<VARIANCE> 39
 2.697161e+001 9.426240e+001 6.730103e+001 9.994281e+001 5.562917e+001 6.347906e+001 6.432867e+001 8.246955e+001 6.494054e+001 5.818822e+001 6.029326e+001 5.139236e+001 1.283906e+002 1.382724e+000 5.029424e+000 3.422707e+000 5.702181e+000 3.110331e+000 3.211469e+000 3.857595e+000 5.334743e+000 4.500494e+000 4.209643e+000 3.805461e+000 3.186260e+000 6.436229e+000 2.246722e-001 8.306870e-001 5.905508e-001 1.080519e+000 5.472201e-001 5.521675e-001 7.122204e-001 1.030236e+000 8.685207e-001 8.108839e-001 7.237498e-001 6.069244e-001 1.109414e+000
<GCONST> 1.390401e+002
<TRANSP> 5
 0.000000e+000 1.000000e+000 0.000000e+000 0.000000e+000 0.000000e+000
 0.000000e+000 5.384512e-001 4.615488e-001 0.000000e+000 0.000000e+000
 0.000000e+000 0.000000e+000 5.540127e-001 4.459874e-001 0.000000e+000
 0.000000e+000 0.000000e+000 0.000000e+000 5.936219e-001 4.063781e-001
 0.000000e+000 0.000000e+000 0.000000e+000 0.000000e+000 0.000000e+000
<ENDHMM>
~h "C"
<BEGINHMM>
<NUMSTATES> 5
<STATE> 2
<MEAN> 39
 -4.539024e+000 -4.583123e+000 -2.235089e+000 -7.840749e+000 -2.876012e+000 -5.381953e+000 -3.365401e+000 -4.290082e+000 -1.803583e+000 -1.923355e+000 -2.529139e+000 -2.851839e+000 5.906110e+001 -2.840085e-001 -5.840322e-002 -3.346768e-001 5.182517e-001 5.856076e-001 -2.284935e-002 3.371555e-001 3.837824e-001 4.007693e-001 3.074142e-001 2.035376e-001 1.845916e-001 -2.762137e-001 4.115181e-002 -2.070078e-001 -1.052726e-001 -2.756469e-001 -3.516285e-002 -1.671310e-002 -8.304036e-002 2.613927e-002 -8.776557e-002 -3.085887e-002 -7.226003e-002 -6.391376e-002 4.975630e-001
<VARIANCE> 39
 2.990625e+001 4.722330e+001 6.244191e+001 8.131790e+001 6.652337e+001 6.335902e+001 6.586488e+001 6.577925e+001 6.056830e+001 5.310198e+001 5.863292e+001 5.061978e+001 8.981539e+001 2.369744e+000 3.994629e+000 4.230449e+000 7.016733e+000 5.384274e+000 5.368650e+000 5.441295e+000 5.138003e+000 5.246286e+000 4.504127e+000 4.693942e+000 3.958205e+000 1.041373e+001 4.319713e-001 6.259692e-001 6.958517e-001 1.186260e+000 1.016418e+000 1.054429e+000 9.729210e-001 9.654588e-001 9.895127e-001 8.728806e-001 8.906225e-001 7.860563e-001 1.204355e+000
<GCONST> 1.437031e+002
<STATE> 3
<MEAN> 39
 -4.991143e+000 -5.588984e+000 -3.668848e+000 -7.894507e+000 -1.645084e+000 -5.706971e+000 -3.046192e+000 -3.313889e+000 -1.212125e+000 -1.257383e+000 -2.365019e+000 -2.687828e+000 6.076194e+001 5.010097e-002 -5.026582e-001 -4.763381e-001 -6.105222e-001 1.454875e-001 -1.100471e-001 -8.638236e-003 2.684382e-001 -8.878299e-002 6.909050e-002 -1.230435e-001 -1.453138e-001 1.182604e+000 1.207195e-001 -1.246054e-001 7.843922e-003 -3.573104e-001 -1.735448e-001 5.932074e-002 -9.777029e-002 -7.919693e-002 -2.006807e-001 -1.527261e-001 -1.038517e-001 -1.394475e-001 3.299820e-001
<VARIANCE> 39
 3.009544e+001 4.679167e+001 6.294349e+001 8.350745e+001 7.203610e+001 6.521579e+001 6.590591e+001 6.273927e+001 5.955611e+001 5.273790e+001 5.674044e+001 5.188449e+001 9.682209e+001 2.952612e+000 4.192657e+000 4.687214e+000 9.485125e+000 6.676167e+000 6.247018e+000 6.207549e+000 5.719191e+000 6.151118e+000 5.125710e+000 5.749068e+000 5.056056e+000 1.183352e+001 5.023478e-001 6.766264e-001 7.737501e-001 1.411176e+000 1.222872e+000 1.183411e+000 1.067303e+000 1.048792e+000 1.062551e+000 9.643167e-001 1.024427e+000 9.426180e-001 1.399786e+000
<GCONST> 1.476084e+002
<STATE> 4
<MEAN> 39
 -4.763070e+000 -6.737491e+000 -4.425794e+000 -9.828143e+000 -1.932453e+000 -5.161283e+000 -3.055870e+000 -2.885356e+000 -1.754671e+000 -1.555393e+000 -2.693735e+000 -3.268078e+000 6.279721e+001 2.465391e-001 -5.175134e-001 -2.946840e-001 -9.810264e-001 -1.568874e-001 1.099523e-001 -1.335166e-001 -4.872211e-002 -4.980463e-001 -3.452725e-001 -2.827469e-001 -3.558013e-001 1.294113e+000 4.200602e-002 2.204910e-003 3.444138e-002 -4.945372e-002 -3.098655e-002 7.816906e-002 -4.955582e-002 -9.313414e-002 -1.081053e-001 -1.169022e-001 -6.719453e-003 -2.709358e-002 2.223126e-002
<VARIANCE> 39
 2.958070e+001 5.472818e+001 6.472565e+001 1.001003e+002 7.187846e+001 6.625582e+001 6.942119e+001 6.310462e+001 6.221218e+001 5.154306e+001 6.081192e+001 5.476426e+001 1.234436e+002 2.418992e+000 3.918869e+000 3.815521e+000 7.896296e+000 5.707247e+000 5.317681e+000 5.397158e+000 5.103051e+000 5.370878e+000 4.590976e+000 5.085127e+000 4.579579e+000 7.678064e+000 4.264593e-001 6.047773e-001 6.431763e-001 1.376097e+000 1.064644e+000 9.882771e-001 9.358081e-001 9.081099e-001 9.352286e-001 8.320479e-001 9.360992e-001 8.317695e-001 1.190037e+000
<GCONST> 1.445544e+002
<TRANSP> 5
 0.000000e+000 1.000000e+000 0.000000e+000 0.000000e+000 0.000000e+000
 0.000000e+000 6.017134e-001 3.982866e-001 0.000000e+000 0.000000e+000
 0.000000e+000 0.000000e+000 6.101422e-001 3.898578e-001 0.000000e+000
 0.000000e+000 0.000000e+000 0.000000e+000 6.114125e-001 3.885876e-001
 0.000000e+000 0.000000e+000 0.000000e+000 0.000000e+000 0.000000e+000
<ENDHMM>
~h "D"
<BEGINHMM>
<NUMSTATES> 5
<STATE> 2
<MEAN> 39
 -5.556351e+000 8.158096e-001 7.059947e+000 -1.151943e+001 -8.528866e+000 -9.400592e+000 -8.716739e+000 -8.941209e+000 -8.254463e+000 -4.504349e+000 -5.475674e+000 -5.875268e+000 6.540334e+001 -4.451147e-001 6.052105e-001 1.042109e+000 -3.517891e-001 -3.420609e-001 -2.599328e-001 -4.206437e-001 -2.092270e-001 -4.598290e-001 -8.658940e-002 1.023026e-001 -1.878846e-001 3.874214e-001 5.023528e-002 -2.531152e-001 -1.735416e-001 -9.963181e-002 -2.194167e-002 8.308112e-002 5.729207e-002 1.525475e-001 1.123614e-001 3.060759e-002 2.964026e-002 7.640829e-003 1.678961e-001
<VARIANCE> 39
 3.151725e+001 6.566274e+001 8.798185e+001 1.070618e+002 7.488488e+001 6.219703e+001 6.645509e+001 8.304455e+001 6.315409e+001 5.958244e+001 7.832946e+001 5.433344e+001 7.046854e+001 2.266949e+000 5.043423e+000 5.626424e+000 5.601153e+000 7.323004e+000 4.073544e+000 5.163680e+000 5.078356e+000 4.865087e+000 4.606622e+000 4.054225e+000 3.292536e+000 4.492871e+000 3.923103e-001 6.854383e-001 9.148171e-001 9.369012e-001 1.486454e+000 7.714694e-001 9.646271e-001 8.616849e-001 8.596815e-001 8.713962e-001 7.529907e-001 6.007639e-001 4.696077e-001
<GCONST> 1.427682e+002
<STATE> 3
<MEAN> 39
 -6.456982e+000 7.268434e-001 8.765736e+000 -1.330627e+001 -1.007172e+001 -9.910480e+000 -9.486870e+000 -8.449794e+000 -8.631011e+000 -4.320499e+000 -5.007311e+000 -6.270587e+000 6.786839e+001 -2.521417e-002 -6.389020e-001 -1.270033e-001 -5.565063e-001 -5.020289e-001 -7.136330e-002 1.925901e-002 5.163438e-001 2.168425e-001 1.529176e-001 8.320236e-002 -3.111196e-002 9.317898e-001 1.437300e-001 -2.789750e-001 -3.793577e-001 2.758064e-002 1.218933e-001 9.253463e-002 1.234713e-001 1.534553e-001 1.609097e-001 2.811962e-003 -5.564282e-002 2.125516e-002 3.275397e-002
<VARIANCE> 39
 2.627723e+001 6.715897e+001 9.013840e+001 1.099933e+002 7.977625e+001 5.789568e+001 6.230210e+001 8.338242e+001 5.798025e+001 6.044147e+001 8.328410e+001 4.864976e+001 5.790757e+001 2.087583e+000 6.143715e+000 6.772125e+000 5.561925e+000 8.982580e+000 3.923091e+000 5.559633e+000 5.230761e+000 5.032212e+000 4.985970e+000 4.298472e+000 3.239144e+000 4.290379e+000 3.395323e-001 7.309976e-001 9.499770e-001 9.838848e-001 1.847733e+000 7.631173e-001 1.023102e+000 9.062069e-001 8.840206e-001 9.670467e-001 8.241634e-001 6.068829e-001 5.159587e-001
<GCONST> 1.435960e+002
<STATE> 4
<MEAN> 39
 -5.985203e+000 -2.093873e+000 7.198244e+000 -1.460012e+001 -1.138129e+001 -9.315683e+000 -9.201076e+000 -6.004412e+000 -7.362645e+000 -3.661386e+000 -4.753623e+000 -6.014600e+000 7.063113e+001 3.464782e-001 -1.051177e+000 -1.063551e+000 -2.696368e-001 1.671787e-001 1.983336e-001 2.927422e-001 6.330276e-001 4.963197e-001 2.378287e-002 -1.518404e-001 8.283153e-003 6.672879e-001 6.147390e-002 2.421387e-002 -1.340329e-001 7.153543e-002 2.556973e-001 1.152154e-001 1.389688e-004 -8.526766e-002 -2.106939e-002 -5.950231e-002 -1.993115e-002 2.052767e-003 -1.345199e-001
<VARIANCE> 39
 2.673111e+001 8.188712e+001 1.038619e+002 1.143385e+002 7.753333e+001 5.899353e+001 7.373674e+001 9.193995e+001 6.404062e+001 6.254208e+001 8.840748e+001 4.749723e+001 5.773698e+001 1.168786e+000 4.300515e+000 4.895624e+000 4.044561e+000 7.530794e+000 3.555655e+000 4.907176e+000 4.476821e+000 4.411541e+000 4.568307e+000 3.867298e+000 2.940451e+000 2.747972e+000 1.804561e-001 5.604644e-001 6.785740e-001 6.988035e-001 1.386550e+000 6.319855e-001 8.881081e-001 8.247700e-001 8.063477e-001 8.178757e-001 7.199224e-001 5.419857e-001 3.562286e-001
<GCONST> 1.382468e+002
<TRANSP> 5
 0.000000e+000 1.000000e+000 0.000000e+000 0.000000e+000 0.000000e+000
 0.000000e+000 6.990352e-001 3.009649e-001 0.000000e+000 0.000000e+000
 0.000000e+000 0.000000e+000 7.152085e-001 2.847914e-001 0.000000e+000
 0.000000e+000 0.000000e+000 0.000000e+000 7.456331e-001 2.543669e-001
 0.000000e+000 0.000000e+000 0.000000e+000 0.000000e+000 0.000000e+000
<ENDHMM>
~h "E"
<BEGINHMM>
<NUMSTATES> 5
<STATE> 2
<MEAN> 39
 -6.959157e+000 -1.071989e+001 2.961107e+000 -1.688206e+001 -1.179170e+001 -6.734042e+000 8.646308e-001 -2.465062e+000 -5.709320e+000 -5.050820e+000 -5.372019e+000 -5.627210e+000 7.321464e+001 -1.988878e-001 -4.641787e-001 1.658188e-001 -6.552238e-001 -4.762307e-001 1.848667e-001 2.855564e-001 -2.300693e-002 -1.982119e-001 -9.766033e-002 -2.052136e-001 -4.021870e-001 5.314782e-001 5.834706e-002 1.594618e-001 -3.554538e-002 2.062361e-001 1.695770e-001 -2.273311e-002 -1.471001e-001 -3.654259e-002 7.457048e-002 5.635768e-002 6.380788e-002 9.442081e-002 -1.641839e-001
<VARIANCE> 39
 2.424080e+001 4.591504e+001 5.761866e+001 1.058772e+002 7.289642e+001 6.268959e+001 5.801233e+001 8.323894e+001 6.397899e+001 5.028810e+001 5.801380e+001 3.943809e+001 7.103967e+001 8.798910e-001 1.821348e+000 1.562655e+000 2.509685e+000 2.284345e+000 2.209410e+000 2.466757e+000 2.284113e+000 2.136683e+000 2.043516e+000 2.073227e+000 1.805499e+000 2.041060e+000 1.806501e-001 3.078211e-001 2.487030e-001 4.386609e-001 3.937581e-001 4.017983e-001 4.488921e-001 4.230591e-001 3.802124e-001 3.603212e-001 3.630988e-001 3.150091e-001 3.263396e-001
<GCONST> 1.192001e+002
<STATE> 3
<MEAN> 39
 -7.002393e+000 -1.144784e+001 3.348269e+000 -1.802801e+001 -1.276509e+001 -6.667002e+000 9.967045e-001 -2.675220e+000 -6.095369e+000 -5.205711e+000 -5.765706e+000 -6.343171e+000 7.430834e+001 4.685238e-002 -2.407972e-001 7.042439e-002 -2.139974e-001 -1.836928e-001 -3.865775e-002 -6.760724e-002 -3.788882e-002 -1.030577e-001 -4.979581e-002 -1.165811e-001 -1.775422e-001 2.234679e-001 1.042848e-001 1.124297e-001 -5.103249e-002 2.049516e-001 1.483771e-001 -7.934042e-002 -1.477552e-001 -2.086667e-002 5.135045e-002 2.253226e-002 3.440474e-002 9.181489e-002 -1.693015e-001
<VARIANCE> 39
 2.440454e+001 4.042018e+001 5.727225e+001 1.023660e+002 6.539838e+001 6.153470e+001 5.677782e+001 8.556133e+001 6.129975e+001 5.094514e+001 5.856224e+001 3.729245e+001 5.573238e+001 7.431775e-001 1.456247e+000 1.223781e+000 2.184491e+000 1.873311e+000 1.851636e+000 2.031558e+000 1.827852e+000 1.805483e+000 1.684955e+000 1.617169e+000 1.442081e+000 2.057797e+000 1.274796e-001 2.214749e-001 1.923714e-001 3.147108e-001 2.839919e-001 3.077919e-001 3.608841e-001 3.352093e-001 3.064875e-001 2.834763e-001 2.759351e-001 2.443347e-001 2.316992e-001
<GCONST> 1.125678e+002
<STATE> 4
<MEAN> 39
 -6.722077e+000 -1.106940e+001 3.593198e+000 -1.641557e+001 -1.207955e+001 -6.144353e+000 1.023382e-001 -2.449542e+000 -5.801854e+000 -4.654730e+000 -5.417712e+000 -6.070632e+000 7.245751e+001 2.896972e-001 4.956861e-002 -9.477394e-002 3.417085e-001 2.291068e-001 -2.157208e-001 -3.204488e-001 -5.706009e-002 1.731965e-002 -2.303042e-002 -3.145603e-002 6.460673e-002 -3.206836e-001 9.904208e-002 1.012793e-001 -5.154181e-002 1.439432e-001 1.272317e-001 -3.961701e-002 -1.387857e-001 -6.685471e-002 3.559917e-002 2.018923e-002 1.046754e-002 3.537004e-002 -1.523857e-001
<VARIANCE> 39
 2.483629e+001 4.228634e+001 5.888901e+001 1.232655e+002 7.045078e+001 5.748592e+001 5.538596e+001 7.914359e+001 6.111056e+001 4.920997e+001 5.856531e+001 3.709314e+001 9.043513e+001 7.155335e-001 1.205367e+000 1.113234e+000 1.819159e+000 1.758258e+000 1.782113e+000 2.201497e+000 1.854461e+000 1.733243e+000 1.641868e+000 1.466033e+000 1.285513e+000 1.349203e+000 1.028258e-001 1.900463e-001 1.773603e-001 2.766801e-001 2.651261e-001 3.016924e-001 3.724313e-001 3.552587e-001 3.060066e-001 2.788015e-001 2.591344e-001 2.268287e-001 1.639330e-001
<GCONST> 1.108967e+002
<TRANSP> 5
 0.000000e+000 1.000000e+000 0.000000e+000 0.000000e+000 0.000000e+000
 0.000000e+000 6.070585e-001 3.929415e-001 0.000000e+000 0.000000e+000
 0.000000e+000 0.000000e+000 6.119887e-001 3.880113e-001 0.000000e+000
 0.000000e+000 0.000000e+000 0.000000e+000 8.507296e-001 1.492704e-001
 0.000000e+000 0.000000e+000 0.000000e+000 0.000000e+000 0.000000e+000
<ENDHMM>
~h "F"
<BEGINHMM>
<NUMSTATES> 5
<STATE> 2
<MEAN> 39
 -7.505830e+000 3.538119e-001 1.305714e+001 -1.807922e+001 -1.279335e+001 -9.659162e+000 -1.067635e+001 -1.064993e+001 -8.499861e+000 -2.163044e+000 -4.742476e+000 -4.891893e+000 7.009208e+001 8.896795e-003 -4.399052e-002 4.011721e-001 -2.183976e-001 -3.223128e-001 2.222645e-001 -1.045357e-001 -1.168526e-001 1.369116e-001 1.687002e-001 7.148782e-002 9.902060e-003 1.062675e-001 3.015538e-002 4.067599e-002 -6.851976e-002 1.423775e-001 9.787156e-002 -4.452267e-003 4.331231e-002 7.950117e-003 2.951361e-002 -4.724745e-002 -6.887520e-003 1.006713e-002 -9.914866e-002
<VARIANCE> 39
 2.011337e+001 4.550112e+001 6.743214e+001 1.193429e+002 6.637929e+001 5.091951e+001 5.806713e+001 7.020617e+001 5.079885e+001 6.002660e+001 7.628477e+001 3.711581e+001 3.883484e+001 6.072268e-001 1.608863e+000 1.479230e+000 2.410815e+000 2.902343e+000 1.344764e+000 1.989510e+000 2.039505e+000 1.829370e+000 1.977870e+000 1.733907e+000 1.510850e+000 1.357739e+000 1.031813e-001 2.260930e-001 2.438098e-001 3.720840e-001 4.622763e-001 2.387919e-001 3.479443e-001 3.322154e-001 3.181659e-001 3.289171e-001 2.907559e-001 2.448773e-001 1.681359e-001
<GCONST> 1.129221e+002
<STATE> 3
<MEAN> 39
 -7.384745e+000 4.781631e-001 1.429451e+001 -1.777288e+001 -1.311374e+001 -8.905024e+000 -1.070018e+001 -1.066141e+001 -7.505010e+000 -2.168997e+000 -4.023772e+000 -4.786370e+000 6.971684e+001 1.261836e-001 -1.261348e-002 1.828811e-001 2.548409e-001 1.354689e-002 1.986394e-001 8.371435e-002 2.904417e-002 1.961600e-001 1.029315e-002 1.142474e-001 4.124765e-002 -2.297617e-001 2.621888e-002 6.147605e-003 -7.734803e-002 1.246899e-001 9.407279e-002 -2.548377e-003 4.687687e-002 3.633475e-002 1.336941e-002 -3.376880e-002 -5.092848e-004 4.225672e-004 -9.951825e-002
<VARIANCE> 39
 1.860908e+001 4.378321e+001 6.562545e+001 1.283463e+002 6.200808e+001 5.054009e+001 5.376074e+001 6.316875e+001 5.581123e+001 5.389784e+001 7.484346e+001 3.431322e+001 4.091216e+001 6.503167e-001 1.381490e+000 1.535363e+000 2.588923e+000 2.799344e+000 1.381457e+000 1.952406e+000 1.919214e+000 1.909188e+000 1.885421e+000 1.578152e+000 1.431793e+000 1.528838e+000 1.026810e-001 1.884301e-001 2.190339e-001 3.557748e-001 4.135084e-001 2.289232e-001 3.064968e-001 3.098510e-001 3.041690e-001 3.147055e-001 2.635055e-001 2.385590e-001 1.545688e-001
<GCONST> 1.114485e+002
<STATE> 4
<MEAN> 39
 -6.630138e+000 4.867247e-001 1.362033e+001 -1.160487e+001 -1.138246e+001 -5.983342e+000 -8.454385e+000 -7.948470e+000 -5.279410e+000 -3.117328e+000 -8.916361e-001 -3.983587e+000 6.567218e+001 1.256496e-001 -6.877913e-002 -2.514498e-001 5.087181e-001 3.874809e-001 1.587813e-001 3.147382e-001 1.677006e-001 2.126022e-001 -5.858084e-004 2.477884e-003 4.849890e-002 -5.821394e-001 8.519126e-003 -2.246573e-002 -9.388600e-002 5.173701e-002 7.189948e-002 -9.152716e-003 4.218226e-002 5.254132e-002 1.412692e-002 -9.789057e-003 -6.295542e-003 -1.997285e-004 -3.908503e-002
<VARIANCE> 39
 1.679474e+001 4.503724e+001 8.396664e+001 1.330815e+002 7.279093e+001 5.309444e+001 6.143124e+001 6.000392e+001 5.748156e+001 4.236401e+001 6.759261e+001 2.868140e+001 8.453801e+001 6.711053e-001 1.259255e+000 1.871077e+000 2.447321e+000 2.325786e+000 1.538732e+000 2.188094e+000 1.942065e+000 1.954905e+000 1.886490e+000 1.580863e+000 1.335340e+000 1.479397e+000 1.097429e-001 1.878106e-001 2.389409e-001 3.678379e-001 3.521895e-001 2.597273e-001 3.462255e-001 3.186756e-001 3.185013e-001 3.362757e-001 2.575668e-001 2.455326e-001 1.859515e-001
<GCONST> 1.128362e+002
<TRANSP> 5
 0.000000e+000 1.000000e+000 0.000000e+000 0.000000e+000 0.000000e+000
 0.000000e+000 8.449590e-001 1.550410e-001 0.000000e+000 0.000000e+000
 0.000000e+000 0.000000e+000 7.932570e-001 2.067430e-001 0.000000e+000
 0.000000e+000 0.000000e+000 0.000000e+000 9.112791e-001 8.872079e-002
 0.000000e+000 0.000000e+000 0.000000e+000 0.000000e+000 0.000000e+000
<ENDHMM>
~h "G"
<BEGINHMM>
<NUMSTATES> 5
<STATE> 2
<MEAN> 39
 -2.358044e+000 -7.284232e+000 -6.376215e-001 -1.587178e+001 -5.245936e+000 -9.169390e+000 -6.402325e+000 -4.776220e+000 -5.243485e+000 -3.260407e+000 -6.477976e+000 -4.822598e+000 6.917435e+001 7.198152e-003 -5.266480e-001 -2.982079e-001 -4.941475e-001 9.785994e-002 5.468665e-003 2.446003e-001 4.410055e-001 3.455750e-002 -7.879589e-002 -2.847720e-001 -1.750264e-001 5.923233e-001 1.358931e-002 -4.877260e-002 -4.869604e-002 9.164236e-002 7.783858e-002 1.562274e-001 3.751181e-002 -7.349783e-002 -6.639596e-002 -8.649901e-002 3.563996e-002 -1.250537e-002 -2.292925e-002
<VARIANCE> 39
 2.421895e+001 6.566646e+001 8.027119e+001 1.145780e+002 8.569906e+001 1.164681e+002 8.670556e+001 9.939405e+001 6.329541e+001 7.931332e+001 8.911176e+001 6.113241e+001 7.111292e+001 7.444302e-001 3.207288e+000 2.647281e+000 4.524784e+000 3.563014e+000 4.846555e+000 4.360622e+000 4.501914e+000 3.623253e+000 4.021423e+000 3.599042e+000 2.847004e+000 3.114863e+000 1.200839e-001 3.163706e-001 3.439450e-001 7.312531e-001 5.857953e-001 7.150604e-001 6.794851e-001 7.316699e-001 5.999142e-001 6.990337e-001 6.671125e-001 5.039249e-001 3.698132e-001
<GCONST> 1.339819e+002
<STATE> 3
<MEAN> 39
 -2.354683e+000 -8.894891e+000 -1.414751e+000 -1.677242e+001 -4.849483e+000 -8.694360e+000 -5.648459e+000 -4.008382e+000 -5.365163e+000 -3.736403e+000 -7.063153e+000 -5.239475e+000 7.063969e+001 1.138729e-002 -6.008546e-001 -3.786727e-001 -1.854708e-001 2.531890e-001 4.269172e-001 2.971069e-001 1.857410e-001 -9.819557e-002 -2.540056e-001 -1.175507e-001 -1.758668e-001 4.533077e-001 7.713913e-003 3.036757e-002 1.288366e-003 1.586669e-001 5.646281e-002 8.748187e-002 -2.847703e-002 -1.181512e-001 -4.360786e-002 -2.708125e-002 8.910989e-002 2.261497e-002 -9.493475e-002
<VARIANCE> 39
 2.379388e+001 7.331026e+001 7.851109e+001 1.120682e+002 8.586644e+001 1.226769e+002 8.917133e+001 9.965018e+001 6.311737e+001 7.667738e+001 9.098470e+001 6.231861e+001 6.573801e+001 6.336016e-001 2.974408e+000 2.390633e+000 4.192103e+000 3.319540e+000 4.579707e+000 4.013728e+000 4.071800e+000 3.305748e+000 3.740001e+000 3.420810e+000 2.652794e+000 2.794273e+000 1.017338e-001 3.131380e-001 3.162971e-001 6.562908e-001 5.243220e-001 6.665367e-001 6.289817e-001 6.777449e-001 5.595255e-001 6.538352e-001 6.166139e-001 4.773833e-001 3.378722e-001
<GCONST> 1.318568e+002
<STATE> 4
<MEAN> 39
 -2.445791e+000 -1.055139e+001 -2.252761e+000 -1.722461e+001 -4.074599e+000 -5.708126e+000 -4.627749e+000 -3.716062e+000 -6.037650e+000 -4.396452e+000 -6.477259e+000 -5.567791e+000 7.158690e+001 2.779612e-002 -2.306260e-001 -2.020014e-001 2.250166e-001 2.134487e-001 2.834106e-001 5.233935e-002 -1.232078e-001 -8.186568e-002 -1.586061e-001 1.034669e-001 -6.836450e-002 1.189826e-002 4.963302e-003 9.349382e-002 5.277246e-002 8.401888e-002 -2.487788e-002 -9.067356e-002 -5.097258e-002 -3.467546e-002 2.506790e-002 4.842294e-002 4.361176e-002 2.692799e-002 -9.137961e-002
<VARIANCE> 39
 2.596891e+001 9.675168e+001 7.420511e+001 1.199541e+002 8.778999e+001 1.152546e+002 8.756082e+001 9.616099e+001 6.887840e+001 6.421210e+001 8.056718e+001 5.790145e+001 6.951950e+001 4.962111e-001 2.316286e+000 1.749067e+000 3.045913e+000 2.631185e+000 3.409704e+000 3.049699e+000 2.969404e+000 2.637942e+000 2.875780e+000 2.628891e+000 2.113832e+000 1.963973e+000 8.318629e-002 2.669660e-001 2.395847e-001 4.700487e-001 4.043822e-001 4.690750e-001 4.884973e-001 5.092912e-001 4.591339e-001 4.853014e-001 4.595751e-001 3.731764e-001 2.533929e-001
<GCONST> 1.248886e+002
<TRANSP> 5
 0.000000e+000 1.000000e+000 0.000000e+000 0.000000e+000 0.000000e+000
 0.000000e+000 5.996577e-001 4.003424e-001 0.000000e+000 0.000000e+000
 0.000000e+000 0.000000e+000 6.035097e-001 3.964903e-001 0.000000e+000
 0.000000e+000 0.000000e+000 0.000000e+000 7.418681e-001 2.581319e-001
 0.000000e+000 0.000000e+000 0.000000e+000 0.000000e+000 0.000000e+000
<ENDHMM>
~h "H"
<BEGINHMM>
<NUMSTATES> 5
<STATE> 2
<MEAN> 39
 -3.801024e+000 -8.576932e+000 -2.861943e+000 -1.107316e+001 -6.447674e-001 -3.887318e+000 -5.155853e+000 -5.753647e+000 -5.971163e+000 -8.921040e+000 -3.864763e+000 -5.794482e+000 6.856852e+001 -2.572205e-002 -4.242071e-001 -2.016218e-001 -4.200251e-002 2.895972e-001 1.946524e-001 -9.009660e-002 -3.216006e-003 -1.000968e-001 -3.498081e-001 1.076967e-001 -1.997256e-001 3.100938e-001 2.373784e-002 -2.808407e-002 7.996047e-003 -7.478943e-002 -8.158063e-002 -1.572061e-002 -1.755744e-002 1.244263e-002 2.577484e-002 9.510950e-002 -7.693959e-003 9.115529e-003 4.468431e-002
<VARIANCE> 39
 3.067772e+001 6.442163e+001 7.494300e+001 9.817719e+001 1.009237e+002 8.439223e+001 8.747669e+001 8.021511e+001 7.340603e+001 7.481339e+001 6.380510e+001 5.182603e+001 6.988110e+001 8.296070e-001 2.215306e+000 2.025019e+000 2.873317e+000 3.318809e+000 2.753982e+000 3.010133e+000 2.914821e+000 2.643459e+000 3.052222e+000 2.666679e+000 2.279740e+000 1.368814e+000 1.425464e-001 2.978829e-001 3.038614e-001 4.050409e-001 4.862025e-001 4.475743e-001 4.811489e-001 5.044439e-001 4.563628e-001 5.183428e-001 4.468407e-001 3.828242e-001 1.658366e-001
<GCONST> 1.247990e+002
<STATE> 3
<MEAN> 39
 -3.693309e+000 -9.720627e+000 -3.383435e+000 -1.147759e+001 -1.977560e-001 -3.530702e+000 -5.505832e+000 -5.857774e+000 -6.176780e+000 -9.549710e+000 -3.683632e+000 -6.302690e+000 6.953112e+001 3.534238e-002 -4.060809e-001 -1.527381e-001 -2.022190e-001 6.723957e-002 1.677996e-001 -7.813461e-002 3.840814e-002 -4.068886e-002 -7.306519e-002 4.704997e-002 -1.436488e-001 3.561792e-001 2.555873e-002 1.544338e-002 2.325634e-002 -5.322488e-002 -8.163127e-002 -2.068251e-002 1.351683e-003 1.197354e-002 1.527166e-002 1.003918e-001 -1.896598e-002 1.971593e-002 1.093319e-002
<VARIANCE> 39
 3.092009e+001 6.689126e+001 7.466749e+001 9.924667e+001 1.047245e+002 8.492533e+001 9.027676e+001 7.975912e+001 7.225390e+001 7.496980e+001 6.169981e+001 5.072210e+001 6.349787e+001 8.084997e-001 2.113315e+000 1.880150e+000 2.645135e+000 2.834424e+000 2.509323e+000 2.693441e+000 2.631048e+000 2.402234e+000 2.806590e+000 2.436047e+000 2.097858e+000 1.335912e+000 1.355577e-001 2.801305e-001 2.787754e-001 3.682004e-001 4.232551e-001 4.004598e-001 4.232279e-001 4.438648e-001 4.033961e-001 4.645061e-001 3.994547e-001 3.466672e-001 1.495795e-001
<GCONST> 1.223374e+002
<STATE> 4
<MEAN> 39
 -3.924443e+000 -1.118968e+001 -3.699829e+000 -1.119277e+001 -6.572687e-001 -2.384057e+000 -5.295591e+000 -4.957067e+000 -6.066745e+000 -8.512329e+000 -3.544132e+000 -6.190664e+000 6.922379e+001 5.496559e-002 -1.197239e-001 -1.739965e-002 -1.760023e-001 -1.192814e-001 3.920031e-002 3.151006e-002 4.599263e-002 2.287590e-002 1.090458e-001 -1.197383e-002 -3.125465e-002 1.232310e-001 2.914836e-002 5.757283e-002 2.493702e-002 -8.876006e-003 -5.095528e-002 -3.934747e-002 1.577164e-003 -1.042881e-002 1.747350e-003 3.872195e-002 -1.636534e-002 1.280743e-002 -2.883546e-002
<VARIANCE> 39
 3.033429e+001 7.341881e+001 7.065945e+001 1.062045e+002 9.767713e+001 7.643669e+001 9.277273e+001 7.551178e+001 7.298766e+001 6.394134e+001 5.445667e+001 4.770066e+001 9.320713e+001 6.214552e-001 1.605207e+000 1.380517e+000 1.947921e+000 2.025421e+000 1.943229e+000 2.110877e+000 2.099936e+000 1.939173e+000 2.116136e+000 1.931569e+000 1.671389e+000 1.076325e+000 1.029047e-001 2.128806e-001 2.068334e-001 2.794724e-001 3.067589e-001 3.018470e-001 3.286923e-001 3.514005e-001 3.261662e-001 3.457734e-001 3.165372e-001 2.759374e-001 1.212204e-001
<GCONST> 1.154902e+002
<TRANSP> 5
 0.000000e+000 1.000000e+000 0.000000e+000 0.000000e+000 0.000000e+000
 0.000000e+000 6.019329e-001 3.980671e-001 0.000000e+000 0.000000e+000
 0.000000e+000 0.000000e+000 6.118180e-001 3.881820e-001 0.000000e+000
 0.000000e+000 0.000000e+000 0.000000e+000 8.370104e-001 1.629897e-001
 0.000000e+000 0.000000e+000 0.000000e+000 0.000000e+000 0.000000e+000
<ENDHMM>
~h "I"
<BEGINHMM>
<NUMSTATES> 5
<STATE> 2
<MEAN> 39
 -4.144096e+000 -7.359845e+000 3.024825e+000 -1.444572e+001 -1.049684e+001 -9.212059e+000 -7.065786e+000 -4.983708e+000 -5.679099e+000 -3.924022e+000 -4.880089e+000 -5.167623e+000 7.147671e+001 -1.601191e-001 3.605191e-001 1.007197e+000 -1.132016e-001 -9.850810e-001 -5.237759e-001 -1.058336e-001 -3.079134e-001 -3.076030e-001 2.089532e-001 2.653833e-002 3.894298e-002 -1.035132e-001 7.311499e-003 8.927891e-002 -5.201264e-002 1.172672e-001 1.959896e-001 1.663733e-001 -2.849684e-003 -9.001767e-002 1.934664e-002 -6.533568e-003 5.286901e-002 1.862542e-002 -2.171302e-001
<VARIANCE> 39
 2.668958e+001 6.649450e+001 9.636752e+001 1.074248e+002 9.202955e+001 7.226883e+001 8.362337e+001 9.402051e+001 6.563210e+001 6.854622e+001 7.832665e+001 5.546590e+001 5.323753e+001 1.229929e+000 2.422655e+000 2.886845e+000 4.733634e+000 5.099788e+000 4.175510e+000 4.338912e+000 4.381492e+000 3.930623e+000 3.800834e+000 4.059218e+000 3.114280e+000 3.152515e+000 2.032007e-001 3.408336e-001 4.416577e-001 6.697770e-001 8.184078e-001 6.792457e-001 7.414602e-001 7.801355e-001 6.977618e-001 6.741008e-001 6.801684e-001 5.484791e-001 3.672271e-001
<GCONST> 1.352736e+002
<STATE> 3
<MEAN> 39
 -4.450423e+000 -6.320657e+000 4.947138e+000 -1.430627e+001 -1.183873e+001 -9.693677e+000 -7.305911e+000 -5.940516e+000 -6.241459e+000 -3.591177e+000 -4.710961e+000 -5.063694e+000 7.060814e+001 -8.506938e-002 4.793294e-001 7.115997e-001 2.041203e-001 -3.624127e-001 -1.053580e-001 -8.058798e-002 -3.974825e-001 -1.828894e-001 1.238473e-001 7.558121e-002 6.825697e-002 -5.518045e-001 2.864520e-002 4.031636e-002 -1.602659e-001 1.520154e-001 2.778203e-001 1.720006e-001 3.005909e-002 -1.538491e-002 6.727923e-002 -4.296565e-002 2.042696e-002 1.511768e-002 -1.843016e-001
<VARIANCE> 39
 2.580180e+001 6.049902e+001 9.236013e+001 1.111109e+002 8.824136e+001 6.857001e+001 7.621147e+001 9.012667e+001 6.336507e+001 6.605408e+001 7.997477e+001 5.402362e+001 5.566830e+001 1.218630e+000 2.341484e+000 3.070490e+000 4.620044e+000 5.237437e+000 3.963371e+000 4.053304e+000 4.288529e+000 3.698472e+000 3.598826e+000 3.652904e+000 2.895098e+000 3.154927e+000 1.946939e-001 3.460298e-001 4.420004e-001 6.711168e-001 7.882536e-001 6.525953e-001 7.043509e-001 7.618995e-001 6.658746e-001 6.472229e-001 6.394386e-001 5.198287e-001 3.718640e-001
<GCONST> 1.340920e+002
<STATE> 4
<MEAN> 39
 -5.035141e+000 -4.698922e+000 6.679106e+000 -1.302610e+001 -1.194909e+001 -8.525932e+000 -7.425701e+000 -6.915967e+000 -6.515966e+000 -3.368026e+000 -4.289460e+000 -4.915916e+000 6.822096e+001 2.888729e-003 3.749571e-001 1.614923e-001 4.819041e-001 2.680247e-001 1.559891e-001 7.820458e-002 -2.074318e-001 4.796385e-002 2.119030e-002 7.898174e-002 1.163056e-001 -7.985925e-001 1.900514e-002 -2.030852e-002 -1.720956e-001 8.922052e-002 1.802131e-001 7.169603e-002 5.639951e-002 6.326555e-002 7.121141e-002 -2.429150e-002 1.319310e-002 1.696996e-002 -5.294292e-002
<VARIANCE> 39
 2.591990e+001 5.497313e+001 8.690645e+001 1.192115e+002 8.666241e+001 6.610411e+001 7.104028e+001 8.148242e+001 6.175841e+001 5.888261e+001 7.898872e+001 5.220286e+001 7.584093e+001 1.071346e+000 2.116184e+000 2.792181e+000 3.752888e+000 4.188793e+000 3.150707e+000 3.468582e+000 3.793974e+000 3.217703e+000 3.058676e+000 3.059166e+000 2.492190e+000 2.636671e+000 1.793166e-001 3.153904e-001 3.757842e-001 6.009257e-001 6.605005e-001 5.496342e-001 5.968205e-001 6.444427e-001 5.709593e-001 5.467834e-001 5.375981e-001 4.431900e-001 3.729691e-001
<GCONST> 1.300520e+002
<TRANSP> 5
 0.000000e+000 1.000000e+000 0.000000e+000 0.000000e+000 0.000000e+000
 0.000000e+000 5.021257e-001 4.978743e-001 0.000000e+000 0.000000e+000
 0.000000e+000 0.000000e+000 5.051452e-001 4.948547e-001 0.000000e+000
 0.000000e+000 0.000000e+000 0.000000e+000 6.254096e-001 3.745904e-001
 0.000000e+000 0.000000e+000 0.000000e+000 0.000000e+000 0.000000e+000
<ENDHMM>
~h "K"
<BEGINHMM>
<NUMSTATES> 5
<STATE> 2
<MEAN> 39
 -6.149630e+000 -3.622859e+000 1.663453e+000 -6.314178e+000 -6.341016e+000 -6.244502e+000 -2.636229e+000 -5.474122e+000 -1.632713e+000 -2.108832e+000 -2.875594e+000 -2.796118e+000 5.851971e+001 -5.921507e-001 -3.111522e-001 2.173450e-001 2.709408e-001 -2.405496e-001 -3.209544e-001 3.638375e-001 2.853741e-001 2.813877e-001 3.310141e-001 3.118535e-001 2.236534e-001 2.631972e-001 4.362145e-002 -1.188672e-001 6.434827e-002 -3.083019e-001 -2.409787e-001 -9.914465e-002 -1.361265e-001 -4.929271e-002 -1.469654e-001 -6.884402e-003 -7.110921e-002 -4.705035e-002 5.336788e-001
<VARIANCE> 39
 2.693641e+001 3.573867e+001 5.742020e+001 6.863219e+001 6.974480e+001 5.328343e+001 5.205364e+001 6.713517e+001 5.395859e+001 4.487050e+001 5.397515e+001 3.908394e+001 9.861424e+001 2.252187e+000 3.214174e+000 3.902856e+000 6.174636e+000 6.387247e+000 4.967070e+000 4.878410e+000 5.411793e+000 5.162271e+000 3.712064e+000 4.446088e+000 3.464949e+000 1.221646e+001 3.929974e-001 5.536269e-001 6.991267e-001 9.963016e-001 1.068789e+000 8.853060e-001 8.878288e-001 1.024125e+000 9.093512e-001 7.065652e-001 8.141671e-001 6.858593e-001 1.411936e+000
<GCONST> 1.406083e+002
<STATE> 3
<MEAN> 39
 -7.577437e+000 -4.971070e+000 2.701559e+000 -7.350459e+000 -8.583718e+000 -7.769535e+000 -2.412665e+000 -5.058368e+000 -1.757846e+000 -1.283783e+000 -2.400250e+000 -2.432544e+000 6.231736e+001 -1.943753e-001 -3.799024e-001 5.969561e-001 -8.818730e-001 -1.119402e+000 -5.460869e-001 -2.585500e-001 1.524279e-002 -3.662789e-001 2.004347e-001 -5.136169e-002 -9.071197e-002 1.711565e+000 1.474939e-001 2.285368e-003 6.858207e-002 -2.727736e-001 -1.369462e-001 2.771285e-002 -1.619210e-001 -3.525656e-002 -1.543980e-001 -8.305721e-002 -1.109606e-001 -1.277404e-001 1.552478e-001
<VARIANCE> 39
 2.560692e+001 3.527710e+001 6.185028e+001 8.078574e+001 8.079974e+001 5.401245e+001 5.420530e+001 6.595731e+001 5.494931e+001 4.347924e+001 5.474651e+001 4.032312e+001 1.138141e+002 2.631744e+000 3.175042e+000 4.769681e+000 8.038288e+000 7.694632e+000 5.091333e+000 5.757619e+000 5.707687e+000 5.491111e+000 3.928354e+000 5.725130e+000 4.047257e+000 1.199991e+001 4.630251e-001 5.753769e-001 7.815861e-001 1.288557e+000 1.291817e+000 9.197522e-001 1.012020e+000 1.023850e+000 9.389837e-001 7.223458e-001 9.695113e-001 7.493587e-001 1.680894e+000
<GCONST> 1.441086e+002
<STATE> 4
<MEAN> 39
 -7.692341e+000 -5.588772e+000 4.129121e+000 -9.603025e+000 -1.159218e+001 -7.894959e+000 -3.241353e+000 -4.756108e+000 -3.102138e+000 -8.843197e-001 -2.565277e+000 -3.146317e+000 6.524019e+001 6.411000e-002 -2.162847e-001 4.912033e-001 -8.414379e-001 -7.949659e-001 -2.773769e-001 -3.606934e-001 -1.022735e-001 -4.149665e-001 -6.979787e-002 -1.731272e-001 -2.233773e-001 1.218127e+000 6.494905e-002 3.063216e-002 -2.113800e-002 2.584094e-002 8.340985e-002 3.370718e-002 -2.476765e-002 -3.528786e-002 -2.172335e-002 -7.287569e-002 -2.941224e-002 -1.405318e-002 -1.127774e-001
<VARIANCE> 39
 2.198514e+001 3.584993e+001 7.177340e+001 9.473569e+001 9.086388e+001 5.041082e+001 5.588783e+001 7.283498e+001 6.081537e+001 4.507586e+001 6.420033e+001 4.165499e+001 1.375034e+002 1.755883e+000 2.428170e+000 3.611561e+000 5.843840e+000 5.479545e+000 3.492806e+000 4.277292e+000 4.291686e+000 3.948492e+000 3.133082e+000 4.536990e+000 3.060252e+000 7.593304e+000 3.267137e-001 4.213364e-001 5.964221e-001 1.005962e+000 9.791901e-001 6.412701e-001 7.772726e-001 7.540863e-001 7.117162e-001 5.695770e-001 7.839022e-001 5.781420e-001 1.122244e+000
<GCONST> 1.371062e+002
<TRANSP> 5
 0.000000e+000 1.000000e+000 0.000000e+000 0.000000e+000 0.000000e+000
 0.000000e+000 6.827217e-001 3.172783e-001 0.000000e+000 0.000000e+000
 0.000000e+000 0.000000e+000 6.855755e-001 3.144245e-001 0.000000e+000
 0.000000e+000 0.000000e+000 0.000000e+000 7.158750e-001 2.841249e-001
 0.000000e+000 0.000000e+000 0.000000e+000 0.000000e+000 0.000000e+000
<ENDHMM>
~h "L"
<BEGINHMM>
<NUMSTATES> 5
<STATE> 2
<MEAN> 39
 -2.306821e+000 -9.940510e+000 4.218870e-002 -1.495800e+001 -5.570529e+000 -1.030771e+001 -1.029735e+001 -3.757474e+000 -3.591829e+000 -7.292500e+000 -5.346297e+000 -3.710630e+000 7.034550e+001 8.901618e-003 -3.073138e-001 -8.857916e-002 -2.663439e-001 1.016781e-001 -5.021136e-001 -2.460842e-001 5.775543e-001 1.092575e-001 -2.418772e-001 -2.280390e-001 1.685208e-002 4.305650e-001 -3.864495e-002 -5.728246e-002 -8.586608e-002 2.143279e-002 1.366823e-002 1.669145e-001 1.890052e-001 2.002072e-002 -7.704128e-002 1.980967e-002 -6.460103e-003 -3.608049e-002 6.092167e-002
<VARIANCE> 39
 2.359808e+001 6.043151e+001 7.679802e+001 8.152454e+001 6.968867e+001 1.128151e+002 1.121330e+002 9.109300e+001 7.387975e+001 8.718641e+001 6.568185e+001 6.212830e+001 5.371289e+001 8.277444e-001 2.477198e+000 2.882478e+000 3.442110e+000 3.594372e+000 6.294521e+000 6.383533e+000 5.368230e+000 4.231438e+000 4.233076e+000 3.762981e+000 3.013366e+000 1.784660e+000 1.330498e-001 3.544508e-001 3.899228e-001 5.666382e-001 5.855934e-001 1.031222e+000 1.105718e+000 9.437494e-001 7.362207e-001 7.581527e-001 6.756886e-001 5.262790e-001 2.113753e-001
<GCONST> 1.343135e+002
<STATE> 3
<MEAN> 39
 -2.479888e+000 -1.118869e+001 -6.932659e-001 -1.572402e+001 -5.207885e+000 -1.082933e+001 -9.954556e+000 -2.220858e+000 -3.761829e+000 -7.911746e+000 -6.023580e+000 -3.793509e+000 7.198376e+001 -1.229538e-001 -5.242166e-001 -4.092253e-001 -1.243217e-001 1.944852e-001 2.964267e-001 3.925138e-001 3.715547e-001 -1.466844e-001 -1.726926e-001 -2.175137e-001 -1.072619e-001 5.808421e-001 -2.971224e-002 -2.663349e-002 -6.892344e-002 7.248388e-002 2.410328e-002 2.264243e-001 1.459675e-001 -1.243668e-001 -6.935965e-002 2.606378e-002 4.016097e-002 -3.164825e-002 4.848790e-003
<VARIANCE> 39
 2.130488e+001 6.002463e+001 7.249546e+001 7.505400e+001 6.716609e+001 1.141830e+002 1.150761e+002 8.821387e+001 7.482914e+001 9.064413e+001 6.301716e+001 6.210579e+001 4.412659e+001 7.239925e-001 2.728549e+000 3.038797e+000 3.266789e+000 3.362741e+000 6.920204e+000 6.945611e+000 5.285083e+000 4.157624e+000 4.112865e+000 3.662206e+000 2.864094e+000 1.756117e+000 1.101687e-001 3.797280e-001 3.950720e-001 5.074627e-001 5.437122e-001 1.053147e+000 1.132612e+000 9.158303e-001 7.102352e-001 7.469356e-001 6.673362e-001 4.900885e-001 2.120320e-001
<GCONST> 1.333586e+002
<STATE> 4
<MEAN> 39
 -3.219327e+000 -1.334987e+001 -2.320724e+000 -1.595237e+001 -3.932899e+000 -7.800939e+000 -8.207481e+000 -1.552327e+000 -4.844246e+000 -7.943347e+000 -6.544685e+000 -4.377041e+000 7.384305e+001 -8.699239e-002 -2.965880e-001 -3.264357e-001 8.697098e-002 1.529130e-001 4.988514e-001 4.335626e-001 -8.461919e-002 -1.586826e-001 -1.605260e-002 5.039369e-003 -1.511514e-001 2.617126e-001 2.143696e-002 8.423026e-002 4.708839e-002 4.079490e-002 -2.947453e-002 -9.263680e-003 -1.793906e-002 -9.253304e-002 4.671810e-003 4.635283e-002 6.139833e-002 -1.648240e-003 -8.672547e-002
<VARIANCE> 39
 2.135050e+001 6.456612e+001 7.123338e+001 7.659751e+001 7.200835e+001 1.088268e+002 1.118572e+002 8.773212e+001 7.814519e+001 7.954343e+001 5.932464e+001 6.060058e+001 4.235141e+001 5.585546e-001 2.303916e+000 2.323262e+000 2.478901e+000 2.757116e+000 4.934033e+000 5.071128e+000 3.861484e+000 3.159187e+000 3.285271e+000 2.979823e+000 2.311682e+000 1.461000e+000 8.549322e-002 3.065804e-001 3.077028e-001 3.778192e-001 4.163072e-001 7.541993e-001 8.322786e-001 6.730859e-001 5.457588e-001 5.606447e-001 5.336276e-001 3.895378e-001 1.803416e-001
<GCONST> 1.265740e+002
<TRANSP> 5
 0.000000e+000 1.000000e+000 0.000000e+000 0.000000e+000 0.000000e+000
 0.000000e+000 6.679789e-001 3.320211e-001 0.000000e+000 0.000000e+000
 0.000000e+000 0.000000e+000 6.785527e-001 3.214473e-001 0.000000e+000
 0.000000e+000 0.000000e+000 0.000000e+000 7.983750e-001 2.016250e-001
 0.000000e+000 0.000000e+000 0.000000e+000 0.000000e+000 0.000000e+000
<ENDHMM>
~h "M"
<BEGINHMM>
<NUMSTATES> 5
<STATE> 2
<MEAN> 39
 -5.107294e-001 -7.249207e+000 -3.327318e-002 -1.010380e+001 -3.963259e+000 -4.961985e+000 -8.447800e+000 -9.983519e+000 -7.328506e+000 -6.453920e+000 -5.876109e+000 -6.275398e+000 6.627390e+001 2.835478e-001 5.424225e-001 2.470620e-001 3.733835e-001 1.397149e-001 2.823124e-002 -4.964016e-001 -8.732633e-001 -4.313217e-001 -1.348428e-001 -1.950825e-001 2.981706e-003 -4.931497e-001 -6.968804e-002 -4.906359e-002 -2.950624e-002 -1.073993e-001 -4.037781e-002 1.857045e-002 7.385431e-002 1.132745e-001 1.139210e-002 -1.673565e-002 1.885166e-002 2.701730e-002 1.215886e-001
<VARIANCE> 39
 2.308474e+001 7.325117e+001 6.889025e+001 8.391518e+001 7.072778e+001 9.131012e+001 7.905155e+001 1.067028e+002 7.188900e+001 7.230240e+001 7.485766e+001 6.220162e+001 6.555702e+001 1.100986e+000 2.644664e+000 3.062309e+000 3.893577e+000 2.909271e+000 3.261042e+000 3.717641e+000 6.341035e+000 4.324328e+000 3.861745e+000 3.801437e+000 3.205668e+000 2.787462e+000 1.847920e-001 3.429026e-001 4.683979e-001 6.213133e-001 4.671740e-001 5.071145e-001 6.161634e-001 1.060533e+000 7.689880e-001 6.659578e-001 6.521353e-001 5.621225e-001 2.983434e-001
<GCONST> 1.333279e+002
<STATE> 3
<MEAN> 39
 -4.317186e-002 -6.308389e+000 3.009195e-001 -9.740271e+000 -3.787599e+000 -4.803652e+000 -9.352667e+000 -1.146224e+001 -8.241884e+000 -6.853297e+000 -6.258863e+000 -6.251334e+000 6.574135e+001 6.894948e-002 2.720379e-001 5.572953e-002 3.278511e-002 3.169943e-002 9.257933e-002 -1.596383e-001 -2.394033e-001 -2.033953e-001 -1.825726e-001 -1.007718e-001 3.682952e-002 -1.348015e-001 -7.933322e-002 -1.040721e-001 -9.001347e-002 -1.343769e-001 -3.936423e-002 2.309005e-002 1.462178e-001 2.864861e-001 1.134732e-001 2.631623e-003 5.850835e-002 9.445764e-003 1.314425e-001
<VARIANCE> 39
 2.074846e+001 6.724961e+001 6.669859e+001 8.492283e+001 6.722472e+001 9.467559e+001 7.814990e+001 1.069983e+002 7.201838e+001 7.505341e+001 7.770319e+001 6.307191e+001 5.502145e+001 9.920508e-001 2.695049e+000 3.108929e+000 3.944831e+000 2.789675e+000 3.140562e+000 3.700661e+000 6.954333e+000 4.585283e+000 3.824101e+000 3.910284e+000 3.329913e+000 2.791782e+000 1.645829e-001 3.161489e-001 4.892123e-001 6.320579e-001 4.717679e-001 5.016236e-001 6.017616e-001 1.064245e+000 7.842155e-001 6.921734e-001 6.823620e-001 5.834523e-001 2.839935e-001
<GCONST> 1.330085e+002
<STATE> 4
<MEAN> 39
 -2.650312e-001 -5.188927e+000 2.595011e-001 -9.454105e+000 -3.823841e+000 -3.095075e+000 -8.799397e+000 -1.106772e+001 -8.087490e+000 -7.001316e+000 -5.860989e+000 -5.730789e+000 6.479054e+001 -8.360825e-002 1.030021e-001 -1.524591e-001 -1.253056e-001 -3.318286e-002 8.056059e-002 2.059742e-001 4.126952e-001 1.773018e-001 -6.393032e-002 6.342212e-002 3.602308e-002 -4.276704e-002 -3.846828e-002 -6.636570e-002 -8.564112e-002 -8.480699e-002 -4.280256e-003 -1.259466e-002 8.730036e-002 2.024807e-001 1.039296e-001 5.658496e-002 7.715875e-002 -9.010352e-003 7.828753e-002
<VARIANCE> 39
 2.312535e+001 7.190352e+001 6.564319e+001 9.403380e+001 6.747456e+001 9.078043e+001 8.149404e+001 1.168991e+002 7.598708e+001 6.794801e+001 7.341222e+001 5.911119e+001 6.974928e+001 8.303404e-001 1.974355e+000 2.373955e+000 3.096941e+000 2.432109e+000 2.579824e+000 2.902858e+000 4.827953e+000 3.626885e+000 3.058599e+000 3.205167e+000 2.690183e+000 1.931287e+000 1.396659e-001 2.633517e-001 3.992410e-001 5.168971e-001 4.182436e-001 4.251242e-001 4.918061e-001 8.178509e-001 6.407003e-001 5.484908e-001 5.685899e-001 4.788519e-001 2.319224e-001
<GCONST> 1.277311e+002
<TRANSP> 5
 0.000000e+000 1.000000e+000 0.000000e+000 0.000000e+000 0.000000e+000
 0.000000e+000 5.715281e-001 4.284720e-001 0.000000e+000 0.000000e+000
 0.000000e+000 0.000000e+000 5.809682e-001 4.190318e-001 0.000000e+000
 0.000000e+000 0.000000e+000 0.000000e+000 7.321851e-001 2.678149e-001
 0.000000e+000 0.000000e+000 0.000000e+000 0.000000e+000 0.000000e+000
<ENDHMM>
~h "N"
<BEGINHMM>
<NUMSTATES> 5
<STATE> 2
<MEAN> 39
 -1.004060e+000 -5.601980e+000 1.252698e+000 -1.223306e+001 -7.645684e+000 -6.716165e+000 -7.036775e+000 -8.545762e+000 -6.364187e+000 -6.277311e+000 -7.297190e+000 -5.133722e+000 6.658482e+001 2.290131e-001 5.240222e-001 2.191089e-001 5.189823e-001 -8.254257e-002 -1.519885e-001 -1.768844e-001 -6.050704e-001 -7.028158e-003 -1.901893e-001 -2.493315e-001 1.560342e-001 -6.737858e-001 -6.644925e-002 -7.096741e-002 -4.442440e-002 -2.334373e-002 4.721191e-002 3.745585e-002 1.813395e-002 1.158025e-001 1.376825e-002 8.113265e-003 7.506266e-002 -1.100011e-002 7.624576e-002
<VARIANCE> 39
 2.438336e+001 6.153097e+001 7.694713e+001 8.632333e+001 7.679739e+001 8.001656e+001 7.719748e+001 9.851595e+001 7.147041e+001 7.631853e+001 7.974112e+001 6.295469e+001 5.414104e+001 1.000584e+000 2.489402e+000 2.641133e+000 3.220964e+000 3.269143e+000 3.373556e+000 3.348001e+000 5.288033e+000 3.398027e+000 3.590545e+000 3.334103e+000 3.060633e+000 2.218260e+000 1.557449e-001 3.420216e-001 3.771012e-001 5.005865e-001 5.157339e-001 5.649343e-001 5.689736e-001 9.045429e-001 5.965393e-001 6.153731e-001 5.621121e-001 5.198824e-001 2.614089e-001
<GCONST> 1.304466e+002
<STATE> 3
<MEAN> 39
 -6.470913e-001 -4.638216e+000 1.607945e+000 -1.121146e+001 -7.719102e+000 -6.923407e+000 -7.399208e+000 -9.563176e+000 -6.366520e+000 -6.631082e+000 -7.598739e+000 -4.794798e+000 6.532635e+001 3.320073e-002 2.904802e-001 7.005595e-002 4.494673e-001 8.776274e-002 -1.387907e-002 -7.035985e-002 -1.939013e-001 2.157634e-002 -1.226695e-001 -3.563571e-002 9.613520e-002 -4.832170e-001 -1.046125e-001 -1.156105e-001 -7.016767e-002 -4.008234e-002 9.239736e-002 5.600937e-002 6.121739e-002 2.098085e-001 2.280748e-002 4.104916e-002 1.018797e-001 -2.904769e-002 9.432864e-002
<VARIANCE> 39
 2.280100e+001 5.841256e+001 6.914474e+001 8.024410e+001 6.999611e+001 7.810065e+001 7.128592e+001 9.283585e+001 6.913804e+001 7.642816e+001 7.703396e+001 6.099391e+001 5.180771e+001 1.038708e+000 2.604629e+000 2.369759e+000 3.090474e+000 3.133162e+000 3.217390e+000 3.326052e+000 5.459381e+000 3.377997e+000 3.440466e+000 3.221762e+000 2.968827e+000 2.353848e+000 1.594065e-001 3.508948e-001 3.677722e-001 4.833832e-001 5.054816e-001 5.580835e-001 5.611858e-001 9.023722e-001 5.956644e-001 6.144820e-001 5.544245e-001 5.156186e-001 2.600619e-001
<GCONST> 1.294741e+002
<STATE> 4
<MEAN> 39
 -1.031155e+000 -3.724792e+000 1.587906e+000 -9.690375e+000 -6.935468e+000 -5.923203e+000 -7.160693e+000 -9.305136e+000 -5.974364e+000 -6.406588e+000 -7.057248e+000 -4.388393e+000 6.315677e+001 -1.881097e-001 9.403277e-002 -7.437611e-002 4.049725e-001 2.801623e-001 6.566522e-002 1.149169e-001 2.503212e-001 1.344205e-001 2.213906e-002 1.867200e-001 3.374381e-002 -4.032077e-001 -9.510955e-002 -1.081570e-001 -6.571183e-002 -5.171879e-002 8.160092e-002 1.687488e-002 5.684462e-002 1.800107e-001 4.388523e-002 4.932809e-002 8.156458e-002 -1.762803e-002 1.089611e-001
<VARIANCE> 39
 2.496786e+001 5.853542e+001 6.171727e+001 7.912533e+001 6.729753e+001 7.105844e+001 6.821718e+001 8.806578e+001 6.737445e+001 6.834536e+001 7.113589e+001 5.602185e+001 7.022781e+001 9.884977e-001 2.214805e+000 1.900770e+000 2.611729e+000 2.698426e+000 2.702548e+000 3.035732e+000 4.432394e+000 3.114313e+000 3.051757e+000 2.915207e+000 2.593587e+000 2.004470e+000 1.658050e-001 3.225334e-001 3.183437e-001 4.320590e-001 4.569420e-001 4.765248e-001 5.080014e-001 7.665850e-001 5.461718e-001 5.423000e-001 5.074713e-001 4.590457e-001 2.590734e-001
<GCONST> 1.261464e+002
<TRANSP> 5
 0.000000e+000 1.000000e+000 0.000000e+000 0.000000e+000 0.000000e+000
 0.000000e+000 5.319381e-001 4.680619e-001 0.000000e+000 0.000000e+000
 0.000000e+000 0.000000e+000 5.326229e-001 4.673771e-001 0.000000e+000
 0.000000e+000 0.000000e+000 0.000000e+000 6.701210e-001 3.298791e-001
 0.000000e+000 0.000000e+000 0.000000e+000 0.000000e+000 0.000000e+000
<ENDHMM>
~h "O"
<BEGINHMM>
<NUMSTATES> 5
<STATE> 2
<MEAN> 39
 -1.254105e+000 -1.383436e+001 -7.853228e+000 -1.498240e+001 -1.238675e+000 -2.653010e+000 -5.603343e+000 -4.042412e+000 -5.121703e+000 -6.669374e+000 -4.854003e+000 -7.971150e+000 7.355717e+001 4.758256e-001 -6.916156e-002 -6.998686e-001 -2.700432e-001 4.626861e-001 6.000440e-001 -3.701354e-001 -4.119006e-001 -1.100721e-001 -6.685513e-002 5.779089e-002 -3.443149e-001 -7.847124e-002 -8.232401e-002 2.880963e-001 2.589554e-001 1.510969e-001 -1.213004e-001 -6.629162e-002 3.073241e-002 -6.819241e-002 2.044531e-002 1.041567e-001 1.220730e-001 1.545286e-001 -2.511227e-001
<VARIANCE> 39
 2.775691e+001 7.248409e+001 6.858678e+001 7.674433e+001 8.304644e+001 8.846062e+001 7.524838e+001 7.483977e+001 6.500135e+001 7.471747e+001 7.523332e+001 7.055366e+001 4.697026e+001 1.173014e+000 4.026280e+000 3.289259e+000 4.392436e+000 4.977073e+000 4.225887e+000 4.060611e+000 3.899359e+000 3.780754e+000 4.274515e+000 4.092741e+000 3.594046e+000 2.694896e+000 2.103372e-001 4.812154e-001 4.567907e-001 7.703020e-001 7.977229e-001 6.969060e-001 6.896901e-001 6.962219e-001 6.941213e-001 7.599855e-001 7.886720e-001 6.542703e-001 3.036224e-001
<GCONST> 1.356501e+002
<STATE> 3
<MEAN> 39
 -3.152233e-001 -1.309217e+001 -8.594933e+000 -1.529410e+001 -8.723375e-001 -1.654237e+000 -6.250723e+000 -5.043137e+000 -5.276675e+000 -6.518283e+000 -4.416807e+000 -8.275104e+000 7.265244e+001 2.517805e-001 4.209400e-001 2.586443e-002 9.654143e-002 8.129258e-003 1.879670e-001 -2.010248e-001 -3.383412e-001 -4.955745e-002 7.898846e-002 1.216555e-001 2.342990e-002 -5.357130e-001 -1.102665e-001 1.778817e-001 2.977166e-001 1.863518e-001 -1.513809e-001 -1.745364e-001 7.167976e-002 2.726878e-002 1.287890e-002 2.864535e-002 3.315382e-003 1.490738e-001 -1.804609e-001
<VARIANCE> 39
 2.687673e+001 7.263010e+001 6.787341e+001 7.698433e+001 7.937779e+001 9.084196e+001 7.707323e+001 7.083913e+001 6.275714e+001 7.548559e+001 7.624075e+001 6.901373e+001 4.715845e+001 1.245466e+000 3.729491e+000 3.199874e+000 4.591184e+000 4.466136e+000 4.200418e+000 3.892106e+000 3.730060e+000 3.715315e+000 3.908206e+000 3.914671e+000 3.406583e+000 2.658525e+000 1.898248e-001 4.281539e-001 4.560373e-001 7.571820e-001 7.355434e-001 6.807911e-001 6.644335e-001 6.541945e-001 6.727836e-001 7.341353e-001 7.551058e-001 6.194891e-001 2.718988e-001
<GCONST> 1.343969e+002
<STATE> 4
<MEAN> 39
 -1.703172e-001 -1.200973e+001 -8.081889e+000 -1.466932e+001 -7.963223e-001 -5.786623e-001 -6.690965e+000 -5.473063e+000 -5.432044e+000 -6.242554e+000 -4.005112e+000 -8.145180e+000 7.091505e+001 -2.865234e-002 6.616096e-001 5.848486e-001 4.575233e-001 -2.618974e-001 -3.113911e-001 -2.948144e-002 -1.418168e-001 2.514124e-002 1.018812e-001 -1.614733e-002 3.140982e-001 -8.173959e-001 -8.290212e-002 8.069074e-002 1.700875e-001 1.251588e-001 -7.075646e-002 -1.309985e-001 5.019233e-002 2.418574e-002 7.739882e-003 -1.766425e-003 -3.359775e-002 8.282357e-002 -8.439861e-002
<VARIANCE> 39
 2.585652e+001 7.786188e+001 6.624254e+001 8.312358e+001 7.846572e+001 8.906439e+001 8.119951e+001 6.987576e+001 6.168187e+001 6.830685e+001 6.884500e+001 6.643224e+001 6.360092e+001 1.129217e+000 2.772507e+000 2.548846e+000 4.085385e+000 3.546591e+000 3.545957e+000 3.340914e+000 3.335961e+000 3.264281e+000 3.330947e+000 3.399849e+000 2.893175e+000 2.045914e+000 1.671519e-001 3.529392e-001 3.968993e-001 6.820017e-001 6.127643e-001 5.888493e-001 5.714719e-001 5.718541e-001 5.801024e-001 5.969259e-001 6.121516e-001 5.134662e-001 2.598970e-001
<GCONST> 1.302958e+002
<TRANSP> 5
 0.000000e+000 1.000000e+000 0.000000e+000 0.000000e+000 0.000000e+000
 0.000000e+000 5.795673e-001 4.204327e-001 0.000000e+000 0.000000e+000
 0.000000e+000 0.000000e+000 5.821955e-001 4.178045e-001 0.000000e+000
 0.000000e+000 0.000000e+000 0.000000e+000 6.934186e-001 3.065815e-001
 0.000000e+000 0.000000e+000 0.000000e+000 0.000000e+000 0.000000e+000
<ENDHMM>
~h "P"
<BEGINHMM>
<NUMSTATES> 5
<STATE> 2
<MEAN> 39
 -3.528703e+000 -7.827423e+000 -1.903268e+000 -6.973071e+000 -1.915509e+000 -3.179611e+000 -2.099449e+000 -1.653654e+000 -6.911094e-001 -2.175164e+000 -1.793477e+000 -3.614786e+000 6.246249e+001 -3.644209e-002 7.747185e-001 3.055044e-001 1.069456e+000 6.579477e-001 4.866320e-001 4.721465e-001 3.661875e-001 5.340975e-001 3.127500e-001 1.980148e-001 1.562264e-001 -1.341433e+000 -1.507332e-001 -1.004081e-001 1.662246e-002 -1.108482e-001 -8.569120e-002 -4.184483e-002 -4.603591e-002 -3.261105e-002 -1.136299e-001 -7.501213e-002 -8.016706e-002 -2.286590e-002 1.043892e-001
<VARIANCE> 39
 3.312900e+001 6.084299e+001 6.423338e+001 7.889667e+001 7.156753e+001 6.233961e+001 5.529229e+001 5.168357e+001 5.085393e+001 4.771933e+001 5.378138e+001 6.235105e+001 1.062998e+002 3.332710e+000 5.232062e+000 3.929306e+000 6.529731e+000 4.575078e+000 4.830952e+000 4.921239e+000 4.389430e+000 4.558651e+000 3.917711e+000 4.054851e+000 3.798673e+000 1.007552e+001 6.367721e-001 9.457985e-001 7.027624e-001 1.124471e+000 8.219799e-001 8.774896e-001 8.706869e-001 8.011684e-001 7.824389e-001 7.197341e-001 7.731370e-001 7.099217e-001 1.182455e+000
<GCONST> 1.425190e+002
<STATE> 3
<MEAN> 39
 -4.247174e+000 -6.567321e+000 -1.339460e+000 -4.930657e+000 -7.066465e-001 -2.151508e+000 -1.152444e+000 -1.097658e+000 1.635990e-001 -1.660263e+000 -1.478630e+000 -3.256759e+000 5.926008e+001 -3.211063e-001 3.208823e-001 1.158787e-001 4.047984e-001 1.570538e-001 9.158935e-002 1.100136e-001 1.058348e-001 1.273524e-001 5.087236e-002 2.960202e-002 1.127317e-001 -6.819684e-001 -3.819219e-002 -1.880234e-001 -7.792939e-002 -3.052602e-001 -1.947467e-001 -1.626214e-001 -1.714553e-001 -9.935153e-002 -1.612864e-001 -1.127964e-001 -8.036315e-002 -4.127307e-002 3.676536e-001
<VARIANCE> 39
 3.047007e+001 5.196291e+001 5.339365e+001 6.739277e+001 6.149343e+001 5.715051e+001 5.659541e+001 4.854298e+001 4.900676e+001 4.397260e+001 4.810006e+001 5.031402e+001 7.733635e+001 3.205467e+000 4.678876e+000 3.702978e+000 6.088988e+000 4.394974e+000 4.937366e+000 5.126343e+000 4.336843e+000 4.499116e+000 3.796355e+000 3.835948e+000 3.534300e+000 9.555040e+000 5.893103e-001 8.340223e-001 6.688090e-001 9.619356e-001 7.835960e-001 8.559075e-001 8.667626e-001 8.170500e-001 7.876993e-001 7.083455e-001 7.325690e-001 6.397023e-001 9.445909e-001
<GCONST> 1.395410e+002
<STATE> 4
<MEAN> 39
 -6.207712e+000 -5.706612e+000 -1.613721e+000 -3.603739e+000 -6.022668e-001 -1.792924e+000 -7.037155e-001 -9.668723e-001 7.336548e-001 -1.352818e+000 -1.088233e+000 -2.582005e+000 5.556126e+001 -1.155913e-001 2.215338e-001 6.933696e-002 -1.480508e-001 -1.789963e-001 -3.241146e-001 -3.659737e-001 -2.597996e-001 -2.679037e-001 -2.058023e-001 -1.170017e-001 2.763001e-003 3.010603e-001 8.856378e-002 -4.117883e-002 4.828312e-003 -1.977346e-001 -9.474319e-002 -1.120324e-001 -1.416512e-001 -8.645728e-002 -1.275893e-001 -7.296377e-002 -6.365616e-002 -4.482675e-002 3.561165e-001
<VARIANCE> 39
 2.637794e+001 4.349572e+001 4.440941e+001 5.180141e+001 5.060412e+001 4.567125e+001 5.198103e+001 4.333206e+001 4.407373e+001 3.703964e+001 3.952118e+001 3.660606e+001 6.568111e+001 2.330666e+000 3.170336e+000 2.755724e+000 3.802211e+000 3.301949e+000 3.647881e+000 4.135310e+000 3.677608e+000 3.701135e+000 3.108914e+000 3.027393e+000 2.672857e+000 5.170545e+000 3.977877e-001 5.666708e-001 4.899864e-001 6.562200e-001 6.017891e-001 6.583530e-001 7.153517e-001 6.839961e-001 6.713095e-001 5.809830e-001 5.777753e-001 4.995639e-001 6.535242e-001
<GCONST> 1.296501e+002
<TRANSP> 5
 0.000000e+000 1.000000e+000 0.000000e+000 0.000000e+000 0.000000e+000
 0.000000e+000 6.344940e-001 3.655060e-001 0.000000e+000 0.000000e+000
 0.000000e+000 0.000000e+000 6.124650e-001 3.875350e-001 0.000000e+000
 0.000000e+000 0.000000e+000 0.000000e+000 7.446278e-001 2.553721e-001
 0.000000e+000 0.000000e+000 0.000000e+000 0.000000e+000 0.000000e+000
<ENDHMM>
~h "R"
<BEGINHMM>
<NUMSTATES> 5
<STATE> 2
<MEAN> 39
 -1.374195e+000 -1.192010e+001 -2.153277e-001 -8.162421e+000 -9.075054e+000 -8.699321e+000 -7.495526e+000 -1.983075e+000 -4.226102e+000 -6.521043e+000 -5.135010e+000 -3.857880e+000 6.869857e+001 2.042593e-001 -8.337983e-001 -2.398250e-001 -1.070391e-001 -3.284468e-001 -2.551391e-001 9.606744e-002 6.873816e-001 -5.027981e-002 -1.842044e-001 -2.544859e-001 -7.034692e-003 5.890960e-001 -5.774536e-002 -1.817210e-003 -5.305066e-002 -1.502623e-001 1.258066e-001 1.660342e-001 4.826825e-002 -7.285874e-002 -8.020729e-002 1.751581e-002 -1.751778e-002 -4.088947e-002 5.727046e-002
<VARIANCE> 39
 4.098258e+001 7.739049e+001 7.537078e+001 1.044617e+002 8.442333e+001 7.392339e+001 8.656686e+001 8.473795e+001 6.185992e+001 6.305616e+001 5.681429e+001 4.420700e+001 6.523627e+001 2.350638e+000 4.256632e+000 2.957780e+000 5.903007e+000 6.055403e+000 5.551213e+000 4.493243e+000 5.417222e+000 3.964376e+000 3.813009e+000 4.039389e+000 3.143379e+000 3.148104e+000 4.404782e-001 6.118884e-001 3.984004e-001 8.312981e-001 1.111694e+000 9.250991e-001 7.220136e-001 8.937120e-001 6.755698e-001 6.866485e-001 7.146087e-001 5.445313e-001 3.877549e-001
<GCONST> 1.394140e+002
<STATE> 3
<MEAN> 39
 -1.060403e+000 -1.417352e+001 -1.065662e+000 -9.113031e+000 -9.468067e+000 -8.663466e+000 -7.014092e+000 -4.991194e-001 -4.705060e+000 -6.939014e+000 -5.887004e+000 -4.041399e+000 7.060030e+001 -4.387001e-003 -7.264075e-001 -4.180250e-001 -5.376469e-001 1.881674e-001 3.555351e-001 1.704506e-001 3.221000e-001 -2.902351e-001 -9.265561e-002 -2.805958e-001 -1.350989e-001 6.834002e-001 -9.128170e-002 1.358796e-001 -2.408633e-002 -5.081642e-002 2.028693e-001 1.521103e-001 1.310817e-002 -1.884893e-001 -4.840152e-002 3.765328e-002 5.703709e-002 -2.963536e-002 -5.206750e-002
<VARIANCE> 39
 3.556976e+001 7.411336e+001 7.015394e+001 1.046953e+002 8.433506e+001 7.661153e+001 9.011709e+001 8.774003e+001 6.662233e+001 6.341382e+001 5.520196e+001 4.515972e+001 5.869123e+001 2.153326e+000 3.804674e+000 2.715465e+000 5.332861e+000 6.105185e+000 5.433139e+000 4.296443e+000 5.146205e+000 3.879246e+000 3.668682e+000 3.799906e+000 3.003585e+000 2.658964e+000 3.870284e-001 5.589454e-001 3.453319e-001 7.584528e-001 1.032180e+000 8.717709e-001 6.864272e-001 8.561805e-001 6.578881e-001 6.413891e-001 6.813976e-001 5.262558e-001 3.290246e-001
<GCONST> 1.373815e+002
<STATE> 4
<MEAN> 39
 -1.786839e+000 -1.601141e+001 -2.554109e+000 -1.069160e+001 -7.418302e+000 -6.139431e+000 -6.139614e+000 -2.326165e-001 -6.071968e+000 -6.928128e+000 -6.364529e+000 -4.406371e+000 7.209742e+001 -1.637508e-001 -8.889075e-002 -2.977029e-001 -3.713499e-001 5.564657e-001 4.219882e-001 1.062925e-001 -2.542328e-001 -2.129607e-001 3.282811e-002 2.302387e-002 -1.632039e-001 2.423769e-001 -2.280892e-003 1.644946e-001 4.745619e-002 4.629799e-002 9.363306e-003 -4.050991e-002 -2.235338e-002 -1.062759e-001 5.071023e-002 3.393453e-002 9.487440e-002 7.190183e-003 -1.177659e-001
<VARIANCE> 39
 3.094259e+001 7.424596e+001 6.641113e+001 1.004228e+002 8.360416e+001 8.119532e+001 9.184153e+001 8.983046e+001 7.431702e+001 5.805823e+001 5.254065e+001 4.719823e+001 6.974331e+001 1.219281e+000 2.357615e+000 1.903096e+000 3.709840e+000 4.175106e+000 3.787563e+000 3.282727e+000 3.618736e+000 2.962638e+000 2.830570e+000 2.823451e+000 2.427286e+000 1.817781e+000 2.203244e-001 3.470955e-001 2.424505e-001 5.017482e-001 6.813605e-001 5.912831e-001 5.237255e-001 6.200690e-001 5.141655e-001 4.718877e-001 4.913271e-001 4.064598e-001 2.230676e-001
<GCONST> 1.281497e+002
<TRANSP> 5
 0.000000e+000 1.000000e+000 0.000000e+000 0.000000e+000 0.000000e+000
 0.000000e+000 6.397080e-001 3.602921e-001 0.000000e+000 0.000000e+000
 0.000000e+000 0.000000e+000 6.346858e-001 3.653143e-001 0.000000e+000
 0.000000e+000 0.000000e+000 0.000000e+000 7.207119e-001 2.792882e-001
 0.000000e+000 0.000000e+000 0.000000e+000 0.000000e+000 0.000000e+000
<ENDHMM>
~h "S"
<BEGINHMM>
<NUMSTATES> 5
<STATE> 2
<MEAN> 39
 -1.198637e+001 2.001297e+000 1.690630e-001 -5.770712e+000 -3.234690e+000 -7.119850e+000 -3.116703e+000 -3.283947e+000 -3.123399e+000 -3.907623e+000 -1.621233e+000 -2.421643e+000 6.603082e+001 -2.204742e+000 1.523341e+000 -1.792375e-001 1.176913e+000 9.556099e-001 4.654790e-001 7.842437e-001 7.329330e-001 6.160179e-001 1.816579e-001 6.323847e-001 2.793961e-001 -1.397841e-001 -1.363656e-001 -1.791303e-001 -1.197721e-001 -1.649634e-001 7.235627e-002 1.503970e-001 5.727991e-002 1.115757e-001 5.182076e-002 6.418846e-002 4.283479e-003 -2.659678e-002 1.210044e-001
<VARIANCE> 39
 1.100600e+002 7.278197e+001 7.090905e+001 8.366158e+001 7.575702e+001 6.700856e+001 6.890079e+001 7.031647e+001 5.590438e+001 5.095532e+001 5.438937e+001 3.819818e+001 4.726530e+001 7.372404e+000 6.084162e+000 4.058033e+000 6.722747e+000 5.695361e+000 5.519438e+000 5.101222e+000 4.877899e+000 4.293658e+000 4.279458e+000 4.140575e+000 3.439447e+000 2.372794e+000 1.468671e+000 8.899847e-001 6.008687e-001 9.647227e-001 1.001652e+000 1.002598e+000 9.037653e-001 8.929081e-001 7.799496e-001 7.862749e-001 7.234706e-001 6.007738e-001 2.799943e-001
<GCONST> 1.429413e+002
<STATE> 3
<MEAN> 39
 -1.774281e+001 3.909868e+000 -1.224636e+000 -4.514288e+000 -7.920259e-001 -5.539032e+000 -1.024641e+000 -4.815519e-001 -1.125126e+000 -3.315340e+000 -1.026704e-001 -1.452659e+000 6.697366e+001 4.833798e-002 -5.537612e-001 -3.618138e-001 -3.644094e-001 2.924661e-002 -2.705578e-002 1.887939e-002 4.162961e-001 1.486050e-001 -9.906617e-002 -8.412326e-002 1.189805e-001 5.130700e-001 5.094662e-001 -4.646645e-001 -2.902086e-002 -3.173476e-001 -1.932326e-001 -9.708942e-002 -2.012606e-001 -1.131767e-001 -1.356546e-001 -8.545545e-002 -1.867509e-001 -1.009232e-001 1.570789e-001
<VARIANCE> 39
 1.027992e+002 6.964280e+001 6.516512e+001 7.600591e+001 6.017418e+001 5.636626e+001 5.709945e+001 5.123347e+001 4.264551e+001 4.123005e+001 4.146745e+001 3.012259e+001 3.493581e+001 1.461787e+001 7.672386e+000 3.539913e+000 6.955297e+000 5.814868e+000 5.871918e+000 5.256887e+000 4.042085e+000 4.056293e+000 4.186872e+000 4.613692e+000 3.314748e+000 2.428120e+000 1.617111e+000 7.926583e-001 5.891637e-001 9.286095e-001 9.292637e-001 1.015087e+000 8.247207e-001 7.072088e-001 6.791475e-001 7.435884e-001 7.427232e-001 6.082168e-001 2.899798e-001
<GCONST> 1.406161e+002
<STATE> 4
<MEAN> 39
 -1.385156e+001 -2.778441e-001 -2.451910e+000 -6.588703e+000 -1.955815e+000 -6.110191e+000 -2.112941e+000 1.969881e-001 -1.267872e+000 -3.821570e+000 -1.360398e+000 -1.424344e+000 6.886697e+001 1.668735e+000 -1.750933e+000 -2.394832e-001 -1.199437e+000 -5.112888e-001 -3.917095e-001 -6.420195e-001 -7.115947e-002 -3.238080e-001 -4.022198e-001 -6.398062e-001 -3.292956e-001 1.010509e+000 -2.482153e-003 -8.057695e-002 2.134661e-003 -6.749298e-002 3.925961e-002 7.715873e-002 -1.616704e-002 -1.005742e-001 -6.143578e-002 2.369469e-002 2.871378e-003 -1.087609e-001 7.449882e-003
<VARIANCE> 39
 1.218676e+002 1.071045e+002 6.193022e+001 9.427282e+001 6.288339e+001 6.049357e+001 6.558215e+001 4.656444e+001 4.516211e+001 4.314110e+001 4.896755e+001 3.489001e+001 5.050206e+001 8.621812e+000 5.810497e+000 3.268915e+000 5.782924e+000 4.983982e+000 5.122109e+000 4.567426e+000 3.549078e+000 3.671615e+000 3.745359e+000 4.235189e+000 3.507692e+000 2.366167e+000 1.609037e+000 8.870614e-001 4.653073e-001 9.312165e-001 8.492583e-001 9.361864e-001 7.716473e-001 5.945882e-001 6.019297e-001 6.562014e-001 7.652805e-001 5.853757e-001 3.851777e-001
<GCONST> 1.399188e+002
<TRANSP> 5
 0.000000e+000 1.000000e+000 0.000000e+000 0.000000e+000 0.000000e+000
 0.000000e+000 7.840974e-001 2.159026e-001 0.000000e+000 0.000000e+000
 0.000000e+000 0.000000e+000 8.131898e-001 1.868102e-001 0.000000e+000
 0.000000e+000 0.000000e+000 0.000000e+000 8.295698e-001 1.704302e-001
 0.000000e+000 0.000000e+000 0.000000e+000 0.000000e+000 0.000000e+000
<ENDHMM>
~h "T"
<BEGINHMM>
<NUMSTATES> 5
<STATE> 2
<MEAN> 39
 -5.268178e+000 -4.415259e+000 -1.265427e+000 -7.159841e+000 -2.734328e+000 -4.830103e+000 -3.025097e+000 -2.672481e+000 -6.232957e-001 -2.565612e+000 -2.048801e+000 -2.833377e+000 5.813766e+001 -3.565529e-001 -5.700573e-002 -1.700006e-001 4.350015e-001 4.127762e-001 1.120358e-001 3.951371e-001 4.862100e-001 4.758300e-001 2.138535e-001 2.512681e-001 1.336865e-001 -4.555649e-001 7.665309e-002 -1.758973e-001 -9.715655e-002 -3.558125e-001 -1.190803e-001 -7.996244e-002 -1.607838e-001 -2.074745e-002 -1.196232e-001 -8.074925e-002 -9.945758e-002 -2.350013e-002 5.824350e-001
<VARIANCE> 39
 2.529109e+001 4.425294e+001 5.137306e+001 7.110967e+001 5.378011e+001 5.668418e+001 6.071054e+001 5.712023e+001 4.971177e+001 4.477358e+001 5.160623e+001 4.392086e+001 9.291047e+001 2.134410e+000 3.342278e+000 2.983070e+000 6.023268e+000 3.746839e+000 4.610136e+000 5.002351e+000 4.187119e+000 4.121549e+000 3.638260e+000 3.945293e+000 3.190495e+000 1.110669e+001 3.954135e-001 5.927997e-001 5.148596e-001 9.395061e-001 7.174647e-001 8.906533e-001 9.175101e-001 7.607047e-001 7.740344e-001 6.971717e-001 7.388701e-001 6.249878e-001 1.427457e+000
<GCONST> 1.374146e+002
<STATE> 3
<MEAN> 39
 -5.779289e+000 -5.272558e+000 -2.171286e+000 -7.723412e+000 -2.235164e+000 -5.053415e+000 -2.824722e+000 -1.528073e+000 4.102655e-002 -2.410722e+000 -1.899565e+000 -2.574886e+000 5.969505e+001 4.032108e-003 -4.863054e-001 -3.573207e-001 -6.363646e-001 2.836689e-002 -1.979902e-001 -2.421207e-001 3.341306e-001 -5.279029e-003 -1.104404e-001 -1.837550e-001 -1.746340e-002 1.334353e+000 1.185687e-001 -1.221576e-001 -1.087491e-002 -2.905546e-001 -1.291740e-001 -4.525795e-002 -2.108307e-001 -1.157577e-001 -2.006172e-001 -1.180068e-001 -1.486660e-001 -9.661030e-002 4.232464e-001
<VARIANCE> 39
 2.410762e+001 4.209810e+001 4.919579e+001 7.212326e+001 4.964569e+001 5.630964e+001 6.162943e+001 5.415149e+001 4.791979e+001 4.358703e+001 4.996000e+001 4.227866e+001 1.119778e+002 2.439810e+000 3.924372e+000 3.464327e+000 7.181056e+000 4.278847e+000 5.220945e+000 6.050611e+000 4.718773e+000 4.870685e+000 4.105246e+000 4.657842e+000 3.635005e+000 1.453515e+001 4.283555e-001 6.414507e-001 5.454397e-001 1.039376e+000 7.427974e-001 9.414591e-001 1.000546e+000 8.337547e-001 8.182909e-001 7.367737e-001 8.370990e-001 6.819987e-001 1.880412e+000
<GCONST> 1.404398e+002
<STATE> 4
<MEAN> 39
 -5.898501e+000 -6.292595e+000 -2.972083e+000 -8.714865e+000 -2.231175e+000 -4.874806e+000 -3.326658e+000 -9.590647e-001 -1.776763e-001 -2.781368e+000 -2.443947e+000 -2.691054e+000 6.137158e+001 1.791034e-001 -3.885766e-001 -1.219566e-001 -7.186021e-001 -1.809825e-001 -1.959024e-001 -5.109619e-001 -1.143915e-001 -3.909812e-001 -2.794788e-001 -3.354229e-001 -2.073622e-001 1.430786e+000 4.593061e-002 7.467582e-003 7.200560e-002 -4.145534e-002 -7.058256e-002 1.992556e-003 -7.714751e-002 -1.514695e-001 -1.222867e-001 -3.590527e-002 -2.628507e-002 -6.239414e-002 2.548848e-002
<VARIANCE> 39
 2.301208e+001 4.646210e+001 5.103076e+001 8.313010e+001 5.222295e+001 5.838372e+001 6.716483e+001 5.508770e+001 5.224218e+001 4.557309e+001 5.111243e+001 4.174909e+001 1.498759e+002 1.953528e+000 3.481870e+000 3.118041e+000 5.584474e+000 4.031315e+000 4.422589e+000 5.078490e+000 4.306264e+000 4.285518e+000 3.703685e+000 4.148825e+000 3.286210e+000 9.715888e+000 3.460806e-001 5.551696e-001 4.644982e-001 9.041489e-001 6.555864e-001 7.753127e-001 8.829878e-001 7.742056e-001 7.425881e-001 6.594099e-001 7.614075e-001 6.122946e-001 1.647508e+000
<GCONST> 1.375332e+002
<TRANSP> 5
 0.000000e+000 1.000000e+000 0.000000e+000 0.000000e+000 0.000000e+000
 0.000000e+000 5.942910e-001 4.057090e-001 0.000000e+000 0.000000e+000
 0.000000e+000 0.000000e+000 5.976151e-001 4.023850e-001 0.000000e+000
 0.000000e+000 0.000000e+000 0.000000e+000 6.591801e-001 3.408199e-001
 0.000000e+000 0.000000e+000 0.000000e+000 0.000000e+000 0.000000e+000
<ENDHMM>
~h "U"
<BEGINHMM>
<NUMSTATES> 5
<STATE> 2
<MEAN> 39
 4.453745e-001 -4.177940e+000 -3.713689e+000 -1.738175e+001 -6.420194e+000 -4.301315e+000 -9.796768e+000 -5.994276e+000 -5.756531e+000 -3.323200e+000 -3.174143e+000 -4.974912e+000 6.922334e+001 5.020509e-001 5.663046e-001 -2.787611e-001 -5.466354e-001 -1.586468e-001 2.505600e-001 -3.674226e-001 -2.741620e-001 -2.350148e-001 -4.481334e-003 5.473336e-002 5.009083e-002 -2.726197e-001 -1.411371e-001 -8.540030e-003 1.546528e-001 1.943082e-001 -3.734811e-002 -6.227790e-003 1.848314e-001 3.284593e-002 3.798204e-004 -6.101176e-002 6.724610e-003 2.391760e-002 -1.362823e-001
<VARIANCE> 39
 3.131322e+001 6.424406e+001 1.048918e+002 1.266646e+002 9.019897e+001 1.081269e+002 8.888316e+001 7.339040e+001 6.630542e+001 7.177792e+001 7.948180e+001 5.818179e+001 4.655534e+001 1.595168e+000 2.631788e+000 4.069403e+000 6.698713e+000 5.932607e+000 5.541669e+000 5.481410e+000 4.967567e+000 4.946768e+000 4.551942e+000 4.483291e+000 3.615268e+000 2.849031e+000 2.551787e-001 3.915703e-001 5.589333e-001 9.170430e-001 8.926387e-001 9.311945e-001 9.989944e-001 9.109013e-001 9.102071e-001 8.330529e-001 8.146223e-001 6.599419e-001 3.090922e-001
<GCONST> 1.406559e+002
<STATE> 3
<MEAN> 39
 1.100654e+000 -2.929272e+000 -3.786611e+000 -1.775714e+001 -6.869682e+000 -3.929836e+000 -9.997299e+000 -6.401784e+000 -6.213121e+000 -3.591768e+000 -3.156371e+000 -4.747927e+000 6.813590e+001 9.841523e-002 3.748306e-001 1.613929e-001 1.276886e-001 -1.380128e-001 7.293805e-002 7.436042e-002 -9.761512e-002 -9.349737e-002 -1.421753e-001 -8.758816e-003 7.892923e-002 -4.961000e-001 -1.809985e-001 -8.158151e-002 1.538224e-001 2.573037e-001 3.574674e-002 -5.405365e-002 1.834852e-001 7.781849e-002 7.978273e-002 -5.219748e-002 -2.317815e-002 1.131921e-002 -8.899849e-002
<VARIANCE> 39
 3.051032e+001 6.098746e+001 9.960002e+001 1.300606e+002 8.601629e+001 1.002803e+002 8.443310e+001 7.229414e+001 6.756463e+001 6.879597e+001 7.717272e+001 5.595309e+001 4.606100e+001 1.636671e+000 2.581255e+000 3.796790e+000 7.331432e+000 5.458468e+000 5.425195e+000 5.346818e+000 4.877852e+000 4.947822e+000 4.663527e+000 4.536644e+000 3.546756e+000 2.725958e+000 2.327652e-001 3.760055e-001 5.800189e-001 9.499964e-001 9.037880e-001 9.137953e-001 9.490976e-001 9.016168e-001 9.132360e-001 8.542962e-001 8.106845e-001 6.532192e-001 2.985227e-001
<GCONST> 1.399637e+002
<STATE> 4
<MEAN> 39
 9.616647e-001 -1.505216e+000 -3.220914e+000 -1.695665e+001 -7.069519e+000 -3.161844e+000 -9.222080e+000 -5.801960e+000 -6.131880e+000 -4.260588e+000 -3.191767e+000 -4.429630e+000 6.583283e+001 -2.982312e-001 7.063372e-002 4.100539e-001 7.397265e-001 1.112791e-001 -1.023714e-001 3.481190e-001 1.172888e-002 1.900880e-001 -1.076675e-001 -4.360702e-002 8.006885e-002 -6.106718e-001 -1.166795e-001 -9.076145e-002 3.669178e-002 1.157832e-001 5.867692e-002 -3.341901e-002 7.961034e-002 4.354237e-002 6.805840e-002 4.405346e-003 -1.558855e-003 7.014624e-004 9.714833e-003
<VARIANCE> 39
 3.033661e+001 5.899763e+001 9.203111e+001 1.409318e+002 8.519565e+001 8.689019e+001 8.206384e+001 7.048065e+001 6.829948e+001 6.249942e+001 6.959423e+001 5.240080e+001 6.052542e+001 1.363383e+000 2.187578e+000 3.010430e+000 5.907392e+000 4.397032e+000 4.206469e+000 4.265599e+000 4.187041e+000 4.185732e+000 4.017577e+000 3.898524e+000 3.079165e+000 2.261686e+000 2.037086e-001 3.262030e-001 4.806466e-001 8.498222e-001 7.334099e-001 7.365879e-001 7.687589e-001 7.617959e-001 7.634240e-001 7.164319e-001 6.927513e-001 5.625601e-001 2.940636e-001
<GCONST> 1.352413e+002
<TRANSP> 5
 0.000000e+000 1.000000e+000 0.000000e+000 0.000000e+000 0.000000e+000
 0.000000e+000 5.397378e-001 4.602622e-001 0.000000e+000 0.000000e+000
 0.000000e+000 0.000000e+000 5.441564e-001 4.558436e-001 0.000000e+000
 0.000000e+000 0.000000e+000 0.000000e+000 6.389309e-001 3.610691e-001
 0.000000e+000 0.000000e+000 0.000000e+000 0.000000e+000 0.000000e+000
<ENDHMM>
~h "V"
<BEGINHMM>
<NUMSTATES> 5
<STATE> 2
<MEAN> 39
 -1.333901e+000 -4.158715e+000 -2.267507e+000 -1.073574e+001 -4.153336e+000 -4.649966e+000 -7.015868e+000 -6.999932e+000 -5.122730e+000 -4.507049e+000 -4.316339e+000 -5.428702e+000 6.428406e+001 1.459623e-001 -5.151959e-003 -1.958761e-001 -4.774679e-002 1.428550e-001 1.399203e-002 -1.240710e-001 -3.307729e-002 -1.044285e-001 -1.665689e-002 -4.740487e-003 -1.885219e-001 2.805525e-001 -1.848749e-002 -1.305924e-001 -1.378109e-002 -1.138734e-001 -2.904915e-002 -2.136113e-002 1.072941e-002 6.568628e-002 1.349440e-002 7.515009e-003 -1.584254e-002 -8.314937e-004 1.868240e-001
<VARIANCE> 39
 3.342287e+001 5.750090e+001 6.718913e+001 1.053864e+002 5.770763e+001 6.368996e+001 6.280643e+001 6.987089e+001 5.634946e+001 5.588075e+001 6.179599e+001 4.627683e+001 8.047593e+001 1.849075e+000 3.240617e+000 2.698483e+000 5.910293e+000 3.118218e+000 3.024477e+000 3.930520e+000 4.366954e+000 3.952034e+000 3.885907e+000 3.740422e+000 3.023431e+000 4.137033e+000 3.487599e-001 4.251113e-001 4.047505e-001 9.364676e-001 5.113876e-001 5.328339e-001 6.812569e-001 7.255397e-001 6.999291e-001 7.268305e-001 6.866596e-001 5.443749e-001 4.752377e-001
<GCONST> 1.340370e+002
<STATE> 3
<MEAN> 39
 -9.194461e-001 -4.674280e+000 -2.917402e+000 -1.151059e+001 -3.983484e+000 -4.655952e+000 -7.354400e+000 -6.872160e+000 -5.252080e+000 -4.436631e+000 -4.423868e+000 -5.909976e+000 6.569120e+001 6.156089e-002 -4.265135e-001 -2.628583e-001 -3.819792e-001 5.577529e-002 -1.102922e-002 -3.448735e-002 2.197938e-001 1.090054e-002 1.719702e-002 -9.418229e-002 -1.846368e-001 7.212678e-001 -6.115645e-002 -1.401162e-001 2.154045e-002 -8.022214e-002 -3.976322e-002 -2.139241e-002 4.698356e-002 8.486179e-002 2.921885e-002 -2.368542e-003 -2.196165e-002 3.101283e-002 1.319601e-001
<VARIANCE> 39
 3.121650e+001 6.181219e+001 6.837124e+001 1.068911e+002 5.620340e+001 6.383009e+001 6.068489e+001 6.864828e+001 5.390232e+001 5.646390e+001 6.390102e+001 4.655077e+001 7.456253e+001 1.905432e+000 3.697300e+000 2.778630e+000 6.559475e+000 3.091132e+000 3.023807e+000 4.052761e+000 4.503680e+000 3.976077e+000 4.109609e+000 4.023296e+000 3.214451e+000 4.568984e+000 3.450643e-001 4.685490e-001 4.148444e-001 1.021956e+000 5.096198e-001 5.224720e-001 6.899232e-001 7.433543e-001 7.112699e-001 7.717144e-001 7.306980e-001 5.727018e-001 5.214005e-001
<GCONST> 1.350629e+002
<STATE> 4
<MEAN> 39
 -1.098680e+000 -5.816568e+000 -3.631330e+000 -1.261934e+001 -4.051445e+000 -4.172123e+000 -7.044780e+000 -5.768318e+000 -5.013202e+000 -4.368041e+000 -4.686615e+000 -6.070805e+000 6.720876e+001 -9.770685e-002 -4.893445e-001 -9.161304e-002 -3.088919e-001 -2.158591e-002 -9.226615e-002 6.526793e-002 2.657867e-001 6.567635e-002 -2.388721e-005 -7.834389e-002 -6.231205e-002 6.806934e-001 -2.694527e-002 -4.412904e-002 5.846739e-002 -1.951711e-002 -5.673344e-002 -5.137938e-002 1.018572e-002 1.753418e-002 7.917844e-003 1.574354e-002 1.573085e-002 4.288775e-002 3.804194e-002
<VARIANCE> 39
 3.005061e+001 7.234363e+001 6.902032e+001 1.156338e+002 6.261419e+001 6.576696e+001 6.340170e+001 7.317498e+001 5.756613e+001 5.625380e+001 6.445525e+001 4.880986e+001 8.578671e+001 1.367598e+000 3.046585e+000 2.239956e+000 5.110950e+000 2.750026e+000 2.636424e+000 3.478349e+000 3.725238e+000 3.367624e+000 3.637313e+000 3.484169e+000 2.847589e+000 3.527152e+000 2.583769e-001 4.073717e-001 3.386864e-001 8.406846e-001 4.491578e-001 4.494938e-001 5.921928e-001 6.484541e-001 6.185558e-001 6.597415e-001 6.393386e-001 5.124343e-001 4.454235e-001
<GCONST> 1.312831e+002
<TRANSP> 5
 0.000000e+000 1.000000e+000 0.000000e+000 0.000000e+000 0.000000e+000
 0.000000e+000 5.400930e-001 4.599070e-001 0.000000e+000 0.000000e+000
 0.000000e+000 0.000000e+000 5.426543e-001 4.573456e-001 0.000000e+000
 0.000000e+000 0.000000e+000 0.000000e+000 6.509259e-001 3.490741e-001
 0.000000e+000 0.000000e+000 0.000000e+000 0.000000e+000 0.000000e+000
<ENDHMM>
~h "X"
<BEGINHMM>
<NUMSTATES> 5
<STATE> 2
<MEAN> 39
 -1.220448e+001 2.967345e+000 -1.109663e+000 -4.564830e+000 -3.866018e+000 -7.189183e+000 -3.118422e+000 -3.223047e+000 -3.791309e+000 -3.452996e+000 -2.087569e+000 -2.446184e+000 6.576707e+001 -1.969441e+000 1.396741e+000 -4.851892e-001 1.233622e+000 8.664169e-001 4.144120e-001 8.209281e-001 7.776048e-001 5.666125e-001 2.438703e-001 6.433548e-001 3.163875e-001 -2.540733e-001 -4.631003e-002 -2.507679e-001 -7.990082e-002 -2.095694e-001 3.419185e-002 1.265183e-001 3.735517e-002 9.311469e-002 4.698889e-002 6.931164e-002 2.385733e-004 -2.367461e-002 1.287183e-001
<VARIANCE> 39
 1.021742e+002 7.316880e+001 7.300456e+001 8.905653e+001 7.505046e+001 6.608074e+001 6.959288e+001 7.292898e+001 5.331030e+001 5.233326e+001 5.540384e+001 3.763915e+001 3.935006e+001 7.722748e+000 6.657124e+000 3.798106e+000 7.320790e+000 5.387025e+000 5.972570e+000 5.508773e+000 4.928642e+000 4.191178e+000 4.511488e+000 4.248795e+000 3.475346e+000 2.269210e+000 1.437880e+000 9.249682e-001 6.172086e-001 1.024389e+000 9.432880e-001 1.054601e+000 9.611828e-001 8.902514e-001 7.858788e-001 8.373615e-001 7.521429e-001 6.224101e-001 2.642694e-001
<GCONST> 1.433130e+002
<STATE> 3
<MEAN> 39
 -1.682392e+001 4.079780e+000 -2.840837e+000 -3.375477e+000 -1.794332e+000 -5.911848e+000 -9.003542e-001 -2.741473e-001 -1.920801e+000 -2.412358e+000 -3.731773e-001 -1.139155e+000 6.630502e+001 3.290822e-001 -7.851559e-001 -2.296889e-001 -6.058279e-001 -1.170810e-001 -1.274904e-001 -8.869302e-002 3.720694e-001 5.423086e-002 -8.329899e-002 -9.934614e-002 1.340323e-001 6.175554e-001 4.455445e-001 -4.340359e-001 4.106355e-002 -3.643436e-001 -1.926898e-001 -7.800678e-002 -2.150754e-001 -1.398175e-001 -1.515351e-001 -9.713355e-002 -1.757733e-001 -1.159306e-001 1.764788e-001
<VARIANCE> 39
 9.103511e+001 6.998275e+001 6.021192e+001 8.178493e+001 6.301798e+001 5.640967e+001 5.849717e+001 5.314421e+001 3.950748e+001 3.871260e+001 3.995216e+001 3.097813e+001 3.474995e+001 1.317836e+001 7.233172e+000 3.401700e+000 7.969977e+000 5.602059e+000 6.216157e+000 6.109847e+000 4.426655e+000 4.019216e+000 4.255006e+000 4.592967e+000 3.457507e+000 2.751209e+000 1.534322e+000 7.677297e-001 5.690507e-001 9.849214e-001 8.675203e-001 1.080123e+000 9.208983e-001 7.457924e-001 6.628218e-001 7.429919e-001 7.436199e-001 6.385714e-001 3.216126e-001
<GCONST> 1.410364e+002
<STATE> 4
<MEAN> 39
 -1.330899e+001 1.205586e-001 -2.951591e+000 -6.116063e+000 -3.127528e+000 -6.776329e+000 -1.957748e+000 -7.036360e-002 -2.304897e+000 -3.037428e+000 -1.129778e+000 -8.569896e-001 6.825529e+001 1.512932e+000 -1.652379e+000 6.922591e-003 -1.471564e+000 -6.553429e-001 -4.369735e-001 -7.225750e-001 -2.100090e-001 -4.230292e-001 -4.273143e-001 -5.476493e-001 -3.140315e-001 1.050160e+000 -4.339954e-002 -3.460169e-002 -5.887028e-003 -6.783199e-002 3.443670e-002 9.796688e-002 -1.343418e-002 -1.102547e-001 -6.410907e-002 -1.324015e-003 7.798406e-003 -1.045866e-001 -2.315368e-002
<VARIANCE> 39
 1.020955e+002 9.657108e+001 6.114412e+001 1.065418e+002 6.896382e+001 6.201118e+001 7.138724e+001 5.020625e+001 4.388316e+001 3.991117e+001 4.641026e+001 3.601632e+001 5.177150e+001 7.486220e+000 4.968139e+000 2.994453e+000 6.224444e+000 4.872361e+000 5.498058e+000 5.404195e+000 4.002599e+000 3.640442e+000 3.615985e+000 4.232358e+000 3.497637e+000 2.568646e+000 1.422873e+000 7.709872e-001 4.652489e-001 9.963988e-001 7.953200e-001 1.000617e+000 8.946252e-001 6.470057e-001 5.992638e-001 6.537021e-001 7.512852e-001 6.103653e-001 4.185258e-001
<GCONST> 1.401168e+002
<TRANSP> 5
 0.000000e+000 1.000000e+000 0.000000e+000 0.000000e+000 0.000000e+000
 0.000000e+000 8.050275e-001 1.949725e-001 0.000000e+000 0.000000e+000
 0.000000e+000 0.000000e+000 8.081600e-001 1.918400e-001 0.000000e+000
 0.000000e+000 0.000000e+000 0.000000e+000 8.108746e-001 1.891254e-001
 0.000000e+000 0.000000e+000 0.000000e+000 0.000000e+000 0.000000e+000
<ENDHMM>
~h "Y"
<BEGINHMM>
<NUMSTATES> 5
<STATE> 2
<MEAN> 39
 -6.236847e+000 -1.013701e+001 5.784323e+000 -1.684674e+001 -1.352503e+001 -8.267011e+000 -2.331301e+000 -3.636019e+000 -7.139392e+000 -3.983709e+000 -4.709471e+000 -6.049381e+000 7.424246e+001 -2.169160e-001 8.942467e-001 1.074871e+000 -4.964598e-001 -9.260679e-001 -1.552009e-001 -3.445515e-001 -5.549100e-001 8.146770e-002 6.795744e-001 1.748724e-001 -7.595230e-003 -3.858861e-001 6.148924e-002 1.029378e-001 -5.952186e-002 1.497112e-001 2.349559e-001 3.986242e-002 -1.955771e-001 -1.170769e-001 1.735252e-002 -2.793412e-002 -8.593514e-003 7.870590e-002 -1.668723e-001
<VARIANCE> 39
 2.017093e+001 6.259477e+001 7.512260e+001 9.943909e+001 7.500109e+001 6.060539e+001 7.189587e+001 9.910683e+001 6.097211e+001 6.075747e+001 7.492142e+001 4.197365e+001 4.320597e+001 5.840482e-001 1.725469e+000 1.711759e+000 2.545431e+000 2.825374e+000 2.204782e+000 3.454818e+000 2.857746e+000 2.910573e+000 2.856568e+000 2.677276e+000 2.015227e+000 1.108908e+000 9.500524e-002 2.121522e-001 2.284068e-001 3.691421e-001 3.871983e-001 3.687426e-001 5.249178e-001 4.769084e-001 4.631274e-001 4.880162e-001 4.246107e-001 3.492627e-001 1.285938e-001
<GCONST> 1.194167e+002
<STATE> 3
<MEAN> 39
 -6.525908e+000 -7.470372e+000 8.292345e+000 -1.730166e+001 -1.486140e+001 -8.519604e+000 -4.022268e+000 -5.488165e+000 -6.979428e+000 -2.629551e+000 -4.337976e+000 -5.736433e+000 7.250350e+001 -4.929414e-002 8.744971e-001 7.216447e-001 5.338496e-002 -2.039891e-001 -4.455650e-002 -5.592490e-001 -6.020287e-001 4.378956e-002 3.436849e-001 8.876973e-002 1.645470e-001 -7.382783e-001 7.303887e-002 -1.844557e-002 -1.695284e-001 2.233570e-001 2.807928e-001 4.261999e-002 -3.055431e-002 1.921238e-002 -1.082399e-002 -1.358593e-001 -2.993722e-002 5.016996e-002 -1.362862e-001
<VARIANCE> 39
 1.950188e+001 5.878953e+001 7.373283e+001 1.079797e+002 7.088935e+001 5.661510e+001 6.750634e+001 9.089944e+001 5.811891e+001 5.973914e+001 8.012653e+001 4.334841e+001 5.032940e+001 6.501264e-001 1.555205e+000 1.884061e+000 2.946591e+000 2.894871e+000 2.192991e+000 3.241917e+000 2.765967e+000 2.722851e+000 2.765450e+000 2.465176e+000 1.999097e+000 1.253969e+000 1.049626e-001 2.045613e-001 2.329143e-001 4.015786e-001 3.858164e-001 3.502300e-001 5.197113e-001 4.562603e-001 4.528279e-001 4.602915e-001 4.144954e-001 3.473780e-001 1.513642e-001
<GCONST> 1.195090e+002
<STATE> 4
<MEAN> 39
 -6.864561e+000 -4.312683e+000 9.532704e+000 -1.424227e+001 -1.302183e+001 -6.889183e+000 -5.480354e+000 -6.260698e+000 -6.491858e+000 -2.296497e+000 -3.494973e+000 -4.684449e+000 6.697122e+001 7.225008e-002 4.492758e-001 -3.732738e-002 5.953180e-001 4.940398e-001 8.576972e-002 -1.333523e-001 -1.914857e-001 1.201680e-001 -3.978915e-002 4.156806e-002 1.928926e-001 -9.260171e-001 4.163096e-002 -5.741686e-002 -1.753437e-001 1.316935e-001 1.578164e-001 1.935274e-002 7.545367e-002 7.841152e-002 2.676088e-002 -6.603662e-002 -6.530267e-003 1.497950e-003 -4.215561e-002
<VARIANCE> 39
 1.858435e+001 5.347580e+001 7.659117e+001 1.245839e+002 7.885358e+001 5.447093e+001 6.316065e+001 7.370677e+001 5.856712e+001 5.095100e+001 7.382012e+001 4.523631e+001 9.780948e+001 7.596264e-001 1.661554e+000 2.054930e+000 2.848258e+000 2.633645e+000 2.125480e+000 3.122380e+000 2.735073e+000 2.565340e+000 2.485880e+000 2.386085e+000 1.969141e+000 1.456865e+000 1.249969e-001 2.143778e-001 2.520702e-001 4.426606e-001 4.109000e-001 3.565010e-001 4.844658e-001 4.427231e-001 4.434808e-001 4.319469e-001 4.020729e-001 3.415734e-001 2.080899e-001
<GCONST> 1.204135e+002
<TRANSP> 5
 0.000000e+000 1.000000e+000 0.000000e+000 0.000000e+000 0.000000e+000
 0.000000e+000 5.985842e-001 4.014158e-001 0.000000e+000 0.000000e+000
 0.000000e+000 0.000000e+000 6.031979e-001 3.968021e-001 0.000000e+000
 0.000000e+000 0.000000e+000 0.000000e+000 8.009282e-001 1.990718e-001
 0.000000e+000 0.000000e+000 0.000000e+000 0.000000e+000 0.000000e+000
<ENDHMM>
~h "AA"
<BEGINHMM>
<NUMSTATES> 5
<STATE> 2
<MEAN> 39
 -3.586628e+000 -1.198192e+001 -4.156645e+000 -1.558897e+001 -4.214993e+000 -6.812231e+000 -6.314827e+000 -2.915779e+000 -6.574479e+000 -7.165125e+000 -6.730521e+000 -6.247662e+000 7.373793e+001 1.189012e-001 -3.481054e-001 -3.359682e-001 -2.304433e-001 2.435586e-001 2.939036e-001 -1.998307e-001 -2.028556e-001 -1.853785e-001 -1.997278e-001 -4.063903e-002 -3.207995e-001 1.299050e-001 1.629062e-002 3.703719e-001 2.202801e-001 1.546354e-001 -1.271296e-001 -2.538156e-002 -3.700441e-002 -1.212378e-001 7.584502e-002 1.419415e-001 1.367490e-001 9.992748e-002 -3.348809e-001
<VARIANCE> 39
 2.371726e+001 7.637028e+001 8.281381e+001 8.754234e+001 9.408812e+001 7.863506e+001 8.064610e+001 9.090960e+001 6.918769e+001 6.762553e+001 7.430188e+001 6.836901e+001 5.430733e+001 1.172405e+000 3.871937e+000 2.969687e+000 4.041576e+000 4.652061e+000 3.264484e+000 4.109446e+000 4.633649e+000 3.453485e+000 3.694161e+000 3.563798e+000 3.350688e+000 2.910913e+000 2.010182e-001 5.652821e-001 4.375807e-001 7.289138e-001 7.774394e-001 5.690481e-001 7.385917e-001 7.994447e-001 6.794147e-001 6.988803e-001 6.557441e-001 6.076473e-001 3.978111e-001
<GCONST> 1.353682e+002
<STATE> 3
<MEAN> 39
 -3.171223e+000 -1.191631e+001 -4.422957e+000 -1.588019e+001 -4.107590e+000 -6.441576e+000 -6.816938e+000 -3.331515e+000 -6.700625e+000 -7.233704e+000 -6.590526e+000 -6.602185e+000 7.342324e+001 2.285961e-001 3.092018e-001 7.877932e-002 -7.510675e-002 -1.507165e-001 1.687195e-001 -2.407563e-001 -3.863818e-001 -1.200323e-001 4.047479e-002 9.488475e-002 -1.140557e-001 -3.710217e-001 3.081309e-002 3.019183e-001 2.071173e-001 7.714061e-002 -1.698800e-001 -5.170739e-002 -1.996331e-002 -1.155204e-001 2.334563e-002 9.882046e-002 4.938681e-002 1.002387e-001 -2.287224e-001
<VARIANCE> 39
 2.435592e+001 7.153476e+001 8.362935e+001 8.826084e+001 9.740096e+001 8.384465e+001 8.258440e+001 9.019370e+001 6.754987e+001 6.743267e+001 7.556770e+001 6.667773e+001 5.154784e+001 9.275814e-001 3.427165e+000 2.763663e+000 3.438613e+000 4.206761e+000 2.934078e+000 3.590643e+000 4.272428e+000 3.139661e+000 3.407725e+000 3.129440e+000 3.063260e+000 2.499872e+000 1.430149e-001 4.348185e-001 3.826914e-001 5.764325e-001 6.735869e-001 5.140138e-001 6.445436e-001 7.112734e-001 5.989736e-001 6.341425e-001 5.609330e-001 5.530908e-001 2.864117e-001
<GCONST> 1.315420e+002
<STATE> 4
<MEAN> 39
 -2.580486e+000 -1.070058e+001 -4.108929e+000 -1.613074e+001 -4.453941e+000 -5.626912e+000 -7.492477e+000 -4.071215e+000 -7.173860e+000 -6.909982e+000 -6.269679e+000 -6.366202e+000 7.193627e+001 2.607131e-001 8.253928e-001 4.294711e-001 -2.319081e-002 -4.823217e-001 3.219864e-002 -2.224865e-001 -5.672793e-001 -8.963388e-002 1.554352e-001 1.045579e-001 5.054903e-002 -7.139069e-001 -1.872589e-003 1.465694e-001 1.413861e-001 5.013048e-002 -9.470146e-002 -5.156041e-002 1.304254e-003 -7.636119e-002 1.565696e-002 3.551286e-002 -1.045592e-002 7.002934e-002 -1.036822e-001
<VARIANCE> 39
 2.556250e+001 7.120953e+001 8.591032e+001 9.677074e+001 9.622823e+001 8.625241e+001 8.387070e+001 8.980885e+001 6.701353e+001 6.360768e+001 7.495333e+001 6.279932e+001 5.895828e+001 6.762753e-001 2.248198e+000 2.218004e+000 2.961881e+000 3.237815e+000 2.578156e+000 2.956836e+000 3.642661e+000 2.846313e+000 2.961635e+000 2.682737e+000 2.653978e+000 1.591552e+000 1.022937e-001 3.113019e-001 3.014826e-001 4.463023e-001 5.201355e-001 4.378960e-001 5.192626e-001 5.975277e-001 5.062333e-001 5.219090e-001 4.562218e-001 4.632584e-001 2.049884e-001
<GCONST> 1.258389e+002
<TRANSP> 5
 0.000000e+000 1.000000e+000 0.000000e+000 0.000000e+000 0.000000e+000
 0.000000e+000 4.953802e-001 5.046198e-001 0.000000e+000 0.000000e+000
 0.000000e+000 0.000000e+000 4.961696e-001 5.038304e-001 0.000000e+000
 0.000000e+000 0.000000e+000 0.000000e+000 5.972344e-001 4.027656e-001
 0.000000e+000 0.000000e+000 0.000000e+000 0.000000e+000 0.000000e+000
<ENDHMM>
~h "AF"
<BEGINHMM>
<NUMSTATES> 5
<STATE> 2
<MEAN> 39
 -3.377735e+000 -1.542930e+001 -2.942096e+000 -1.316340e+001 -3.485409e+000 -4.773617e+000 -2.766913e+000 -3.278975e+000 -7.585527e+000 -8.549772e+000 -6.214229e+000 -6.643024e+000 7.509423e+001 -1.626128e-001 -7.875482e-001 -5.884644e-002 2.003236e-001 2.612553e-001 2.842631e-001 4.336382e-001 7.651832e-002 -2.575922e-001 -2.828767e-001 7.008436e-002 -1.022376e-001 4.981436e-001 6.216829e-002 3.009736e-001 1.525345e-001 6.768913e-002 -8.040077e-002 -9.769186e-002 -1.288016e-001 -9.231834e-002 8.602762e-002 1.410466e-001 6.075522e-002 4.305175e-002 -2.605933e-001
<VARIANCE> 39
 2.622963e+001 6.367723e+001 6.939788e+001 7.778591e+001 7.323210e+001 6.858527e+001 6.959299e+001 9.129611e+001 7.098425e+001 6.189048e+001 5.507787e+001 4.732833e+001 4.358310e+001 7.929521e-001 2.814470e+000 1.803173e+000 2.658082e+000 2.325727e+000 2.636903e+000 2.840699e+000 3.335409e+000 2.669940e+000 2.728886e+000 2.620807e+000 2.173464e+000 1.881679e+000 1.281557e-001 3.470907e-001 2.679741e-001 4.684313e-001 3.547896e-001 4.396550e-001 4.824694e-001 6.055161e-001 4.836837e-001 4.696213e-001 4.689813e-001 3.730068e-001 2.275085e-001
<GCONST> 1.228062e+002
<STATE> 3
<MEAN> 39
 -3.464568e+000 -1.642359e+001 -2.643509e+000 -1.261068e+001 -3.151429e+000 -4.446737e+000 -2.155972e+000 -3.300996e+000 -7.864929e+000 -8.748731e+000 -5.965860e+000 -6.782568e+000 7.553152e+001 3.271226e-002 -4.947786e-002 2.316479e-001 1.802575e-001 -2.727922e-002 5.050707e-002 1.557143e-001 -2.041874e-002 -2.046108e-002 6.140355e-002 5.860843e-002 -6.031743e-002 -5.537377e-002 7.747474e-002 2.969369e-001 1.152665e-001 -1.784962e-002 -1.173013e-001 -9.327091e-002 -1.137956e-001 -4.246500e-002 8.979394e-002 1.368614e-001 -9.907218e-003 1.966839e-002 -2.200843e-001
<VARIANCE> 39
 2.524781e+001 6.151637e+001 6.790688e+001 7.581197e+001 7.338053e+001 6.565832e+001 6.665121e+001 9.002491e+001 6.983583e+001 6.010918e+001 5.184801e+001 4.387334e+001 4.081765e+001 6.622134e-001 2.405260e+000 1.495491e+000 2.147041e+000 2.098698e+000 2.110699e+000 2.326525e+000 2.573063e+000 2.159902e+000 2.235603e+000 2.136724e+000 1.783532e+000 1.512573e+000 9.637089e-002 2.685102e-001 2.158765e-001 3.683233e-001 2.976148e-001 3.475481e-001 3.839115e-001 4.819846e-001 3.859821e-001 3.919803e-001 3.737511e-001 3.069478e-001 1.697905e-001
<GCONST> 1.167993e+002
<STATE> 4
<MEAN> 39
 -3.328465e+000 -1.614173e+001 -1.306689e+000 -1.164797e+001 -3.123229e+000 -3.485298e+000 -2.081264e+000 -2.884848e+000 -7.858324e+000 -7.691783e+000 -5.995617e+000 -6.629710e+000 7.414726e+001 1.991091e-001 6.342999e-001 3.302896e-001 -1.545067e-002 -2.754362e-001 -1.565135e-001 -5.327383e-002 -1.337514e-002 2.141808e-001 2.930167e-001 -6.133502e-002 -3.851824e-002 -5.308024e-001 4.057585e-002 2.007828e-001 6.061051e-002 2.970026e-003 -5.977925e-002 -5.785517e-002 -8.360506e-002 -4.697592e-002 5.285463e-002 7.734657e-002 1.013707e-003 2.749754e-002 -1.509171e-001
<VARIANCE> 39
 2.512300e+001 6.896566e+001 6.701971e+001 7.990031e+001 7.438676e+001 6.284600e+001 6.427444e+001 8.497265e+001 7.251645e+001 5.639052e+001 5.123645e+001 4.126768e+001 5.844246e+001 5.515871e-001 1.856478e+000 1.337473e+000 2.053711e+000 1.898031e+000 1.889200e+000 2.052494e+000 2.216155e+000 1.895636e+000 2.015008e+000 1.914917e+000 1.584033e+000 1.134240e+000 8.013655e-002 2.137839e-001 1.788175e-001 3.259921e-001 2.645571e-001 2.959610e-001 3.297243e-001 3.893586e-001 3.245649e-001 3.356375e-001 3.125237e-001 2.655792e-001 1.438626e-001
<GCONST> 1.130644e+002
<TRANSP> 5
 0.000000e+000 1.000000e+000 0.000000e+000 0.000000e+000 0.000000e+000
 0.000000e+000 5.996444e-001 4.003556e-001 0.000000e+000 0.000000e+000
 0.000000e+000 0.000000e+000 6.052634e-001 3.947366e-001 0.000000e+000
 0.000000e+000 0.000000e+000 0.000000e+000 8.191868e-001 1.808132e-001
 0.000000e+000 0.000000e+000 0.000000e+000 0.000000e+000 0.000000e+000
<ENDHMM>
~h "AJ"
<BEGINHMM>
<NUMSTATES> 5
<STATE> 2
<MEAN> 39
 -3.690121e+000 -1.546344e+001 -2.064888e+000 -1.173196e+001 -2.501588e+000 -4.535190e+000 -3.119884e-001 -2.131940e+000 -5.748205e+000 -7.650344e+000 -4.941085e+000 -5.390146e+000 7.345533e+001 -2.035155e-001 -7.233249e-001 1.053198e-001 9.366100e-002 5.775379e-002 1.490012e-001 7.037278e-001 1.090737e-001 -2.266100e-001 -2.433898e-001 8.410210e-002 8.304697e-002 3.439546e-001 -1.585500e-004 3.279463e-001 1.643571e-001 9.737544e-002 -8.082153e-002 -4.387013e-002 -1.220706e-001 -1.260291e-001 5.350224e-002 1.419972e-001 7.826991e-002 2.764356e-002 -3.223519e-001
<VARIANCE> 39
 2.483056e+001 7.965536e+001 6.334376e+001 7.900033e+001 7.397359e+001 6.108839e+001 7.130369e+001 9.263321e+001 6.760744e+001 5.748794e+001 4.926697e+001 4.266800e+001 7.135630e+001 1.279533e+000 4.938934e+000 2.597155e+000 4.059625e+000 3.525372e+000 3.621404e+000 4.052488e+000 4.665980e+000 3.780803e+000 3.801694e+000 3.159240e+000 2.621368e+000 4.572892e+000 2.308373e-001 5.897200e-001 3.869027e-001 6.900157e-001 5.201665e-001 5.938299e-001 6.855404e-001 8.057377e-001 6.774593e-001 6.635522e-001 5.783734e-001 4.801708e-001 5.342039e-001
<GCONST> 1.333747e+002
<STATE> 3
<MEAN> 39
